{"learner":{"attributes":{"scikit_learn":"{\"_estimator_type\": \"classifier\"}"},"feature_names":[],"feature_types":[],"gradient_booster":{"model":{"cats":{"enc":[],"feature_segments":[],"sorted_idx":[]},"gbtree_model_param":{"num_parallel_tree":"1","num_trees":"3000"},"iteration_indptr":[0,3,6,9,12,15,18,21,24,27,30,33,36,39,42,45,48,51,54,57,60,63,66,69,72,75,78,81,84,87,90,93,96,99,102,105,108,111,114,117,120,123,126,129,132,135,138,141,144,147,150,153,156,159,162,165,168,171,174,177,180,183,186,189,192,195,198,201,204,207,210,213,216,219,222,225,228,231,234,237,240,243,246,249,252,255,258,261,264,267,270,273,276,279,282,285,288,291,294,297,300,303,306,309,312,315,318,321,324,327,330,333,336,339,342,345,348,351,354,357,360,363,366,369,372,375,378,381,384,387,390,393,396,399,402,405,408,411,414,417,420,423,426,429,432,435,438,441,444,447,450,453,456,459,462,465,468,471,474,477,480,483,486,489,492,495,498,501,504,507,510,513,516,519,522,525,528,531,534,537,540,543,546,549,552,555,558,561,564,567,570,573,576,579,582,585,588,591,594,597,600,603,606,609,612,615,618,621,624,627,630,633,636,639,642,645,648,651,654,657,660,663,666,669,672,675,678,681,684,687,690,693,696,699,702,705,708,711,714,717,720,723,726,729,732,735,738,741,744,747,750,753,756,759,762,765,768,771,774,777,780,783,786,789,792,795,798,801,804,807,810,813,816,819,822,825,828,831,834,837,840,843,846,849,852,855,858,861,864,867,870,873,876,879,882,885,888,891,894,897,900,903,906,909,912,915,918,921,924,927,930,933,936,939,942,945,948,951,954,957,960,963,966,969,972,975,978,981,984,987,990,993,996,999,1002,1005,1008,1011,1014,1017,1020,1023,1026,1029,1032,1035,1038,1041,1044,1047,1050,1053,1056,1059,1062,1065,1068,1071,1074,1077,1080,1083,1086,1089,1092,1095,1098,1101,1104,1107,1110,1113,1116,1119,1122,1125,1128,1131,1134,1137,1140,1143,1146,1149,1152,1155,1158,1161,1164,1167,1170,1173,1176,1179,1182,1185,1188,1191,1194,1197,1200,1203,1206,1209,1212,1215,1218,1221,1224,1227,1230,1233,1236,1239,1242,1245,1248,1251,1254,1257,1260,1263,1266,1269,1272,1275,1278,1281,1284,1287,1290,1293,1296,1299,1302,1305,1308,1311,1314,1317,1320,1323,1326,1329,1332,1335,1338,1341,1344,1347,1350,1353,1356,1359,1362,1365,1368,1371,1374,1377,1380,1383,1386,1389,1392,1395,1398,1401,1404,1407,1410,1413,1416,1419,1422,1425,1428,1431,1434,1437,1440,1443,1446,1449,1452,1455,1458,1461,1464,1467,1470,1473,1476,1479,1482,1485,1488,1491,1494,1497,1500,1503,1506,1509,1512,1515,1518,1521,1524,1527,1530,1533,1536,1539,1542,1545,1548,1551,1554,1557,1560,1563,1566,1569,1572,1575,1578,1581,1584,1587,1590,1593,1596,1599,1602,1605,1608,1611,1614,1617,1620,1623,1626,1629,1632,1635,1638,1641,1644,1647,1650,1653,1656,1659,1662,1665,1668,1671,1674,1677,1680,1683,1686,1689,1692,1695,1698,1701,1704,1707,1710,1713,1716,1719,1722,1725,1728,1731,1734,1737,1740,1743,1746,1749,1752,1755,1758,1761,1764,1767,1770,1773,1776,1779,1782,1785,1788,1791,1794,1797,1800,1803,1806,1809,1812,1815,1818,1821,1824,1827,1830,1833,1836,1839,1842,1845,1848,1851,1854,1857,1860,1863,1866,1869,1872,1875,1878,1881,1884,1887,1890,1893,1896,1899,1902,1905,1908,1911,1914,1917,1920,1923,1926,1929,1932,1935,1938,1941,1944,1947,1950,1953,1956,1959,1962,1965,1968,1971,1974,1977,1980,1983,1986,1989,1992,1995,1998,2001,2004,2007,2010,2013,2016,2019,2022,2025,2028,2031,2034,2037,2040,2043,2046,2049,2052,2055,2058,2061,2064,2067,2070,2073,2076,2079,2082,2085,2088,2091,2094,2097,2100,2103,2106,2109,2112,2115,2118,2121,2124,2127,2130,2133,2136,2139,2142,2145,2148,2151,2154,2157,2160,2163,2166,2169,2172,2175,2178,2181,2184,2187,2190,2193,2196,2199,2202,2205,2208,2211,2214,2217,2220,2223,2226,2229,2232,2235,2238,2241,2244,2247,2250,2253,2256,2259,2262,2265,2268,2271,2274,2277,2280,2283,2286,2289,2292,2295,2298,2301,2304,2307,2310,2313,2316,2319,2322,2325,2328,2331,2334,2337,2340,2343,2346,2349,2352,2355,2358,2361,2364,2367,2370,2373,2376,2379,2382,2385,2388,2391,2394,2397,2400,2403,2406,2409,2412,2415,2418,2421,2424,2427,2430,2433,2436,2439,2442,2445,2448,2451,2454,2457,2460,2463,2466,2469,2472,2475,2478,2481,2484,2487,2490,2493,2496,2499,2502,2505,2508,2511,2514,2517,2520,2523,2526,2529,2532,2535,2538,2541,2544,2547,2550,2553,2556,2559,2562,2565,2568,2571,2574,2577,2580,2583,2586,2589,2592,2595,2598,2601,2604,2607,2610,2613,2616,2619,2622,2625,2628,2631,2634,2637,2640,2643,2646,2649,2652,2655,2658,2661,2664,2667,2670,2673,2676,2679,2682,2685,2688,2691,2694,2697,2700,2703,2706,2709,2712,2715,2718,2721,2724,2727,2730,2733,2736,2739,2742,2745,2748,2751,2754,2757,2760,2763,2766,2769,2772,2775,2778,2781,2784,2787,2790,2793,2796,2799,2802,2805,2808,2811,2814,2817,2820,2823,2826,2829,2832,2835,2838,2841,2844,2847,2850,2853,2856,2859,2862,2865,2868,2871,2874,2877,2880,2883,2886,2889,2892,2895,2898,2901,2904,2907,2910,2913,2916,2919,2922,2925,2928,2931,2934,2937,2940,2943,2946,2949,2952,2955,2958,2961,2964,2967,2970,2973,2976,2979,2982,2985,2988,2991,2994,2997,3000],"tree_info":[0,1,2,0,1,2,0,1,2,0,1,2,0,1,2,0,1,2,0,1,2,0,1,2,0,1,2,0,1,2,0,1,2,0,1,2,0,1,2,0,1,2,0,1,2,0,1,2,0,1,2,0,1,2,0,1,2,0,1,2,0,1,2,0,1,2,0,1,2,0,1,2,0,1,2,0,1,2,0,1,2,0,1,2,0,1,2,0,1,2,0,1,2,0,1,2,0,1,2,0,1,2,0,1,2,0,1,2,0,1,2,0,1,2,0,1,2,0,1,2,0,1,2,0,1,2,0,1,2,0,1,2,0,1,2,0,1,2,0,1,2,0,1,2,0,1,2,0,1,2,0,1,2,0,1,2,0,1,2,0,1,2,0,1,2,0,1,2,0,1,2,0,1,2,0,1,2,0,1,2,0,1,2,0,1,2,0,1,2,0,1,2,0,1,2,0,1,2,0,1,2,0,1,2,0,1,2,0,1,2,0,1,2,0,1,2,0,1,2,0,1,2,0,1,2,0,1,2,0,1,2,0,1,2,0,1,2,0,1,2,0,1,2,0,1,2,0,1,2,0,1,2,0,1,2,0,1,2,0,1,2,0,1,2,0,1,2,0,1,2,0,1,2,0,1,2,0,1,2,0,1,2,0,1,2,0,1,2,0,1,2,0,1,2,0,1,2,0,1,2,0,1,2,0,1,2,0,1,2,0,1,2,0,1,2,0,1,2,0,1,2,0,1,2,0,1,2,0,1,2,0,1,2,0,1,2,0,1,2,0,1,2,0,1,2,0,1,2,0,1,2,0,1,2,0,1,2,0,1,2,0,1,2,0,1,2,0,1,2,0,1,2,0,1,2,0,1,2,0,1,2,0,1,2,0,1,2,0,1,2,0,1,2,0,1,2,0,1,2,0,1,2,0,1,2,0,1,2,0,1,2,0,1,2,0,1,2,0,1,2,0,1,2,0,1,2,0,1,2,0,1,2,0,1,2,0,1,2,0,1,2,0,1,2,0,1,2,0,1,2,0,1,2,0,1,2,0,1,2,0,1,2,0,1,2,0,1,2,0,1,2,0,1,2,0,1,2,0,1,2,0,1,2,0,1,2,0,1,2,0,1,2,0,1,2,0,1,2,0,1,2,0,1,2,0,1,2,0,1,2,0,1,2,0,1,2,0,1,2,0,1,2,0,1,2,0,1,2,0,1,2,0,1,2,0,1,2,0,1,2,0,1,2,0,1,2,0,1,2,0,1,2,0,1,2,0,1,2,0,1,2,0,1,2,0,1,2,0,1,2,0,1,2,0,1,2,0,1,2,0,1,2,0,1,2,0,1,2,0,1,2,0,1,2,0,1,2,0,1,2,0,1,2,0,1,2,0,1,2,0,1,2,0,1,2,0,1,2,0,1,2,0,1,2,0,1,2,0,1,2,0,1,2,0,1,2,0,1,2,0,1,2,0,1,2,0,1,2,0,1,2,0,1,2,0,1,2,0,1,2,0,1,2,0,1,2,0,1,2,0,1,2,0,1,2,0,1,2,0,1,2,0,1,2,0,1,2,0,1,2,0,1,2,0,1,2,0,1,2,0,1,2,0,1,2,0,1,2,0,1,2,0,1,2,0,1,2,0,1,2,0,1,2,0,1,2,0,1,2,0,1,2,0,1,2,0,1,2,0,1,2,0,1,2,0,1,2,0,1,2,0,1,2,0,1,2,0,1,2,0,1,2,0,1,2,0,1,2,0,1,2,0,1,2,0,1,2,0,1,2,0,1,2,0,1,2,0,1,2,0,1,2,0,1,2,0,1,2,0,1,2,0,1,2,0,1,2,0,1,2,0,1,2,0,1,2,0,1,2,0,1,2,0,1,2,0,1,2,0,1,2,0,1,2,0,1,2,0,1,2,0,1,2,0,1,2,0,1,2,0,1,2,0,1,2,0,1,2,0,1,2,0,1,2,0,1,2,0,1,2,0,1,2,0,1,2,0,1,2,0,1,2,0,1,2,0,1,2,0,1,2,0,1,2,0,1,2,0,1,2,0,1,2,0,1,2,0,1,2,0,1,2,0,1,2,0,1,2,0,1,2,0,1,2,0,1,2,0,1,2,0,1,2,0,1,2,0,1,2,0,1,2,0,1,2,0,1,2,0,1,2,0,1,2,0,1,2,0,1,2,0,1,2,0,1,2,0,1,2,0,1,2,0,1,2,0,1,2,0,1,2,0,1,2,0,1,2,0,1,2,0,1,2,0,1,2,0,1,2,0,1,2,0,1,2,0,1,2,0,1,2,0,1,2,0,1,2,0,1,2,0,1,2,0,1,2,0,1,2,0,1,2,0,1,2,0,1,2,0,1,2,0,1,2,0,1,2,0,1,2,0,1,2,0,1,2,0,1,2,0,1,2,0,1,2,0,1,2,0,1,2,0,1,2,0,1,2,0,1,2,0,1,2,0,1,2,0,1,2,0,1,2,0,1,2,0,1,2,0,1,2,0,1,2,0,1,2,0,1,2,0,1,2,0,1,2,0,1,2,0,1,2,0,1,2,0,1,2,0,1,2,0,1,2,0,1,2,0,1,2,0,1,2,0,1,2,0,1,2,0,1,2,0,1,2,0,1,2,0,1,2,0,1,2,0,1,2,0,1,2,0,1,2,0,1,2,0,1,2,0,1,2,0,1,2,0,1,2,0,1,2,0,1,2,0,1,2,0,1,2,0,1,2,0,1,2,0,1,2,0,1,2,0,1,2,0,1,2,0,1,2,0,1,2,0,1,2,0,1,2,0,1,2,0,1,2,0,1,2,0,1,2,0,1,2,0,1,2,0,1,2,0,1,2,0,1,2,0,1,2,0,1,2,0,1,2,0,1,2,0,1,2,0,1,2,0,1,2,0,1,2,0,1,2,0,1,2,0,1,2,0,1,2,0,1,2,0,1,2,0,1,2,0,1,2,0,1,2,0,1,2,0,1,2,0,1,2,0,1,2,0,1,2,0,1,2,0,1,2,0,1,2,0,1,2,0,1,2,0,1,2,0,1,2,0,1,2,0,1,2,0,1,2,0,1,2,0,1,2,0,1,2,0,1,2,0,1,2,0,1,2,0,1,2,0,1,2,0,1,2,0,1,2,0,1,2,0,1,2,0,1,2,0,1,2,0,1,2,0,1,2,0,1,2,0,1,2,0,1,2,0,1,2,0,1,2,0,1,2,0,1,2,0,1,2,0,1,2,0,1,2,0,1,2,0,1,2,0,1,2,0,1,2,0,1,2,0,1,2,0,1,2,0,1,2,0,1,2,0,1,2,0,1,2,0,1,2,0,1,2,0,1,2,0,1,2,0,1,2,0,1,2,0,1,2,0,1,2,0,1,2,0,1,2,0,1,2,0,1,2,0,1,2,0,1,2,0,1,2,0,1,2,0,1,2,0,1,2,0,1,2,0,1,2,0,1,2,0,1,2,0,1,2,0,1,2,0,1,2,0,1,2,0,1,2,0,1,2,0,1,2,0,1,2,0,1,2,0,1,2,0,1,2,0,1,2,0,1,2,0,1,2,0,1,2,0,1,2,0,1,2,0,1,2,0,1,2,0,1,2,0,1,2,0,1,2,0,1,2,0,1,2,0,1,2,0,1,2,0,1,2,0,1,2,0,1,2,0,1,2,0,1,2,0,1,2,0,1,2,0,1,2,0,1,2,0,1,2,0,1,2,0,1,2,0,1,2,0,1,2,0,1,2,0,1,2,0,1,2,0,1,2,0,1,2,0,1,2,0,1,2,0,1,2,0,1,2,0,1,2,0,1,2,0,1,2,0,1,2,0,1,2,0,1,2,0,1,2,0,1,2,0,1,2,0,1,2,0,1,2,0,1,2,0,1,2,0,1,2,0,1,2,0,1,2,0,1,2,0,1,2,0,1,2,0,1,2,0,1,2,0,1,2,0,1,2,0,1,2,0,1,2,0,1,2,0,1,2,0,1,2,0,1,2,0,1,2,0,1,2,0,1,2,0,1,2,0,1,2,0,1,2,0,1,2,0,1,2,0,1,2,0,1,2,0,1,2,0,1,2,0,1,2,0,1,2,0,1,2,0,1,2,0,1,2,0,1,2,0,1,2,0,1,2,0,1,2,0,1,2,0,1,2,0,1,2,0,1,2,0,1,2,0,1,2,0,1,2,0,1,2,0,1,2,0,1,2,0,1,2,0,1,2,0,1,2,0,1,2,0,1,2,0,1,2,0,1,2,0,1,2,0,1,2,0,1,2,0,1,2,0,1,2,0,1,2,0,1,2,0,1,2,0,1,2,0,1,2,0,1,2,0,1,2,0,1,2,0,1,2,0,1,2,0,1,2,0,1,2,0,1,2,0,1,2,0,1,2,0,1,2,0,1,2,0,1,2,0,1,2,0,1,2,0,1,2,0,1,2,0,1,2,0,1,2,0,1,2,0,1,2,0,1,2,0,1,2,0,1,2,0,1,2,0,1,2,0,1,2,0,1,2,0,1,2,0,1,2,0,1,2,0,1,2,0,1,2,0,1,2,0,1,2,0,1,2,0,1,2,0,1,2,0,1,2,0,1,2,0,1,2,0,1,2,0,1,2,0,1,2,0,1,2,0,1,2,0,1,2,0,1,2,0,1,2,0,1,2,0,1,2,0,1,2,0,1,2,0,1,2,0,1,2,0,1,2,0,1,2,0,1,2,0,1,2,0,1,2,0,1,2,0,1,2,0,1,2,0,1,2,0,1,2,0,1,2,0,1,2,0,1,2,0,1,2,0,1,2,0,1,2,0,1,2,0,1,2,0,1,2,0,1,2,0,1,2,0,1,2,0,1,2,0,1,2,0,1,2,0,1,2,0,1,2,0,1,2,0,1,2,0,1,2,0,1,2,0,1,2,0,1,2,0,1,2,0,1,2,0,1,2,0,1,2,0,1,2,0,1,2,0,1,2,0,1,2,0,1,2,0,1,2,0,1,2,0,1,2,0,1,2,0,1,2,0,1,2,0,1,2,0,1,2,0,1,2,0,1,2,0,1,2,0,1,2,0,1,2,0,1,2,0,1,2,0,1,2,0,1,2,0,1,2,0,1,2,0,1,2,0,1,2,0,1,2,0,1,2,0,1,2,0,1,2,0,1,2,0,1,2,0,1,2,0,1,2,0,1,2,0,1,2,0,1,2,0,1,2,0,1,2,0,1,2,0,1,2,0,1,2,0,1,2,0,1,2,0,1,2,0,1,2,0,1,2,0,1,2,0,1,2,0,1,2,0,1,2,0,1,2,0,1,2,0,1,2,0,1,2,0,1,2,0,1,2,0,1,2,0,1,2,0,1,2,0,1,2,0,1,2,0,1,2,0,1,2,0,1,2,0,1,2,0,1,2,0,1,2,0,1,2,0,1,2,0,1,2,0,1,2,0,1,2,0,1,2,0,1,2,0,1,2,0,1,2,0,1,2,0,1,2,0,1,2,0,1,2,0,1,2,0,1,2,0,1,2,0,1,2,0,1,2,0,1,2,0,1,2,0,1,2,0,1,2,0,1,2,0,1,2,0,1,2,0,1,2,0,1,2,0,1,2,0,1,2,0,1,2,0,1,2,0,1,2,0,1,2,0,1,2,0,1,2,0,1,2,0,1,2,0,1,2,0,1,2,0,1,2,0,1,2,0,1,2,0,1,2,0,1,2,0,1,2,0,1,2,0,1,2,0,1,2,0,1,2,0,1,2,0,1,2,0,1,2,0,1,2,0,1,2,0,1,2,0,1,2,0,1,2,0,1,2,0,1,2,0,1,2,0,1,2,0,1,2,0,1,2,0,1,2,0,1,2,0,1,2,0,1,2,0,1,2,0,1,2,0,1,2,0,1,2,0,1,2,0,1,2,0,1,2,0,1,2,0,1,2,0,1,2,0,1,2,0,1,2,0,1,2,0,1,2,0,1,2,0,1,2,0,1,2,0,1,2,0,1,2,0,1,2,0,1,2,0,1,2,0,1,2,0,1,2,0,1,2,0,1,2,0,1,2,0,1,2,0,1,2,0,1,2,0,1,2,0,1,2,0,1,2,0,1,2,0,1,2,0,1,2,0,1,2,0,1,2,0,1,2,0,1,2,0,1,2,0,1,2,0,1,2,0,1,2,0,1,2,0,1,2,0,1,2,0,1,2,0,1,2,0,1,2,0,1,2,0,1,2,0,1,2,0,1,2,0,1,2,0,1,2,0,1,2,0,1,2,0,1,2,0,1,2,0,1,2,0,1,2,0,1,2,0,1,2,0,1,2,0,1,2,0,1,2,0,1,2,0,1,2,0,1,2,0,1,2,0,1,2,0,1,2,0,1,2,0,1,2,0,1,2,0,1,2,0,1,2,0,1,2,0,1,2,0,1,2,0,1,2,0,1,2,0,1,2,0,1,2,0,1,2,0,1,2,0,1,2,0,1,2,0,1,2,0,1,2,0,1,2,0,1,2,0,1,2,0,1,2,0,1,2,0,1,2,0,1,2,0,1,2,0,1,2,0,1,2,0,1,2,0,1,2,0,1,2,0,1,2,0,1,2,0,1,2,0,1,2,0,1,2,0,1,2,0,1,2,0,1,2,0,1,2,0,1,2,0,1,2,0,1,2,0,1,2,0,1,2,0,1,2,0,1,2,0,1,2,0,1,2,0,1,2,0,1,2,0,1,2,0,1,2,0,1,2,0,1,2,0,1,2,0,1,2,0,1,2,0,1,2,0,1,2,0,1,2,0,1,2,0,1,2,0,1,2],"trees":[{"base_weights":[-1.293439E-2,5.0000334E-1,-3.6149183E-1,6.2835866E-1,-2.8551517E-2,-4.355116E-1,4.2786036E-2,1.2498693E-1,9.609888E-1,-1.2385969E-1,-3.4026906E-2,5.3328466E-2,-9.058298E-3,5.7075877E-2,1.7661165E-2,4.9042664E-3,-3.2039404E-2],"categories":[],"categories_nodes":[],"categories_segments":[],"categories_sizes":[],"default_left":[0,0,0,0,0,0,0,0,0,0,0,0,0,0,0,0,0],"id":0,"left_children":[1,3,5,7,-1,9,-1,11,13,15,-1,-1,-1,-1,-1,-1,-1],"loss_changes":[1.5135997E1,5.069068E0,4.912221E0,5.082569E0,0E0,3.5932798E0,0E0,4.088509E0,1.6331558E0,2.6351032E0,0E0,0E0,0E0,0E0,0E0,0E0,0E0],"parents":[2147483647,0,0,1,1,2,2,3,3,5,5,7,7,8,8,9,9],"right_children":[2,4,6,8,-1,10,-1,12,14,16,-1,-1,-1,-1,-1,-1,-1],"split_conditions":[1.8777E4,1E0,1E0,7.397E3,-2.8551517E-2,2E0,4.2786036E-2,5.434E3,3E0,9.5921E4,-3.4026906E-2,5.3328466E-2,-9.058298E-3,5.7075877E-2,1.7661165E-2,4.9042664E-3,-3.2039404E-2],"split_indices":[0,21,6,0,0,1,0,0,1,0,0,0,0,0,0,0,0],"split_type":[0,0,0,0,0,0,0,0,0,0,0,0,0,0,0,0,0],"sum_hessian":[8.264783E1,3.326318E1,4.9384647E1,3.0072529E1,3.190649E0,4.715907E1,2.2255783E0,1.2512709E1,1.755982E1,2.1420103E1,2.5738966E1,2.4607668E0,1.0051942E1,1.2861317E1,4.698504E0,1.5552735E1,5.867368E0],"tree_param":{"num_deleted":"0","num_feature":"47","num_nodes":"17","size_leaf_vector":"1"}},{"base_weights":[-3.6338322E-2,-4.409423E-1,5.010029E-1,-5.254981E-1,4.4168074E-2,-6.676124E-2,9.0366745E-1,-6.0392463E-1,-2.1938327E-1,2.590367E-2,-2.9341683E-1,-4.8196045E-1,2.287828E-1,1.0884957E0,-3.0693347E-3,-3.3007193E-2,-1.2763639E-2,-1.7419716E-2,6.1987187E-3,-2.5759904E-2,7.5443333E-4,-7.861214E-3,-2.9841011E-2,4.011933E-2,-1.641863E-2,3.2259434E-2,6.7862414E-2],"categories":[],"categories_nodes":[],"categories_segments":[],"categories_sizes":[],"default_left":[0,0,0,0,0,0,0,0,0,0,0,0,0,0,0,0,0,0,0,0,0,0,0,0,0,0,0],"id":1,"left_children":[1,3,5,7,9,11,13,15,17,-1,19,21,23,25,-1,-1,-1,-1,-1,-1,-1,-1,-1,-1,-1,-1,-1],"loss_changes":[1.876738E1,2.0411615E0,8.544508E0,8.751278E-1,1.4678093E0,2.1140757E0,3.9518719E0,4.7519016E-1,4.9193847E-1,0E0,3.8008752E-1,1.7144334E-1,3.5288644E0,1.3085499E0,0E0,0E0,0E0,0E0,0E0,0E0,0E0,0E0,0E0,0E0,0E0,0E0,0E0],"parents":[2147483647,0,0,1,1,2,2,3,3,4,4,5,5,6,6,7,7,8,8,10,10,11,11,12,12,13,13],"right_children":[2,4,6,8,10,12,14,16,18,-1,20,22,24,26,-1,-1,-1,-1,-1,-1,-1,-1,-1,-1,-1,-1,-1],"split_conditions":[3.3385E4,1E0,2E0,1E0,1.8E1,2.243975E3,3.579144E3,3.4026492E3,2.9385068E3,2.590367E-2,2.1E1,7E0,9.2211E4,8E0,-3.0693347E-3,-3.3007193E-2,-1.2763639E-2,-1.7419716E-2,6.1987187E-3,-2.5759904E-2,7.5443333E-4,-7.861214E-3,-2.9841011E-2,4.011933E-2,-1.641863E-2,3.2259434E-2,6.7862414E-2],"split_indices":[0,7,1,14,3,2,2,2,2,0,3,3,0,1,0,0,0,0,0,0,0,0,0,0,0,0,0],"split_type":[0,0,0,0,0,0,0,0,0,0,0,0,0,0,0,0,0,0,0,0,0,0,0,0,0,0,0],"sum_hessian":[8.430626E1,4.8195614E1,3.611064E1,4.0971016E1,7.2245965E0,1.5329697E1,2.0780945E1,3.1840597E1,9.13042E0,2.78306E0,4.4415364E0,6.112171E0,9.2175255E0,1.7333332E1,3.447612E0,2.6649944E1,5.1906543E0,6.6261005E0,2.5043187E0,2.1941824E0,2.2473538E0,2.215959E0,3.8962119E0,4.324849E0,4.8926764E0,7.8256326E0,9.5077E0],"tree_param":{"num_deleted":"0","num_feature":"47","num_nodes":"27","size_leaf_vector":"1"}},{"base_weights":[3.350031E-2,4.7510143E-2,-4.686935E-2,-3.4069125E-2,5.4959606E-2,1.4186016E-1,-3.261788E-2,-2.1045606E-3,2.2338744E-2],"categories":[],"categories_nodes":[],"categories_segments":[],"categories_sizes":[],"default_left":[0,0,0,0,0,0,0,0,0],"id":2,"left_children":[1,-1,3,-1,5,7,-1,-1,-1],"loss_changes":[6.258566E0,0E0,5.109356E0,0E0,4.3071594E0,3.4900088E0,0E0,0E0,0E0],"parents":[2147483647,0,0,2,2,4,4,5,5],"right_children":[2,-1,4,-1,6,8,-1,-1,-1],"split_conditions":[1.350585E3,4.7510143E-2,2.1273857E3,-3.4069125E-2,1.1E2,1E0,-3.261788E-2,-2.1045606E-3,2.2338744E-2],"split_indices":[2,0,2,0,3,4,0,0,0],"split_type":[0,0,0,0,0,0,0,0,0],"sum_hessian":[8.3343735E1,5.8455887E0,7.7498146E1,9.930169E0,6.756798E1,6.088689E1,6.681087E0,3.8513885E1,2.2373005E1],"tree_param":{"num_deleted":"0","num_feature":"47","num_nodes":"9","size_leaf_vector":"1"}},{"base_weights":[1.8319393E-2,5.2812755E-1,-3.4997147E-1,6.5132785E-1,-2.8281588E-2,-1.075457E-1,-3.2749914E-2,1.6201313E-1,1.0244346E0,3.8457725E-2,-3.1213013E-2,5.128024E-2,-4.3734857E-3,6.396235E-2,1.8423801E-2,7.059323E-3,-2.7182106E-2],"categories":[],"categories_nodes":[],"categories_segments":[],"categories_sizes":[],"default_left":[0,0,0,0,0,0,0,0,0,0,0,0,0,0,0,0,0],"id":3,"left_children":[1,3,5,7,-1,9,-1,11,13,15,-1,-1,-1,-1,-1,-1,-1],"loss_changes":[1.606021E1,5.2007904E0,3.6040306E0,5.803179E0,0E0,2.203006E0,0E0,3.3932056E0,2.597908E0,1.4797324E0,0E0,0E0,0E0,0E0,0E0,0E0,0E0],"parents":[2147483647,0,0,1,1,2,2,3,3,5,5,7,7,8,8,9,9],"right_children":[2,4,6,8,-1,10,-1,12,14,16,-1,-1,-1,-1,-1,-1,-1],"split_conditions":[1.8777E4,1E0,6.5384E4,7.47E3,-2.8281588E-2,9E0,-3.2749914E-2,5.434E3,1E0,6.8E1,-3.1213013E-2,5.128024E-2,-4.3734857E-3,6.396235E-2,1.8423801E-2,7.059323E-3,-2.7182106E-2],"split_indices":[0,21,0,0,0,1,0,0,14,3,0,0,0,0,0,0,0],"split_type":[0,0,0,0,0,0,0,0,0,0,0,0,0,0,0,0,0],"sum_hessian":[8.355248E1,3.486142E1,4.8691063E1,3.1695738E1,3.1656816E0,2.7883057E1,2.0808006E1,1.4332913E1,1.7362825E1,2.2461798E1,5.4212575E0,2.5152798E0,1.1817634E1,1.1820761E1,5.542064E0,1.9736214E1,2.7255855E0],"tree_param":{"num_deleted":"0","num_feature":"47","num_nodes":"17","size_leaf_vector":"1"}},{"base_weights":[-3.0704211E-2,-4.4802275E-1,4.833533E-1,-5.65296E-1,-1.4977242E-1,-8.6619176E-2,8.798668E-1,-3.1016214E-2,-3.592951E-1,-2.9031584E-1,1.5024702E-2,-4.4757628E-1,2.3812594E-1,1.0509299E0,-3.2642193E-3,-3.0859103E-2,3.6598307E-3,1.2549845E-3,-1.9967053E-2,-9.351638E-3,-2.9648695E-2,3.9103735E-2,-1.8867444E-2,2.103799E-2,5.8281936E-2],"categories":[],"categories_nodes":[],"categories_segments":[],"categories_sizes":[],"default_left":[0,0,0,0,0,0,0,0,0,0,0,0,0,0,0,0,0,0,0,0,0,0,0,0,0],"id":4,"left_children":[1,3,5,7,9,11,13,-1,15,17,-1,19,21,23,-1,-1,-1,-1,-1,-1,-1,-1,-1,-1,-1],"loss_changes":[1.8550373E1,1.5833187E0,8.839149E0,1.610527E-1,1.0250477E0,2.077948E0,3.780136E0,0E0,1.1065809E0,4.159019E-1,0E0,2.0397699E-1,3.4775004E0,9.188652E-1,0E0,0E0,0E0,0E0,0E0,0E0,0E0,0E0,0E0,0E0,0E0],"parents":[2147483647,0,0,1,1,2,2,3,3,4,4,5,5,6,6,8,8,9,9,11,11,12,12,13,13],"right_children":[2,4,6,8,10,12,14,-1,16,18,-1,20,22,24,-1,-1,-1,-1,-1,-1,-1,-1,-1,-1,-1],"split_conditions":[3.3385E4,3.0688462E3,2E0,1E0,4E0,2.6436868E3,3.7292395E3,-3.1016214E-2,2.1929155E3,3.421175E3,1.5024702E-2,2.7E1,9.2211E4,2E1,-3.2642193E-3,-3.0859103E-2,3.6598307E-3,1.2549845E-3,-1.9967053E-2,-9.351638E-3,-2.9648695E-2,3.9103735E-2,-1.8867444E-2,2.103799E-2,5.8281936E-2],"split_indices":[0,2,1,24,1,2,2,0,2,2,0,3,0,3,0,0,0,0,0,0,0,0,0,0,0],"split_type":[0,0,0,0,0,0,0,0,0,0,0,0,0,0,0,0,0,0,0,0,0,0,0,0,0],"sum_hessian":[8.4462105E1,4.6688354E1,3.7773754E1,3.2868824E1,1.38195305E1,1.5817815E1,2.1955938E1,2.4352392E1,8.516431E0,1.08028345E1,3.0166953E0,7.3121057E0,8.50571E0,1.849636E1,3.4595776E0,5.067647E0,3.4487839E0,2.9726334E0,7.8302016E0,3.4379196E0,3.874186E0,4.371526E0,4.1341834E0,3.5672443E0,1.4929115E1],"tree_param":{"num_deleted":"0","num_feature":"47","num_nodes":"25","size_leaf_vector":"1"}},{"base_weights":[-4.4426076E-2,7.6716727E-1,-1.4766215E-1,5.2550882E-2,5.8436412E-3,-2.0116122E-1,4.577081E-2,4.316963E-2,-4.3149513E-1,-8.565251E-3,4.9655687E-2,-2.4356665E-2,1.1422962E-2],"categories":[],"categories_nodes":[],"categories_segments":[],"categories_sizes":[],"default_left":[0,0,0,0,0,0,0,0,0,0,0,0,0],"id":5,"left_children":[1,3,5,-1,-1,7,-1,9,11,-1,-1,-1,-1],"loss_changes":[6.983404E0,1.6149487E0,4.3690195E0,0E0,0E0,4.007373E0,0E0,7.362542E0,1.4542398E0,0E0,0E0,0E0,0E0],"parents":[2147483647,0,0,1,1,2,2,5,5,7,7,8,8],"right_children":[2,4,6,-1,-1,8,-1,10,12,-1,-1,-1,-1],"split_conditions":[2E0,1E0,1E0,5.2550882E-2,5.8436412E-3,2.6811816E3,4.577081E-2,2.660669E3,1E0,-8.565251E-3,4.9655687E-2,-2.4356665E-2,1.1422962E-2],"split_indices":[3,1,39,0,0,2,0,2,21,0,0,0,0],"split_type":[0,0,0,0,0,0,0,0,0,0,0,0,0],"sum_hessian":[8.0996346E1,8.414479E0,7.258186E1,5.4286723E0,2.985807E0,6.9876144E1,2.70572E0,3.4302128E1,3.557402E1,2.86527E1,5.649426E0,3.3049606E1,2.5244148E0],"tree_param":{"num_deleted":"0","num_feature":"47","num_nodes":"13","size_leaf_vector":"1"}},{"base_weights":[-1.0051506E-2,5.150105E-1,-3.8525712E-1,1.1174677E-1,7.366662E-1,-1.433115E-1,-3.474848E-2,4.9326133E-2,-1.8070456E-1,5.211244E-2,4.7546247E-1,1.19501755E-1,-3.9408252E-1,-2.0601446E-2,2.5002E-2,-5.520088E-3,4.2138472E-2,-2.9573664E-2,2.1182744E-2,1.6969423E-3,-2.824058E-2],"categories":[],"categories_nodes":[],"categories_segments":[],"categories_sizes":[],"default_left":[0,0,0,0,0,0,0,0,0,0,0,0,0,0,0,0,0,0,0,0,0],"id":6,"left_children":[1,3,5,7,9,11,-1,-1,13,-1,15,17,19,-1,-1,-1,-1,-1,-1,-1,-1],"loss_changes":[1.6566816E1,3.051156E0,3.5744E0,3.6608458E0,1.2958183E0,1.9442809E0,0E0,0E0,1.9456854E0,0E0,3.0925832E0,3.4559798E0,1.1126232E0,0E0,0E0,0E0,0E0,0E0,0E0,0E0,0E0],"parents":[2147483647,0,0,1,1,2,2,3,3,4,4,5,5,8,8,10,10,11,11,12,12],"right_children":[2,4,6,8,10,12,-1,-1,14,-1,16,18,20,-1,-1,-1,-1,-1,-1,-1,-1],"split_conditions":[1.8777E4,7.397E3,6.5384E4,5.434E3,7E0,2E0,-3.474848E-2,4.9326133E-2,3.4613623E3,5.211244E-2,1.5E1,2E0,2.6E1,-2.0601446E-2,2.5002E-2,-5.520088E-3,4.2138472E-2,-2.9573664E-2,2.1182744E-2,1.6969423E-3,-2.824058E-2],"split_indices":[0,0,0,0,3,1,0,0,2,0,3,3,3,0,0,0,0,0,0,0,0],"split_type":[0,0,0,0,0,0,0,0,0,0,0,0,0,0,0,0,0,0,0,0,0],"sum_hessian":[8.208573E1,3.405568E1,4.8030052E1,1.2612889E1,2.1442791E1,2.7786285E1,2.0243767E1,2.5655546E0,1.0047335E1,8.503895E0,1.2938896E1,1.3822979E1,1.3963307E1,7.7936916E0,2.2536426E0,5.2555637E0,7.683332E0,3.8586085E0,9.964371E0,4.209989E0,9.753318E0],"tree_param":{"num_deleted":"0","num_feature":"47","num_nodes":"21","size_leaf_vector":"1"}},{"base_weights":[2.0090498E-2,-3.7802488E-1,4.9771446E-1,-5.0557745E-1,-9.241991E-2,-3.7728738E-2,8.34616E-1,-2.9896334E-2,-2.2879568E-1,-2.5027955E-1,3.1039178E-2,-4.4161314E-1,3.6576796E-1,9.969624E-1,-3.5995615E-3,-2.5063029E-2,7.684824E-3,-6.9459737E-3,-2.6370868E-2,-9.079585E-3,-2.9381141E-2,3.9082866E-2,-1.915369E-2,1.72204E-2,5.538987E-2],"categories":[],"categories_nodes":[],"categories_segments":[],"categories_sizes":[],"default_left":[0,0,0,0,0,0,0,0,0,0,0,0,0,0,0,0,0,0,0,0,0,0,0,0,0],"id":7,"left_children":[1,3,5,7,9,11,13,-1,15,17,-1,19,21,23,-1,-1,-1,-1,-1,-1,-1,-1,-1,-1,-1],"loss_changes":[1.5894207E1,1.6150913E0,6.883006E0,6.635046E-1,1.8787131E0,2.70791E0,3.50943E0,0E0,1.0621958E0,3.3551717E-1,0E0,2.0696068E-1,2.9040709E0,1.0560322E0,0E0,0E0,0E0,0E0,0E0,0E0,0E0,0E0,0E0,0E0,0E0],"parents":[2147483647,0,0,1,1,2,2,3,3,4,4,5,5,6,6,8,8,9,9,11,11,12,12,13,13],"right_children":[2,4,6,8,10,12,14,-1,16,18,-1,20,22,24,-1,-1,-1,-1,-1,-1,-1,-1,-1,-1,-1],"split_conditions":[3.3385E4,3.0688462E3,2E0,1E0,5E0,2.6436868E3,3.7292395E3,-2.9896334E-2,2.1929155E3,3.1E1,3.1039178E-2,2.7E1,9.2211E4,2E1,-3.5995615E-3,-2.5063029E-2,7.684824E-3,-6.9459737E-3,-2.6370868E-2,-9.079585E-3,-2.9381141E-2,3.9082866E-2,-1.915369E-2,1.72204E-2,5.538987E-2],"split_indices":[0,2,1,24,1,2,2,0,2,3,0,3,0,3,0,0,0,0,0,0,0,0,0,0,0],"split_type":[0,0,0,0,0,0,0,0,0,0,0,0,0,0,0,0,0,0,0,0,0,0,0,0,0],"sum_hessian":[8.1598495E1,4.4617153E1,3.6981342E1,3.0310251E1,1.4306903E1,1.4625232E1,2.2356112E1,2.1857224E1,8.453027E0,1.2245562E1,2.0613418E0,7.2618947E0,7.3633375E0,1.8876268E1,3.479842E0,4.755194E0,3.697833E0,9.806398E0,2.4391623E0,3.4182315E0,3.843663E0,4.7059436E0,2.657394E0,3.336951E0,1.5539318E1],"tree_param":{"num_deleted":"0","num_feature":"47","num_nodes":"25","size_leaf_vector":"1"}},{"base_weights":[-3.965589E-2,6.3912463E-1,-1.1472136E-1,4.5781966E-2,5.671088E-3,-1.652139E-1,4.375313E-2,-1.01454705E-1,-3.211105E-2,-8.030628E-3,4.5259852E-2],"categories":[],"categories_nodes":[],"categories_segments":[],"categories_sizes":[],"default_left":[0,0,0,0,0,0,0,0,0,0,0],"id":8,"left_children":[1,3,5,-1,-1,7,-1,9,-1,-1,-1],"loss_changes":[4.2294464E0,1.0989563E0,3.8575132E0,0E0,0E0,2.110284E0,0E0,3.9735007E0,0E0,0E0,0E0],"parents":[2147483647,0,0,1,1,2,2,5,5,7,7],"right_children":[2,4,6,-1,-1,8,-1,10,-1,-1,-1],"split_conditions":[2E0,1E0,1E0,4.5781966E-2,5.671088E-3,1.1E2,4.375313E-2,7.8E1,-3.211105E-2,-8.030628E-3,4.5259852E-2],"split_indices":[3,1,39,0,0,3,0,3,0,0,0],"split_type":[0,0,0,0,0,0,0,0,0,0,0],"sum_hessian":[8.056785E1,7.2744355E0,7.329341E1,4.2809525E0,2.993483E0,7.052857E1,2.7648425E0,6.328259E1,7.2459826E0,6.0563885E1,2.7187054E0],"tree_param":{"num_deleted":"0","num_feature":"47","num_nodes":"11","size_leaf_vector":"1"}},{"base_weights":[8.606166E-3,4.7189718E-1,-3.3333895E-1,2.7629358E-1,8.88875E-1,-4.080668E-1,4.216205E-2,7.998582E-1,-1.3664526E-1,5.0890505E-2,1.71619E-2,-1.15600295E-1,-3.244119E-2,8.013535E-3,4.6728488E-2,8.898273E-3,-2.507135E-2,4.706375E-3,-3.0950516E-2],"categories":[],"categories_nodes":[],"categories_segments":[],"categories_sizes":[],"default_left":[0,0,0,0,0,0,0,0,0,0,0,0,0,0,0,0,0,0,0],"id":9,"left_children":[1,3,5,7,9,11,-1,13,15,-1,-1,17,-1,-1,-1,-1,-1,-1,-1],"loss_changes":[1.3441695E1,2.6925602E0,4.6375804E0,5.7243958E0,4.2815018E-1,3.2055373E0,0E0,8.494816E-1,1.8536158E0,0E0,0E0,2.4076798E0,0E0,0E0,0E0,0E0,0E0,0E0,0E0],"parents":[2147483647,0,0,1,1,2,2,3,3,4,4,5,5,7,7,8,8,11,11],"right_children":[2,4,6,8,10,12,-1,14,16,-1,-1,18,-1,-1,-1,-1,-1,-1,-1],"split_conditions":[1.8777E4,1.3E1,1E0,2.2989016E3,1.3007E4,2E0,4.216205E-2,1.412E3,5E0,5.0890505E-2,1.71619E-2,9.5921E4,-3.244119E-2,8.013535E-3,4.6728488E-2,8.898273E-3,-2.507135E-2,4.706375E-3,-3.0950516E-2],"split_indices":[0,3,6,2,0,1,0,2,3,0,0,0,0,0,0,0,0,0,0],"split_type":[0,0,0,0,0,0,0,0,0,0,0,0,0,0,0,0,0,0,0],"sum_hessian":[8.2855484E1,3.502336E1,4.7832123E1,2.497176E1,1.0051601E1,4.5589764E1,2.2423573E0,1.0597815E1,1.4373944E1,7.4304175E0,2.6211839E0,2.1252647E1,2.4337116E1,2.2247615E0,8.373054E0,7.9926834E0,6.3812613E0,1.5576342E1,5.6763062E0],"tree_param":{"num_deleted":"0","num_feature":"47","num_nodes":"19","size_leaf_vector":"1"}},{"base_weights":[-1.2507565E-2,-3.9665952E-1,4.4117987E-1,-4.825095E-1,5.3831846E-2,2.5117993E-1,5.572581E-2,-5.6652725E-1,-1.501859E-1,2.5629481E-2,-2.7976292E-1,3.9367013E-2,6.2116116E-1,-3.2206237E-2,-1.2689704E-2,-2.1199059E-2,1.5036471E-2,-2.5245467E-2,1.4181839E-3,1.9022275E-2,-1.0466386E-2,-1.8669156E-2,4.8189323E-2],"categories":[],"categories_nodes":[],"categories_segments":[],"categories_sizes":[],"default_left":[0,0,0,0,0,0,0,0,0,0,0,0,0,0,0,0,0,0,0,0,0,0,0],"id":10,"left_children":[1,3,5,7,9,11,-1,13,15,-1,17,19,21,-1,-1,-1,-1,-1,-1,-1,-1,-1,-1],"loss_changes":[1.4620001E1,1.782063E0,4.642294E0,9.825878E-1,1.3933805E0,2.428303E0,0E0,5.684662E-1,1.2481803E0,0E0,3.872642E-1,1.8585165E0,4.2196374E0,0E0,0E0,0E0,0E0,0E0,0E0,0E0,0E0,0E0,0E0],"parents":[2147483647,0,0,1,1,2,2,3,3,4,4,5,5,7,7,8,8,10,10,11,11,12,12],"right_children":[2,4,6,8,10,12,-1,14,16,-1,18,20,22,-1,-1,-1,-1,-1,-1,-1,-1,-1,-1],"split_conditions":[3.3385E4,1E0,1.1E2,3.0688462E3,1.8E1,1E0,5.572581E-2,1E0,1.1262E4,2.5629481E-2,2.1E1,2.9447378E3,2.1523152E3,-3.2206237E-2,-1.2689704E-2,-2.1199059E-2,1.5036471E-2,-2.5245467E-2,1.4181839E-3,1.9022275E-2,-1.0466386E-2,-1.8669156E-2,4.8189323E-2],"split_indices":[0,7,3,2,3,5,0,14,0,0,3,2,2,0,0,0,0,0,0,0,0,0,0],"split_type":[0,0,0,0,0,0,0,0,0,0,0,0,0,0,0,0,0,0,0,0,0,0,0],"sum_hessian":[8.188154E1,4.4406662E1,3.7474873E1,3.723897E1,7.1676908E0,3.0298403E1,7.176471E0,2.9161617E1,8.077356E0,2.7918243E0,4.3758664E0,1.9971306E1,1.0327097E1,2.2515299E1,6.6463175E0,5.062901E0,3.0144556E0,2.1593783E0,2.2164881E0,8.19808E0,1.1773226E1,2.6231275E0,7.7039695E0],"tree_param":{"num_deleted":"0","num_feature":"47","num_nodes":"23","size_leaf_vector":"1"}},{"base_weights":[3.3233836E-2,7.959427E-1,-5.8319516E-2,5.5808365E-2,5.4512117E-3,-1.04105E-1,4.185449E-2,-4.0666178E-2,-3.2156046E-2,1.8648662E-3,-3.1426255E-2],"categories":[],"categories_nodes":[],"categories_segments":[],"categories_sizes":[],"default_left":[0,0,0,0,0,0,0,0,0,0,0],"id":11,"left_children":[1,3,5,-1,-1,7,-1,9,-1,-1,-1],"loss_changes":[5.9340267E0,1.8810177E0,3.2115343E0,0E0,0E0,2.4834757E0,0E0,3.081868E0,0E0,0E0,0E0],"parents":[2147483647,0,0,1,1,2,2,5,5,7,7],"right_children":[2,4,6,-1,-1,8,-1,10,-1,-1,-1],"split_conditions":[2E0,1E0,1E0,5.5808365E-2,5.4512117E-3,3.9047893E3,4.185449E-2,1.1E2,-3.2156046E-2,1.8648662E-3,-3.1426255E-2],"split_indices":[3,1,39,0,0,2,0,3,0,0,0],"split_type":[0,0,0,0,0,0,0,0,0,0,0],"sum_hessian":[8.3315186E1,8.104531E0,7.521065E1,5.1014633E0,3.0030675E0,7.2392685E1,2.8179631E0,6.5731895E1,6.660791E0,5.8862007E1,6.869891E0],"tree_param":{"num_deleted":"0","num_feature":"47","num_nodes":"11","size_leaf_vector":"1"}},{"base_weights":[-1.4663193E-2,4.464745E-1,-3.7043267E-1,5.558466E-1,-2.8130785E-2,1.6357943E-1,-4.663583E-1,9.2097916E-2,8.739417E-1,-2.7645791E-2,3.584368E-2,-5.4637927E-1,1.2919995E-2,4.668988E-2,-8.073062E-3,5.251491E-2,1.3637858E-2,-1.3105825E-2,-3.225147E-2,2.7149556E-2,-2.6826192E-2],"categories":[],"categories_nodes":[],"categories_segments":[],"categories_sizes":[],"default_left":[0,0,0,0,0,0,0,0,0,0,0,0,0,0,0,0,0,0,0,0,0],"id":12,"left_children":[1,3,5,7,-1,9,11,13,15,-1,-1,17,19,-1,-1,-1,-1,-1,-1,-1,-1],"loss_changes":[1.40697975E1,4.436444E0,2.5550218E0,4.966509E0,0E0,3.610989E0,1.5902386E0,3.3600886E0,1.8526039E0,0E0,0E0,8.235464E-1,2.2959507E0,0E0,0E0,0E0,0E0,0E0,0E0,0E0,0E0],"parents":[2147483647,0,0,1,1,2,2,3,3,5,5,6,6,7,7,8,8,11,11,12,12],"right_children":[2,4,6,8,-1,10,12,14,16,-1,-1,18,20,-1,-1,-1,-1,-1,-1,-1,-1],"split_conditions":[1.8777E4,1E0,2.1273857E3,7.47E3,-2.8130785E-2,5E0,3.9415771E3,5.434E3,2E0,-2.7645791E-2,3.584368E-2,2.6E1,4.551826E3,4.668988E-2,-8.073062E-3,5.251491E-2,1.3637858E-2,-1.3105825E-2,-3.225147E-2,2.7149556E-2,-2.6826192E-2],"split_indices":[0,21,2,0,0,3,2,0,1,0,0,3,2,0,0,0,0,0,0,0,0],"split_type":[0,0,0,0,0,0,0,0,0,0,0,0,0,0,0,0,0,0,0,0,0],"sum_hessian":[8.375264E1,3.6363895E1,4.7388744E1,3.3213184E1,3.1507115E0,7.1088634E0,4.027988E1,1.4037516E1,1.9175669E1,3.0978925E0,4.010971E0,3.439692E1,5.882961E0,2.628696E0,1.140882E1,1.4248769E1,4.9269004E0,9.803865E0,2.4593054E1,3.0002446E0,2.8827162E0],"tree_param":{"num_deleted":"0","num_feature":"47","num_nodes":"21","size_leaf_vector":"1"}},{"base_weights":[-5.017123E-3,-3.844717E-1,4.213301E-1,-5.3069025E-1,-1.1162747E-1,-8.830039E-2,7.6143366E-1,-3.0048436E-2,-2.839733E-1,-2.5580165E-1,3.1182094E-2,-4.356144E-1,2.1789205E-1,9.2350256E-1,-1.4103196E-2,-2.8628467E-2,4.0657977E-3,7.3890085E-3,-1.7388986E-2,-8.628083E-3,-2.9215118E-2,3.588074E-2,-1.8352868E-2,3.069276E-2,5.6753274E-2],"categories":[],"categories_nodes":[],"categories_segments":[],"categories_sizes":[],"default_left":[0,0,0,0,0,0,0,0,0,0,0,0,0,0,0,0,0,0,0,0,0,0,0,0,0],"id":13,"left_children":[1,3,5,7,9,11,13,-1,15,17,-1,19,21,23,-1,-1,-1,-1,-1,-1,-1,-1,-1,-1,-1],"loss_changes":[1.3651174E1,1.7216291E0,6.955443E0,3.2865334E-1,1.9448678E0,1.8817602E0,4.3089733E0,0E0,9.194699E-1,6.0040486E-1,0E0,2.2012913E-1,3.0685499E0,6.7596054E-1,0E0,0E0,0E0,0E0,0E0,0E0,0E0,0E0,0E0,0E0,0E0],"parents":[2147483647,0,0,1,1,2,2,3,3,4,4,5,5,6,6,8,8,9,9,11,11,12,12,13,13],"right_children":[2,4,6,8,10,12,14,-1,16,18,-1,20,22,24,-1,-1,-1,-1,-1,-1,-1,-1,-1,-1,-1],"split_conditions":[3.3385E4,2.9385068E3,2E0,1E0,6E0,2.6436868E3,3.7292395E3,-3.0048436E-2,6.677E3,3.30946E3,3.1182094E-2,2.7E1,9.2211E4,8.4896E4,-1.4103196E-2,-2.8628467E-2,4.0657977E-3,7.3890085E-3,-1.7388986E-2,-8.628083E-3,-2.9215118E-2,3.588074E-2,-1.8352868E-2,3.069276E-2,5.6753274E-2],"split_indices":[0,2,1,24,1,2,2,0,0,2,0,3,0,0,0,0,0,0,0,0,0,0,0,0,0],"split_type":[0,0,0,0,0,0,0,0,0,0,0,0,0,0,0,0,0,0,0,0,0,0,0,0,0],"sum_hessian":[8.2380104E1,4.3639023E1,3.874108E1,2.7797289E1,1.5841734E1,1.5802336E1,2.2938745E1,2.0517052E1,7.2802367E0,1.3789866E1,2.051867E0,7.2059484E0,8.596388E0,1.9954536E1,2.9842095E0,3.7500653E0,3.5301716E0,2.4468555E0,1.1343011E1,3.3824377E0,3.8235104E0,4.5136094E0,4.0827785E0,9.683342E0,1.0271194E1],"tree_param":{"num_deleted":"0","num_feature":"47","num_nodes":"25","size_leaf_vector":"1"}},{"base_weights":[-2.3495799E-2,3.602664E-2,-8.179411E-2,-3.2780036E-2,3.6889426E-3,7.820728E-2,-3.0561721E-2,8.322199E-3,-1.9346807E-2],"categories":[],"categories_nodes":[],"categories_segments":[],"categories_sizes":[],"default_left":[0,0,0,0,0,0,0,0,0],"id":14,"left_children":[1,-1,3,-1,5,7,-1,-1,-1],"loss_changes":[3.5119753E0,0E0,3.6675625E0,0E0,3.0733874E0,2.5178351E0,0E0,0E0,0E0],"parents":[2147483647,0,0,2,2,4,4,5,5],"right_children":[2,-1,4,-1,6,8,-1,-1,-1],"split_conditions":[1.350585E3,3.602664E-2,2.1201763E3,-3.2780036E-2,1.1E2,3.9047893E3,-3.0561721E-2,8.322199E-3,-1.9346807E-2],"split_indices":[2,0,2,0,3,2,0,0,0],"split_type":[0,0,0,0,0,0,0,0,0],"sum_hessian":[7.860786E1,4.886376E0,7.372147E1,8.693932E0,6.502754E1,5.877752E1,6.2500257E0,4.994519E1,8.832329E0],"tree_param":{"num_deleted":"0","num_feature":"47","num_nodes":"9","size_leaf_vector":"1"}},{"base_weights":[6.1803744E-3,4.7816235E-1,-3.3435556E-1,5.8324534E-1,-2.7305791E-2,-4.0676984E-1,4.1514892E-2,2.0431639E-1,8.278761E-1,-1.1340752E-1,-3.1923555E-2,4.5198523E-2,-1.6037446E-3,4.9251538E-2,4.821913E-3,4.244543E-3,-3.0246241E-2],"categories":[],"categories_nodes":[],"categories_segments":[],"categories_sizes":[],"default_left":[0,0,0,0,0,0,0,0,0,0,0,0,0,0,0,0,0],"id":15,"left_children":[1,3,5,7,-1,9,-1,11,13,15,-1,-1,-1,-1,-1,-1,-1],"loss_changes":[1.3846301E1,4.2041454E0,4.559092E0,2.910718E0,0E0,3.1762838E0,0E0,2.4043913E0,2.1881933E0,2.2255266E0,0E0,0E0,0E0,0E0,0E0,0E0,0E0],"parents":[2147483647,0,0,1,1,2,2,3,3,5,5,7,7,8,8,9,9],"right_children":[2,4,6,8,-1,10,-1,12,14,16,-1,-1,-1,-1,-1,-1,-1],"split_conditions":[1.8777E4,1E0,1E0,7.47E3,-2.7305791E-2,2E0,4.1514892E-2,5.434E3,3E0,9.5921E4,-3.1923555E-2,4.5198523E-2,-1.6037446E-3,4.9251538E-2,4.821913E-3,4.244543E-3,-3.0246241E-2],"split_indices":[0,21,6,0,0,1,0,0,1,0,0,0,0,0,0,0,0],"split_type":[0,0,0,0,0,0,0,0,0,0,0,0,0,0,0,0,0],"sum_hessian":[8.4153336E1,3.5100285E1,4.905305E1,3.2224846E1,2.8754401E0,4.6794277E1,2.2587752E0,1.336221E1,1.8862635E1,2.1306753E1,2.5487524E1,2.6613357E0,1.0700874E1,1.52412405E1,3.6213942E0,1.5771262E1,5.535491E0],"tree_param":{"num_deleted":"0","num_feature":"47","num_nodes":"17","size_leaf_vector":"1"}},{"base_weights":[-1.9570451E-2,-3.948716E-1,3.9269096E-1,-4.4268766E-1,1.336573E-2,-8.890393E-2,7.187134E-1,-4.9088645E-1,-1.4488925E-1,-2.618069E-1,2.455442E-2,8.7142813E-1,-8.9852065E-3,-2.7327528E-2,-9.152028E-3,1.1526155E-2,-2.1650271E-2,-2.239541E-2,1.8794857E-3,2.7687246E-2,5.424128E-2],"categories":[],"categories_nodes":[],"categories_segments":[],"categories_sizes":[],"default_left":[0,0,0,0,0,0,0,0,0,0,0,0,0,0,0,0,0,0,0,0,0],"id":16,"left_children":[1,3,5,7,-1,9,11,13,15,17,-1,19,-1,-1,-1,-1,-1,-1,-1,-1,-1],"loss_changes":[1.2779861E1,1.4865494E0,6.247767E0,5.127468E-1,0E0,1.8122144E0,3.394003E0,4.9273586E-1,8.661865E-1,7.738051E-1,0E0,7.7810574E-1,0E0,0E0,0E0,0E0,0E0,0E0,0E0,0E0,0E0],"parents":[2147483647,0,0,1,1,2,2,3,3,5,5,6,6,7,7,8,8,9,9,11,11],"right_children":[2,4,6,8,-1,10,12,14,16,18,-1,20,-1,-1,-1,-1,-1,-1,-1,-1,-1],"split_conditions":[3.3385E4,9E0,2E0,1E0,1.336573E-2,3.5803464E3,3.7292395E3,1E0,3.6279297E3,1E0,2.455442E-2,8.4896E4,-8.9852065E-3,-2.7327528E-2,-9.152028E-3,1.1526155E-2,-2.1650271E-2,-2.239541E-2,1.8794857E-3,2.7687246E-2,5.424128E-2],"split_indices":[0,1,1,7,0,2,2,14,2,5,0,0,0,0,0,0,0,0,0,0,0],"split_type":[0,0,0,0,0,0,0,0,0,0,0,0,0,0,0,0,0,0,0,0,0],"sum_hessian":[8.0596565E1,4.221156E1,3.8385006E1,3.9677917E1,2.533642E0,1.5789029E1,2.2595978E1,3.3592564E1,6.085354E0,1.2585683E1,3.2033465E0,1.9338778E1,3.2572002E0,2.7791883E1,5.80068E0,2.7291694E0,3.3561845E0,7.455437E0,5.1302457E0,9.215154E0,1.0123625E1],"tree_param":{"num_deleted":"0","num_feature":"47","num_nodes":"21","size_leaf_vector":"1"}},{"base_weights":[2.3244716E-2,3.9607506E-2,-4.7844004E-2,-3.2594763E-2,4.216699E-2,1.10284746E-1,-3.0271618E-2,9.183533E-3,-1.767323E-2],"categories":[],"categories_nodes":[],"categories_segments":[],"categories_sizes":[],"default_left":[0,0,0,0,0,0,0,0,0],"id":17,"left_children":[1,-1,3,-1,5,7,-1,-1,-1],"loss_changes":[4.684389E0,0E0,4.3095126E0,0E0,3.1317856E0,2.2332826E0,0E0,0E0,0E0],"parents":[2147483647,0,0,2,2,4,4,5,5],"right_children":[2,-1,4,-1,6,8,-1,-1,-1],"split_conditions":[1.350585E3,3.9607506E-2,2.1273857E3,-3.2594763E-2,1.3E1,3.9047893E3,-3.0271618E-2,9.183533E-3,-1.767323E-2],"split_indices":[2,0,2,0,1,2,0,0,0],"split_type":[0,0,0,0,0,0,0,0,0],"sum_hessian":[8.400635E1,6.251046E0,7.77553E1,9.274309E0,6.8480995E1,6.271411E1,5.7668834E0,5.4667248E1,8.046864E0],"tree_param":{"num_deleted":"0","num_feature":"47","num_nodes":"9","size_leaf_vector":"1"}},{"base_weights":[1.4738819E-2,4.3221858E-1,-3.119352E-1,5.3753597E-1,-2.754721E-2,-3.865717E-1,4.069642E-2,1.388944E-1,8.20126E-1,-1.1219463E-1,-3.1231198E-2,4.3816987E-2,-4.3479498E-3,4.996602E-2,8.156469E-3,4.0889266E-3,-2.992182E-2],"categories":[],"categories_nodes":[],"categories_segments":[],"categories_sizes":[],"default_left":[0,0,0,0,0,0,0,0,0,0,0,0,0,0,0,0,0],"id":18,"left_children":[1,3,5,7,-1,9,-1,11,13,15,-1,-1,-1,-1,-1,-1,-1],"loss_changes":[1.1558514E1,4.1470027E0,4.3122587E0,3.7273226E0,0E0,2.8883262E0,0E0,2.6325793E0,2.1621037E0,2.1484933E0,0E0,0E0,0E0,0E0,0E0,0E0,0E0],"parents":[2147483647,0,0,1,1,2,2,3,3,5,5,7,7,8,8,9,9],"right_children":[2,4,6,8,-1,10,-1,12,14,16,-1,-1,-1,-1,-1,-1,-1],"split_conditions":[1.8777E4,1E0,1E0,7.47E3,-2.754721E-2,2E0,4.069642E-2,5.434E3,2E0,9.5921E4,-3.1231198E-2,4.3816987E-2,-4.3479498E-3,4.996602E-2,8.156469E-3,4.0889266E-3,-2.992182E-2],"split_indices":[0,21,6,0,0,1,0,0,1,0,0,0,0,0,0,0,0],"split_type":[0,0,0,0,0,0,0,0,0,0,0,0,0,0,0,0,0],"sum_hessian":[8.276381E1,3.6190426E1,4.6573383E1,3.3098175E1,3.0922513E0,4.4293682E1,2.2797022E0,1.4348568E1,1.8749605E1,2.126041E1,2.303327E1,2.6888711E0,1.1659697E1,1.432221E1,4.4273953E0,1.5792307E1,5.4681034E0],"tree_param":{"num_deleted":"0","num_feature":"47","num_nodes":"17","size_leaf_vector":"1"}},{"base_weights":[-8.646919E-3,-3.8405806E-1,4.0068117E-1,-5.078429E-1,-1.0741795E-1,-8.853304E-2,7.1437645E-1,-5.617237E-1,-1.8231364E-1,2.1193413E-2,-3.4275538E-1,-4.9069104E-1,2.4063675E-1,8.518968E-1,-4.535572E-3,-3.0915333E-2,-2.5920663E-3,2.4737825E-3,-1.7216839E-2,-2.6086545E-2,-2.9387944E-3,-2.9833386E-2,-7.4136243E-3,3.5920307E-2,-1.800651E-2,1.7465552E-2,4.6898406E-2],"categories":[],"categories_nodes":[],"categories_segments":[],"categories_sizes":[],"default_left":[0,0,0,0,0,0,0,0,0,0,0,0,0,0,0,0,0,0,0,0,0,0,0,0,0,0,0],"id":19,"left_children":[1,3,5,7,9,11,13,15,17,-1,19,21,23,25,-1,-1,-1,-1,-1,-1,-1,-1,-1,-1,-1,-1,-1],"loss_changes":[1.3053642E1,1.4623823E0,6.301346E0,4.296713E-1,2.0160372E0,2.338202E0,2.8316174E0,7.0499897E-1,2.3442695E-1,0E0,5.2445257E-1,1.9739854E-1,3.0983984E0,5.956707E-1,0E0,0E0,0E0,0E0,0E0,0E0,0E0,0E0,0E0,0E0,0E0,0E0,0E0],"parents":[2147483647,0,0,1,1,2,2,3,3,4,4,5,5,6,6,7,7,8,8,10,10,11,11,12,12,13,13],"right_children":[2,4,6,8,10,12,14,16,18,-1,20,22,24,26,-1,-1,-1,-1,-1,-1,-1,-1,-1,-1,-1,-1,-1],"split_conditions":[3.3385E4,2E0,2E0,1E0,1.8E1,2.6436868E3,3.7292395E3,3.7609885E3,2.3502532E3,2.1193413E-2,3.1664377E3,6.5384E4,9.2211E4,2E1,-4.535572E-3,-3.0915333E-2,-2.5920663E-3,2.4737825E-3,-1.7216839E-2,-2.6086545E-2,-2.9387944E-3,-2.9833386E-2,-7.4136243E-3,3.5920307E-2,-1.800651E-2,1.7465552E-2,4.6898406E-2],"split_indices":[0,1,1,14,3,2,2,2,2,0,2,0,0,3,0,0,0,0,0,0,0,0,0,0,0,0,0],"split_type":[0,0,0,0,0,0,0,0,0,0,0,0,0,0,0,0,0,0,0,0,0,0,0,0,0,0,0],"sum_hessian":[8.2946556E1,4.329798E1,3.9648575E1,2.9335724E1,1.3962257E1,1.5771058E1,2.3877516E1,2.4547167E1,4.7885585E0,4.0401974E0,9.922059E0,6.8776746E0,8.893383E0,2.0344282E1,3.533233E0,2.19038E1,2.6433666E0,2.2559085E0,2.53265E0,5.572701E0,4.3493586E0,4.685139E0,2.1925354E0,4.8447247E0,4.0486584E0,3.7142844E0,1.6629997E1],"tree_param":{"num_deleted":"0","num_feature":"47","num_nodes":"27","size_leaf_vector":"1"}},{"base_weights":[2.253573E-3,3.8397763E-2,-7.3721536E-2,-3.225348E-2,2.1649064E-2,1.091669E-1,-3.148664E-2,9.796384E-3,-2.9447673E-2],"categories":[],"categories_nodes":[],"categories_segments":[],"categories_sizes":[],"default_left":[0,0,0,0,0,0,0,0,0],"id":20,"left_children":[1,-1,3,-1,5,7,-1,-1,-1],"loss_changes":[4.7080183E0,0E0,4.027217E0,0E0,3.721988E0,3.588777E0,0E0,0E0,0E0],"parents":[2147483647,0,0,2,2,4,4,5,5],"right_children":[2,-1,4,-1,6,8,-1,-1,-1],"split_conditions":[1.350585E3,3.8397763E-2,2.1273857E3,-3.225348E-2,3.9047893E3,1.1E2,-3.148664E-2,9.796384E-3,-2.9447673E-2],"split_indices":[2,0,2,0,2,3,0,0,0],"split_type":[0,0,0,0,0,0,0,0,0],"sum_hessian":[7.895638E1,6.3049607E0,7.265142E1,9.567919E0,6.30835E1,5.6345486E1,6.738014E0,5.075689E1,5.588597E0],"tree_param":{"num_deleted":"0","num_feature":"47","num_nodes":"9","size_leaf_vector":"1"}},{"base_weights":[9.186029E-3,4.011462E-1,-3.0502966E-1,5.003911E-1,-2.7305359E-2,-3.7920126E-1,3.984693E-2,7.632077E-2,7.445277E-1,-7.295861E-2,-3.0945987E-2,4.250099E-2,-9.456625E-3,4.479341E-2,1.6254844E-2,4.546439E-3,-2.8549764E-2],"categories":[],"categories_nodes":[],"categories_segments":[],"categories_sizes":[],"default_left":[0,0,0,0,0,0,0,0,0,0,0,0,0,0,0,0,0],"id":21,"left_children":[1,3,5,7,-1,9,-1,11,13,15,-1,-1,-1,-1,-1,-1,-1],"loss_changes":[1.0476588E1,3.8305912E0,4.1626563E0,3.543273E0,0E0,3.2532835E0,0E0,2.9989138E0,1.102335E0,1.7546797E0,0E0,0E0,0E0,0E0,0E0,0E0,0E0],"parents":[2147483647,0,0,1,1,2,2,3,3,5,5,7,7,8,8,9,9],"right_children":[2,4,6,8,-1,10,-1,12,14,16,-1,-1,-1,-1,-1,-1,-1],"split_conditions":[1.8777E4,1E0,1E0,7.397E3,-2.7305359E-2,2E0,3.984693E-2,5.434E3,1E0,9.5921E4,-3.0945987E-2,4.250099E-2,-9.456625E-3,4.479341E-2,1.6254844E-2,4.546439E-3,-2.8549764E-2],"split_indices":[0,21,6,0,0,1,0,0,14,0,0,0,0,0,0,0,0],"split_type":[0,0,0,0,0,0,0,0,0,0,0,0,0,0,0,0,0],"sum_hessian":[8.307131E1,3.68398E1,4.623151E1,3.3773098E1,3.0667045E0,4.393051E1,2.301E0,1.2818942E1,2.0954157E1,1.9861546E1,2.4068964E1,2.7120793E0,1.0106863E1,1.456342E1,6.3907366E0,1.5559015E1,4.302531E0],"tree_param":{"num_deleted":"0","num_feature":"47","num_nodes":"17","size_leaf_vector":"1"}},{"base_weights":[5.5101058E-3,-3.3911923E-1,3.8806295E-1,-4.6944654E-1,-3.2972388E-2,-4.541655E-2,6.681657E-1,-5.623027E-1,-1.9751059E-1,-1.8432556E-1,2.8091941E-2,-4.0225065E-1,2.3239143E-1,8.048036E-1,-4.885144E-3,-1.7343389E-2,-3.1183774E-2,-2.2226298E-2,2.2056082E-2,3.5390237E-3,-1.6656665E-2,-7.78315E-3,-2.784397E-2,3.4822237E-2,-1.7844127E-2,2.43192E-2,4.9880322E-2],"categories":[],"categories_nodes":[],"categories_segments":[],"categories_sizes":[],"default_left":[0,0,0,0,0,0,0,0,0,0,0,0,0,0,0,0,0,0,0,0,0,0,0,0,0,0,0],"id":22,"left_children":[1,3,5,7,9,11,13,15,17,19,-1,21,23,25,-1,-1,-1,-1,-1,-1,-1,-1,-1,-1,-1,-1,-1],"loss_changes":[1.1045627E1,1.7434335E0,4.850579E0,6.6780996E-1,1.3854108E0,1.7310812E0,2.608961E0,8.0527306E-2,1.677845E0,4.830443E-1,0E0,2.0300078E-1,2.9617891E0,7.8112984E-1,0E0,0E0,0E0,0E0,0E0,0E0,0E0,0E0,0E0,0E0,0E0,0E0,0E0],"parents":[2147483647,0,0,1,1,2,2,3,3,4,4,5,5,6,6,7,7,8,8,9,9,11,11,12,12,13,13],"right_children":[2,4,6,8,10,12,14,16,18,20,-1,22,24,26,-1,-1,-1,-1,-1,-1,-1,-1,-1,-1,-1,-1,-1],"split_conditions":[3.3385E4,3.0688462E3,2E0,1E0,5E0,2.6436868E3,3.7292395E3,2.1974E3,7E0,1.8E1,2.8091941E-2,2.7E1,9.2211E4,8E0,-4.885144E-3,-1.7343389E-2,-3.1183774E-2,-2.2226298E-2,2.2056082E-2,3.5390237E-3,-1.6656665E-2,-7.78315E-3,-2.784397E-2,3.4822237E-2,-1.7844127E-2,2.43192E-2,4.9880322E-2],"split_indices":[0,2,1,24,1,2,2,2,3,3,0,3,0,1,0,0,0,0,0,0,0,0,0,0,0,0,0],"split_type":[0,0,0,0,0,0,0,0,0,0,0,0,0,0,0,0,0,0,0,0,0,0,0,0,0,0,0],"sum_hessian":[8.178303E1,4.308379E1,3.8699238E1,2.9845219E1,1.3238571E1,1.5519513E1,2.3179726E1,2.1452276E1,8.392941E0,1.1103366E1,2.1352053E0,6.5974226E0,8.922091E0,1.9627214E1,3.5525112E0,6.231137E0,1.522114E1,6.27124E0,2.1217008E0,4.28382E0,6.8195453E0,3.3160236E0,3.2813988E0,4.889634E0,4.032456E0,8.730778E0,1.0896437E1],"tree_param":{"num_deleted":"0","num_feature":"47","num_nodes":"27","size_leaf_vector":"1"}},{"base_weights":[-1.6395785E-2,6.3905835E-1,-1.0434942E-1,4.27947E-2,5.3993086E-3,-1.5090214E-1,3.7863716E-2,-1.9342996E-1,2.1393133E-2,-2.3740608E-2,-1.6233489E-3],"categories":[],"categories_nodes":[],"categories_segments":[],"categories_sizes":[],"default_left":[0,0,0,0,0,0,0,0,0,0,0],"id":23,"left_children":[1,3,5,-1,-1,7,-1,9,-1,-1,-1],"loss_changes":[4.7945943E0,1.0410757E0,3.0491083E0,0E0,0E0,1.8118976E0,0E0,2.9798043E0,0E0,0E0,0E0],"parents":[2147483647,0,0,1,1,2,2,5,5,7,7],"right_children":[2,4,6,-1,-1,8,-1,10,-1,-1,-1],"split_conditions":[2E0,1E0,1E0,4.27947E-2,5.3993086E-3,1E0,3.7863716E-2,1E0,2.1393133E-2,-2.3740608E-2,-1.6233489E-3],"split_indices":[3,1,39,0,0,21,0,1,0,0,0],"split_type":[0,0,0,0,0,0,0,0,0,0,0],"sum_hessian":[8.101117E1,8.843225E0,7.2167946E1,5.8450637E0,2.9981608E0,6.925123E1,2.9167154E0,6.513116E1,4.12007E0,2.299077E1,4.214039E1],"tree_param":{"num_deleted":"0","num_feature":"47","num_nodes":"11","size_leaf_vector":"1"}},{"base_weights":[1.3098841E-4,3.7792113E-1,-2.9946768E-1,4.7508678E-1,-2.6988491E-2,-3.7316748E-1,3.9046384E-2,3.9747465E-2,7.5278187E-1,-1.0328745E-1,-3.0344823E-2,-8.279549E-3,3.839523E-2,4.5046967E-2,1.1898231E-2,4.4138078E-3,-2.9372035E-2],"categories":[],"categories_nodes":[],"categories_segments":[],"categories_sizes":[],"default_left":[0,0,0,0,0,0,0,0,0,0,0,0,0,0,0,0,0],"id":24,"left_children":[1,3,5,7,-1,9,-1,11,13,15,-1,-1,-1,-1,-1,-1,-1],"loss_changes":[9.525281E0,3.575357E0,4.0286574E0,4.103259E0,0E0,2.751573E0,0E0,2.2758749E0,1.3735008E0,2.084041E0,0E0,0E0,0E0,0E0,0E0,0E0,0E0],"parents":[2147483647,0,0,1,1,2,2,3,3,5,5,7,7,8,8,9,9],"right_children":[2,4,6,8,-1,10,-1,12,14,16,-1,-1,-1,-1,-1,-1,-1],"split_conditions":[1.8777E4,1E0,1E0,7.47E3,-2.6988491E-2,2E0,3.9046384E-2,1.2E1,2E0,9.5921E4,-3.0344823E-2,-8.279549E-3,3.839523E-2,4.5046967E-2,1.1898231E-2,4.4138078E-3,-2.9372035E-2],"split_indices":[0,21,6,0,0,1,0,3,1,0,0,0,0,0,0,0,0],"split_type":[0,0,0,0,0,0,0,0,0,0,0,0,0,0,0,0,0],"sum_hessian":[8.215652E1,3.6220943E1,4.5935574E1,3.3189156E1,3.0317855E0,4.3614956E1,2.320618E0,1.3370896E1,1.9818262E1,2.0911255E1,2.2703701E1,1.1032381E1,2.3385143E0,1.4806993E1,5.011268E0,1.5568841E1,5.3424125E0],"tree_param":{"num_deleted":"0","num_feature":"47","num_nodes":"17","size_leaf_vector":"1"}},{"base_weights":[-1.2956056E-2,-3.4197283E-1,3.6339262E-1,-4.2336738E-1,1.0984423E-1,-9.0287484E-2,6.7104864E-1,-5.175045E-1,-3.9840072E-2,2.5938956E-2,-1.15054175E-2,-4.8169938E-1,2.2524005E-1,8.1411254E-1,-5.0395355E-3,-2.9439747E-2,-1.05098E-2,-1.5374255E-2,2.1471966E-2,-1.30539285E-2,-2.8459428E-2,3.373827E-2,-1.7615758E-2,4.569638E-2,1.6172409E-2],"categories":[],"categories_nodes":[],"categories_segments":[],"categories_sizes":[],"default_left":[0,0,0,0,0,0,0,0,0,0,0,0,0,0,0,0,0,0,0,0,0,0,0,0,0],"id":25,"left_children":[1,3,5,7,9,11,13,15,17,-1,-1,19,21,23,-1,-1,-1,-1,-1,-1,-1,-1,-1,-1,-1],"loss_changes":[1.0401496E1,1.6940026E0,5.5318985E0,1.357346E0,1.1804372E0,2.1736577E0,2.6744776E0,5.4577637E-1,1.2128555E0,0E0,0E0,1.6052723E-3,2.8183446E0,6.7980766E-1,0E0,0E0,0E0,0E0,0E0,0E0,0E0,0E0,0E0,0E0,0E0],"parents":[2147483647,0,0,1,1,2,2,3,3,4,4,5,5,6,6,7,7,8,8,11,11,12,12,13,13],"right_children":[2,4,6,8,10,12,14,16,18,-1,-1,20,22,24,-1,-1,-1,-1,-1,-1,-1,-1,-1,-1,-1],"split_conditions":[3.3385E4,1E0,2E0,3.0688462E3,3.7214995E3,2.6436868E3,3.7292395E3,1E0,1.1262E4,2.5938956E-2,-1.15054175E-2,2.7E1,9.2211E4,1E0,-5.0395355E-3,-2.9439747E-2,-1.05098E-2,-1.5374255E-2,2.1471966E-2,-1.30539285E-2,-2.8459428E-2,3.373827E-2,-1.7615758E-2,4.569638E-2,1.6172409E-2],"split_indices":[0,7,1,2,2,2,2,14,0,0,0,3,0,46,0,0,0,0,0,0,0,0,0,0,0],"split_type":[0,0,0,0,0,0,0,0,0,0,0,0,0,0,0,0,0,0,0,0,0,0,0,0,0],"sum_hessian":[8.199797E1,4.3798862E1,3.819911E1,3.7166336E1,6.632525E0,1.5721774E1,2.2477335E1,2.9561188E1,7.6051493E0,2.7720022E0,3.860523E0,6.782025E0,8.939749E0,1.8916338E1,3.560998E0,2.3251303E1,6.309884E0,5.0625734E0,2.5425758E0,3.0570948E0,3.7249298E0,4.932416E0,4.0073333E0,1.5001893E1,3.9144442E0],"tree_param":{"num_deleted":"0","num_feature":"47","num_nodes":"25","size_leaf_vector":"1"}},{"base_weights":[1.30340345E-2,1.16071336E-1,-4.8154488E-1,3.627441E-2,4.2043168E-2,1.9417348E-3,-3.202574E-2,-3.1505924E-2,1.6516005E-1,1.4498504E-2,-1.9432908E-2],"categories":[],"categories_nodes":[],"categories_segments":[],"categories_sizes":[],"default_left":[0,0,0,0,0,0,0,0,0,0,0],"id":26,"left_children":[1,3,5,-1,7,-1,-1,-1,9,-1,-1],"loss_changes":[4.239681E0,3.0710878E0,1.2119141E0,0E0,5.2650347E0,0E0,0E0,0E0,3.8108988E0,0E0,0E0],"parents":[2147483647,0,0,1,1,2,2,4,4,8,8],"right_children":[2,4,6,-1,8,-1,-1,-1,10,-1,-1],"split_conditions":[7E0,1.350585E3,2.9519E4,3.627441E-2,2.1273857E3,1.9417348E-3,-3.202574E-2,-3.1505924E-2,3.823871E3,1.4498504E-2,-1.9432908E-2],"split_indices":[1,2,0,0,2,0,0,0,2,0,0],"split_type":[0,0,0,0,0,0,0,0,0,0,0],"sum_hessian":[8.1099304E1,6.775003E1,1.3349279E1,6.3852253E0,6.1364803E1,3.300612E0,1.0048668E1,8.862355E0,5.2502445E1,4.3235245E1,9.267202E0],"tree_param":{"num_deleted":"0","num_feature":"47","num_nodes":"11","size_leaf_vector":"1"}},{"base_weights":[8.163349E-3,4.0283966E-1,-2.9678386E-1,5.035577E-1,-2.6706249E-2,-1.00462034E-1,-5.8225954E-1,1.0930955E-1,4.0483106E-2,1.973922E-2,-2.826333E-2,-3.1435844E-2,-1.6213348E-2,4.1180376E-2,-5.258062E-3,-2.7807686E-2,7.4919215E-3],"categories":[],"categories_nodes":[],"categories_segments":[],"categories_sizes":[],"default_left":[0,0,0,0,0,0,0,0,0,0,0,0,0,0,0,0,0],"id":27,"left_children":[1,3,5,7,-1,9,11,13,-1,15,-1,-1,-1,-1,-1,-1,-1],"loss_changes":[1.0001021E1,3.6861124E0,2.5695682E0,3.9193811E0,0E0,1.6310003E0,2.264309E-2,2.4874198E0,0E0,1.8816458E0,0E0,0E0,0E0,0E0,0E0,0E0,0E0],"parents":[2147483647,0,0,1,1,2,2,3,3,5,5,6,6,7,7,9,9],"right_children":[2,4,6,8,-1,10,12,14,-1,16,-1,-1,-1,-1,-1,-1,-1],"split_conditions":[1.8777E4,1E0,6.5384E4,7.47E3,-2.6706249E-2,9E0,1E0,5.434E3,4.0483106E-2,2E0,-2.826333E-2,-3.1435844E-2,-1.6213348E-2,4.1180376E-2,-5.258062E-3,-2.7807686E-2,7.4919215E-3],"split_indices":[0,21,0,0,0,1,28,0,0,3,0,0,0,0,0,0,0],"split_type":[0,0,0,0,0,0,0,0,0,0,0,0,0,0,0,0,0],"sum_hessian":[8.110235E1,3.5210426E1,4.5891922E1,3.2210552E1,2.9998736E0,2.7993015E1,1.7898907E1,1.4671478E1,1.7539076E1,2.3002073E1,4.990942E0,1.3949951E1,3.9489563E0,2.732076E0,1.1939402E1,3.6353056E0,1.9366768E1],"tree_param":{"num_deleted":"0","num_feature":"47","num_nodes":"17","size_leaf_vector":"1"}},{"base_weights":[1.1395759E-2,-3.241554E-1,3.874274E-1,-4.5000556E-1,-4.323508E-2,8.990075E-3,6.111976E-1,-5.501659E-1,-1.2940955E-1,-2.2584362E-1,3.0513743E-2,-1.7021666E-1,2.9985396E-2,7.4962115E-1,-9.918433E-3,-1.7389657E-2,-3.0541664E-2,-2.6156066E-2,9.9128345E-3,-6.662393E-4,-2.0808684E-2,1.2640503E-2,-1.4011233E-2,1.3074124E-2,4.164268E-2],"categories":[],"categories_nodes":[],"categories_segments":[],"categories_sizes":[],"default_left":[0,0,0,0,0,0,0,0,0,0,0,0,0,0,0,0,0,0,0,0,0,0,0,0,0],"id":28,"left_children":[1,3,5,7,9,11,13,15,17,19,-1,21,-1,23,-1,-1,-1,-1,-1,-1,-1,-1,-1,-1,-1],"loss_changes":[1.027068E1,1.5019269E0,3.243801E0,8.796997E-1,1.858684E0,1.7188492E0,2.8491402E0,6.0802937E-2,1.181795E0,4.7986835E-1,0E0,6.5239394E-1,0E0,6.268215E-1,0E0,0E0,0E0,0E0,0E0,0E0,0E0,0E0,0E0,0E0,0E0],"parents":[2147483647,0,0,1,1,2,2,3,3,4,4,5,5,6,6,7,7,8,8,9,9,11,11,13,13],"right_children":[2,4,6,8,10,12,14,16,18,20,-1,22,-1,24,-1,-1,-1,-1,-1,-1,-1,-1,-1,-1,-1],"split_conditions":[3.3385E4,3.0688462E3,2E0,1E0,4E0,3.5803464E3,3.7292395E3,2.1974E3,6.064E3,1E0,3.0513743E-2,6E0,2.9985396E-2,2E1,-9.918433E-3,-1.7389657E-2,-3.0541664E-2,-2.6156066E-2,9.9128345E-3,-6.662393E-4,-2.0808684E-2,1.2640503E-2,-1.4011233E-2,1.3074124E-2,4.164268E-2],"split_indices":[0,2,1,24,1,2,2,2,0,4,0,3,0,3,0,0,0,0,0,0,0,0,0,0,0],"split_type":[0,0,0,0,0,0,0,0,0,0,0,0,0,0,0,0,0,0,0,0,0,0,0,0,0],"sum_hessian":[7.940312E1,4.2033005E1,3.7370117E1,2.8612793E1,1.3420211E1,1.427262E1,2.3097498E1,2.1255955E1,7.3568377E0,1.1000723E1,2.4194882E0,1.14967E1,2.7759194E0,1.9788082E1,3.3094165E0,6.4553046E0,1.480065E1,3.0706956E0,4.2861423E0,5.7029395E0,5.297783E0,2.104791E0,9.39191E0,3.485869E0,1.6302214E1],"tree_param":{"num_deleted":"0","num_feature":"47","num_nodes":"25","size_leaf_vector":"1"}},{"base_weights":[-2.926206E-2,3.518161E-2,-9.980141E-2,-3.134131E-2,-1.5261023E-2,1.0681973E-1,-4.7160602E-1,1.2370872E-2,-3.1475794E-2,-3.2219075E-2,1.9676259E-2],"categories":[],"categories_nodes":[],"categories_segments":[],"categories_sizes":[],"default_left":[0,0,0,0,0,0,0,0,0,0,0],"id":29,"left_children":[1,-1,3,-1,5,7,9,-1,-1,-1,-1],"loss_changes":[4.3677278E0,0E0,3.4080021E0,0E0,3.7900455E0,5.7228346E0,2.398844E0,0E0,0E0,0E0,0E0],"parents":[2147483647,0,0,2,2,4,4,5,5,6,6],"right_children":[2,-1,4,-1,6,8,10,-1,-1,-1,-1],"split_conditions":[1.350585E3,3.518161E-2,2.1273857E3,-3.134131E-2,7E0,3.823871E3,3.579144E3,1.2370872E-2,-3.1475794E-2,-3.2219075E-2,1.9676259E-2],"split_indices":[2,0,2,0,1,2,2,0,0,0,0],"split_type":[0,0,0,0,0,0,0,0,0,0,0],"sum_hessian":[8.2127266E1,6.422573E0,7.57047E1,9.578405E0,6.612629E1,5.277415E1,1.335214E1,4.4870464E1,7.9036875E0,1.1342159E1,2.0099807E0],"tree_param":{"num_deleted":"0","num_feature":"47","num_nodes":"11","size_leaf_vector":"1"}},{"base_weights":[4.712151E-3,3.8916364E-1,-2.8534946E-1,1.9880334E-1,7.52778E-1,-3.5971686E-1,3.8298886E-2,4.110762E-1,-3.077955E-2,4.35843E-2,1.3370744E-2,-7.5478196E-2,-2.9899081E-2,-2.5079555E-3,4.0425524E-2,3.825276E-3,-2.7758947E-2],"categories":[],"categories_nodes":[],"categories_segments":[],"categories_sizes":[],"default_left":[0,0,0,0,0,0,0,0,0,0,0,0,0,0,0,0,0],"id":30,"left_children":[1,3,5,7,9,11,-1,13,-1,-1,-1,15,-1,-1,-1,-1,-1],"loss_changes":[8.938119E0,2.2357721E0,3.848057E0,4.3984394E0,4.2964745E-1,2.8910613E0,0E0,3.63728E0,0E0,0E0,0E0,1.5672982E0,0E0,0E0,0E0,0E0,0E0],"parents":[2147483647,0,0,1,1,2,2,3,3,4,4,5,5,7,7,11,11],"right_children":[2,4,6,8,10,12,-1,14,-1,-1,-1,16,-1,-1,-1,-1,-1],"split_conditions":[1.8777E4,1.3E1,1E0,9E0,1.3007E4,2E0,3.8298886E-2,7.397E3,-3.077955E-2,4.35843E-2,1.3370744E-2,9.5921E4,-2.9899081E-2,-2.5079555E-3,4.0425524E-2,3.825276E-3,-2.7758947E-2],"split_indices":[0,3,6,3,0,1,0,0,0,0,0,0,0,0,0,0,0],"split_type":[0,0,0,0,0,0,0,0,0,0,0,0,0,0,0,0,0],"sum_hessian":[7.815617E1,3.346266E1,4.4693512E1,2.297925E1,1.0483413E1,4.2355286E1,2.3382268E0,1.8620922E1,4.358329E0,7.781175E0,2.7022374E0,1.991473E1,2.2440554E1,9.023108E0,9.597815E0,1.57615185E1,4.153212E0],"tree_param":{"num_deleted":"0","num_feature":"47","num_nodes":"17","size_leaf_vector":"1"}},{"base_weights":[-1.5783126E-2,-3.4382832E-1,3.33261E-1,-4.135185E-1,2.3275688E-2,-6.458294E-2,5.9488875E-1,-4.956254E-1,-7.73839E-2,1.93104E-2,-1.5890842E-2,-4.0726483E-1,2.1501136E-1,7.2230667E-1,-5.6156097E-3,-2.8518153E-2,-9.453029E-3,-1.4633874E-2,1.6678372E-2,-2.4239263E-2,-6.8568117E-3,3.2229427E-2,-1.726777E-2,2.2941837E-2,4.5657553E-2],"categories":[],"categories_nodes":[],"categories_segments":[],"categories_sizes":[],"default_left":[0,0,0,0,0,0,0,0,0,0,0,0,0,0,0,0,0,0,0,0,0,0,0,0,0],"id":31,"left_children":[1,3,5,7,9,11,13,15,17,-1,-1,19,21,23,-1,-1,-1,-1,-1,-1,-1,-1,-1,-1,-1],"loss_changes":[9.517826E0,1.1052918E0,4.2326813E0,9.5651484E-1,1.0858237E0,1.7056687E0,2.2804775E0,5.51702E-1,8.285773E-1,0E0,0E0,9.9651694E-2,2.6189203E0,6.276674E-1,0E0,0E0,0E0,0E0,0E0,0E0,0E0,0E0,0E0,0E0,0E0],"parents":[2147483647,0,0,1,1,2,2,3,3,4,4,5,5,6,6,7,7,8,8,11,11,12,12,13,13],"right_children":[2,4,6,8,10,12,14,16,18,-1,-1,20,22,24,-1,-1,-1,-1,-1,-1,-1,-1,-1,-1,-1],"split_conditions":[3.3385E4,1E0,2E0,3.0688462E3,3.7214995E3,2.6436868E3,3.7292395E3,1E0,1.1262E4,1.93104E-2,-1.5890842E-2,6.5384E4,9.2211E4,8.4896E4,-5.6156097E-3,-2.8518153E-2,-9.453029E-3,-1.4633874E-2,1.6678372E-2,-2.4239263E-2,-6.8568117E-3,3.2229427E-2,-1.726777E-2,2.2941837E-2,4.5657553E-2],"split_indices":[0,7,1,2,2,2,2,14,0,0,0,0,0,0,0,0,0,0,0,0,0,0,0,0,0],"split_type":[0,0,0,0,0,0,0,0,0,0,0,0,0,0,0,0,0,0,0,0,0,0,0,0,0],"sum_hessian":[8.1122765E1,4.1827034E1,3.9295727E1,3.5047302E1,6.7797318E0,1.5888318E1,2.3407406E1,2.778567E1,7.2616343E0,3.2206256E0,3.5591059E0,6.9335976E0,8.9547205E0,1.9815792E1,3.591615E0,2.164767E1,6.138E0,4.954056E0,2.3075786E0,4.770059E0,2.1635382E0,4.983824E0,3.9708972E0,9.754069E0,1.0061723E1],"tree_param":{"num_deleted":"0","num_feature":"47","num_nodes":"25","size_leaf_vector":"1"}},{"base_weights":[-1.3849497E-2,5.9557986E-1,-9.715855E-2,3.948507E-2,5.435107E-3,-2.3797289E-1,1.276907E-1,-3.9861932E-1,-5.29474E-4,3.3032903E-1,-3.4720653E-1,-7.306637E-3,-3.3590242E-2,1.4911761E-2,-2.9779896E-2,2.3916153E-2,-2.4403317E-2,-3.02467E-2,1.1976748E-2],"categories":[],"categories_nodes":[],"categories_segments":[],"categories_sizes":[],"default_left":[0,0,0,0,0,0,0,0,0,0,0,0,0,0,0,0,0,0,0],"id":32,"left_children":[1,3,5,-1,-1,7,9,11,13,15,17,-1,-1,-1,-1,-1,-1,-1,-1],"loss_changes":[4.186581E0,8.5171986E-1,2.322731E0,0E0,0E0,1.7112842E0,2.8603644E0,1.7476835E0,3.574722E0,2.7176783E0,1.5090294E0,0E0,0E0,0E0,0E0,0E0,0E0,0E0,0E0],"parents":[2147483647,0,0,1,1,2,2,5,5,6,6,7,7,8,8,9,9,10,10],"right_children":[2,4,6,-1,-1,8,10,12,14,16,18,-1,-1,-1,-1,-1,-1,-1,-1],"split_conditions":[2E0,1E0,1E0,3.948507E-2,5.435107E-3,3.2E1,3.1970176E3,1.1E1,6.3E1,7E0,3E0,-7.306637E-3,-3.3590242E-2,1.4911761E-2,-2.9779896E-2,2.3916153E-2,-2.4403317E-2,-3.02467E-2,1.1976748E-2],"split_indices":[3,1,4,0,0,3,2,3,3,1,1,0,0,0,0,0,0,0,0],"split_type":[0,0,0,0,0,0,0,0,0,0,0,0,0,0,0,0,0,0,0],"sum_hessian":[8.032037E1,8.91988E0,7.140049E1,5.932557E0,2.987323E0,4.38688E1,2.7531689E1,2.5760973E1,1.810783E1,1.9510845E1,8.0208435E0,1.418535E1,1.1575623E1,1.2387359E1,5.7204714E0,1.687483E1,2.6360145E0,5.551381E0,2.4694622E0],"tree_param":{"num_deleted":"0","num_feature":"47","num_nodes":"19","size_leaf_vector":"1"}},{"base_weights":[-1.6603384E-2,3.3078226E-1,-2.9542175E-1,4.2380676E-1,-2.637144E-2,-8.681664E-2,-5.7191974E-1,7.765783E-2,6.3373125E-1,-3.005352E-2,9.403424E-2,-3.0885179E-2,-1.5475157E-2,3.9887067E-2,-8.918624E-3,3.9949782E-2,1.0675013E-2,-2.4699118E-2,1.0010452E-2],"categories":[],"categories_nodes":[],"categories_segments":[],"categories_sizes":[],"default_left":[0,0,0,0,0,0,0,0,0,0,0,0,0,0,0,0,0,0,0],"id":33,"left_children":[1,3,5,7,-1,9,11,13,15,-1,17,-1,-1,-1,-1,-1,-1,-1,-1],"loss_changes":[7.8131456E0,3.092737E0,2.5296388E0,2.3472252E0,0E0,2.5366652E0,3.7703037E-2,2.6477385E0,1.245451E0,0E0,1.3846209E0,0E0,0E0,0E0,0E0,0E0,0E0,0E0,0E0],"parents":[2147483647,0,0,1,1,2,2,3,3,5,5,6,6,7,7,8,8,10,10],"right_children":[2,4,6,8,-1,10,12,14,16,-1,18,-1,-1,-1,-1,-1,-1,-1,-1],"split_conditions":[1.8777E4,1E0,6.5384E4,7.397E3,-2.637144E-2,2.9519E4,1E0,5.434E3,2E0,-3.005352E-2,2E0,-3.0885179E-2,-1.5475157E-2,3.9887067E-2,-8.918624E-3,3.9949782E-2,1.0675013E-2,-2.4699118E-2,1.0010452E-2],"split_indices":[0,21,0,0,0,0,28,0,1,0,3,0,0,0,0,0,0,0,0],"split_type":[0,0,0,0,0,0,0,0,0,0,0,0,0,0,0,0,0,0,0],"sum_hessian":[7.865749E1,3.4939396E1,4.3718098E1,3.1979229E1,2.9601653E0,2.5667288E1,1.8050808E1,1.2589715E1,1.9389515E1,6.0735207E0,1.9593767E1,1.4216546E1,3.834263E0,2.7472591E0,9.842456E0,1.3269635E1,6.1198792E0,2.43817E0,1.7155598E1],"tree_param":{"num_deleted":"0","num_feature":"47","num_nodes":"19","size_leaf_vector":"1"}},{"base_weights":[-1.1503572E-2,-3.323463E-1,3.2999387E-1,-4.121085E-1,7.063863E-2,-8.6163245E-2,5.8955866E-1,-4.7607866E-1,-1.615346E-1,2.4955707E-2,-2.5434226E-1,2.2588294E-2,-2.3521428E-1,3.300114E-1,4.4770993E-2,-2.5807539E-2,-3.805248E-3,7.389275E-3,-1.8447448E-2,-2.4094515E-2,2.3819262E-3,9.453805E-3,-1.8102257E-2,3.602032E-2,4.0593236E-3],"categories":[],"categories_nodes":[],"categories_segments":[],"categories_sizes":[],"default_left":[0,0,0,0,0,0,0,0,0,0,0,0,0,0,0,0,0,0,0,0,0,0,0,0,0],"id":34,"left_children":[1,3,5,7,9,11,13,15,17,-1,19,-1,21,23,-1,-1,-1,-1,-1,-1,-1,-1,-1,-1,-1],"loss_changes":[9.233033E0,1.4250889E0,4.462019E0,5.0657463E-1,1.2450202E0,1.4339644E0,1.7111988E0,4.172578E-1,6.265873E-1,0E0,3.822425E-1,0E0,8.0160815E-1,1.4236665E0,0E0,0E0,0E0,0E0,0E0,0E0,0E0,0E0,0E0,0E0,0E0],"parents":[2147483647,0,0,1,1,2,2,3,3,4,4,5,5,6,6,7,7,8,8,10,10,12,12,13,13],"right_children":[2,4,6,8,10,12,14,16,18,-1,20,-1,22,24,-1,-1,-1,-1,-1,-1,-1,-1,-1,-1,-1],"split_conditions":[3.3385E4,1E0,2E0,1E0,1.8E1,6E0,9.2211E4,5E0,1E0,2.4955707E-2,2.1E1,2.2588294E-2,4.4989E4,5.6238E4,4.4770993E-2,-2.5807539E-2,-3.805248E-3,7.389275E-3,-1.8447448E-2,-2.4094515E-2,2.3819262E-3,9.453805E-3,-1.8102257E-2,3.602032E-2,4.0593236E-3],"split_indices":[0,7,1,14,3,3,0,1,5,0,3,0,0,0,0,0,0,0,0,0,0,0,0,0,0],"split_type":[0,0,0,0,0,0,0,0,0,0,0,0,0,0,0,0,0,0,0,0,0,0,0,0,0],"sum_hessian":[8.226743E1,4.2430267E1,3.983717E1,3.54008E1,7.0294685E0,1.5559253E1,2.4277916E1,2.7484262E1,7.916536E0,2.8008385E0,4.2286296E0,2.9351764E0,1.2624077E1,1.4257913E1,1.0020003E1,2.471744E1,2.766823E0,3.2930489E0,4.623487E0,2.0717578E0,2.156872E0,2.7922666E0,9.83181E0,4.812338E0,9.445575E0],"tree_param":{"num_deleted":"0","num_feature":"47","num_nodes":"25","size_leaf_vector":"1"}},{"base_weights":[1.743392E-2,5.7858247E-1,-6.033624E-2,8.707451E-3,3.469935E-2,-2.2206764E-1,1.8132836E-1,-3.880073E-1,2.8062936E-2,5.1367766E-1,-1.7446874E-2,-1.06272E-3,-3.3258285E-2,1.8155811E-2,-2.9500986E-2,-1.9998238E-3,4.115043E-2,-2.9779846E-2,1.0036083E-2],"categories":[],"categories_nodes":[],"categories_segments":[],"categories_sizes":[],"default_left":[0,0,0,0,0,0,0,0,0,0,0,0,0,0,0,0,0,0,0],"id":35,"left_children":[1,3,5,-1,-1,7,9,11,13,15,17,-1,-1,-1,-1,-1,-1,-1,-1],"loss_changes":[3.5675569E0,3.4343266E-1,2.8544083E0,0E0,0E0,1.8198917E0,1.9523623E0,2.6560423E0,4.0070686E0,1.9241397E0,2.563402E0,0E0,0E0,0E0,0E0,0E0,0E0,0E0,0E0],"parents":[2147483647,0,0,1,1,2,2,5,5,6,6,7,7,8,8,9,9,10,10],"right_children":[2,4,6,-1,-1,8,10,12,14,16,18,-1,-1,-1,-1,-1,-1,-1,-1],"split_conditions":[2E0,9.02E3,1E0,8.707451E-3,3.469935E-2,3.2E1,2.6811816E3,9.801E3,6.3E1,2.2294602E3,2.9447378E3,-1.06272E-3,-3.3258285E-2,1.8155811E-2,-2.9500986E-2,-1.9998238E-3,4.115043E-2,-2.9779846E-2,1.0036083E-2],"split_indices":[3,0,4,0,0,3,2,0,3,2,2,0,0,0,0,0,0,0,0],"split_type":[0,0,0,0,0,0,0,0,0,0,0,0,0,0,0,0,0,0,0],"sum_hessian":[7.994861E1,8.947623E0,7.100099E1,2.5433886E0,6.404235E0,4.258352E1,2.8417467E1,2.5268723E1,1.7314798E1,1.004244E1,1.8375027E1,1.133984E1,1.3928883E1,1.1495677E1,5.819122E0,3.9116476E0,6.1307926E0,4.5602655E0,1.3814761E1],"tree_param":{"num_deleted":"0","num_feature":"47","num_nodes":"19","size_leaf_vector":"1"}},{"base_weights":[-1.954839E-2,1.421643E-1,-3.0739969E-2,2.1312754E-1,-2.7755365E-2,-2.1291768E-2,2.8506684E-1,1.7497132E-2,-2.6854867E-2],"categories":[],"categories_nodes":[],"categories_segments":[],"categories_sizes":[],"default_left":[0,0,0,0,0,0,0,0,0],"id":36,"left_children":[1,3,-1,5,-1,-1,7,-1,-1],"loss_changes":[7.598898E0,3.1947818E0,0E0,2.7485924E0,0E0,0E0,2.9599514E0,0E0,0E0],"parents":[2147483647,0,0,1,1,3,3,6,6],"right_children":[2,4,-1,6,-1,-1,8,-1,-1],"split_conditions":[6.5384E4,9E0,-3.0739969E-2,2E0,-2.7755365E-2,-2.1291768E-2,1E0,1.7497132E-2,-2.6854867E-2],"split_indices":[0,1,0,3,0,0,21,0,0],"split_type":[0,0,0,0,0,0,0,0,0],"sum_hessian":[7.70337E1,6.1175285E1,1.585841E1,5.6154617E1,5.0206676E0,5.1847196E0,5.09699E1,4.7774452E1,3.1954477E0],"tree_param":{"num_deleted":"0","num_feature":"47","num_nodes":"9","size_leaf_vector":"1"}},{"base_weights":[2.0607475E-2,-3.238159E-1,3.6993462E-1,-3.9285213E-1,1.0101061E-1,4.4399017E-1,-2.8559938E-2,-4.7245246E-1,-1.0017421E-1,-1.4475037E-2,1.7841294E-2,2.5155827E-1,4.372923E-2,-2.7509734E-2,-8.842863E-3,-1.3891481E-2,1.0102554E-2,2.217453E-4,3.5990912E-2],"categories":[],"categories_nodes":[],"categories_segments":[],"categories_sizes":[],"default_left":[0,0,0,0,0,0,0,0,0,0,0,0,0,0,0,0,0,0,0],"id":37,"left_children":[1,3,5,7,9,11,-1,13,15,-1,-1,17,-1,-1,-1,-1,-1,-1,-1],"loss_changes":[9.473531E0,1.2034168E0,2.9761767E0,7.5263596E-1,7.368779E-1,2.8272943E0,0E0,5.168681E-1,5.1847994E-1,0E0,0E0,3.100507E0,0E0,0E0,0E0,0E0,0E0,0E0,0E0],"parents":[2147483647,0,0,1,1,2,2,3,3,4,4,5,5,7,7,8,8,11,11],"right_children":[2,4,6,8,10,12,-1,14,16,-1,-1,18,-1,-1,-1,-1,-1,-1,-1],"split_conditions":[3.3385E4,1E0,1E0,3.0688462E3,1E0,6.9E1,-2.8559938E-2,1E0,1.1262E4,-1.4475037E-2,1.7841294E-2,1E0,4.372923E-2,-2.7509734E-2,-8.842863E-3,-1.3891481E-2,1.0102554E-2,2.217453E-4,3.5990912E-2],"split_indices":[0,7,11,2,1,3,0,14,0,0,0,5,0,0,0,0,0,0,0],"split_type":[0,0,0,0,0,0,0,0,0,0,0,0,0,0,0,0,0,0,0],"sum_hessian":[7.674283E1,3.8679417E1,3.8063416E1,3.333723E1,5.3421865E0,3.5776485E1,2.286928E0,2.572618E1,7.61105E0,2.0623126E0,3.279874E0,2.5821234E1,9.955253E0,1.9687113E1,6.0390673E0,4.8442197E0,2.7668304E0,1.7562256E1,8.258978E0],"tree_param":{"num_deleted":"0","num_feature":"47","num_nodes":"19","size_leaf_vector":"1"}},{"base_weights":[-2.3143277E-2,4.9099883E-1,-8.53792E-2,3.4272954E-2,4.8270915E-3,-2.2966103E-1,1.5415506E-1,-1.5113208E-1,-3.0289436E-2,2.8159344E-1,-2.623232E-2,-1.4229285E-2,6.3291686E-3,3.2990508E-2,6.5494975E-4],"categories":[],"categories_nodes":[],"categories_segments":[],"categories_sizes":[],"default_left":[0,0,0,0,0,0,0,0,0,0,0,0,0,0,0],"id":38,"left_children":[1,3,5,-1,-1,7,9,11,-1,13,-1,-1,-1,-1,-1],"loss_changes":[2.5516205E0,5.948105E-1,2.4828227E0,0E0,0E0,1.2256944E0,2.5023217E0,1.4527714E0,0E0,2.384596E0,0E0,0E0,0E0,0E0,0E0],"parents":[2147483647,0,0,1,1,2,2,5,5,6,6,7,7,9,9],"right_children":[2,4,6,-1,-1,8,10,12,-1,14,-1,-1,-1,-1,-1],"split_conditions":[2E0,1E0,1E0,3.4272954E-2,4.8270915E-3,1E0,7E0,3.1E1,-3.0289436E-2,2.6811816E3,-2.623232E-2,-1.4229285E-2,6.3291686E-3,3.2990508E-2,6.5494975E-4],"split_indices":[3,1,4,0,0,16,1,3,0,2,0,0,0,0,0],"split_type":[0,0,0,0,0,0,0,0,0,0,0,0,0,0,0],"sum_hessian":[7.743274E1,7.6171107E0,6.981563E1,4.6078134E0,3.0092976E0,4.3596684E1,2.6218945E1,3.7226288E1,6.370395E0,2.2567312E1,3.6516328E0,2.5127E1,1.2099288E1,8.764164E0,1.3803148E1],"tree_param":{"num_deleted":"0","num_feature":"47","num_nodes":"15","size_leaf_vector":"1"}},{"base_weights":[3.3662552E-3,2.1248369E-1,-3.0038866E-1,-2.0874115E-2,2.9477167E-1,-4.0241995E-1,3.7222188E-2,3.9107103E-2,8.6467005E-2,-5.205676E-1,-5.330469E-2,-2.8287263E-3,4.6129853E-2,-3.1963438E-2,-5.02626E-3,4.0084552E-2,-2.1677896E-2],"categories":[],"categories_nodes":[],"categories_segments":[],"categories_sizes":[],"default_left":[0,0,0,0,0,0,0,0,0,0,0,0,0,0,0,0,0],"id":39,"left_children":[1,3,5,-1,7,9,-1,-1,11,13,15,-1,-1,-1,-1,-1,-1],"loss_changes":[5.275889E0,2.672629E0,3.9103668E0,0E0,4.408122E0,1.2717977E0,0E0,0E0,3.8806593E0,1.1037397E0,3.2997756E0,0E0,0E0,0E0,0E0,0E0,0E0],"parents":[2147483647,0,0,1,1,2,2,4,4,5,5,8,8,9,9,10,10],"right_children":[2,4,6,-1,8,10,-1,-1,12,14,16,-1,-1,-1,-1,-1,-1],"split_conditions":[2E0,1.350585E3,1E0,-2.0874115E-2,2.1929155E3,1E0,3.7222188E-2,3.9107103E-2,1E0,1E0,2.6E1,-2.8287263E-3,4.6129853E-2,-3.1963438E-2,-5.02626E-3,4.0084552E-2,-2.1677896E-2],"split_indices":[1,2,6,0,2,46,0,0,41,7,3,0,0,0,0,0,0],"split_type":[0,0,0,0,0,0,0,0,0,0,0,0,0,0,0,0,0],"sum_hessian":[8.105328E1,4.818276E1,3.2870525E1,5.096031E0,4.3086727E1,3.050633E1,2.3641953E0,1.2076514E1,3.1010214E1,2.242586E1,8.08047E0,2.7276249E1,3.7339656E0,1.7077858E1,5.3480015E0,2.1462774E0,5.9341927E0],"tree_param":{"num_deleted":"0","num_feature":"47","num_nodes":"17","size_leaf_vector":"1"}},{"base_weights":[6.295583E-4,-3.041744E-1,3.4295568E-1,-3.8062456E-1,6.767913E-2,4.1748032E-1,-2.8235778E-2,-4.7211426E-1,-5.6509152E-2,2.4270497E-2,-2.5161844E-1,2.6266146E-2,6.236481E-1,-2.744695E-2,-8.589735E-3,-1.3566292E-2,1.3220842E-2,-2.3970826E-2,2.4972924E-3,-1.5255513E-2,1.2923533E-2,3.852431E-2,-6.367399E-3],"categories":[],"categories_nodes":[],"categories_segments":[],"categories_sizes":[],"default_left":[0,0,0,0,0,0,0,0,0,0,0,0,0,0,0,0,0,0,0,0,0,0,0],"id":40,"left_children":[1,3,5,7,9,11,-1,13,15,-1,17,19,21,-1,-1,-1,-1,-1,-1,-1,-1,-1,-1],"loss_changes":[8.301269E0,1.2222085E0,2.7704854E0,1.0129766E0,1.1926688E0,2.8229775E0,0E0,5.3340006E-1,6.821426E-1,0E0,3.816876E-1,1.0940508E0,2.6355534E0,0E0,0E0,0E0,0E0,0E0,0E0,0E0,0E0,0E0,0E0],"parents":[2147483647,0,0,1,1,2,2,3,3,4,4,5,5,7,7,8,8,10,10,11,11,12,12],"right_children":[2,4,6,8,10,12,-1,14,16,-1,18,20,22,-1,-1,-1,-1,-1,-1,-1,-1,-1,-1],"split_conditions":[3.3385E4,1E0,1E0,3.0688462E3,1.8E1,2E0,-2.8235778E-2,1E0,1.1262E4,2.4270497E-2,2.1E1,2.6436868E3,3.7292395E3,-2.744695E-2,-8.589735E-3,-1.3566292E-2,1.3220842E-2,-2.3970826E-2,2.4972924E-3,-1.5255513E-2,1.2923533E-2,3.852431E-2,-6.367399E-3],"split_indices":[0,7,11,2,3,1,0,14,0,0,3,2,2,0,0,0,0,0,0,0,0,0,0],"split_type":[0,0,0,0,0,0,0,0,0,0,0,0,0,0,0,0,0,0,0,0,0,0,0],"sum_hessian":[7.755823E1,4.1086575E1,3.6471653E1,3.4060432E1,7.026145E0,3.4203423E1,2.2682297E0,2.6206394E1,7.854036E0,2.8185055E0,4.2076397E0,1.2193335E1,2.2010088E1,2.0208908E1,5.997487E0,4.797386E0,3.05665E0,2.0610108E0,2.1466286E0,4.8944907E0,7.2988443E0,1.8388697E1,3.6213918E0],"tree_param":{"num_deleted":"0","num_feature":"47","num_nodes":"23","size_leaf_vector":"1"}},{"base_weights":[1.3847226E-2,5.4191214E-1,-5.643223E-2,3.6287766E-2,4.439282E-3,-9.61737E-2,3.3988412E-2,-4.1508675E-2,-2.944451E-2,-9.127262E-3,8.901139E-3],"categories":[],"categories_nodes":[],"categories_segments":[],"categories_sizes":[],"default_left":[0,0,0,0,0,0,0,0,0,0,0],"id":41,"left_children":[1,3,5,-1,-1,7,-1,9,-1,-1,-1],"loss_changes":[3.1621013E0,7.690463E-1,2.2706654E0,0E0,0E0,1.9253418E0,0E0,2.083317E0,0E0,0E0,0E0],"parents":[2147483647,0,0,1,1,2,2,5,5,7,7],"right_children":[2,4,6,-1,-1,8,-1,10,-1,-1,-1],"split_conditions":[2E0,1E0,1E0,3.6287766E-2,4.439282E-3,3.9047893E3,3.3988412E-2,1E0,-2.944451E-2,-9.127262E-3,8.901139E-3],"split_indices":[3,1,39,0,0,2,0,4,0,0,0],"split_type":[0,0,0,0,0,0,0,0,0,0,0],"sum_hessian":[8.337999E1,9.005295E0,7.4374695E1,5.978164E0,3.0271308E0,7.139028E1,2.9844153E0,6.5236755E1,6.153526E0,3.9821903E1,2.541485E1],"tree_param":{"num_deleted":"0","num_feature":"47","num_nodes":"11","size_leaf_vector":"1"}},{"base_weights":[8.697481E-3,3.6578456E-1,-2.832765E-1,2.058966E-1,7.157436E-1,-9.452404E-2,-5.5150044E-1,3.786093E-1,-4.483952E-1,2.949999E-1,4.7643285E-2,1.4691041E-1,-3.293025E-1,-3.0016124E-2,-1.3517389E-2,7.435178E-4,3.7522096E-2,-9.4327815E-3,-2.7591616E-2,2.1488324E-2,3.4499224E-3,-2.3152966E-2,1.5263701E-2,2.4451483E-3,-2.4927078E-2],"categories":[],"categories_nodes":[],"categories_segments":[],"categories_sizes":[],"default_left":[0,0,0,0,0,0,0,0,0,0,0,0,0,0,0,0,0,0,0,0,0,0,0,0,0],"id":42,"left_children":[1,3,5,7,9,11,13,15,17,19,-1,21,23,-1,-1,-1,-1,-1,-1,-1,-1,-1,-1,-1,-1],"loss_changes":[8.262556E0,1.8467832E0,2.1560886E0,3.0927906E0,7.9365444E-1,1.5679392E0,8.215618E-2,2.8299901E0,5.3326964E-2,1.3272426E-1,0E0,1.4848351E0,9.1406214E-1,0E0,0E0,0E0,0E0,0E0,0E0,0E0,0E0,0E0,0E0,0E0,0E0],"parents":[2147483647,0,0,1,1,2,2,3,3,4,4,5,5,6,6,7,7,8,8,9,9,11,11,12,12],"right_children":[2,4,6,8,10,12,14,16,18,20,-1,22,24,-1,-1,-1,-1,-1,-1,-1,-1,-1,-1,-1,-1],"split_conditions":[1.8777E4,1.3E1,6.5384E4,9E0,3.30946E3,2E0,1E0,7.47E3,1E0,2E1,4.7643285E-2,2E0,2.6E1,-3.0016124E-2,-1.3517389E-2,7.435178E-4,3.7522096E-2,-9.4327815E-3,-2.7591616E-2,2.1488324E-2,3.4499224E-3,-2.3152966E-2,1.5263701E-2,2.4451483E-3,-2.4927078E-2],"split_indices":[0,3,0,3,2,1,28,0,1,3,0,3,3,0,0,0,0,0,0,0,0,0,0,0,0],"split_type":[0,0,0,0,0,0,0,0,0,0,0,0,0,0,0,0,0,0,0,0,0,0,0,0,0],"sum_hessian":[7.7255585E1,3.4638977E1,4.2616608E1,2.486644E1,9.772537E0,2.5807772E1,1.6808836E1,2.000665E1,4.859789E0,4.331289E0,5.441249E0,1.2908043E1,1.2899728E1,1.3354599E1,3.4542375E0,1.06391115E1,9.367538E0,2.1883984E0,2.6713905E0,2.1485066E0,2.182782E0,2.2639503E0,1.0644093E1,4.2076845E0,8.692043E0],"tree_param":{"num_deleted":"0","num_feature":"47","num_nodes":"25","size_leaf_vector":"1"}},{"base_weights":[-1.1279135E-2,-2.884784E-1,2.9593453E-1,-3.472834E-1,2.8770402E-2,9.620543E-2,4.1209877E-2,-4.0100533E-1,6.192432E-2,5.1159316E-1,-3.1531017E-2,-2.2289887E-2,7.978406E-4,1.107047E-2,-6.100182E-3,1.0388411E-2,3.6420938E-2,-1.15332855E-2,1.607447E-2],"categories":[],"categories_nodes":[],"categories_segments":[],"categories_sizes":[],"default_left":[0,0,0,0,0,0,0,0,0,0,0,0,0,0,0,0,0,0,0],"id":43,"left_children":[1,3,5,7,-1,9,-1,11,13,15,17,-1,-1,-1,-1,-1,-1,-1,-1],"loss_changes":[6.8359756E0,2.3424609E0,3.9398963E0,9.066458E-1,0E0,1.5428951E0,0E0,6.718464E-1,1.8897088E-1,2.9829562E-1,1.687425E0,0E0,0E0,0E0,0E0,0E0,0E0,0E0,0E0],"parents":[2147483647,0,0,1,1,2,2,3,3,5,5,7,7,8,8,9,9,10,10],"right_children":[2,4,6,8,-1,10,-1,12,14,16,18,-1,-1,-1,-1,-1,-1,-1,-1],"split_conditions":[2E0,4.552785E3,9.2211E4,1E0,2.8770402E-2,2.660669E3,4.1209877E-2,3.7609885E3,2.7885771E3,5.0679E4,8E0,-2.2289887E-2,7.978406E-4,1.107047E-2,-6.100182E-3,1.0388411E-2,3.6420938E-2,-1.15332855E-2,1.607447E-2],"split_indices":[1,2,0,14,0,2,0,2,2,0,1,0,0,0,0,0,0,0,0],"split_type":[0,0,0,0,0,0,0,0,0,0,0,0,0,0,0,0,0,0,0],"sum_hessian":[7.827023E1,4.1177086E1,3.709315E1,3.911267E1,2.0644119E0,2.7774214E1,9.318937E0,3.4591454E1,4.521219E0,5.825413E0,2.1948801E1,3.1173468E1,3.4179864E0,2.3123674E0,2.2088513E0,3.2415073E0,2.583906E0,1.4254562E1,7.694238E0],"tree_param":{"num_deleted":"0","num_feature":"47","num_nodes":"19","size_leaf_vector":"1"}},{"base_weights":[1.8130824E-2,6.0591114E-1,-4.180326E-2,3.4314033E-2,1.3757651E-2,-3.0292705E-2,4.2907644E-2,1.0337859E-1,-2.7190054E-2,-2.5309948E-3,1.6013427E-2],"categories":[],"categories_nodes":[],"categories_segments":[],"categories_sizes":[],"default_left":[0,0,0,0,0,0,0,0,0,0,0],"id":44,"left_children":[1,3,5,-1,-1,-1,7,9,-1,-1,-1],"loss_changes":[2.8566158E0,1.0574341E-2,3.5555425E0,0E0,0E0,0E0,2.3679268E0,2.0172334E0,0E0,0E0,0E0],"parents":[2147483647,0,0,1,1,2,2,6,6,7,7],"right_children":[2,4,6,-1,-1,-1,8,10,-1,-1,-1],"split_conditions":[1.350585E3,1E0,2.1273857E3,3.4314033E-2,1.3757651E-2,-3.0292705E-2,1.1E2,1E0,-2.7190054E-2,-2.5309948E-3,1.6013427E-2],"split_indices":[2,1,2,0,0,0,3,4,0,0,0],"split_type":[0,0,0,0,0,0,0,0,0,0,0],"sum_hessian":[7.937018E1,6.5013256E0,7.286886E1,4.3656597E0,2.1356661E0,8.7114315E0,6.4157425E1,5.890953E1,5.2478933E0,3.4897705E1,2.4011827E1],"tree_param":{"num_deleted":"0","num_feature":"47","num_nodes":"11","size_leaf_vector":"1"}},{"base_weights":[-1.4391417E-2,1.3172174E-1,-5.440342E-1,6.8517685E-2,4.4328865E-2,-2.967225E-2,-1.3913902E-2,4.8349085E-1,-9.4441526E-2,-1.7026873E-2,3.741018E-2,-8.228509E-3,4.2978287E-2],"categories":[],"categories_nodes":[],"categories_segments":[],"categories_sizes":[],"default_left":[0,0,0,0,0,0,0,0,0,0,0,0,0],"id":45,"left_children":[1,3,5,7,-1,-1,-1,9,11,-1,-1,-1,-1],"loss_changes":[6.1805596E0,2.929502E0,6.154394E-2,4.029845E0,0E0,0E0,0E0,3.914195E0,3.0277164E0,0E0,0E0,0E0,0E0],"parents":[2147483647,0,0,1,1,2,2,3,3,7,7,8,8],"right_children":[2,4,6,8,-1,-1,-1,10,12,-1,-1,-1,-1],"split_conditions":[6.5384E4,1E0,1E0,2.1929155E3,4.4328865E-2,-2.967225E-2,-1.3913902E-2,1.350585E3,1E0,-1.7026873E-2,3.741018E-2,-8.228509E-3,4.2978287E-2],"split_indices":[0,41,28,2,0,0,0,2,6,0,0,0,0],"split_type":[0,0,0,0,0,0,0,0,0,0,0,0,0],"sum_hessian":[7.7938805E1,6.1675594E1,1.6263214E1,5.7916973E1,3.7586184E0,1.2673792E1,3.5894227E0,1.5776194E1,4.214078E1,3.7661247E0,1.2010069E1,4.0025986E1,2.1147962E0],"tree_param":{"num_deleted":"0","num_feature":"47","num_nodes":"13","size_leaf_vector":"1"}},{"base_weights":[-7.1691712E-3,-2.9822E-1,3.0826834E-1,-3.7430093E-1,7.259516E-2,-5.547566E-2,5.1548535E-1,-4.646416E-1,-5.1946856E-2,2.366685E-2,-2.4050258E-1,2.1822399E-2,-2.1177E-1,6.3490164E-1,-6.9377096E-3,-2.7066717E-2,-7.130305E-3,-1.3061541E-2,1.2733735E-2,-2.3459202E-2,2.8662132E-3,-2.2385806E-2,-1.8548878E-3,1.9919483E-2,4.013798E-2],"categories":[],"categories_nodes":[],"categories_segments":[],"categories_sizes":[],"default_left":[0,0,0,0,0,0,0,0,0,0,0,0,0,0,0,0,0,0,0,0,0,0,0,0,0],"id":46,"left_children":[1,3,5,7,9,11,13,15,17,-1,19,-1,21,23,-1,-1,-1,-1,-1,-1,-1,-1,-1,-1,-1],"loss_changes":[7.40729E0,1.2106822E0,2.9478402E0,9.942856E-1,1.1150197E0,1.2425504E0,2.0233822E0,5.9433603E-1,6.300293E-1,0E0,3.771459E-1,0E0,4.7900093E-1,5.1893806E-1,0E0,0E0,0E0,0E0,0E0,0E0,0E0,0E0,0E0,0E0,0E0],"parents":[2147483647,0,0,1,1,2,2,3,3,4,4,5,5,6,6,7,7,8,8,10,10,12,12,13,13],"right_children":[2,4,6,8,10,12,14,16,18,-1,20,-1,22,24,-1,-1,-1,-1,-1,-1,-1,-1,-1,-1,-1],"split_conditions":[3.3385E4,1E0,2E0,3.0688462E3,1.8E1,6E0,3.7292395E3,1E0,1.1262E4,2.366685E-2,2.1E1,2.1822399E-2,2.6436868E3,8.4896E4,-6.9377096E-3,-2.7066717E-2,-7.130305E-3,-1.3061541E-2,1.2733735E-2,-2.3459202E-2,2.8662132E-3,-2.2385806E-2,-1.8548878E-3,1.9919483E-2,4.013798E-2],"split_indices":[0,7,1,2,3,3,2,14,0,0,3,0,2,0,0,0,0,0,0,0,0,0,0,0,0],"split_type":[0,0,0,0,0,0,0,0,0,0,0,0,0,0,0,0,0,0,0,0,0,0,0,0,0],"sum_hessian":[7.8680756E1,4.095063E1,3.773013E1,3.397127E1,6.979358E0,1.3959038E1,2.377109E1,2.6190037E1,7.7812347E0,2.836747E0,4.1426115E0,2.9335272E0,1.1025511E1,2.0126942E1,3.644149E0,2.0602562E1,5.587474E0,4.7126555E0,3.0685792E0,2.017867E0,2.1247444E0,4.0251656E0,7.000345E0,9.755214E0,1.0371727E1],"tree_param":{"num_deleted":"0","num_feature":"47","num_nodes":"25","size_leaf_vector":"1"}},{"base_weights":[2.7224801E-2,7.6892294E-2,-2.799671E-2,2.5356445E-2,3.4152664E-2,5.958567E-1,-2.6885362E-2,3.5491433E-2,1.354076E-2,-3.070648E-2,4.3380554E-3],"categories":[],"categories_nodes":[],"categories_segments":[],"categories_sizes":[],"default_left":[0,0,0,0,0,0,0,0,0,0,0],"id":47,"left_children":[1,3,-1,5,-1,7,9,-1,-1,-1,-1],"loss_changes":[2.3577378E0,2.2962492E0,0E0,2.0813026E0,0E0,2.4720669E-2,4.353841E0,0E0,0E0,0E0,0E0],"parents":[2147483647,0,0,1,1,3,3,5,5,6,6],"right_children":[2,4,-1,6,-1,8,10,-1,-1,-1,-1],"split_conditions":[1.41192E5,1.32774E5,-2.799671E-2,1.350585E3,3.4152664E-2,1E0,2.2294602E3,3.5491433E-2,1.354076E-2,-3.070648E-2,4.3380554E-3],"split_indices":[0,0,0,2,0,1,2,0,0,0,0],"split_type":[0,0,0,0,0,0,0,0,0,0,0],"sum_hessian":[7.8371315E1,7.3060234E1,5.311086E0,6.829557E1,4.7646637E0,4.8563747E0,6.3439194E1,2.7191334E0,2.1372414E0,9.5723295E0,5.3866863E1],"tree_param":{"num_deleted":"0","num_feature":"47","num_nodes":"11","size_leaf_vector":"1"}},{"base_weights":[1.6864369E-2,3.0893445E-1,-2.4579203E-1,3.9319503E-1,-2.6017321E-2,-3.2243773E-1,3.622546E-2,3.533885E-2,6.0211873E-1,-4.0210452E-2,-2.8312875E-2,3.6694136E-2,-1.0166378E-2,3.7391283E-2,9.773389E-3,-2.5692066E-2,4.9584405E-3],"categories":[],"categories_nodes":[],"categories_segments":[],"categories_sizes":[],"default_left":[0,0,0,0,0,0,0,0,0,0,0,0,0,0,0,0,0],"id":48,"left_children":[1,3,5,7,-1,9,-1,11,13,15,-1,-1,-1,-1,-1,-1,-1],"loss_changes":[6.1180835E0,2.8414218E0,3.3590589E0,2.582396E0,0E0,2.7050548E0,0E0,2.4665043E0,1.1529555E0,1.3349341E0,0E0,0E0,0E0,0E0,0E0,0E0,0E0],"parents":[2147483647,0,0,1,1,2,2,3,3,5,5,7,7,8,8,9,9],"right_children":[2,4,6,8,-1,10,-1,12,14,16,-1,-1,-1,-1,-1,-1,-1],"split_conditions":[1.8777E4,1E0,1E0,7.397E3,-2.6017321E-2,2E0,3.622546E-2,5.434E3,2E0,3E0,-2.8312875E-2,3.6694136E-2,-1.0166378E-2,3.7391283E-2,9.773389E-3,-2.5692066E-2,4.9584405E-3],"split_indices":[0,21,6,0,0,1,0,0,1,3,0,0,0,0,0,0,0],"split_type":[0,0,0,0,0,0,0,0,0,0,0,0,0,0,0,0,0],"sum_hessian":[7.776194E1,3.6735928E1,4.102601E1,3.3824944E1,2.9109843E0,3.8641357E1,2.384652E0,1.2899356E1,2.0925589E1,1.8449978E1,2.019138E1,2.756507E0,1.0142849E1,1.4787944E1,6.137645E0,3.5840878E0,1.486589E1],"tree_param":{"num_deleted":"0","num_feature":"47","num_nodes":"17","size_leaf_vector":"1"}},{"base_weights":[-4.0885128E-2,-1.6940497E-1,5.429512E-1,-2.7470893E-1,2.2126396E-1,1.4376399E-1,3.8361892E-2,-3.230133E-1,1.4443435E-2,-2.2935528E-2,3.429758E-2,3.2548156E-2,-1.2265844E-2,-1.8715633E-2,5.2151117E-3,-8.868854E-3,1.8747767E-2,8.424843E-3,-2.4284417E-2],"categories":[],"categories_nodes":[],"categories_segments":[],"categories_sizes":[],"default_left":[0,0,0,0,0,0,0,0,0,0,0,0,0,0,0,0,0,0,0],"id":49,"left_children":[1,3,5,7,9,11,-1,13,15,17,-1,-1,-1,-1,-1,-1,-1,-1,-1],"loss_changes":[5.841876E0,2.6758637E0,1.1487937E0,7.102485E-1,1.6101102E0,1.4008858E0,0E0,9.8884344E-1,6.327572E-1,9.8345065E-1,0E0,0E0,0E0,0E0,0E0,0E0,0E0,0E0,0E0],"parents":[2147483647,0,0,1,1,2,2,3,3,4,4,5,5,7,7,8,8,9,9],"right_children":[2,4,6,8,10,12,-1,14,16,18,-1,-1,-1,-1,-1,-1,-1,-1,-1],"split_conditions":[9E0,1E0,4.2E1,1E0,1E0,3.5E1,3.8361892E-2,1E0,2E1,1E0,3.429758E-2,3.2548156E-2,-1.2265844E-2,-1.8715633E-2,5.2151117E-3,-8.868854E-3,1.8747767E-2,8.424843E-3,-2.4284417E-2],"split_indices":[1,16,3,14,5,3,0,27,3,39,0,0,0,0,0,0,0,0,0],"split_type":[0,0,0,0,0,0,0,0,0,0,0,0,0,0,0,0,0,0,0],"sum_hessian":[7.562999E1,6.2566967E1,1.3063019E1,4.9516678E1,1.305029E1,5.2895727E0,7.7734456E0,4.23284E1,7.188279E0,9.177851E0,3.8724387E0,2.0040493E0,3.2855234E0,3.790226E1,4.4261394E0,5.023415E0,2.164864E0,6.9419675E0,2.2358835E0],"tree_param":{"num_deleted":"0","num_feature":"47","num_nodes":"19","size_leaf_vector":"1"}},{"base_weights":[1.651548E-3,9.0872936E-2,-4.437844E-1,-5.3171612E-2,3.0682674E-1,-3.0590346E-2,1.4732684E-2,5.8837667E-2,-3.0232936E-2,-7.243857E-2,5.885873E-1,-1.5073094E-2,1.4279254E-2,9.336273E-3,-2.8023615E-2,4.1331716E-2,2.1508355E-2],"categories":[],"categories_nodes":[],"categories_segments":[],"categories_sizes":[],"default_left":[0,0,0,0,0,0,0,0,0,0,0,0,0,0,0,0,0],"id":50,"left_children":[1,3,5,7,9,-1,-1,11,-1,13,15,-1,-1,-1,-1,-1,-1],"loss_changes":[3.2656791E0,2.1453807E0,1.881702E0,2.6244113E0,2.984938E0,0E0,0E0,3.0064332E0,0E0,1.7016721E0,2.4428844E-1,0E0,0E0,0E0,0E0,0E0,0E0],"parents":[2147483647,0,0,1,1,2,2,3,3,4,4,7,7,9,9,10,10],"right_children":[2,4,6,8,10,-1,-1,12,-1,14,16,-1,-1,-1,-1,-1,-1],"split_conditions":[7E0,1E0,1E0,3.4773833E3,1.7724E4,-3.0590346E-2,1.4732684E-2,1E0,-3.0232936E-2,3.0688462E3,3.2692E4,-1.5073094E-2,1.4279254E-2,9.336273E-3,-2.8023615E-2,4.1331716E-2,2.1508355E-2],"split_indices":[1,4,14,2,0,0,0,5,0,2,0,0,0,0,0,0,0],"split_type":[0,0,0,0,0,0,0,0,0,0,0,0,0,0,0,0,0],"sum_hessian":[8.01564E1,6.744339E1,1.2713008E1,4.090974E1,2.6533651E1,1.0496209E1,2.2167985E0,3.4746E1,6.163743E0,1.1626562E1,1.4907089E1,1.3293402E1,2.1452597E1,7.997164E0,3.6293988E0,4.2711487E0,1.0635941E1],"tree_param":{"num_deleted":"0","num_feature":"47","num_nodes":"17","size_leaf_vector":"1"}},{"base_weights":[-9.467736E-3,2.8614563E-1,-2.6926348E-1,3.6898494E-1,-2.5838206E-2,-3.454752E-1,3.4910094E-2,4.9668856E-2,5.527048E-1,-4.250865E-1,-1.4056905E-2,3.583936E-2,-9.294903E-3,3.5122897E-2,6.899912E-3,-1.3592914E-2,-2.9854095E-2,1.3798319E-2,-2.346306E-2],"categories":[],"categories_nodes":[],"categories_segments":[],"categories_sizes":[],"default_left":[0,0,0,0,0,0,0,0,0,0,0,0,0,0,0,0,0,0,0],"id":51,"left_children":[1,3,5,7,-1,9,-1,11,13,15,17,-1,-1,-1,-1,-1,-1,-1,-1],"loss_changes":[6.090429E0,2.6589658E0,3.3519726E0,1.9802213E0,0E0,1.0435581E0,0E0,2.270138E0,1.2460628E0,6.820636E-1,1.2831869E0,0E0,0E0,0E0,0E0,0E0,0E0,0E0,0E0],"parents":[2147483647,0,0,1,1,2,2,3,3,5,5,7,7,8,8,9,9,10,10],"right_children":[2,4,6,8,-1,10,-1,12,14,16,18,-1,-1,-1,-1,-1,-1,-1,-1],"split_conditions":[1.8777E4,1E0,1E0,7.397E3,-2.5838206E-2,1E0,3.4910094E-2,5.434E3,1E0,3.3E1,6.5384E4,3.583936E-2,-9.294903E-3,3.5122897E-2,6.899912E-3,-1.3592914E-2,-2.9854095E-2,1.3798319E-2,-2.346306E-2],"split_indices":[0,21,6,0,0,10,0,0,14,3,0,0,0,0,0,0,0,0,0],"split_type":[0,0,0,0,0,0,0,0,0,0,0,0,0,0,0,0,0,0,0],"sum_hessian":[7.730014E1,3.6110134E1,4.1190006E1,3.3222843E1,2.88729E0,3.877818E1,2.411829E0,1.2597678E1,2.0625166E1,3.103944E1,7.738737E0,2.7544217E0,9.843257E0,1.4643455E1,5.9817123E0,1.7780056E1,1.3259384E1,4.967535E0,2.7712018E0],"tree_param":{"num_deleted":"0","num_feature":"47","num_nodes":"19","size_leaf_vector":"1"}},{"base_weights":[-1.1610597E-2,-1.5372726E-1,6.5125096E-1,-3.5705116E-1,1.191224E-1,3.8767494E-2,-1.2144197E-3,-4.2364636E-1,-1.4238018E-2,1.9663598E-1,-2.7458344E-2,-2.5729096E-2,-5.299339E-4,1.3512141E-2,-1.2907743E-2,-1.8198729E-3,2.4204712E-2],"categories":[],"categories_nodes":[],"categories_segments":[],"categories_sizes":[],"default_left":[0,0,0,0,0,0,0,0,0,0,0,0,0,0,0,0,0],"id":52,"left_children":[1,3,5,7,9,-1,-1,11,13,15,-1,-1,-1,-1,-1,-1,-1],"loss_changes":[7.403642E0,3.6291447E0,1.1823187E0,8.4540844E-1,1.5768344E0,0E0,0E0,1.166213E0,5.625212E-1,1.7689798E0,0E0,0E0,0E0,0E0,0E0,0E0,0E0],"parents":[2147483647,0,0,1,1,2,2,3,3,4,4,7,7,8,8,9,9],"right_children":[2,4,6,8,10,-1,-1,12,14,16,-1,-1,-1,-1,-1,-1,-1],"split_conditions":[9E0,3.3385E4,3.579144E3,1E0,1E0,3.8767494E-2,-1.2144197E-3,1E0,1E0,2E0,-2.7458344E-2,-2.5729096E-2,-5.299339E-4,1.3512141E-2,-1.2907743E-2,-1.8198729E-3,2.4204712E-2],"split_indices":[1,0,2,14,11,0,0,7,5,1,0,0,0,0,0,0,0],"split_type":[0,0,0,0,0,0,0,0,0,0,0,0,0,0,0,0,0],"sum_hessian":[7.652911E1,6.3650593E1,1.287852E1,3.6295258E1,2.7355337E1,1.0755034E1,2.123486E0,3.0193956E1,6.101299E0,2.5144625E1,2.2107139E0,2.4544485E1,5.6494718E0,2.7666352E0,3.3346639E0,1.436928E1,1.0775345E1],"tree_param":{"num_deleted":"0","num_feature":"47","num_nodes":"17","size_leaf_vector":"1"}},{"base_weights":[-3.9884117E-3,4.9104786E-1,-7.1823776E-2,3.3089224E-2,3.768429E-3,-1.1127386E-1,3.1689696E-2,-6.676204E-2,-2.6783198E-2,-5.7994667E-3,3.634469E-2],"categories":[],"categories_nodes":[],"categories_segments":[],"categories_sizes":[],"default_left":[0,0,0,0,0,0,0,0,0,0,0],"id":53,"left_children":[1,3,5,-1,-1,7,-1,9,-1,-1,-1],"loss_changes":[2.7808115E0,6.5848374E-1,2.0964224E0,0E0,0E0,1.2823174E0,0E0,2.5962462E0,0E0,0E0,0E0],"parents":[2147483647,0,0,1,1,2,2,5,5,7,7],"right_children":[2,4,6,-1,-1,8,-1,10,-1,-1,-1],"split_conditions":[2E0,1E0,1E0,3.3089224E-2,3.768429E-3,1.1E2,3.1689696E-2,7.8E1,-2.6783198E-2,-5.7994667E-3,3.634469E-2],"split_indices":[3,1,39,0,0,3,0,3,0,0,0],"split_type":[0,0,0,0,0,0,0,0,0,0,0],"sum_hessian":[8.0758896E1,8.980906E0,7.177799E1,5.946413E0,3.0344925E0,6.877517E1,3.00282E0,6.329395E1,5.481223E0,6.040135E1,2.8925996E0],"tree_param":{"num_deleted":"0","num_feature":"47","num_nodes":"11","size_leaf_vector":"1"}},{"base_weights":[1.3334738E-4,2.9037356E-1,-2.5889838E-1,3.735261E-1,-2.5683483E-2,-3.3560124E-1,3.4286555E-2,2.8247168E-2,5.8319986E-1,-9.4094776E-2,-2.7676573E-2,3.49752E-2,-1.0039209E-2,3.5424814E-2,1.2363258E-2,1.7921217E-3,-2.565655E-2],"categories":[],"categories_nodes":[],"categories_segments":[],"categories_sizes":[],"default_left":[0,0,0,0,0,0,0,0,0,0,0,0,0,0,0,0,0],"id":54,"left_children":[1,3,5,7,-1,9,-1,11,13,15,-1,-1,-1,-1,-1,-1,-1],"loss_changes":[5.8617024E0,2.6501477E0,3.2152357E0,2.437848E0,0E0,1.9887729E0,0E0,2.2712104E0,7.104912E-1,1.0854735E0,0E0,0E0,0E0,0E0,0E0,0E0,0E0],"parents":[2147483647,0,0,1,1,2,2,3,3,5,5,7,7,8,8,9,9],"right_children":[2,4,6,8,-1,10,-1,12,14,16,-1,-1,-1,-1,-1,-1,-1],"split_conditions":[1.8777E4,1E0,1E0,7.397E3,-2.5683483E-2,2E0,3.4286555E-2,5.434E3,1E0,9.5921E4,-2.7676573E-2,3.49752E-2,-1.0039209E-2,3.5424814E-2,1.2363258E-2,1.7921217E-3,-2.565655E-2],"split_indices":[0,21,6,0,0,1,0,0,14,0,0,0,0,0,0,0,0],"split_type":[0,0,0,0,0,0,0,0,0,0,0,0,0,0,0,0,0],"sum_hessian":[7.596749E1,3.5768528E1,4.0198963E1,3.2901375E1,2.8671536E0,3.77763E1,2.422666E0,1.2859611E1,2.0041763E1,1.859804E1,1.9178257E1,2.7488768E0,1.0110734E1,1.3789534E1,6.2522297E0,1.4894066E1,3.7039747E0],"tree_param":{"num_deleted":"0","num_feature":"47","num_nodes":"17","size_leaf_vector":"1"}},{"base_weights":[-2.0306302E-2,-3.0978554E-1,2.809117E-1,-3.7279594E-1,2.8435564E-2,-1.05518125E-1,5.08408E-1,-4.541466E-1,-2.1253201E-1,1.809029E-2,-2.512982E-2,6.357881E-1,-7.926627E-3,-2.4771227E-2,-1.1077865E-2,1.3194479E-2,-1.5600721E-2,-1.41811585E-2,1.2073935E-2,3.596438E-2,1.2053355E-2],"categories":[],"categories_nodes":[],"categories_segments":[],"categories_sizes":[],"default_left":[0,0,0,0,0,0,0,0,0,0,0,0,0,0,0,0,0,0,0,0,0],"id":55,"left_children":[1,3,5,7,-1,9,11,13,15,17,-1,19,-1,-1,-1,-1,-1,-1,-1,-1,-1],"loss_changes":[6.7806406E0,2.4051988E0,3.4069483E0,3.933425E-1,0E0,7.434995E-1,2.1551151E0,1.2106514E-1,7.710126E-1,9.0262E-1,0E0,5.023651E-1,0E0,0E0,0E0,0E0,0E0,0E0,0E0,0E0,0E0],"parents":[2147483647,0,0,1,1,2,2,3,3,5,5,6,6,7,7,8,8,9,9,11,11],"right_children":[2,4,6,8,-1,10,12,14,16,18,-1,20,-1,-1,-1,-1,-1,-1,-1,-1,-1],"split_conditions":[2E0,4.552785E3,3.2692E4,3.3385E4,2.8435564E-2,2.9292E4,3.7292395E3,1E0,6E0,1.1262E4,-2.512982E-2,1E0,-7.926627E-3,-2.4771227E-2,-1.1077865E-2,1.3194479E-2,-1.5600721E-2,-1.41811585E-2,1.2073935E-2,3.596438E-2,1.2053355E-2],"split_indices":[1,2,0,0,0,0,2,14,3,0,0,46,0,0,0,0,0,0,0,0,0],"split_type":[0,0,0,0,0,0,0,0,0,0,0,0,0,0,0,0,0,0,0,0,0],"sum_hessian":[7.5764885E1,3.8620766E1,3.714412E1,3.657319E1,2.0475779E0,1.3962801E1,2.3181318E1,2.3042816E1,1.3530373E1,1.1375963E1,2.5868373E0,1.95031E1,3.6782196E0,1.8610031E1,4.4327855E0,2.0517778E0,1.1478595E1,4.7248425E0,6.6511207E0,1.5419071E1,4.0840287E0],"tree_param":{"num_deleted":"0","num_feature":"47","num_nodes":"21","size_leaf_vector":"1"}},{"base_weights":[5.581724E-3,4.805172E-1,-6.0733452E-2,3.225021E-2,3.907002E-3,-1.99885E-1,1.3933982E-1,-1.1802434E-1,-2.8839773E-2,2.347873E-1,-2.4471326E-2,-1.4164306E-2,1.5363458E-2,1.7512776E-2,-2.557973E-2],"categories":[],"categories_nodes":[],"categories_segments":[],"categories_sizes":[],"default_left":[0,0,0,0,0,0,0,0,0,0,0,0,0,0,0],"id":56,"left_children":[1,3,5,-1,-1,7,9,11,-1,13,-1,-1,-1,-1,-1],"loss_changes":[2.5598502E0,6.0860443E-1,2.0154798E0,0E0,0E0,1.2437881E0,1.9078419E0,2.6305656E0,0E0,2.4728355E0,0E0,0E0,0E0,0E0,0E0],"parents":[2147483647,0,0,1,1,2,2,5,5,6,6,7,7,9,9],"right_children":[2,4,6,-1,-1,8,10,12,-1,14,-1,-1,-1,-1,-1],"split_conditions":[2E0,1E0,1E0,3.225021E-2,3.907002E-3,5.2E1,7E0,3.2E1,-2.8839773E-2,3.823871E3,-2.4471326E-2,-1.4164306E-2,1.5363458E-2,1.7512776E-2,-2.557973E-2],"split_indices":[3,1,4,0,0,3,1,3,0,2,0,0,0,0,0],"split_type":[0,0,0,0,0,0,0,0,0,0,0,0,0,0,0],"sum_hessian":[7.935028E1,8.956896E0,7.039339E1,5.9298573E0,3.0270388E0,4.1518257E1,2.887513E1,3.518879E1,6.329468E0,2.5613552E1,3.2615771E0,2.5581976E1,9.606813E0,2.2641544E1,2.9720075E0],"tree_param":{"num_deleted":"0","num_feature":"47","num_nodes":"15","size_leaf_vector":"1"}},{"base_weights":[-4.048662E-3,1.2468716E-1,-5.2075166E-1,6.543147E-2,4.2115808E-2,-1.145501E-2,-2.8730614E-2,1.0151336E-2,3.954792E-2,-2.140671E-3,3.8833525E-2],"categories":[],"categories_nodes":[],"categories_segments":[],"categories_sizes":[],"default_left":[0,0,0,0,0,0,0,0,0,0,0],"id":57,"left_children":[1,3,5,7,-1,-1,-1,9,-1,-1,-1],"loss_changes":[5.261328E0,2.6385593E0,1.1615181E-1,2.3822823E0,0E0,0E0,0E0,2.3226645E0,0E0,0E0,0E0],"parents":[2147483647,0,0,1,1,2,2,3,3,7,7],"right_children":[2,4,6,8,-1,-1,-1,10,-1,-1,-1],"split_conditions":[6.5384E4,1E0,1.5E1,1E0,4.2115808E-2,-1.145501E-2,-2.8730614E-2,1E0,3.954792E-2,-2.140671E-3,3.8833525E-2],"split_indices":[0,41,3,11,0,0,0,42,0,0,0],"split_type":[0,0,0,0,0,0,0,0,0,0,0],"sum_hessian":[7.711995E1,6.234537E1,1.4774575E1,5.8598022E1,3.7473485E0,3.1221163E0,1.1652459E1,5.539156E1,3.206462E0,5.2694626E1,2.696935E0],"tree_param":{"num_deleted":"0","num_feature":"47","num_nodes":"11","size_leaf_vector":"1"}},{"base_weights":[-1.0041874E-2,-2.8326473E-1,2.8094864E-1,-3.5154107E-1,7.008632E-2,-6.68893E-2,5.231491E-1,-4.4208756E-1,-3.98414E-2,2.1068359E-2,-1.0450347E-2,-3.7132624E-1,1.7909543E-1,6.6809875E-1,-7.922621E-3,-2.6239866E-2,-7.816518E-3,-1.2052729E-2,1.2290809E-2,-5.1830616E-3,-2.670592E-2,2.9151365E-2,-1.66208E-2,6.8491907E-3,3.8672708E-2],"categories":[],"categories_nodes":[],"categories_segments":[],"categories_sizes":[],"default_left":[0,0,0,0,0,0,0,0,0,0,0,0,0,0,0,0,0,0,0,0,0,0,0,0,0],"id":58,"left_children":[1,3,5,7,9,11,13,15,17,-1,-1,19,21,23,-1,-1,-1,-1,-1,-1,-1,-1,-1,-1,-1],"loss_changes":[6.108729E0,9.802165E-1,3.171041E0,9.239397E-1,7.9864424E-1,1.2771766E0,2.2851415E0,5.2660847E-1,5.540632E-1,0E0,0E0,2.7362847E-1,2.1807055E0,9.2259693E-1,0E0,0E0,0E0,0E0,0E0,0E0,0E0,0E0,0E0,0E0,0E0],"parents":[2147483647,0,0,1,1,2,2,3,3,4,4,5,5,6,6,7,7,8,8,11,11,12,12,13,13],"right_children":[2,4,6,8,10,12,14,16,18,-1,-1,20,22,24,-1,-1,-1,-1,-1,-1,-1,-1,-1,-1,-1],"split_conditions":[3.3385E4,1E0,2E0,3.0688462E3,3.7214995E3,2.6436868E3,3.7292395E3,1E0,1.1262E4,2.1068359E-2,-1.0450347E-2,2.7E1,9.2211E4,2E1,-7.922621E-3,-2.6239866E-2,-7.816518E-3,-1.2052729E-2,1.2290809E-2,-5.1830616E-3,-2.670592E-2,2.9151365E-2,-1.66208E-2,6.8491907E-3,3.8672708E-2],"split_indices":[0,7,1,2,2,2,2,24,0,0,0,3,0,3,0,0,0,0,0,0,0,0,0,0,0],"split_type":[0,0,0,0,0,0,0,0,0,0,0,0,0,0,0,0,0,0,0,0,0,0,0,0,0],"sum_hessian":[7.48333E1,3.8608627E1,3.6224667E1,3.2360825E1,6.2478046E0,1.516671E1,2.1057957E1,2.4752182E1,7.608642E0,2.5404696E0,3.707335E0,6.550319E0,8.616391E0,1.7381426E1,3.676532E0,1.854732E1,6.2048626E0,4.555766E0,3.0528758E0,3.0962296E0,3.4540896E0,4.7363577E0,3.8800335E0,3.2579136E0,1.4123511E1],"tree_param":{"num_deleted":"0","num_feature":"47","num_nodes":"25","size_leaf_vector":"1"}},{"base_weights":[2.6495034E-2,7.1700506E-2,-2.7125401E-2,2.2006178E-2,3.4823995E-2,-2.8165987E-2,3.1089766E-2,8.6111034E-4,-2.8921112E-2],"categories":[],"categories_nodes":[],"categories_segments":[],"categories_sizes":[],"default_left":[0,0,0,0,0,0,0,0,0],"id":59,"left_children":[1,3,-1,5,-1,7,-1,-1,-1],"loss_changes":[2.1173368E0,2.3362453E0,0E0,2.1598783E0,0E0,1.6746366E0,0E0,0E0,0E0],"parents":[2147483647,0,0,1,1,3,3,5,5],"right_children":[2,4,-1,6,-1,8,-1,-1,-1],"split_conditions":[1.41192E5,1.32774E5,-2.7125401E-2,1E0,3.4823995E-2,1E0,3.1089766E-2,8.6111034E-4,-2.8921112E-2],"split_indices":[0,0,0,22,0,10,0,0,0],"split_type":[0,0,0,0,0,0,0,0,0],"sum_hessian":[7.980377E1,7.4739914E1,5.063857E0,7.019212E1,4.5477886E0,6.565329E1,4.538836E0,6.1545383E1,4.107904E0],"tree_param":{"num_deleted":"0","num_feature":"47","num_nodes":"9","size_leaf_vector":"1"}},{"base_weights":[-2.976351E-2,2.3706153E-1,-2.593311E-1,3.1702846E-1,-2.55293E-2,-3.350573E-1,3.4015607E-2,-6.703375E-2,5.3304493E-1,2.3158837E-2,-4.124239E-1,3.2160003E-2,-1.3754574E-2,3.307719E-2,7.846943E-3,-2.5525888E-2,2.740638E-2,-2.4194082E-2,3.802828E-4],"categories":[],"categories_nodes":[],"categories_segments":[],"categories_sizes":[],"default_left":[0,0,0,0,0,0,0,0,0,0,0,0,0,0,0,0,0,0,0],"id":60,"left_children":[1,3,5,7,-1,9,-1,11,13,15,17,-1,-1,-1,-1,-1,-1,-1,-1],"loss_changes":[4.737558E0,2.3038585E0,3.181739E0,2.7720559E0,0E0,1.0927749E0,0E0,2.062659E0,9.2176867E-1,2.490073E0,9.700451E-1,0E0,0E0,0E0,0E0,0E0,0E0,0E0,0E0],"parents":[2147483647,0,0,1,1,2,2,3,3,5,5,7,7,8,8,9,9,10,10],"right_children":[2,4,6,8,-1,10,-1,12,14,16,18,-1,-1,-1,-1,-1,-1,-1,-1],"split_conditions":[1.8777E4,1E0,1E0,7.397E3,-2.55293E-2,2.1273857E3,3.4015607E-2,5.434E3,1E0,5E0,1E0,3.2160003E-2,-1.3754574E-2,3.307719E-2,7.846943E-3,-2.5525888E-2,2.740638E-2,-2.4194082E-2,3.802828E-4],"split_indices":[0,21,6,0,0,2,0,0,14,3,10,0,0,0,0,0,0,0,0],"split_type":[0,0,0,0,0,0,0,0,0,0,0,0,0,0,0,0,0,0,0],"sum_hessian":[7.5338715E1,3.4826935E1,4.0511784E1,3.1982151E1,2.8447838E0,3.808585E1,2.4259315E0,1.1761214E1,2.0220936E1,6.8891206E0,3.119673E1,2.1908827E0,9.570332E0,1.450596E1,5.714977E0,3.4298775E0,3.459243E0,2.6531096E1,4.665634E0],"tree_param":{"num_deleted":"0","num_feature":"47","num_nodes":"19","size_leaf_vector":"1"}},{"base_weights":[2.5679865E-3,-2.9186404E-1,3.032862E-1,-3.5425958E-1,4.226158E-2,3.7197232E-1,-2.7358115E-2,-4.3327084E-1,-7.422365E-2,2.0318903E-2,-1.336231E-2,5.909241E-2,5.552257E-1,-2.5849132E-2,-7.821162E-3,-1.1734958E-2,8.972768E-3,2.638478E-2,-7.1871853E-3,3.52902E-2,-7.745939E-3],"categories":[],"categories_nodes":[],"categories_segments":[],"categories_sizes":[],"default_left":[0,0,0,0,0,0,0,0,0,0,0,0,0,0,0,0,0,0,0,0,0],"id":61,"left_children":[1,3,5,7,9,11,-1,13,15,-1,-1,17,19,-1,-1,-1,-1,-1,-1,-1,-1],"loss_changes":[6.6647105E0,8.0799127E-1,2.3785496E0,6.793957E-1,8.838472E-1,1.9766755E0,0E0,4.9563408E-1,3.7933818E-1,0E0,0E0,1.4126604E0,2.4600406E0,0E0,0E0,0E0,0E0,0E0,0E0,0E0,0E0],"parents":[2147483647,0,0,1,1,2,2,3,3,4,4,5,5,7,7,8,8,11,11,12,12],"right_children":[2,4,6,8,10,12,-1,14,16,-1,-1,18,20,-1,-1,-1,-1,-1,-1,-1,-1],"split_conditions":[3.3385E4,1E0,1E0,3.0688462E3,1.8E1,2E0,-2.7358115E-2,1E0,1.1262E4,2.0318903E-2,-1.336231E-2,1.5E1,3.7292395E3,-2.5849132E-2,-7.821162E-3,-1.1734958E-2,8.972768E-3,2.638478E-2,-7.1871853E-3,3.52902E-2,-7.745939E-3],"split_indices":[0,7,11,2,3,1,0,24,0,0,0,3,2,0,0,0,0,0,0,0,0],"split_type":[0,0,0,0,0,0,0,0,0,0,0,0,0,0,0,0,0,0,0,0,0],"sum_hessian":[7.32728E1,3.7038242E1,3.6234554E1,3.1159222E1,5.8790207E0,3.4047348E1,2.1872046E0,2.3875599E1,7.2836223E0,2.5574083E0,3.3216124E0,1.3064305E1,2.0983044E1,1.7666348E1,6.2092514E0,4.5072117E0,2.776411E0,3.4627905E0,9.601515E0,1.7317228E1,3.6658158E0],"tree_param":{"num_deleted":"0","num_feature":"47","num_nodes":"21","size_leaf_vector":"1"}},{"base_weights":[3.0235086E-2,4.59476E-1,-3.0090267E-2,3.1156836E-2,3.3481556E-3,2.6938375E-2,-2.8537184E-2,-1.110782E-1,2.3382796E-1,-2.0481765E-2,6.854598E-4,1.636216E-2,-2.2752268E-2],"categories":[],"categories_nodes":[],"categories_segments":[],"categories_sizes":[],"default_left":[0,0,0,0,0,0,0,0,0,0,0,0,0],"id":62,"left_children":[1,3,5,-1,-1,7,-1,9,11,-1,-1,-1,-1],"loss_changes":[2.0875843E0,5.9615517E-1,2.2093172E0,0E0,0E0,1.8911827E0,0E0,1.490674E0,1.8517092E0,0E0,0E0,0E0,0E0],"parents":[2147483647,0,0,1,1,2,2,5,5,7,7,8,8],"right_children":[2,4,6,-1,-1,8,-1,10,12,-1,-1,-1,-1],"split_conditions":[2E0,1E0,3.9047893E3,3.1156836E-2,3.3481556E-3,1E0,-2.8537184E-2,9E0,7E0,-2.0481765E-2,6.854598E-4,1.636216E-2,-2.2752268E-2],"split_indices":[3,1,2,0,0,4,0,3,1,0,0,0,0],"split_type":[0,0,0,0,0,0,0,0,0,0,0,0,0],"sum_hessian":[7.908611E1,8.929837E0,7.015628E1,5.8874645E0,3.0423732E0,6.432173E1,5.834543E0,3.886074E1,2.5460995E1,1.0781958E1,2.8078781E1,2.2882898E1,2.578096E0],"tree_param":{"num_deleted":"0","num_feature":"47","num_nodes":"13","size_leaf_vector":"1"}},{"base_weights":[1.0342206E-2,1.3356455E-1,-5.085549E-1,7.5127825E-2,4.110339E-2,-2.8286219E-2,-1.1109114E-2,1.826696E-2,3.9803725E-2,9.760945E-3,-1.2502168E-2],"categories":[],"categories_nodes":[],"categories_segments":[],"categories_sizes":[],"default_left":[0,0,0,0,0,0,0,0,0,0,0],"id":63,"left_children":[1,3,5,7,-1,-1,-1,9,-1,-1,-1],"loss_changes":[4.8876524E0,2.420911E0,1.1453271E-1,2.3622303E0,0E0,0E0,0E0,2.648901E0,0E0,0E0,0E0],"parents":[2147483647,0,0,1,1,2,2,3,3,7,7],"right_children":[2,4,6,8,-1,-1,-1,10,-1,-1,-1],"split_conditions":[6.5384E4,1E0,1E0,1E0,4.110339E-2,-2.8286219E-2,-1.1109114E-2,1.8777E4,3.9803725E-2,9.760945E-3,-1.2502168E-2],"split_indices":[0,41,28,6,0,0,0,0,0,0,0],"split_type":[0,0,0,0,0,0,0,0,0,0,0],"sum_hessian":[7.437924E1,6.0706005E1,1.3673238E1,5.6979027E1,3.7269783E0,1.0584698E1,3.0885398E0,5.376401E1,3.215016E0,3.2561775E1,2.1202234E1],"tree_param":{"num_deleted":"0","num_feature":"47","num_nodes":"11","size_leaf_vector":"1"}},{"base_weights":[-1.8348936E-2,-2.794812E-1,2.4449165E-1,-4.0559635E-1,-4.0735364E-2,-4.480482E-2,4.2696413E-1,-4.817134E-1,-1.0624197E-1,-1.6710466E-1,2.2258122E-2,2.721187E-1,-2.884017E-1,5.436052E-1,-7.82494E-3,-1.5291117E-2,-2.9186925E-2,1.07876705E-2,-2.4182416E-2,6.824021E-3,-1.32434545E-2,-6.1314576E-3,2.4028167E-2,-2.5298862E-2,-5.40398E-3,3.4192033E-2,1.4970854E-2],"categories":[],"categories_nodes":[],"categories_segments":[],"categories_sizes":[],"default_left":[0,0,0,0,0,0,0,0,0,0,0,0,0,0,0,0,0,0,0,0,0,0,0,0,0,0,0],"id":64,"left_children":[1,3,5,7,9,11,13,15,17,19,-1,21,23,25,-1,-1,-1,-1,-1,-1,-1,-1,-1,-1,-1,-1,-1],"loss_changes":[5.2175746E0,1.13065E0,2.0209935E0,5.1434755E-1,9.512806E-1,1.2807184E0,1.6741428E0,1.7149687E-1,8.716905E-1,3.941047E-1,0E0,6.5813994E-1,3.0981255E-1,4.6926403E-1,0E0,0E0,0E0,0E0,0E0,0E0,0E0,0E0,0E0,0E0,0E0,0E0,0E0],"parents":[2147483647,0,0,1,1,2,2,3,3,4,4,5,5,6,6,7,7,8,8,9,9,11,11,12,12,13,13],"right_children":[2,4,6,8,10,12,14,16,18,20,-1,22,24,26,-1,-1,-1,-1,-1,-1,-1,-1,-1,-1,-1,-1,-1],"split_conditions":[3.3385E4,3.0688462E3,2E0,1E0,5E0,2.3E1,3.7292395E3,2.4114656E3,4E0,3.421175E3,2.2258122E-2,2.120979E3,2.243975E3,3.0180156E3,-7.82494E-3,-1.5291117E-2,-2.9186925E-2,1.07876705E-2,-2.4182416E-2,6.824021E-3,-1.32434545E-2,-6.1314576E-3,2.4028167E-2,-2.5298862E-2,-5.40398E-3,3.4192033E-2,1.4970854E-2],"split_indices":[0,2,1,14,1,3,2,2,1,2,0,2,2,2,0,0,0,0,0,0,0,0,0,0,0,0,0],"split_type":[0,0,0,0,0,0,0,0,0,0,0,0,0,0,0,0,0,0,0,0,0,0,0,0,0,0,0],"sum_hessian":[7.40223E1,3.710006E1,3.692224E1,2.381903E1,1.3281031E1,1.4572727E1,2.2349516E1,1.8504662E1,5.3143687E0,1.1060559E1,2.2204711E0,6.282285E0,8.290442E0,1.8682896E1,3.6666188E0,8.260717E0,1.0243944E1,3.0988336E0,2.2155352E0,2.5977688E0,8.4627905E0,2.3132322E0,3.969053E0,2.938682E0,5.35176E0,1.072382E1,7.9590764E0],"tree_param":{"num_deleted":"0","num_feature":"47","num_nodes":"27","size_leaf_vector":"1"}},{"base_weights":[1.2247389E-2,5.794057E-1,-6.0165096E-2,3.7069302E-2,7.04176E-3,-3.5928753E-1,3.5905585E-2,1.11446604E-1,-3.0523578E-2,5.8322906E-1,-6.170636E-2,-2.690783E-2,4.0850718E-2,4.361765E-2,2.4974754E-3,-3.0868817E-2,3.183712E-3],"categories":[],"categories_nodes":[],"categories_segments":[],"categories_sizes":[],"default_left":[0,0,0,0,0,0,0,0,0,0,0,0,0,0,0,0,0],"id":65,"left_children":[1,3,5,-1,-1,7,9,11,-1,13,15,-1,-1,-1,-1,-1,-1],"loss_changes":[3.2547252E0,5.328586E-1,2.0368416E0,0E0,0E0,2.103229E0,2.9325912E0,3.57218E0,0E0,1.2364035E0,3.3079715E0,0E0,0E0,0E0,0E0,0E0,0E0],"parents":[2147483647,0,0,1,1,2,2,5,5,6,6,