{"learner":{"attributes":{"scikit_learn":"{\"_estimator_type\": \"classifier\"}"},"feature_names":[],"feature_types":[],"gradient_booster":{"model":{"cats":{"enc":[],"feature_segments":[],"sorted_idx":[]},"gbtree_model_param":{"num_parallel_tree":"1","num_trees":"3000"},"iteration_indptr":[0,3,6,9,12,15,18,21,24,27,30,33,36,39,42,45,48,51,54,57,60,63,66,69,72,75,78,81,84,87,90,93,96,99,102,105,108,111,114,117,120,123,126,129,132,135,138,141,144,147,150,153,156,159,162,165,168,171,174,177,180,183,186,189,192,195,198,201,204,207,210,213,216,219,222,225,228,231,234,237,240,243,246,249,252,255,258,261,264,267,270,273,276,279,282,285,288,291,294,297,300,303,306,309,312,315,318,321,324,327,330,333,336,339,342,345,348,351,354,357,360,363,366,369,372,375,378,381,384,387,390,393,396,399,402,405,408,411,414,417,420,423,426,429,432,435,438,441,444,447,450,453,456,459,462,465,468,471,474,477,480,483,486,489,492,495,498,501,504,507,510,513,516,519,522,525,528,531,534,537,540,543,546,549,552,555,558,561,564,567,570,573,576,579,582,585,588,591,594,597,600,603,606,609,612,615,618,621,624,627,630,633,636,639,642,645,648,651,654,657,660,663,666,669,672,675,678,681,684,687,690,693,696,699,702,705,708,711,714,717,720,723,726,729,732,735,738,741,744,747,750,753,756,759,762,765,768,771,774,777,780,783,786,789,792,795,798,801,804,807,810,813,816,819,822,825,828,831,834,837,840,843,846,849,852,855,858,861,864,867,870,873,876,879,882,885,888,891,894,897,900,903,906,909,912,915,918,921,924,927,930,933,936,939,942,945,948,951,954,957,960,963,966,969,972,975,978,981,984,987,990,993,996,999,1002,1005,1008,1011,1014,1017,1020,1023,1026,1029,1032,1035,1038,1041,1044,1047,1050,1053,1056,1059,1062,1065,1068,1071,1074,1077,1080,1083,1086,1089,1092,1095,1098,1101,1104,1107,1110,1113,1116,1119,1122,1125,1128,1131,1134,1137,1140,1143,1146,1149,1152,1155,1158,1161,1164,1167,1170,1173,1176,1179,1182,1185,1188,1191,1194,1197,1200,1203,1206,1209,1212,1215,1218,1221,1224,1227,1230,1233,1236,1239,1242,1245,1248,1251,1254,1257,1260,1263,1266,1269,1272,1275,1278,1281,1284,1287,1290,1293,1296,1299,1302,1305,1308,1311,1314,1317,1320,1323,1326,1329,1332,1335,1338,1341,1344,1347,1350,1353,1356,1359,1362,1365,1368,1371,1374,1377,1380,1383,1386,1389,1392,1395,1398,1401,1404,1407,1410,1413,1416,1419,1422,1425,1428,1431,1434,1437,1440,1443,1446,1449,1452,1455,1458,1461,1464,1467,1470,1473,1476,1479,1482,1485,1488,1491,1494,1497,1500,1503,1506,1509,1512,1515,1518,1521,1524,1527,1530,1533,1536,1539,1542,1545,1548,1551,1554,1557,1560,1563,1566,1569,1572,1575,1578,1581,1584,1587,1590,1593,1596,1599,1602,1605,1608,1611,1614,1617,1620,1623,1626,1629,1632,1635,1638,1641,1644,1647,1650,1653,1656,1659,1662,1665,1668,1671,1674,1677,1680,1683,1686,1689,1692,1695,1698,1701,1704,1707,1710,1713,1716,1719,1722,1725,1728,1731,1734,1737,1740,1743,1746,1749,1752,1755,1758,1761,1764,1767,1770,1773,1776,1779,1782,1785,1788,1791,1794,1797,1800,1803,1806,1809,1812,1815,1818,1821,1824,1827,1830,1833,1836,1839,1842,1845,1848,1851,1854,1857,1860,1863,1866,1869,1872,1875,1878,1881,1884,1887,1890,1893,1896,1899,1902,1905,1908,1911,1914,1917,1920,1923,1926,1929,1932,1935,1938,1941,1944,1947,1950,1953,1956,1959,1962,1965,1968,1971,1974,1977,1980,1983,1986,1989,1992,1995,1998,2001,2004,2007,2010,2013,2016,2019,2022,2025,2028,2031,2034,2037,2040,2043,2046,2049,2052,2055,2058,2061,2064,2067,2070,2073,2076,2079,2082,2085,2088,2091,2094,2097,2100,2103,2106,2109,2112,2115,2118,2121,2124,2127,2130,2133,2136,2139,2142,2145,2148,2151,2154,2157,2160,2163,2166,2169,2172,2175,2178,2181,2184,2187,2190,2193,2196,2199,2202,2205,2208,2211,2214,2217,2220,2223,2226,2229,2232,2235,2238,2241,2244,2247,2250,2253,2256,2259,2262,2265,2268,2271,2274,2277,2280,2283,2286,2289,2292,2295,2298,2301,2304,2307,2310,2313,2316,2319,2322,2325,2328,2331,2334,2337,2340,2343,2346,2349,2352,2355,2358,2361,2364,2367,2370,2373,2376,2379,2382,2385,2388,2391,2394,2397,2400,2403,2406,2409,2412,2415,2418,2421,2424,2427,2430,2433,2436,2439,2442,2445,2448,2451,2454,2457,2460,2463,2466,2469,2472,2475,2478,2481,2484,2487,2490,2493,2496,2499,2502,2505,2508,2511,2514,2517,2520,2523,2526,2529,2532,2535,2538,2541,2544,2547,2550,2553,2556,2559,2562,2565,2568,2571,2574,2577,2580,2583,2586,2589,2592,2595,2598,2601,2604,2607,2610,2613,2616,2619,2622,2625,2628,2631,2634,2637,2640,2643,2646,2649,2652,2655,2658,2661,2664,2667,2670,2673,2676,2679,2682,2685,2688,2691,2694,2697,2700,2703,2706,2709,2712,2715,2718,2721,2724,2727,2730,2733,2736,2739,2742,2745,2748,2751,2754,2757,2760,2763,2766,2769,2772,2775,2778,2781,2784,2787,2790,2793,2796,2799,2802,2805,2808,2811,2814,2817,2820,2823,2826,2829,2832,2835,2838,2841,2844,2847,2850,2853,2856,2859,2862,2865,2868,2871,2874,2877,2880,2883,2886,2889,2892,2895,2898,2901,2904,2907,2910,2913,2916,2919,2922,2925,2928,2931,2934,2937,2940,2943,2946,2949,2952,2955,2958,2961,2964,2967,2970,2973,2976,2979,2982,2985,2988,2991,2994,2997,3000],"tree_info":[0,1,2,0,1,2,0,1,2,0,1,2,0,1,2,0,1,2,0,1,2,0,1,2,0,1,2,0,1,2,0,1,2,0,1,2,0,1,2,0,1,2,0,1,2,0,1,2,0,1,2,0,1,2,0,1,2,0,1,2,0,1,2,0,1,2,0,1,2,0,1,2,0,1,2,0,1,2,0,1,2,0,1,2,0,1,2,0,1,2,0,1,2,0,1,2,0,1,2,0,1,2,0,1,2,0,1,2,0,1,2,0,1,2,0,1,2,0,1,2,0,1,2,0,1,2,0,1,2,0,1,2,0,1,2,0,1,2,0,1,2,0,1,2,0,1,2,0,1,2,0,1,2,0,1,2,0,1,2,0,1,2,0,1,2,0,1,2,0,1,2,0,1,2,0,1,2,0,1,2,0,1,2,0,1,2,0,1,2,0,1,2,0,1,2,0,1,2,0,1,2,0,1,2,0,1,2,0,1,2,0,1,2,0,1,2,0,1,2,0,1,2,0,1,2,0,1,2,0,1,2,0,1,2,0,1,2,0,1,2,0,1,2,0,1,2,0,1,2,0,1,2,0,1,2,0,1,2,0,1,2,0,1,2,0,1,2,0,1,2,0,1,2,0,1,2,0,1,2,0,1,2,0,1,2,0,1,2,0,1,2,0,1,2,0,1,2,0,1,2,0,1,2,0,1,2,0,1,2,0,1,2,0,1,2,0,1,2,0,1,2,0,1,2,0,1,2,0,1,2,0,1,2,0,1,2,0,1,2,0,1,2,0,1,2,0,1,2,0,1,2,0,1,2,0,1,2,0,1,2,0,1,2,0,1,2,0,1,2,0,1,2,0,1,2,0,1,2,0,1,2,0,1,2,0,1,2,0,1,2,0,1,2,0,1,2,0,1,2,0,1,2,0,1,2,0,1,2,0,1,2,0,1,2,0,1,2,0,1,2,0,1,2,0,1,2,0,1,2,0,1,2,0,1,2,0,1,2,0,1,2,0,1,2,0,1,2,0,1,2,0,1,2,0,1,2,0,1,2,0,1,2,0,1,2,0,1,2,0,1,2,0,1,2,0,1,2,0,1,2,0,1,2,0,1,2,0,1,2,0,1,2,0,1,2,0,1,2,0,1,2,0,1,2,0,1,2,0,1,2,0,1,2,0,1,2,0,1,2,0,1,2,0,1,2,0,1,2,0,1,2,0,1,2,0,1,2,0,1,2,0,1,2,0,1,2,0,1,2,0,1,2,0,1,2,0,1,2,0,1,2,0,1,2,0,1,2,0,1,2,0,1,2,0,1,2,0,1,2,0,1,2,0,1,2,0,1,2,0,1,2,0,1,2,0,1,2,0,1,2,0,1,2,0,1,2,0,1,2,0,1,2,0,1,2,0,1,2,0,1,2,0,1,2,0,1,2,0,1,2,0,1,2,0,1,2,0,1,2,0,1,2,0,1,2,0,1,2,0,1,2,0,1,2,0,1,2,0,1,2,0,1,2,0,1,2,0,1,2,0,1,2,0,1,2,0,1,2,0,1,2,0,1,2,0,1,2,0,1,2,0,1,2,0,1,2,0,1,2,0,1,2,0,1,2,0,1,2,0,1,2,0,1,2,0,1,2,0,1,2,0,1,2,0,1,2,0,1,2,0,1,2,0,1,2,0,1,2,0,1,2,0,1,2,0,1,2,0,1,2,0,1,2,0,1,2,0,1,2,0,1,2,0,1,2,0,1,2,0,1,2,0,1,2,0,1,2,0,1,2,0,1,2,0,1,2,0,1,2,0,1,2,0,1,2,0,1,2,0,1,2,0,1,2,0,1,2,0,1,2,0,1,2,0,1,2,0,1,2,0,1,2,0,1,2,0,1,2,0,1,2,0,1,2,0,1,2,0,1,2,0,1,2,0,1,2,0,1,2,0,1,2,0,1,2,0,1,2,0,1,2,0,1,2,0,1,2,0,1,2,0,1,2,0,1,2,0,1,2,0,1,2,0,1,2,0,1,2,0,1,2,0,1,2,0,1,2,0,1,2,0,1,2,0,1,2,0,1,2,0,1,2,0,1,2,0,1,2,0,1,2,0,1,2,0,1,2,0,1,2,0,1,2,0,1,2,0,1,2,0,1,2,0,1,2,0,1,2,0,1,2,0,1,2,0,1,2,0,1,2,0,1,2,0,1,2,0,1,2,0,1,2,0,1,2,0,1,2,0,1,2,0,1,2,0,1,2,0,1,2,0,1,2,0,1,2,0,1,2,0,1,2,0,1,2,0,1,2,0,1,2,0,1,2,0,1,2,0,1,2,0,1,2,0,1,2,0,1,2,0,1,2,0,1,2,0,1,2,0,1,2,0,1,2,0,1,2,0,1,2,0,1,2,0,1,2,0,1,2,0,1,2,0,1,2,0,1,2,0,1,2,0,1,2,0,1,2,0,1,2,0,1,2,0,1,2,0,1,2,0,1,2,0,1,2,0,1,2,0,1,2,0,1,2,0,1,2,0,1,2,0,1,2,0,1,2,0,1,2,0,1,2,0,1,2,0,1,2,0,1,2,0,1,2,0,1,2,0,1,2,0,1,2,0,1,2,0,1,2,0,1,2,0,1,2,0,1,2,0,1,2,0,1,2,0,1,2,0,1,2,0,1,2,0,1,2,0,1,2,0,1,2,0,1,2,0,1,2,0,1,2,0,1,2,0,1,2,0,1,2,0,1,2,0,1,2,0,1,2,0,1,2,0,1,2,0,1,2,0,1,2,0,1,2,0,1,2,0,1,2,0,1,2,0,1,2,0,1,2,0,1,2,0,1,2,0,1,2,0,1,2,0,1,2,0,1,2,0,1,2,0,1,2,0,1,2,0,1,2,0,1,2,0,1,2,0,1,2,0,1,2,0,1,2,0,1,2,0,1,2,0,1,2,0,1,2,0,1,2,0,1,2,0,1,2,0,1,2,0,1,2,0,1,2,0,1,2,0,1,2,0,1,2,0,1,2,0,1,2,0,1,2,0,1,2,0,1,2,0,1,2,0,1,2,0,1,2,0,1,2,0,1,2,0,1,2,0,1,2,0,1,2,0,1,2,0,1,2,0,1,2,0,1,2,0,1,2,0,1,2,0,1,2,0,1,2,0,1,2,0,1,2,0,1,2,0,1,2,0,1,2,0,1,2,0,1,2,0,1,2,0,1,2,0,1,2,0,1,2,0,1,2,0,1,2,0,1,2,0,1,2,0,1,2,0,1,2,0,1,2,0,1,2,0,1,2,0,1,2,0,1,2,0,1,2,0,1,2,0,1,2,0,1,2,0,1,2,0,1,2,0,1,2,0,1,2,0,1,2,0,1,2,0,1,2,0,1,2,0,1,2,0,1,2,0,1,2,0,1,2,0,1,2,0,1,2,0,1,2,0,1,2,0,1,2,0,1,2,0,1,2,0,1,2,0,1,2,0,1,2,0,1,2,0,1,2,0,1,2,0,1,2,0,1,2,0,1,2,0,1,2,0,1,2,0,1,2,0,1,2,0,1,2,0,1,2,0,1,2,0,1,2,0,1,2,0,1,2,0,1,2,0,1,2,0,1,2,0,1,2,0,1,2,0,1,2,0,1,2,0,1,2,0,1,2,0,1,2,0,1,2,0,1,2,0,1,2,0,1,2,0,1,2,0,1,2,0,1,2,0,1,2,0,1,2,0,1,2,0,1,2,0,1,2,0,1,2,0,1,2,0,1,2,0,1,2,0,1,2,0,1,2,0,1,2,0,1,2,0,1,2,0,1,2,0,1,2,0,1,2,0,1,2,0,1,2,0,1,2,0,1,2,0,1,2,0,1,2,0,1,2,0,1,2,0,1,2,0,1,2,0,1,2,0,1,2,0,1,2,0,1,2,0,1,2,0,1,2,0,1,2,0,1,2,0,1,2,0,1,2,0,1,2,0,1,2,0,1,2,0,1,2,0,1,2,0,1,2,0,1,2,0,1,2,0,1,2,0,1,2,0,1,2,0,1,2,0,1,2,0,1,2,0,1,2,0,1,2,0,1,2,0,1,2,0,1,2,0,1,2,0,1,2,0,1,2,0,1,2,0,1,2,0,1,2,0,1,2,0,1,2,0,1,2,0,1,2,0,1,2,0,1,2,0,1,2,0,1,2,0,1,2,0,1,2,0,1,2,0,1,2,0,1,2,0,1,2,0,1,2,0,1,2,0,1,2,0,1,2,0,1,2,0,1,2,0,1,2,0,1,2,0,1,2,0,1,2,0,1,2,0,1,2,0,1,2,0,1,2,0,1,2,0,1,2,0,1,2,0,1,2,0,1,2,0,1,2,0,1,2,0,1,2,0,1,2,0,1,2,0,1,2,0,1,2,0,1,2,0,1,2,0,1,2,0,1,2,0,1,2,0,1,2,0,1,2,0,1,2,0,1,2,0,1,2,0,1,2,0,1,2,0,1,2,0,1,2,0,1,2,0,1,2,0,1,2,0,1,2,0,1,2,0,1,2,0,1,2,0,1,2,0,1,2,0,1,2,0,1,2,0,1,2,0,1,2,0,1,2,0,1,2,0,1,2,0,1,2,0,1,2,0,1,2,0,1,2,0,1,2,0,1,2,0,1,2,0,1,2,0,1,2,0,1,2,0,1,2,0,1,2,0,1,2,0,1,2,0,1,2,0,1,2,0,1,2,0,1,2,0,1,2,0,1,2,0,1,2,0,1,2,0,1,2,0,1,2,0,1,2,0,1,2,0,1,2,0,1,2,0,1,2,0,1,2,0,1,2,0,1,2,0,1,2,0,1,2,0,1,2,0,1,2,0,1,2,0,1,2,0,1,2,0,1,2,0,1,2,0,1,2,0,1,2,0,1,2,0,1,2,0,1,2,0,1,2,0,1,2,0,1,2,0,1,2,0,1,2,0,1,2,0,1,2,0,1,2,0,1,2,0,1,2,0,1,2,0,1,2,0,1,2,0,1,2,0,1,2,0,1,2,0,1,2,0,1,2,0,1,2,0,1,2,0,1,2,0,1,2,0,1,2,0,1,2,0,1,2,0,1,2,0,1,2,0,1,2,0,1,2,0,1,2,0,1,2,0,1,2,0,1,2,0,1,2,0,1,2,0,1,2,0,1,2,0,1,2,0,1,2,0,1,2,0,1,2,0,1,2,0,1,2,0,1,2,0,1,2,0,1,2,0,1,2,0,1,2,0,1,2,0,1,2,0,1,2,0,1,2,0,1,2,0,1,2,0,1,2,0,1,2,0,1,2,0,1,2,0,1,2,0,1,2,0,1,2,0,1,2,0,1,2,0,1,2,0,1,2,0,1,2,0,1,2,0,1,2,0,1,2,0,1,2,0,1,2,0,1,2,0,1,2,0,1,2,0,1,2,0,1,2,0,1,2,0,1,2,0,1,2,0,1,2,0,1,2,0,1,2,0,1,2,0,1,2,0,1,2,0,1,2,0,1,2,0,1,2,0,1,2,0,1,2,0,1,2,0,1,2,0,1,2,0,1,2,0,1,2,0,1,2,0,1,2,0,1,2,0,1,2,0,1,2,0,1,2,0,1,2,0,1,2,0,1,2,0,1,2,0,1,2,0,1,2,0,1,2,0,1,2,0,1,2,0,1,2,0,1,2,0,1,2,0,1,2,0,1,2,0,1,2,0,1,2,0,1,2,0,1,2,0,1,2,0,1,2,0,1,2,0,1,2,0,1,2,0,1,2,0,1,2,0,1,2,0,1,2,0,1,2,0,1,2,0,1,2,0,1,2,0,1,2,0,1,2,0,1,2,0,1,2,0,1,2,0,1,2,0,1,2,0,1,2,0,1,2,0,1,2,0,1,2,0,1,2,0,1,2,0,1,2,0,1,2,0,1,2,0,1,2,0,1,2,0,1,2,0,1,2,0,1,2,0,1,2,0,1,2,0,1,2,0,1,2,0,1,2,0,1,2,0,1,2,0,1,2,0,1,2,0,1,2,0,1,2,0,1,2,0,1,2,0,1,2,0,1,2,0,1,2,0,1,2,0,1,2,0,1,2,0,1,2,0,1,2,0,1,2,0,1,2,0,1,2,0,1,2,0,1,2,0,1,2,0,1,2,0,1,2,0,1,2,0,1,2,0,1,2,0,1,2,0,1,2,0,1,2,0,1,2,0,1,2,0,1,2,0,1,2,0,1,2,0,1,2,0,1,2,0,1,2,0,1,2,0,1,2,0,1,2,0,1,2,0,1,2,0,1,2,0,1,2,0,1,2,0,1,2,0,1,2,0,1,2,0,1,2,0,1,2,0,1,2,0,1,2,0,1,2,0,1,2,0,1,2,0,1,2,0,1,2,0,1,2,0,1,2,0,1,2,0,1,2,0,1,2,0,1,2,0,1,2,0,1,2,0,1,2,0,1,2,0,1,2,0,1,2,0,1,2,0,1,2,0,1,2,0,1,2,0,1,2,0,1,2,0,1,2,0,1,2,0,1,2,0,1,2,0,1,2,0,1,2,0,1,2,0,1,2,0,1,2,0,1,2,0,1,2,0,1,2,0,1,2,0,1,2,0,1,2,0,1,2,0,1,2,0,1,2,0,1,2,0,1,2,0,1,2,0,1,2,0,1,2,0,1,2,0,1,2,0,1,2,0,1,2,0,1,2,0,1,2,0,1,2,0,1,2,0,1,2,0,1,2,0,1,2,0,1,2,0,1,2,0,1,2,0,1,2,0,1,2,0,1,2,0,1,2,0,1,2,0,1,2,0,1,2,0,1,2],"trees":[{"base_weights":[2.067767E-3,1.1899711E0,-2.7072495E-1,1.2683308E0,-3.721739E-3,-1.5014408E-2,-4.9598774E-1,7.266318E-2,4.6574998E-1,-1.4537635E-1,6.5563895E-2,-1.0085897E-1,-3.401762E-2,9.148413E-5,5.5154808E-2,-1.15510905E-2,5.998555E-2,-2.9181546E-2,2.5515432E-2],"categories":[],"categories_nodes":[],"categories_segments":[],"categories_sizes":[],"default_left":[0,0,0,0,0,0,0,0,0,0,0,0,0,0,0,0,0,0,0],"id":0,"left_children":[1,3,5,7,-1,9,11,-1,13,15,-1,17,-1,-1,-1,-1,-1,-1,-1],"loss_changes":[7.373138E1,4.3044662E0,1.0651452E1,5.2701416E0,0E0,1.5353096E1,7.095791E0,0E0,2.6517444E0,9.57937E0,0E0,9.876234E0,0E0,0E0,0E0,0E0,0E0,0E0,0E0],"parents":[2147483647,0,0,1,1,2,2,3,3,5,5,6,6,8,8,9,9,11,11],"right_children":[2,4,6,8,-1,10,12,-1,14,16,-1,18,-1,-1,-1,-1,-1,-1,-1],"split_conditions":[2.169E3,4E0,1.2354E4,1E0,-3.721739E-3,1E0,1E0,7.266318E-2,6.88E2,1E0,6.5563895E-2,3.2095173E3,-3.401762E-2,9.148413E-5,5.5154808E-2,-1.15510905E-2,5.998555E-2,-2.9181546E-2,2.5515432E-2],"split_indices":[0,3,0,26,0,16,16,0,0,43,0,2,0,0,0,0,0,0,0],"split_type":[0,0,0,0,0,0,0,0,0,0,0,0,0,0,0,0,0,0,0],"sum_hessian":[2.2553577E2,4.1492092E1,1.8404367E2,3.9067818E1,2.424274E0,8.669601E1,9.7347664E1,3.1092636E1,7.975182E0,7.974793E1,6.9480753E0,3.1463156E1,6.588451E1,5.195952E0,2.77923E0,7.5752785E1,3.9951434E0,1.7603165E1,1.3859991E1],"tree_param":{"num_deleted":"0","num_feature":"44","num_nodes":"19","size_leaf_vector":"1"}},{"base_weights":[2.9883029E-2,-4.5068756E-1,6.3835305E-1,-5.894374E-1,1.7211486E-1,7.179268E-1,-3.176239E-2,2.705516E-1,-6.8545276E-1,-3.7782216E-1,5.973457E-2,2.6519462E-1,9.360276E-1,-3.1088173E-2,5.1495116E-2,-3.706641E-2,-7.145002E-3,4.10151E-2,-3.475429E-2,4.2376366E-2,-3.4605432E-2,2.1296088E-2,7.093362E-2],"categories":[],"categories_nodes":[],"categories_segments":[],"categories_sizes":[],"default_left":[0,0,0,0,0,0,0,0,0,0,0,0,0,0,0,0,0,0,0,0,0,0,0],"id":1,"left_children":[1,3,5,7,9,11,-1,13,15,17,-1,19,21,-1,-1,-1,-1,-1,-1,-1,-1,-1,-1],"loss_changes":[6.768393E1,1.1280106E1,1.0805553E1,8.939667E0,1.4140683E1,9.288734E0,0E0,8.340996E0,2.7938576E0,6.876195E0,0E0,1.8869947E1,1.5346622E1,0E0,0E0,0E0,0E0,0E0,0E0,0E0,0E0,0E0,0E0],"parents":[2147483647,0,0,1,1,2,2,3,3,4,4,5,5,7,7,8,8,9,9,11,11,12,12],"right_children":[2,4,6,8,10,12,-1,14,16,18,-1,20,22,-1,-1,-1,-1,-1,-1,-1,-1,-1,-1],"split_conditions":[1.2354E4,1E0,1E0,-1.1E1,2E0,1E0,-3.176239E-2,-1.4E1,4E0,1.6049894E3,5.973457E-2,3E0,5.0436E4,-3.1088173E-2,5.1495116E-2,-3.706641E-2,-7.145002E-3,4.10151E-2,-3.475429E-2,4.2376366E-2,-3.4605432E-2,2.1296088E-2,7.093362E-2],"split_indices":[0,26,34,3,1,16,0,3,3,2,0,1,0,0,0,0,0,0,0,0,0,0,0],"split_type":[0,0,0,0,0,0,0,0,0,0,0,0,0,0,0,0,0,0,0,0,0,0,0],"sum_hessian":[2.2948318E2,1.2836198E2,1.0112119E2,1.0501908E2,2.3342913E1,9.558538E1,5.535812E0,1.0364914E1,9.465417E1,1.5589481E1,7.753432E0,3.1797104E1,6.3788277E1,4.8485556E0,5.516359E0,8.548411E1,9.170054E0,2.9318817E0,1.2657599E1,1.9841866E1,1.1955238E1,3.1927095E1,3.1861183E1],"tree_param":{"num_deleted":"0","num_feature":"44","num_nodes":"23","size_leaf_vector":"1"}},{"base_weights":[-5.5427873E-3,-3.0187407E-1,1.2555037E-1,-3.9026627E-1,4.5280587E-2,1.0119262E0,2.822816E-2,-1.9510284E-1,-3.5973176E-2,4.578191E-1,6.537349E-2,1.3550949E-1,-5.48895E-1,6.9126877E-4,-2.4588259E-2,-2.5990346E-2,5.1264E-2,1.839811E-2,-2.0802185E-2,-3.5653397E-2,2.402827E-2],"categories":[],"categories_nodes":[],"categories_segments":[],"categories_sizes":[],"default_left":[0,0,0,0,0,0,0,0,0,0,0,0,0,0,0,0,0,0,0,0,0],"id":2,"left_children":[1,3,5,7,-1,9,11,13,-1,15,-1,17,19,-1,-1,-1,-1,-1,-1,-1,-1],"loss_changes":[9.011435E0,7.946538E0,1.3847459E1,4.163417E0,0E0,2.0028744E0,9.112028E0,2.6984844E0,0E0,4.4520664E0,0E0,1.6037127E1,4.2432375E0,0E0,0E0,0E0,0E0,0E0,0E0,0E0,0E0],"parents":[2147483647,0,0,1,1,2,2,3,3,5,5,6,6,7,7,9,9,11,11,12,12],"right_children":[2,4,6,8,-1,10,12,14,-1,16,-1,18,20,-1,-1,-1,-1,-1,-1,-1,-1],"split_conditions":[1E0,1E0,2.426E3,4.2166274E3,4.5280587E-2,1E0,1E0,1E0,-3.5973176E-2,7.854E3,6.537349E-2,5.0436E4,1E0,6.9126877E-4,-2.4588259E-2,-2.5990346E-2,5.1264E-2,1.839811E-2,-2.0802185E-2,-3.5653397E-2,2.402827E-2],"split_indices":[1,34,2,2,0,23,26,4,0,0,0,0,14,0,0,0,0,0,0,0,0],"split_type":[0,0,0,0,0,0,0,0,0,0,0,0,0,0,0,0,0,0,0,0,0],"sum_hessian":[2.2999683E2,7.014159E1,1.5985524E2,6.598784E1,4.1537485E0,1.4885524E1,1.4496971E2,4.2427505E1,2.3560335E1,6.0644727E0,8.821051E0,1.2289076E2,2.2078947E1,2.5454353E1,1.6973154E1,2.2581286E0,3.806344E0,8.6688614E1,3.620215E1,1.9307264E1,2.771683E0],"tree_param":{"num_deleted":"0","num_feature":"44","num_nodes":"21","size_leaf_vector":"1"}},{"base_weights":[2.8929744E-2,1.05322E0,-2.4082789E-1,1.1685497E0,4.9701238E-1,4.2651247E-2,-4.832708E-1,6.282511E-2,1.4978709E-2,7.154825E-2,5.343653E-2,-8.283217E-2,6.1961323E-2,-3.790064E-2,-3.338E-2,5.0127257E-2,-2.9369622E-2,-8.542985E-3,5.760668E-2,-2.7797818E-2,2.4006998E-2],"categories":[],"categories_nodes":[],"categories_segments":[],"categories_sizes":[],"default_left":[0,0,0,0,0,0,0,0,0,0,0,0,0,0,0,0,0,0,0,0,0],"id":3,"left_children":[1,3,5,7,9,11,13,-1,-1,15,-1,17,-1,19,-1,-1,-1,-1,-1,-1,-1],"loss_changes":[6.077261E1,2.3600006E0,1.199166E1,2.4690857E0,2.261949E0,1.2296974E1,7.6889076E0,0E0,0E0,4.627637E0,0E0,8.289624E0,0E0,7.9335213E0,0E0,0E0,0E0,0E0,0E0,0E0,0E0],"parents":[2147483647,0,0,1,1,2,2,3,3,4,4,5,5,6,6,9,9,11,11,13,13],"right_children":[2,4,6,8,10,12,14,-1,-1,16,-1,18,-1,20,-1,-1,-1,-1,-1,-1,-1],"split_conditions":[2.169E3,1E0,1.2354E4,2E0,6.88E2,1E0,1E0,6.282511E-2,1.4978709E-2,5.79E2,5.343653E-2,1E0,6.1961323E-2,2.9203333E3,-3.338E-2,5.0127257E-2,-2.9369622E-2,-8.542985E-3,5.760668E-2,-2.7797818E-2,2.4006998E-2],"split_indices":[0,26,0,1,0,16,16,0,0,0,0,43,0,2,0,0,0,0,0,0,0],"split_type":[0,0,0,0,0,0,0,0,0,0,0,0,0,0,0,0,0,0,0,0,0],"sum_hessian":[2.1802551E2,4.484423E1,1.7318129E2,3.623084E1,8.613391E0,8.02141E1,9.296718E1,3.2495846E1,3.7349944E0,5.5834317E0,3.02996E0,7.3443E1,6.771105E0,2.7566803E1,6.5400375E1,2.09791E0,3.4855216E0,6.936067E1,4.082333E0,1.3746605E1,1.3820198E1],"tree_param":{"num_deleted":"0","num_feature":"44","num_nodes":"21","size_leaf_vector":"1"}},{"base_weights":[-1.6861899E-2,-4.4089025E-1,5.147951E-1,-5.779075E-1,1.7665562E-1,7.108116E-1,3.9232927E-3,-6.261311E-1,5.1327944E-2,-3.684208E-1,5.8528394E-2,7.9619604E-1,-3.0682717E-2,-4.3869248E-1,8.0248207E-1,-3.3778496E-2,2.0364119E-2,3.9413963E-2,-3.431526E-2,4.278754E-2,-2.7090339E-2,-3.539203E-2,5.081275E-2,-2.6093218E-2,6.1909396E-2],"categories":[],"categories_nodes":[],"categories_segments":[],"categories_sizes":[],"default_left":[0,0,0,0,0,0,0,0,0,0,0,0,0,0,0,0,0,0,0,0,0,0,0,0,0],"id":4,"left_children":[1,3,5,7,9,11,13,15,-1,17,-1,19,-1,21,23,-1,-1,-1,-1,-1,-1,-1,-1,-1,-1],"loss_changes":[5.209598E1,1.0978022E1,1.0266117E1,8.800159E0,1.3490844E1,8.869049E0,1.0758134E1,5.5361633E0,0E0,6.545026E0,0E0,6.045742E0,0E0,8.390186E0,6.908305E0,0E0,0E0,0E0,0E0,0E0,0E0,0E0,0E0,0E0,0E0],"parents":[2147483647,0,0,1,1,2,2,3,3,4,4,5,5,6,6,7,7,9,9,11,11,13,13,14,14],"right_children":[2,4,6,8,10,12,14,16,-1,18,-1,20,-1,22,24,-1,-1,-1,-1,-1,-1,-1,-1,-1,-1],"split_conditions":[1.2354E4,1E0,0E0,1E0,2E0,1E0,5.0436E4,6E0,5.1327944E-2,1.6049894E3,5.8528394E-2,1.7E1,-3.0682717E-2,1E0,1E0,-3.3778496E-2,2.0364119E-2,3.9413963E-2,-3.431526E-2,4.278754E-2,-2.7090339E-2,-3.539203E-2,5.081275E-2,-2.6093218E-2,6.1909396E-2],"split_indices":[0,26,3,20,1,24,0,1,0,2,0,1,0,26,16,0,0,0,0,0,0,0,0,0,0],"split_type":[0,0,0,0,0,0,0,0,0,0,0,0,0,0,0,0,0,0,0,0,0,0,0,0,0],"sum_hessian":[2.290814E2,1.2753518E2,1.0154623E2,1.0442925E2,2.3105925E1,7.310514E1,2.8441086E1,1.0197409E2,2.4551628E0,1.5328737E1,7.777188E0,6.905239E1,4.052751E0,1.8588638E1,9.8524475E0,9.764882E1,4.325269E0,2.9854991E0,1.2343238E1,6.6454895E1,2.5974934E0,1.6120104E1,2.468535E0,2.3900487E0,7.462399E0],"tree_param":{"num_deleted":"0","num_feature":"44","num_nodes":"25","size_leaf_vector":"1"}},{"base_weights":[-1.7808788E-2,-3.473279E-1,1.3185184E-1,-4.3803266E-1,4.3030072E-2,9.6190536E-1,3.4708947E-2,-4.879116E-1,3.369686E-2,6.342231E-1,5.989666E-2,-7.540832E-2,7.6420295E-1,-3.228764E-2,-1.8211761E-4,6.8348497E-3,5.2434325E-2,-1.6053088E-2,6.614952E-3,5.5306394E-2,-2.864553E-2],"categories":[],"categories_nodes":[],"categories_segments":[],"categories_sizes":[],"default_left":[0,0,0,0,0,0,0,0,0,0,0,0,0,0,0,0,0,0,0,0,0],"id":5,"left_children":[1,3,5,7,-1,9,11,13,-1,15,-1,17,19,-1,-1,-1,-1,-1,-1,-1,-1],"loss_changes":[1.110559E1,8.081435E0,1.2460415E1,3.9933147E0,0E0,4.9289417E-1,1.1283627E1,4.8754034E0,0E0,1.6932292E0,0E0,6.284271E0,9.054391E0,0E0,0E0,0E0,0E0,0E0,0E0,0E0,0E0],"parents":[2147483647,0,0,1,1,2,2,3,3,5,5,6,6,7,7,9,9,11,11,12,12],"right_children":[2,4,6,8,-1,10,12,14,-1,16,-1,18,20,-1,-1,-1,-1,-1,-1,-1,-1],"split_conditions":[1E0,1E0,2.426E3,7E0,4.3030072E-2,3E0,1E0,1E0,3.369686E-2,7.854E3,5.989666E-2,4.2497295E3,4.4546E4,-3.228764E-2,-1.8211761E-4,6.8348497E-3,5.2434325E-2,-1.6053088E-2,6.614952E-3,5.5306394E-2,-2.864553E-2],"split_indices":[1,34,2,3,0,1,21,26,0,0,0,2,0,0,0,0,0,0,0,0,0],"split_type":[0,0,0,0,0,0,0,0,0,0,0,0,0,0,0,0,0,0,0,0,0],"sum_hessian":[2.2326367E2,6.9318695E1,1.5394498E2,6.506989E1,4.248802E0,1.5196238E1,1.3874873E2,6.2813526E1,2.25637E0,7.90652E0,7.2897177E0,1.21330505E2,1.7418236E1,4.7121452E1,1.5692073E1,4.197552E0,3.7089677E0,5.5337566E1,6.5992935E1,1.4008698E1,3.4095364E0],"tree_param":{"num_deleted":"0","num_feature":"44","num_nodes":"21","size_leaf_vector":"1"}},{"base_weights":[1.5603846E-3,7.958323E-1,-3.4374008E-1,9.916748E-1,-9.372765E-2,-4.4083348E-1,1.9941756E-1,6.0329273E-2,1.1753451E0,1.1094859E-1,-2.5282416E-2,-1.8957819E-1,-5.5417305E-1,5.198413E-1,-5.564242E-1,5.0162476E-2,-2.0021802E-2,4.446629E-2,6.6204675E-2,2.3157205E-2,-1.3079844E-2,-1.964055E-2,5.634159E-2,-3.0642105E-2,5.247398E-2,6.3295215E-2,-6.320832E-4,-1.2036647E-2,-3.1287875E-2],"categories":[],"categories_nodes":[],"categories_segments":[],"categories_sizes":[],"default_left":[0,0,0,0,0,0,0,0,0,0,0,0,0,0,0,0,0,0,0,0,0,0,0,0,0,0,0,0,0],"id":6,"left_children":[1,3,5,7,9,11,13,15,17,19,-1,21,23,25,27,-1,-1,-1,-1,-1,-1,-1,-1,-1,-1,-1,-1,-1,-1],"loss_changes":[6.2840263E1,1.2187935E1,8.510067E0,9.677105E0,1.1892682E0,3.7619648E0,6.3214755E0,4.938008E0,8.4523773E-1,1.4068732E0,0E0,1.2142985E1,9.398737E0,7.1702642E0,2.2236586E-2,0E0,0E0,0E0,0E0,0E0,0E0,0E0,0E0,0E0,0E0,0E0,0E0,0E0,0E0],"parents":[2147483647,0,0,1,1,2,2,3,3,4,4,5,5,6,6,7,7,8,8,9,9,11,11,12,12,13,13,14,14],"right_children":[2,4,6,8,10,12,14,16,18,20,-1,22,24,26,28,-1,-1,-1,-1,-1,-1,-1,-1,-1,-1,-1,-1,-1,-1],"split_conditions":[4.255E3,2E0,1E0,1.8406821E3,4E0,1.2354E4,1E0,1E0,6.88E2,4.2064736E3,-2.5282416E-2,1E0,1E0,1E0,5.926E3,5.0162476E-2,-2.0021802E-2,4.446629E-2,6.6204675E-2,2.3157205E-2,-1.3079844E-2,-1.964055E-2,5.634159E-2,-3.0642105E-2,5.247398E-2,6.3295215E-2,-6.320832E-4,-1.2036647E-2,-3.1287875E-2],"split_indices":[0,1,14,2,1,0,23,4,0,2,0,16,7,5,0,0,0,0,0,0,0,0,0,0,0,0,0,0,0],"split_type":[0,0,0,0,0,0,0,0,0,0,0,0,0,0,0,0,0,0,0,0,0,0,0,0,0,0,0,0,0],"sum_hessian":[2.2712715E2,6.842617E1,1.5870097E2,5.598575E1,1.2440424E1,1.3479395E2,2.3907024E1,9.44105E0,4.6544697E1,8.799006E0,3.6414182E0,4.2733475E1,9.206048E1,1.7008747E1,6.8982773E0,2.7125902E0,6.7284594E0,1.8312126E1,2.823257E1,4.3980284E0,4.400978E0,3.762619E1,5.107283E0,8.940739E1,2.6530912E0,6.510088E0,1.0498659E1,2.0475235E0,4.850754E0],"tree_param":{"num_deleted":"0","num_feature":"44","num_nodes":"29","size_leaf_vector":"1"}},{"base_weights":[2.2823377E-2,-4.2391193E-1,5.3413695E-1,-5.624696E-1,1.7955008E-1,6.967394E-1,-5.7708967E-2,-6.117809E-1,4.9299534E-2,-3.510989E-1,5.409881E-2,7.6911676E-1,-3.0457456E-2,-3.929024E-1,6.6507834E-1,-3.3122413E-2,1.96923E-2,4.5739394E-2,-3.3846173E-2,4.094143E-2,-2.6848704E-2,-3.4581117E-2,4.408556E-2,4.878271E-2,1.7411059E-2],"categories":[],"categories_nodes":[],"categories_segments":[],"categories_sizes":[],"default_left":[0,0,0,0,0,0,0,0,0,0,0,0,0,0,0,0,0,0,0,0,0,0,0,0,0],"id":7,"left_children":[1,3,5,7,9,11,13,15,-1,17,-1,19,-1,21,23,-1,-1,-1,-1,-1,-1,-1,-1,-1,-1],"loss_changes":[5.313301E1,1.0483606E1,1.0476492E1,8.332611E0,1.1846388E1,8.516521E0,6.147627E0,5.290966E0,0E0,7.1498337E0,0E0,5.706627E0,0E0,7.1691046E0,4.5430923E-1,0E0,0E0,0E0,0E0,0E0,0E0,0E0,0E0,0E0,0E0],"parents":[2147483647,0,0,1,1,2,2,3,3,4,4,5,5,6,6,7,7,9,9,11,11,13,13,14,14],"right_children":[2,4,6,8,10,12,14,16,-1,18,-1,20,-1,22,24,-1,-1,-1,-1,-1,-1,-1,-1,-1,-1],"split_conditions":[1.2354E4,1E0,1E0,1E0,2E0,1E0,1E0,6E0,4.9299534E-2,1.6049894E3,5.409881E-2,1.7E1,-3.0457456E-2,1E0,1.4571E4,-3.3122413E-2,1.96923E-2,4.5739394E-2,-3.3846173E-2,4.094143E-2,-2.6848704E-2,-3.4581117E-2,4.408556E-2,4.878271E-2,1.7411059E-2],"split_indices":[0,26,3,20,1,24,26,1,0,2,0,1,0,37,0,0,0,0,0,0,0,0,0,0,0],"split_type":[0,0,0,0,0,0,0,0,0,0,0,0,0,0,0,0,0,0,0,0,0,0,0,0,0],"sum_hessian":[2.306179E2,1.231727E2,1.07445206E2,1.00227844E2,2.2944853E1,8.4149055E1,2.3296156E1,9.77208E1,2.5070417E0,1.483339E1,8.111464E0,8.011956E1,4.0294957E0,1.6227186E1,7.0689697E0,9.3358315E1,4.3624916E0,2.6663878E0,1.2167003E1,7.754129E1,2.5782688E0,1.35167675E1,2.7104182E0,2.519881E0,4.5490885E0],"tree_param":{"num_deleted":"0","num_feature":"44","num_nodes":"25","size_leaf_vector":"1"}},{"base_weights":[4.181058E-2,-2.8942162E-1,1.903002E-1,-3.7422046E-1,4.0918227E-2,9.633655E-1,8.8099E-2,-1.8771087E-1,-3.4924276E-2,5.9861785E-1,5.959105E-2,1.865537E-1,-5.0730264E-1,-1.2642962E-2,3.7110966E-2,-2.64934E-2,5.4618414E-2,1.8571856E-2,-1.7291503E-2,-3.460015E-2,2.363693E-2],"categories":[],"categories_nodes":[],"categories_segments":[],"categories_sizes":[],"default_left":[0,0,0,0,0,0,0,0,0,0,0,0,0,0,0,0,0,0,0,0,0],"id":8,"left_children":[1,3,5,7,-1,9,11,13,-1,15,-1,17,19,-1,-1,-1,-1,-1,-1,-1,-1],"loss_changes":[1.1211773E1,6.9391923E0,1.2337139E1,3.877078E0,0E0,8.07951E-1,8.299492E0,2.819537E0,0E0,5.6161437E0,0E0,1.2022322E1,3.970839E0,0E0,0E0,0E0,0E0,0E0,0E0,0E0,0E0],"parents":[2147483647,0,0,1,1,2,2,3,3,5,5,6,6,7,7,9,9,11,11,12,12],"right_children":[2,4,6,8,-1,10,12,14,-1,16,-1,18,20,-1,-1,-1,-1,-1,-1,-1,-1],"split_conditions":[1E0,1E0,2.426E3,4.2166274E3,4.0918227E-2,1E0,1E0,4.160077E3,-3.4924276E-2,7.854E3,5.959105E-2,5.0436E4,1E0,-1.2642962E-2,3.7110966E-2,-2.64934E-2,5.4618414E-2,1.8571856E-2,-1.7291503E-2,-3.460015E-2,2.363693E-2],"split_indices":[1,34,2,2,0,23,26,2,0,0,0,0,14,0,0,0,0,0,0,0,0],"split_type":[0,0,0,0,0,0,0,0,0,0,0,0,0,0,0,0,0,0,0,0,0],"sum_hessian":[2.2583337E2,6.960905E1,1.5622432E2,6.52746E1,4.334452E0,1.7257772E1,1.3896655E2,4.24419E1,2.2832699E1,8.040596E0,9.2171755E0,1.19837135E2,1.912941E1,4.034362E1,2.0982766E0,2.425004E0,5.6155915E0,8.91722E1,3.0664936E1,1.6343239E1,2.7861714E0],"tree_param":{"num_deleted":"0","num_feature":"44","num_nodes":"21","size_leaf_vector":"1"}},{"base_weights":[1.1850499E-2,7.908182E-1,-3.2888624E-1,8.715953E-1,-2.502962E-2,-4.3069562E-1,2.6631716E-1,1.1250092E-2,1.0133971E0,-9.275978E-2,-5.094568E-1,6.394706E-1,-5.4846454E-1,4.4757877E-2,-1.5988829E-2,-1.2666227E-2,5.339494E-2,1.9020228E-2,-1.8427575E-2,-2.062716E-2,-2.9446363E-2,6.4685675E-3,6.2256224E-2,-1.170735E-2,-3.0904366E-2],"categories":[],"categories_nodes":[],"categories_segments":[],"categories_sizes":[],"default_left":[0,0,0,0,0,0,0,0,0,0,0,0,0,0,0,0,0,0,0,0,0,0,0,0,0],"id":9,"left_children":[1,3,5,7,-1,9,11,13,15,17,19,21,23,-1,-1,-1,-1,-1,-1,-1,-1,-1,-1,-1,-1],"loss_changes":[5.9012974E1,7.493778E0,9.489183E0,7.8009605E0,0E0,3.4790478E0,7.4088044E0,3.2333648E0,4.065178E0,3.5675628E0,5.828438E-1,4.9006524E0,2.6634693E-2,0E0,0E0,0E0,0E0,0E0,0E0,0E0,0E0,0E0,0E0,0E0,0E0],"parents":[2147483647,0,0,1,1,2,2,3,3,5,5,6,6,7,7,8,8,9,9,10,10,11,11,12,12],"right_children":[2,4,6,8,-1,10,12,14,16,18,20,22,24,-1,-1,-1,-1,-1,-1,-1,-1,-1,-1,-1,-1],"split_conditions":[4.255E3,4E0,1E0,1.8406821E3,-2.502962E-2,1E0,1E0,1.5970555E3,-9E0,1.1923E4,1E0,-4E0,5.926E3,4.4757877E-2,-1.5988829E-2,-1.2666227E-2,5.339494E-2,1.9020228E-2,-1.8427575E-2,-2.062716E-2,-2.9446363E-2,6.4685675E-3,6.2256224E-2,-1.170735E-2,-3.0904366E-2],"split_indices":[0,1,14,2,0,1,23,2,3,0,16,3,0,0,0,0,0,0,0,0,0,0,0,0,0],"split_type":[0,0,0,0,0,0,0,0,0,0,0,0,0,0,0,0,0,0,0,0,0,0,0,0,0],"sum_hessian":[2.2035573E2,6.665439E1,1.5370135E2,6.3036564E1,3.6178231E0,1.3148694E2,2.2214415E1,9.0722685E0,5.3964294E1,2.5264376E1,1.0622256E2,1.5384012E1,6.8304014E0,2.0075424E0,7.064726E0,2.075595E0,5.18887E1,9.163545E0,1.610083E1,5.0648373E1,5.557419E1,9.009531E0,6.374481E0,2.0297983E0,4.800603E0],"tree_param":{"num_deleted":"0","num_feature":"44","num_nodes":"25","size_leaf_vector":"1"}},{"base_weights":[-5.733151E-2,-4.207798E-1,4.241572E-1,-5.5491227E-1,1.6085316E-1,5.170208E-1,-3.2439057E-2,2.5553676E-1,-6.5048033E-1,-3.214858E-2,5.93369E-1,1.9539714E-1,9.3909895E-1,-2.9704383E-2,4.742305E-2,-3.538602E-2,-5.1985956E-3,-9.925818E-4,5.535962E-2,-6.344016E-3,4.209114E-2,1.3484887E-2,5.149455E-2],"categories":[],"categories_nodes":[],"categories_segments":[],"categories_sizes":[],"default_left":[0,0,0,0,0,0,0,0,0,0,0,0,0,0,0,0,0,0,0,0,0,0,0],"id":10,"left_children":[1,3,5,7,9,11,-1,13,15,-1,17,19,21,-1,-1,-1,-1,-1,-1,-1,-1,-1,-1],"loss_changes":[3.855377E1,9.877598E0,9.783621E0,8.080265E0,8.825393E0,1.1739334E1,0E0,7.3314066E0,2.7944527E0,0E0,5.1612916E0,1.0754265E1,2.0147285E0,0E0,0E0,0E0,0E0,0E0,0E0,0E0,0E0,0E0,0E0],"parents":[2147483647,0,0,1,1,2,2,3,3,4,4,5,5,7,7,8,8,10,10,11,11,12,12],"right_children":[2,4,6,8,10,12,-1,14,16,-1,18,20,22,-1,-1,-1,-1,-1,-1,-1,-1,-1,-1],"split_conditions":[1.2354E4,1E0,1E0,-1.1E1,2.165E3,5.0436E4,-3.2439057E-2,-1.4E1,4E0,-3.214858E-2,1E0,4.5801626E3,-3E1,-2.9704383E-2,4.742305E-2,-3.538602E-2,-5.1985956E-3,-9.925818E-4,5.535962E-2,-6.344016E-3,4.209114E-2,1.3484887E-2,5.149455E-2],"split_indices":[0,26,14,3,0,0,0,3,3,0,7,2,3,0,0,0,0,0,0,0,0,0,0],"split_type":[0,0,0,0,0,0,0,0,0,0,0,0,0,0,0,0,0,0,0,0,0,0,0],"sum_hessian":[2.1829207E2,1.2446594E2,9.3826126E1,1.0117869E2,2.3287247E1,8.6829124E1,6.997002E0,1.0495917E1,9.068278E1,7.976482E0,1.5310765E1,5.010899E1,3.6720135E1,4.7789173E0,5.7170005E0,8.181833E1,8.864443E0,7.4185214E0,7.892244E0,3.397458E1,1.613441E1,4.8597994E0,3.1860336E1],"tree_param":{"num_deleted":"0","num_feature":"44","num_nodes":"23","size_leaf_vector":"1"}},{"base_weights":[2.022377E-2,-2.882026E-1,1.636279E-1,-3.7062433E-1,3.9068997E-2,3.5511723E-1,-2.475339E-1,-1.9418122E-1,-3.4394916E-2,4.973755E-1,-3.3334196E-2,-3.767927E-1,5.272109E-2,-1.2891873E-2,3.6392216E-2,3.0607564E-2,-8.629098E-3,-2.6026597E-2,2.694024E-2],"categories":[],"categories_nodes":[],"categories_segments":[],"categories_sizes":[],"default_left":[0,0,0,0,0,0,0,0,0,0,0,0,0,0,0,0,0,0,0],"id":11,"left_children":[1,3,5,7,-1,9,11,13,-1,15,-1,17,-1,-1,-1,-1,-1,-1,-1],"loss_changes":[9.897704E0,6.552975E0,1.210775E1,3.5971613E0,0E0,1.5531513E1,8.659965E0,2.783039E0,0E0,7.207762E0,0E0,6.255503E0,0E0,0E0,0E0,0E0,0E0,0E0,0E0],"parents":[2147483647,0,0,1,1,2,2,3,3,5,5,6,6,7,7,9,9,11,11],"right_children":[2,4,6,8,-1,10,12,14,-1,16,-1,18,-1,-1,-1,-1,-1,-1,-1],"split_conditions":[1E0,1E0,4.4546E4,4.2166274E3,3.9068997E-2,1E0,1E0,4.160077E3,-3.4394916E-2,1E0,-3.3334196E-2,1E0,5.272109E-2,-1.2891873E-2,3.6392216E-2,3.0607564E-2,-8.629098E-3,-2.6026597E-2,2.694024E-2],"split_indices":[1,34,0,2,0,26,24,2,0,14,0,14,0,0,0,0,0,0,0],"split_type":[0,0,0,0,0,0,0,0,0,0,0,0,0,0,0,0,0,0,0],"sum_hessian":[2.2171382E2,7.004812E1,1.5166571E2,6.5643166E1,4.4049563E0,1.0356769E2,4.809801E1,4.3219738E1,2.2423426E1,9.136133E1,1.2206364E1,4.4400505E1,3.6975086E0,4.11024E1,2.1173337E0,7.8072395E1,1.3288928E1,3.8748825E1,5.651678E0],"tree_param":{"num_deleted":"0","num_feature":"44","num_nodes":"19","size_leaf_vector":"1"}},{"base_weights":[-2.2911774E-2,6.862277E-1,-3.397496E-1,8.974907E-1,-1.4313164E-1,-4.2674193E-1,1.6055332E-1,-1.6421972E-2,1.0631816E0,-3.6044413E-1,4.4059988E-2,-1.2393654E-1,-5.0170636E-1,4.5898739E-1,-5.470644E-1,4.6543222E-2,-2.40193E-2,4.00144E-2,5.9892215E-2,1.3012755E-2,-3.1499814E-2,1.9955998E-2,-2.0241959E-2,-1.9866278E-2,-2.909326E-2,5.834203E-2,-1.49102E-3,-1.1814694E-2,-3.0779555E-2],"categories":[],"categories_nodes":[],"categories_segments":[],"categories_sizes":[],"default_left":[0,0,0,0,0,0,0,0,0,0,0,0,0,0,0,0,0,0,0,0,0,0,0,0,0,0,0,0,0],"id":12,"left_children":[1,3,5,7,9,11,13,15,17,19,-1,21,23,25,27,-1,-1,-1,-1,-1,-1,-1,-1,-1,-1,-1,-1,-1,-1],"loss_changes":[5.2884926E1,1.2866203E1,7.147028E0,8.81192E0,3.7949574E0,3.0890446E0,5.491984E0,4.7974663E0,7.824173E-1,2.438899E0,0E0,4.4042687E0,6.971092E-1,6.2626724E0,2.1033287E-2,0E0,0E0,0E0,0E0,0E0,0E0,0E0,0E0,0E0,0E0,0E0,0E0,0E0,0E0],"parents":[2147483647,0,0,1,1,2,2,3,3,4,4,5,5,6,6,7,7,8,8,9,9,11,11,12,12,13,13,14,14],"right_children":[2,4,6,8,10,12,14,16,18,20,-1,22,24,26,28,-1,-1,-1,-1,-1,-1,-1,-1,-1,-1,-1,-1,-1,-1],"split_conditions":[4.255E3,2E0,1E0,1.8406821E3,2.551E3,1E0,1E0,1E0,6.88E2,2.169E3,4.4059988E-2,1.1923E4,1E0,1E0,5.926E3,4.6543222E-2,-2.40193E-2,4.00144E-2,5.9892215E-2,1.3012755E-2,-3.1499814E-2,1.9955998E-2,-2.0241959E-2,-1.9866278E-2,-2.909326E-2,5.834203E-2,-1.49102E-3,-1.1814694E-2,-3.0779555E-2],"split_indices":[0,1,14,2,0,1,23,4,0,0,0,0,16,5,0,0,0,0,0,0,0,0,0,0,0,0,0,0,0],"split_type":[0,0,0,0,0,0,0,0,0,0,0,0,0,0,0,0,0,0,0,0,0,0,0,0,0,0,0,0,0],"sum_hessian":[2.3333888E2,7.169866E1,1.6164023E2,5.707721E1,1.4621448E1,1.3782274E2,2.3817486E1,8.898123E0,4.817909E1,1.2597086E1,2.0243616E0,2.7875988E1,1.0994675E2,1.699943E1,6.818057E0,2.5945134E0,6.303609E0,1.8671257E1,2.9507832E1,3.8246143E0,8.772471E0,9.592802E0,1.8283186E1,5.0345184E1,5.9601562E1,6.377262E0,1.0622168E1,2.0354466E0,4.782611E0],"tree_param":{"num_deleted":"0","num_feature":"44","num_nodes":"29","size_leaf_vector":"1"}},{"base_weights":[-2.6483838E-2,-4.0914285E-1,4.3570417E-1,-4.4545344E-1,4.6392485E-2,5.17114E-1,-3.1603042E-2,-6.255792E-1,-1.7411269E-1,2.552145E-1,9.058996E-1,1.2476625E-2,-3.483499E-2,-3.2774787E-2,1.2101069E-3,2.777933E-2,-2.091885E-2,1.45363035E-2,4.92156E-2],"categories":[],"categories_nodes":[],"categories_segments":[],"categories_sizes":[],"default_left":[0,0,0,0,0,0,0,0,0,0,0,0,0,0,0,0,0,0,0],"id":13,"left_children":[1,3,5,7,-1,9,-1,11,13,15,17,-1,-1,-1,-1,-1,-1,-1,-1],"loss_changes":[3.977624E1,6.38463E0,9.184074E0,5.776865E0,0E0,9.464859E0,0E0,4.654503E0,4.7349486E0,1.2026003E1,1.5437489E0,0E0,0E0,0E0,0E0,0E0,0E0,0E0,0E0],"parents":[2147483647,0,0,1,1,2,2,3,3,5,5,7,7,8,8,9,9,10,10],"right_children":[2,4,6,8,-1,10,-1,12,14,16,18,-1,-1,-1,-1,-1,-1,-1,-1],"split_conditions":[1.2354E4,1E0,1E0,2E0,4.6392485E-2,5.0436E4,-3.1603042E-2,1.6049894E3,3.989E3,-1E0,-8.2E1,1.2476625E-2,-3.483499E-2,-3.2774787E-2,1.2101069E-3,2.777933E-2,-2.091885E-2,1.45363035E-2,4.92156E-2],"split_indices":[0,20,14,1,0,0,0,2,0,3,3,0,0,0,0,0,0,0,0],"split_type":[0,0,0,0,0,0,0,0,0,0,0,0,0,0,0,0,0,0,0],"sum_hessian":[2.2289395E2,1.2200073E2,1.0089321E2,1.1942419E2,2.5765474E0,9.422491E1,6.668305E0,7.099178E1,4.8432404E1,5.728929E1,3.693562E1,5.147323E0,6.584446E1,1.3458453E1,3.497395E1,3.9742336E1,1.7546957E1,4.7079244E0,3.2227695E1],"tree_param":{"num_deleted":"0","num_feature":"44","num_nodes":"19","size_leaf_vector":"1"}},{"base_weights":[1.3429436E-2,-2.7587917E-1,1.3898118E-1,-3.5803735E-1,3.8054824E-2,8.781812E-1,4.042374E-2,-4.0609354E-1,3.6714178E-2,5.276342E-1,5.5379897E-2,1.3774079E-1,-5.0649595E-1,-2.7163846E-2,1.5816175E-3,-2.621499E-2,4.8306607E-2,1.6261432E-2,-1.798389E-2,-3.3754487E-2,2.3767188E-2],"categories":[],"categories_nodes":[],"categories_segments":[],"categories_sizes":[],"default_left":[0,0,0,0,0,0,0,0,0,0,0,0,0,0,0,0,0,0,0,0,0],"id":14,"left_children":[1,3,5,7,-1,9,11,13,-1,15,-1,17,19,-1,-1,-1,-1,-1,-1,-1,-1],"loss_changes":[8.371848E0,6.2164392E0,1.1669081E1,3.727333E0,0E0,9.3172455E-1,7.6705804E0,3.8132896E0,0E0,4.827364E0,0E0,1.1496609E1,3.927155E0,0E0,0E0,0E0,0E0,0E0,0E0,0E0,0E0],"parents":[2147483647,0,0,1,1,2,2,3,3,5,5,6,6,7,7,9,9,11,11,12,12],"right_children":[2,4,6,8,-1,10,12,14,-1,16,-1,18,20,-1,-1,-1,-1,-1,-1,-1,-1],"split_conditions":[1E0,1E0,2.426E3,7E0,3.8054824E-2,1E0,1E0,1E0,3.6714178E-2,7.854E3,5.5379897E-2,5.0436E4,1E0,-2.7163846E-2,1.5816175E-3,-2.621499E-2,4.8306607E-2,1.6261432E-2,-1.798389E-2,-3.3754487E-2,2.3767188E-2],"split_indices":[1,34,2,3,0,23,26,26,0,0,0,0,14,0,0,0,0,0,0,0,0],"split_type":[0,0,0,0,0,0,0,0,0,0,0,0,0,0,0,0,0,0,0,0,0],"sum_hessian":[2.2842654E2,6.876778E1,1.5965877E2,6.432604E1,4.4417367E0,1.7852345E1,1.4180641E2,6.2217056E1,2.1089828E0,8.3672085E0,9.485136E0,1.2102058E2,2.0785841E1,4.7187386E1,1.5029672E1,2.4041364E0,5.9630723E0,8.814353E1,3.287704E1,1.8006355E1,2.779486E0],"tree_param":{"num_deleted":"0","num_feature":"44","num_nodes":"21","size_leaf_vector":"1"}},{"base_weights":[-1.0596593E-2,6.555639E-1,-3.165524E-1,8.555477E-1,-1.2341984E-1,-4.0336812E-1,1.6188522E-1,3.0425867E-2,1.0110705E0,-3.3300087E-1,4.302252E-2,-2.1050806E-1,-5.103011E-1,7.1471727E-1,-2.2819312E-1,4.468606E-2,-1.9299863E-2,5.4082453E-2,-2.0736802E-2,3.0345293E-3,-2.270572E-2,-2.0962417E-2,5.442049E-2,-2.8426284E-2,5.1863283E-2,5.655953E-2,-1.7197533E-2,-2.885211E-2,2.5131693E-3],"categories":[],"categories_nodes":[],"categories_segments":[],"categories_sizes":[],"default_left":[0,0,0,0,0,0,0,0,0,0,0,0,0,0,0,0,0,0,0,0,0,0,0,0,0,0,0,0,0],"id":15,"left_children":[1,3,5,7,9,11,13,15,17,19,-1,21,23,25,27,-1,-1,-1,-1,-1,-1,-1,-1,-1,-1,-1,-1,-1,-1],"loss_changes":[4.7163204E1,1.1452053E1,6.650758E0,7.4226074E0,3.5347214E0,2.6660519E0,5.56823E0,4.0270677E0,5.363388E0,6.811415E-1,0E0,1.3923981E1,8.321993E0,5.0676064E0,1.5301454E0,0E0,0E0,0E0,0E0,0E0,0E0,0E0,0E0,0E0,0E0,0E0,0E0,0E0,0E0],"parents":[2147483647,0,0,1,1,2,2,3,3,4,4,5,5,6,6,7,7,8,8,9,9,11,11,12,12,13,13,14,14],"right_children":[2,4,6,8,10,12,14,16,18,20,-1,22,24,26,28,-1,-1,-1,-1,-1,-1,-1,-1,-1,-1,-1,-1,-1,-1],"split_conditions":[4.255E3,2E0,1E0,1.8406821E3,1E0,1.2354E4,1E0,1E0,5E0,2.169E3,4.302252E-2,1E0,1E0,1E0,2.6552817E3,4.468606E-2,-1.9299863E-2,5.4082453E-2,-2.0736802E-2,3.0345293E-3,-2.270572E-2,-2.0962417E-2,5.442049E-2,-2.8426284E-2,5.1863283E-2,5.655953E-2,-1.7197533E-2,-2.885211E-2,2.5131693E-3],"split_indices":[0,1,14,2,43,0,5,4,3,0,0,16,7,23,2,0,0,0,0,0,0,0,0,0,0,0,0,0,0],"split_type":[0,0,0,0,0,0,0,0,0,0,0,0,0,0,0,0,0,0,0,0,0,0,0,0,0,0,0,0,0],"sum_hessian":[2.2938307E2,7.183449E1,1.5754858E2,5.7081905E1,1.47525835E1,1.3348393E2,2.406465E1,9.2423725E0,4.7839535E1,1.2707262E1,2.045322E0,4.8671173E1,8.481277E1,9.611156E0,1.4453492E1,2.6345167E0,6.6078563E0,4.5813126E1,2.0264091E0,3.106894E0,9.600368E0,4.2515957E1,6.1552176E0,8.234722E1,2.4655411E0,6.848497E0,2.762659E0,5.9398217E0,8.513671E0],"tree_param":{"num_deleted":"0","num_feature":"44","num_nodes":"29","size_leaf_vector":"1"}},{"base_weights":[3.016774E-2,-4.2768598E-1,5.299087E-1,-5.3127897E-1,1.0465795E-1,5.9922045E-1,-3.168459E-2,2.5081596E-1,-6.292499E-1,-3.113009E-2,6.2261575E-1,6.487669E-1,-2.8897474E-2,-2.9145885E-2,4.548899E-2,-3.4472845E-2,-3.5511602E-3,9.260117E-3,4.8514787E-2,2.1806225E-2,4.9865697E-2],"categories":[],"categories_nodes":[],"categories_segments":[],"categories_sizes":[],"default_left":[0,0,0,0,0,0,0,0,0,0,0,0,0,0,0,0,0,0,0,0,0],"id":16,"left_children":[1,3,5,7,9,11,-1,13,15,-1,17,19,-1,-1,-1,-1,-1,-1,-1,-1,-1],"loss_changes":[5.0564526E1,6.417658E0,8.899313E0,7.570059E0,7.7813883E0,6.2196884E0,0E0,6.83963E0,2.8499222E0,0E0,1.6397367E0,6.7271767E0,0E0,0E0,0E0,0E0,0E0,0E0,0E0,0E0,0E0],"parents":[2147483647,0,0,1,1,2,2,3,3,4,4,5,5,7,7,8,8,10,10,11,11],"right_children":[2,4,6,8,10,12,-1,14,16,-1,18,20,-1,-1,-1,-1,-1,-1,-1,-1,-1],"split_conditions":[1.2354E4,1E0,1E0,-1.1E1,2.165E3,4E0,-3.168459E-2,-1.4E1,4E0,-3.113009E-2,1E0,4.8275464E3,-2.8897474E-2,-2.9145885E-2,4.548899E-2,-3.4472845E-2,-3.5511602E-3,9.260117E-3,4.8514787E-2,2.1806225E-2,4.9865697E-2],"split_indices":[0,26,34,3,0,3,0,3,3,0,7,2,0,0,0,0,0,0,0,0,0],"split_type":[0,0,0,0,0,0,0,0,0,0,0,0,0,0,0,0,0,0,0,0,0],"sum_hessian":[2.1900032E2,1.1436518E2,1.0463513E2,9.573698E1,1.8628206E1,9.921053E1,5.424604E0,1.0483983E1,8.525299E1,7.6645083E0,1.0963697E1,9.563422E1,3.5763128E0,4.679188E0,5.8047953E0,7.674107E1,8.511922E0,5.5340433E0,5.4296546E0,6.079533E1,3.4838886E1],"tree_param":{"num_deleted":"0","num_feature":"44","num_nodes":"21","size_leaf_vector":"1"}},{"base_weights":[2.9136264E-3,-2.6706976E-1,1.1604381E-1,-3.4821397E-1,3.667633E-2,8.415683E-1,2.0822333E-2,-1.7631799E-1,-3.349992E-2,5.066352E-1,5.2962597E-2,1.1211724E-1,-5.0293875E-1,1.6802254E-3,-2.3505969E-2,-2.5823673E-2,4.6234604E-2,1.5090711E-2,-1.8597357E-2,-3.3444364E-2,2.3143005E-2],"categories":[],"categories_nodes":[],"categories_segments":[],"categories_sizes":[],"default_left":[0,0,0,0,0,0,0,0,0,0,0,0,0,0,0,0,0,0,0,0,0],"id":17,"left_children":[1,3,5,7,-1,9,11,13,-1,15,-1,17,19,-1,-1,-1,-1,-1,-1,-1,-1],"loss_changes":[7.123205E0,5.847178E0,1.1335433E1,3.4430676E0,0E0,8.5155106E-1,7.051583E0,2.6877003E0,0E0,4.5053835E0,0E0,1.1626717E1,3.819079E0,0E0,0E0,0E0,0E0,0E0,0E0,0E0,0E0],"parents":[2147483647,0,0,1,1,2,2,3,3,5,5,6,6,7,7,9,9,11,11,12,12],"right_children":[2,4,6,8,-1,10,12,14,-1,16,-1,18,20,-1,-1,-1,-1,-1,-1,-1,-1],"split_conditions":[1E0,1E0,2.426E3,4.2166274E3,3.667633E-2,1E0,1E0,1E0,-3.349992E-2,7.854E3,5.2962597E-2,5.0436E4,1E0,1.6802254E-3,-2.3505969E-2,-2.5823673E-2,4.6234604E-2,1.5090711E-2,-1.8597357E-2,-3.3444364E-2,2.3143005E-2],"split_indices":[1,34,2,2,0,23,26,4,0,0,0,0,14,0,0,0,0,0,0,0,0],"split_type":[0,0,0,0,0,0,0,0,0,0,0,0,0,0,0,0,0,0,0,0,0],"sum_hessian":[2.3120216E2,6.787023E1,1.6333194E2,6.3382187E1,4.4880404E0,1.8040129E1,1.4529181E2,4.232192E1,2.1060268E1,8.416971E0,9.623157E0,1.2439492E2,2.0896893E1,2.520118E1,1.712074E1,2.3733263E0,6.043645E0,8.964213E1,3.4752796E1,1.8095123E1,2.8017707E0],"tree_param":{"num_deleted":"0","num_feature":"44","num_nodes":"21","size_leaf_vector":"1"}},{"base_weights":[-2.3863148E-2,6.2308514E-1,-3.2420024E-1,8.190693E-1,-1.7438783E-1,-4.0864676E-1,1.4392853E-1,2.587608E-2,9.672382E-1,1.8226665E-1,-4.5139092E-1,-2.1668698E-1,-5.145809E-1,4.2377603E-1,-2.6570696E-2,4.3214105E-2,-1.9140016E-2,5.1722515E-2,-2.039492E-2,-2.08736E-2,4.5865398E-2,-3.2561326E-3,-3.0746013E-2,-2.0560749E-2,5.193242E-2,-1.0294184E-2,-3.1172706E-2,5.404017E-2,-1.4786784E-3],"categories":[],"categories_nodes":[],"categories_segments":[],"categories_sizes":[],"default_left":[0,0,0,0,0,0,0,0,0,0,0,0,0,0,0,0,0,0,0,0,0,0,0,0,0,0,0,0,0],"id":18,"left_children":[1,3,5,7,9,11,13,15,17,19,21,23,25,27,-1,-1,-1,-1,-1,-1,-1,-1,-1,-1,-1,-1,-1,-1,-1],"loss_changes":[4.4543503E1,1.1504616E1,6.246052E0,6.8538284E0,1.5805423E0,2.590105E0,4.885456E0,3.8394675E0,4.9776382E0,3.6195257E0,5.173055E-1,1.2385908E1,2.7244434E0,5.3906407E0,0E0,0E0,0E0,0E0,0E0,0E0,0E0,0E0,0E0,0E0,0E0,0E0,0E0,0E0,0E0],"parents":[2147483647,0,0,1,1,2,2,3,3,4,4,5,5,6,6,7,7,8,8,9,9,10,10,11,11,12,12,13,13],"right_children":[2,4,6,8,10,12,14,16,18,20,22,24,26,28,-1,-1,-1,-1,-1,-1,-1,-1,-1,-1,-1,-1,-1,-1,-1],"split_conditions":[4.255E3,2E0,1E0,1.8406821E3,4.2064736E3,1.2354E4,1E0,1E0,5E0,2.7322031E3,2.169E3,1E0,1E0,1E0,-2.6570696E-2,4.3214105E-2,-1.9140016E-2,5.1722515E-2,-2.039492E-2,-2.08736E-2,4.5865398E-2,-3.2561326E-3,-3.0746013E-2,-2.0560749E-2,5.193242E-2,-1.0294184E-2,-3.1172706E-2,5.404017E-2,-1.4786784E-3],"split_indices":[0,1,14,2,2,0,23,4,3,2,0,16,16,5,0,0,0,0,0,0,0,0,0,0,0,0,0,0,0],"split_type":[0,0,0,0,0,0,0,0,0,0,0,0,0,0,0,0,0,0,0,0,0,0,0,0,0,0,0,0,0],"sum_hessian":[2.272085E2,7.16958E1,1.5551268E2,5.753028E1,1.4165523E1,1.3185432E2,2.3658363E1,9.240058E0,4.8290222E1,6.3419585E0,7.8235636E0,4.797176E1,8.388256E1,1.6990404E1,6.6679587E0,2.6626852E0,6.5773726E0,4.6276146E1,2.014076E0,3.7303307E0,2.6116278E0,2.7428896E0,5.080674E0,4.21176E1,5.854159E0,2.262449E1,6.125807E1,6.371835E0,1.0618568E1],"tree_param":{"num_deleted":"0","num_feature":"44","num_nodes":"29","size_leaf_vector":"1"}},{"base_weights":[-1.5114465E-2,-3.9310133E-1,4.13306E-1,-5.250602E-1,1.5685338E-1,5.5175644E-1,-7.64163E-2,2.5764555E-1,-6.2115556E-1,-3.2575867E-1,4.627101E-2,6.280772E-1,-3.1326752E-2,-3.9196524E-1,5.8005935E-1,-2.8637502E-2,4.3979704E-2,-3.4005042E-2,-3.982171E-3,-3.2261528E-2,3.418519E-2,3.525794E-2,-3.1040987E-2,-3.3777133E-2,3.7489127E-2,4.4658285E-2,1.3889526E-2],"categories":[],"categories_nodes":[],"categories_segments":[],"categories_sizes":[],"default_left":[0,0,0,0,0,0,0,0,0,0,0,0,0,0,0,0,0,0,0,0,0,0,0,0,0,0,0],"id":19,"left_children":[1,3,5,7,9,11,13,15,17,19,-1,21,-1,23,25,-1,-1,-1,-1,-1,-1,-1,-1,-1,-1,-1,-1],"loss_changes":[3.6634605E1,8.803068E0,7.233032E0,7.4666233E0,9.212387E0,7.839842E0,5.2514606E0,6.3549485E0,2.7169037E0,5.43881E0,0E0,7.972151E0,0E0,6.0031414E0,5.352073E-1,0E0,0E0,0E0,0E0,0E0,0E0,0E0,0E0,0E0,0E0,0E0,0E0],"parents":[2147483647,0,0,1,1,2,2,3,3,4,4,5,5,6,6,7,7,8,8,9,9,11,11,13,13,14,14],"right_children":[2,4,6,8,10,12,14,16,18,20,-1,22,-1,24,26,-1,-1,-1,-1,-1,-1,-1,-1,-1,-1,-1,-1],"split_conditions":[1.2354E4,1E0,1E0,-1.1E1,2E0,1.3E1,1E0,-1.6E1,4E0,3E0,4.627101E-2,1E0,-3.1326752E-2,1E0,1.4571E4,-2.8637502E-2,4.3979704E-2,-3.4005042E-2,-3.982171E-3,-3.2261528E-2,3.418519E-2,3.525794E-2,-3.1040987E-2,-3.3777133E-2,3.7489127E-2,4.4658285E-2,1.3889526E-2],"split_indices":[0,26,3,3,1,1,26,3,3,3,0,24,0,37,0,0,0,0,0,0,0,0,0,0,0,0,0],"split_type":[0,0,0,0,0,0,0,0,0,0,0,0,0,0,0,0,0,0,0,0,0,0,0,0,0,0,0],"sum_hessian":[2.2422382E2,1.19167305E2,1.0505651E2,9.614344E1,2.3023869E1,8.180311E1,2.3253403E1,1.03292885E1,8.581415E1,1.4496881E1,8.526988E0,7.72654E1,4.5377054E0,1.5976759E1,7.2766433E0,4.457266E0,5.872022E0,7.715921E1,8.654938E0,1.1285952E1,3.210929E0,7.318388E1,4.081515E0,1.3125169E1,2.8515902E0,2.6140244E0,4.6626186E0],"tree_param":{"num_deleted":"0","num_feature":"44","num_nodes":"27","size_leaf_vector":"1"}},{"base_weights":[5.8364896E-3,3.965966E-1,-6.903075E-2,-3.0621579E-2,5.950398E-1,-1.0830297E-1,4.9859785E-2,1.698081E-1,8.7788945E-1,-1.4948416E-1,4.4580363E-2,1.9817643E-2,-2.6996527E-2,3.0461863E-2,5.057009E-2,-2.5070442E-2,-2.1014416E-3],"categories":[],"categories_nodes":[],"categories_segments":[],"categories_sizes":[],"default_left":[0,0,0,0,0,0,0,0,0,0,0,0,0,0,0,0,0],"id":20,"left_children":[1,3,5,-1,7,9,-1,11,13,15,-1,-1,-1,-1,-1,-1,-1],"loss_changes":[6.6290407E0,7.659248E0,8.073388E0,0E0,3.573636E0,7.7252264E0,0E0,2.4012878E0,4.1916847E-2,6.707739E0,0E0,0E0,0E0,0E0,0E0,0E0,0E0],"parents":[2147483647,0,0,1,1,2,2,4,4,5,5,7,7,8,8,9,9],"right_children":[2,4,6,-1,8,10,-1,12,14,16,-1,-1,-1,-1,-1,-1,-1],"split_conditions":[2.426E3,1.7377142E3,1E0,-3.0621579E-2,1E0,6E0,4.9859785E-2,1.2354E4,1E0,1E0,4.4580363E-2,1.9817643E-2,-2.6996527E-2,3.0461863E-2,5.057009E-2,-2.5070442E-2,-2.1014416E-3],"split_indices":[2,2,34,0,1,3,0,0,23,1,0,0,0,0,0,0,0],"split_type":[0,0,0,0,0,0,0,0,0,0,0,0,0,0,0,0,0],"sum_hessian":[2.2465833E2,3.5431377E1,1.8922694E2,5.4801507E0,2.9951225E1,1.8337128E2,5.8556743E0,1.260357E1,1.7347656E1,1.7693474E2,6.436534E0,9.8887005E0,2.714869E0,7.6060295E0,9.741626E0,4.0529903E1,1.3640483E2],"tree_param":{"num_deleted":"0","num_feature":"44","num_nodes":"17","size_leaf_vector":"1"}},{"base_weights":[9.475093E-3,2.7020863E-1,-3.3378398E-1,-1.6172425E-1,3.631412E-1,-1.8251035E-1,-5.5651724E-1,2.548803E-1,-2.7712176E-2,5.927931E-1,4.8726536E-2,-2.647779E-1,5.270306E-2,-5.7549127E-3,-2.9428398E-2,-1.4932794E-2,3.4861613E-2,3.7677463E-2,3.0436057E-3,-2.9195815E-3,4.7933377E-2,-1.7961247E-2,2.7757848E-2],"categories":[],"categories_nodes":[],"categories_segments":[],"categories_sizes":[],"default_left":[0,0,0,0,0,0,0,0,0,0,0,0,0,0,0,0,0,0,0,0,0,0,0],"id":21,"left_children":[1,3,5,7,9,11,13,15,-1,17,19,21,-1,-1,-1,-1,-1,-1,-1,-1,-1,-1,-1],"loss_changes":[1.975269E1,5.09272E0,3.108963E0,3.8854637E0,7.445301E0,6.203207E0,4.7060966E-1,3.095738E0,0E0,5.0616016E0,4.420961E0,4.489668E0,0E0,0E0,0E0,0E0,0E0,0E0,0E0,0E0,0E0,0E0,0E0],"parents":[2147483647,0,0,1,1,2,2,3,3,4,4,5,5,6,6,7,7,9,9,10,10,11,11],"right_children":[2,4,6,8,10,12,14,16,-1,18,20,22,-1,-1,-1,-1,-1,-1,-1,-1,-1,-1,-1],"split_conditions":[2E0,-5E0,1E0,1E0,1E0,9E0,3.5377769E3,3.175509E3,-2.7712176E-2,1E0,1E0,1E0,5.270306E-2,-5.7549127E-3,-2.9428398E-2,-1.4932794E-2,3.4861613E-2,3.7677463E-2,3.0436057E-3,-2.9195815E-3,4.7933377E-2,-1.7961247E-2,2.7757848E-2],"split_indices":[1,3,16,23,1,1,2,2,0,26,14,43,0,0,0,0,0,0,0,0,0,0,0],"split_type":[0,0,0,0,0,0,0,0,0,0,0,0,0,0,0,0,0,0,0,0,0,0,0],"sum_hessian":[2.1869481E2,1.2440885E2,9.428595E1,2.1896748E1,1.0251211E2,5.7233868E1,3.7052082E1,1.0792582E1,1.1104166E1,5.872982E1,4.3782288E1,5.4400547E1,2.8333228E0,2.818964E0,3.423312E1,4.9381204E0,5.8544607E0,4.4779877E1,1.3949942E1,4.000834E1,3.7739484E0,4.928533E1,5.1152163E0],"tree_param":{"num_deleted":"0","num_feature":"44","num_nodes":"23","size_leaf_vector":"1"}},{"base_weights":[-5.8761204E-4,-3.8424495E-1,4.130849E-1,-5.1624376E-1,1.5971057E-1,4.717191E-1,-3.1141654E-2,2.4626966E-1,-6.124648E-1,-3.1541878E-1,4.4730105E-2,2.7227718E-1,7.867645E-1,-2.8412698E-2,4.2300746E-2,-3.36218E-2,-3.7017104E-3,3.475876E-2,-3.1753745E-2,9.0919464E-4,3.386494E-2,-1.8446883E-3,4.8596118E-2],"categories":[],"categories_nodes":[],"categories_segments":[],"categories_sizes":[],"default_left":[0,0,0,0,0,0,0,0,0,0,0,0,0,0,0,0,0,0,0,0,0,0,0],"id":22,"left_children":[1,3,5,7,9,11,-1,13,15,17,-1,19,21,-1,-1,-1,-1,-1,-1,-1,-1,-1,-1],"loss_changes":[3.601155E1,8.535059E0,6.925522E0,7.118744E0,8.575693E0,6.3142796E0,0E0,6.0275283E0,2.6824684E0,5.3404083E0,0E0,6.6928353E0,6.097784E0,0E0,0E0,0E0,0E0,0E0,0E0,0E0,0E0,0E0,0E0],"parents":[2147483647,0,0,1,1,2,2,3,3,4,4,5,5,7,7,8,8,9,9,11,11,12,12],"right_children":[2,4,6,8,10,12,-1,14,16,18,-1,20,22,-1,-1,-1,-1,-1,-1,-1,-1,-1,-1],"split_conditions":[1.2354E4,1E0,1E0,-1.1E1,2E0,4.8275464E3,-3.1141654E-2,-1.6E1,4E0,1.6049894E3,4.4730105E-2,5.0436E4,1E0,-2.8412698E-2,4.2300746E-2,-3.36218E-2,-3.7017104E-3,3.475876E-2,-3.1753745E-2,9.0919464E-4,3.386494E-2,-1.8446883E-3,4.8596118E-2],"split_indices":[0,26,34,3,1,2,0,3,3,2,0,0,16,0,0,0,0,0,0,0,0,0,0],"split_type":[0,0,0,0,0,0,0,0,0,0,0,0,0,0,0,0,0,0,0,0,0,0,0],"sum_hessian":[2.2490363E2,1.1672193E2,1.081817E2,9.3969734E1,2.2752197E1,1.0290196E2,5.279737E0,1.0354557E1,8.361517E1,1.4164937E1,8.58726E0,6.4153404E1,3.874856E1,4.4132967E0,5.9412603E0,7.501141E1,8.603763E0,3.12151E0,1.10434265E1,4.006391E1,2.4089489E1,7.258868E0,3.1489693E1],"tree_param":{"num_deleted":"0","num_feature":"44","num_nodes":"23","size_leaf_vector":"1"}},{"base_weights":[6.548472E-3,-2.535866E-1,1.14380874E-1,-3.3234978E-1,3.5929244E-2,2.4466534E-1,-3.012508E-1,-3.805691E-1,3.815372E-2,3.8311931E-1,-3.2658923E-2,-4.6843794E-1,4.3376014E-2,-2.5835603E-2,1.6359221E-3,2.4148976E-2,-1.19316755E-2,5.751819E-3,-2.7797047E-2],"categories":[],"categories_nodes":[],"categories_segments":[],"categories_sizes":[],"default_left":[0,0,0,0,0,0,0,0,0,0,0,0,0,0,0,0,0,0,0],"id":23,"left_children":[1,3,5,7,-1,9,11,13,-1,15,-1,17,-1,-1,-1,-1,-1,-1,-1],"loss_changes":[6.483906E0,5.426162E0,8.920136E0,3.636681E0,0E0,1.5780489E1,8.11239E0,3.4687166E0,0E0,6.874836E0,0E0,1.8585906E0,0E0,0E0,0E0,0E0,0E0,0E0,0E0],"parents":[2147483647,0,0,1,1,2,2,3,3,5,5,6,6,7,7,9,9,11,11],"right_children":[2,4,6,8,-1,10,12,14,-1,16,-1,18,-1,-1,-1,-1,-1,-1,-1],"split_conditions":[1E0,1E0,5.0436E4,8E0,3.5929244E-2,1E0,1E0,1E0,3.815372E-2,1E0,-3.2658923E-2,-8.2E1,4.3376014E-2,-2.5835603E-2,1.6359221E-3,2.4148976E-2,-1.19316755E-2,5.751819E-3,-2.7797047E-2],"split_indices":[1,34,0,3,0,26,14,26,0,14,0,3,0,0,0,0,0,0,0],"split_type":[0,0,0,0,0,0,0,0,0,0,0,0,0,0,0,0,0,0,0],"sum_hessian":[2.2911311E2,6.67452E1,1.6236792E2,6.2351738E1,4.3934627E0,1.2393151E2,3.8436398E1,6.0347878E1,2.0038626E0,1.0787041E2,1.6061106E1,3.415053E1,4.2858667E0,4.5206085E1,1.5141791E1,9.313511E1,1.4735302E1,4.412579E0,2.9737953E1],"tree_param":{"num_deleted":"0","num_feature":"44","num_nodes":"19","size_leaf_vector":"1"}},{"base_weights":[4.551016E-3,6.2023795E-1,-2.8777555E-1,7.6779777E-1,-4.5087438E-2,-7.829127E-2,-4.2557204E-1,1.9103209E-2,9.067901E-1,4.9596715E-1,-4.0564215E-1,-2.1566206E-1,4.978194E-2,-4.7796866E-1,5.1380068E-2,4.116956E-2,-1.891075E-2,4.8251815E-2,1.7529269E-3,-1.1794175E-2,4.6093192E-2,-3.211474E-3,-2.7331907E-2,-1.4217788E-2,4.550914E-2,-9.919896E-3,-3.0069133E-2],"categories":[],"categories_nodes":[],"categories_segments":[],"categories_sizes":[],"default_left":[0,0,0,0,0,0,0,0,0,0,0,0,0,0,0,0,0,0,0,0,0,0,0,0,0,0,0],"id":24,"left_children":[1,3,5,7,9,11,13,15,17,19,21,23,-1,25,-1,-1,-1,-1,-1,-1,-1,-1,-1,-1,-1,-1,-1],"loss_changes":[4.0058327E1,7.069044E0,4.323332E0,6.091213E0,2.922778E0,9.230185E0,7.405924E0,3.5749812E0,2.4789124E0,2.0966492E0,3.9438367E-1,4.5126057E0,0E0,2.928568E0,0E0,0E0,0E0,0E0,0E0,0E0,0E0,0E0,0E0,0E0,0E0,0E0,0E0],"parents":[2147483647,0,0,1,1,2,2,3,3,4,4,5,5,6,6,7,7,8,8,9,9,10,10,11,11,13,13],"right_children":[2,4,6,8,10,12,14,16,18,20,22,24,-1,26,-1,-1,-1,-1,-1,-1,-1,-1,-1,-1,-1,-1,-1],"split_conditions":[4.255E3,2E0,1.2354E4,1.8406821E3,4.2064736E3,1E0,1E0,1E0,4E0,2.6205376E3,2.169E3,1E0,4.978194E-2,1E0,5.1380068E-2,4.116956E-2,-1.891075E-2,4.8251815E-2,1.7529269E-3,-1.1794175E-2,4.6093192E-2,-3.211474E-3,-2.7331907E-2,-1.4217788E-2,4.550914E-2,-9.919896E-3,-3.0069133E-2],"split_indices":[0,1,0,2,2,16,7,4,3,2,0,43,0,16,0,0,0,0,0,0,0,0,0,0,0,0,0],"split_type":[0,0,0,0,0,0,0,0,0,0,0,0,0,0,0,0,0,0,0,0,0,0,0,0,0,0,0],"sum_hessian":[2.2057726E2,7.065168E1,1.4992558E2,5.77005E1,1.2951179E1,6.011075E1,8.981483E1,9.212729E0,4.848777E1,5.029003E0,7.9221754E0,5.400228E1,6.108469E0,8.733684E1,2.47799E0,2.6916575E0,6.5210724E0,4.5350563E1,3.137209E0,2.0141258E0,3.0148773E0,2.740872E0,5.1813035E0,5.1601246E1,2.4010332E0,2.7545464E1,5.9791374E1],"tree_param":{"num_deleted":"0","num_feature":"44","num_nodes":"27","size_leaf_vector":"1"}},{"base_weights":[-4.0460066E-3,-4.0842795E-1,4.1632265E-1,3.7812006E-1,-4.798525E-1,5.514026E-1,-7.828958E-2,-2.5441578E-2,4.0990897E-2,-6.041593E-1,5.1537108E-2,6.1852354E-1,-3.1150386E-2,-3.8582033E-1,5.466714E-1,-3.3208407E-2,-3.427061E-3,-1.5148731E-2,4.081461E-2,3.3081826E-2,-2.6150806E-2,-3.3195194E-2,3.519805E-2,4.3020375E-2,1.2481221E-2],"categories":[],"categories_nodes":[],"categories_segments":[],"categories_sizes":[],"default_left":[0,0,0,0,0,0,0,0,0,0,0,0,0,0,0,0,0,0,0,0,0,0,0,0,0],"id":25,"left_children":[1,3,5,7,9,11,13,-1,-1,15,17,19,-1,21,23,-1,-1,-1,-1,-1,-1,-1,-1,-1,-1],"loss_changes":[3.7408913E1,6.482506E0,7.252535E0,4.2942295E0,6.852297E0,7.0763607E0,4.8280425E0,0E0,0E0,2.6468754E0,5.8046875E0,4.3223724E0,0E0,5.524271E0,5.621321E-1,0E0,0E0,0E0,0E0,0E0,0E0,0E0,0E0,0E0,0E0],"parents":[2147483647,0,0,1,1,2,2,3,3,4,4,5,5,6,6,9,9,10,10,11,11,13,13,14,14],"right_children":[2,4,6,8,10,12,14,-1,-1,16,18,20,-1,22,24,-1,-1,-1,-1,-1,-1,-1,-1,-1,-1],"split_conditions":[1.2354E4,-1.1E1,1E0,-1.4E1,1E0,1E0,1E0,-2.5441578E-2,4.0990897E-2,4E0,2E0,1.7E1,-3.1150386E-2,1E0,1.4571E4,-3.3208407E-2,-3.427061E-3,-1.5148731E-2,4.081461E-2,3.3081826E-2,-2.6150806E-2,-3.3195194E-2,3.519805E-2,4.3020375E-2,1.2481221E-2],"split_indices":[0,3,3,3,26,24,26,0,0,3,1,1,0,37,0,0,0,0,0,0,0,0,0,0,0],"split_type":[0,0,0,0,0,0,0,0,0,0,0,0,0,0,0,0,0,0,0,0,0,0,0,0,0],"sum_hessian":[2.1806573E2,1.1116081E2,1.0690493E2,8.896455E0,1.0226436E2,8.388177E1,2.3023163E1,2.90702E0,5.9894342E0,8.276612E1,1.9498236E1,7.979461E1,4.0871553E0,1.5686702E1,7.3364625E0,7.4211685E1,8.554431E0,1.3735023E1,5.7632127E0,7.7295746E1,2.4988627E0,1.2808979E1,2.8777223E0,2.6456423E0,4.69082E0],"tree_param":{"num_deleted":"0","num_feature":"44","num_nodes":"25","size_leaf_vector":"1"}},{"base_weights":[1.9827386E-2,-2.4662314E-1,1.3238953E-1,-3.2333976E-1,3.2777794E-2,7.578887E-1,4.5135517E-2,-3.7164733E-1,3.768985E-2,4.6228987E-1,4.733617E-2,-3.465806E-2,1.1041947E-1,-2.5293265E-2,1.1194395E-3,-2.5616089E-2,4.2710956E-2,1.2720269E-2,-1.3154174E-2],"categories":[],"categories_nodes":[],"categories_segments":[],"categories_sizes":[],"default_left":[0,0,0,0,0,0,0,0,0,0,0,0,0,0,0,0,0,0,0],"id":26,"left_children":[1,3,5,7,-1,9,11,13,-1,15,-1,-1,17,-1,-1,-1,-1,-1,-1],"loss_changes":[6.775068E0,4.857054E0,8.626755E0,3.5334954E0,0E0,6.4319134E-1,6.840207E0,3.2114897E0,0E0,4.067294E0,0E0,0E0,7.0469465E0,0E0,0E0,0E0,0E0,0E0,0E0],"parents":[2147483647,0,0,1,1,2,2,3,3,5,5,6,6,7,7,9,9,12,12],"right_children":[2,4,6,8,-1,10,12,14,-1,16,-1,-1,18,-1,-1,-1,-1,-1,-1],"split_conditions":[1E0,1E0,2.426E3,8E0,3.2777794E-2,1E0,2.7284326E3,1E0,3.768985E-2,7.854E3,4.733617E-2,-3.465806E-2,5.0436E4,-2.5293265E-2,1.1194395E-3,-2.5616089E-2,4.2710956E-2,1.2720269E-2,-1.3154174E-2],"split_indices":[1,34,2,3,0,23,2,26,0,0,0,0,0,0,0,0,0,0,0],"split_type":[0,0,0,0,0,0,0,0,0,0,0,0,0,0,0,0,0,0,0],"sum_hessian":[2.2380539E2,6.611376E1,1.5769164E2,6.1523705E1,4.5900555E0,1.836343E1,1.393282E2,5.950977E1,2.0139337E0,8.502254E0,9.8611765E0,1.0537857E1,1.2879034E2,4.4177925E1,1.5331844E1,2.3503792E0,6.151874E0,9.318591E1,3.560443E1],"tree_param":{"num_deleted":"0","num_feature":"44","num_nodes":"19","size_leaf_vector":"1"}},{"base_weights":[2.0424685E-2,2.9559085E-1,-3.2027993E-1,3.9258838E-1,-1.1901954E-1,-4.0521064E-1,2.8790078E-1,4.909583E-1,1.5196641E-2,-4.9944717E-1,4.0922248E-1,-4.4935992E-1,-1.2320695E-2,-3.4437138E-1,5.42744E-2,4.0257763E-2,7.988121E-3,-1.920236E-2,2.866677E-2,-2.6992833E-2,-1.0413162E-2,4.4422943E-2,-1.4217175E-2,-2.3756629E-2,-7.850381E-3,-1.9413432E-2,4.249562E-2,7.8194187E-4,-2.8069261E-2],"categories":[],"categories_nodes":[],"categories_segments":[],"categories_sizes":[],"default_left":[0,0,0,0,0,0,0,0,0,0,0,0,0,0,0,0,0,0,0,0,0,0,0,0,0,0,0,0,0],"id":27,"left_children":[1,3,5,7,9,11,13,15,17,19,21,23,25,27,-1,-1,-1,-1,-1,-1,-1,-1,-1,-1,-1,-1,-1,-1,-1],"loss_changes":[2.041409E1,4.8896446E0,5.143421E0,3.6241388E0,4.946712E0,1.482872E0,6.6822367E0,7.9428635E0,4.9572315E0,5.4289103E-2,3.7192206E0,5.064144E-1,3.4731388E0,6.132525E-1,0E0,0E0,0E0,0E0,0E0,0E0,0E0,0E0,0E0,0E0,0E0,0E0,0E0,0E0,0E0],"parents":[2147483647,0,0,1,1,2,2,3,3,4,4,5,5,6,6,7,7,8,8,9,9,10,10,11,11,12,12,13,13],"right_children":[2,4,6,8,10,12,14,16,18,20,22,24,26,28,-1,-1,-1,-1,-1,-1,-1,-1,-1,-1,-1,-1,-1,-1,-1],"split_conditions":[2E0,1E0,1E0,1E0,-2E0,1E0,3.5377769E3,1E0,2.5809622E3,-6E0,2E0,2E0,-2.6E1,1E0,5.42744E-2,4.0257763E-2,7.988121E-3,-1.920236E-2,2.866677E-2,-2.6992833E-2,-1.0413162E-2,4.4422943E-2,-1.4217175E-2,-2.3756629E-2,-7.850381E-3,-1.9413432E-2,4.249562E-2,7.8194187E-4,-2.8069261E-2],"split_indices":[1,23,14,26,3,43,2,1,2,3,3,3,3,23,0,0,0,0,0,0,0,0,0,0,0,0,0,0,0],"split_type":[0,0,0,0,0,0,0,0,0,0,0,0,0,0,0,0,0,0,0,0,0,0,0,0,0,0,0,0,0],"sum_hessian":[2.1573958E2,1.1942211E2,9.6317474E1,9.6823494E1,2.2598614E1,8.4808014E1,1.1509465E1,7.656527E1,2.0258224E1,1.3169067E1,9.429545E0,7.611158E1,8.696433E0,6.7370386E0,4.7724266E0,3.8556583E1,3.8008686E1,1.1992062E1,8.266162E0,1.0814293E1,2.3547747E0,5.4102206E0,4.0193253E0,6.9370895E1,6.740683E0,6.4387326E0,2.2577004E0,2.8827317E0,3.8543072E0],"tree_param":{"num_deleted":"0","num_feature":"44","num_nodes":"29","size_leaf_vector":"1"}},{"base_weights":[1.3594739E-2,-3.603716E-1,3.9690638E-1,-4.9331906E-1,1.5992032E-1,4.530654E-1,-3.0746086E-2,2.5514346E-1,-5.927592E-1,-2.9680273E-1,4.1855913E-2,5.0317085E-1,-3.0906586E-2,-2.7915943E-2,4.3966953E-2,-3.2829072E-2,4.0592006E-3,3.422033E-2,-3.110972E-2,8.41154E-3,3.3439096E-2],"categories":[],"categories_nodes":[],"categories_segments":[],"categories_sizes":[],"default_left":[0,0,0,0,0,0,0,0,0,0,0,0,0,0,0,0,0,0,0,0,0],"id":28,"left_children":[1,3,5,7,9,11,-1,13,15,17,-1,19,-1,-1,-1,-1,-1,-1,-1,-1,-1],"loss_changes":[3.1454948E1,7.7631636E0,6.4351864E0,6.754858E0,7.474847E0,5.851391E0,0E0,6.1294484E0,3.4350033E0,5.116601E0,0E0,5.3880634E0,0E0,0E0,0E0,0E0,0E0,0E0,0E0,0E0,0E0],"parents":[2147483647,0,0,1,1,2,2,3,3,4,4,5,5,7,7,8,8,9,9,11,11],"right_children":[2,4,6,8,10,12,-1,14,16,18,-1,20,-1,-1,-1,-1,-1,-1,-1,-1,-1],"split_conditions":[1.2354E4,1E0,1E0,-1.1E1,2E0,1E0,-3.0746086E-2,-1.4E1,4E0,1.6049894E3,4.1855913E-2,1E0,-3.0906586E-2,-2.7915943E-2,4.3966953E-2,-3.2829072E-2,4.0592006E-3,3.422033E-2,-3.110972E-2,8.41154E-3,3.3439096E-2],"split_indices":[0,26,34,3,1,24,0,3,3,2,0,16,0,0,0,0,0,0,0,0,0],"split_type":[0,0,0,0,0,0,0,0,0,0,0,0,0,0,0,0,0,0,0,0,0],"sum_hessian":[2.1743645E2,1.1009017E2,1.07346275E2,8.772588E1,2.2364296E1,1.0222478E2,5.1215005E0,1.0104659E1,7.762122E1,1.3691827E1,8.672468E0,9.816344E1,4.061342E0,4.433016E0,5.6716433E0,7.092994E1,6.6912837E0,3.1349978E0,1.0556829E1,3.314505E1,6.501839E1],"tree_param":{"num_deleted":"0","num_feature":"44","num_nodes":"21","size_leaf_vector":"1"}},{"base_weights":[1.3299265E-3,-3.9191762E-1,8.299463E-2,-5.5880976E-1,2.8529525E-1,1.675685E-1,-4.0307036E-1,-3.3764407E-2,2.684936E-2,3.537631E-2,-2.4852565E-2,3.0606538E-1,-3.4363258E-1,-3.320671E-2,4.518668E-2,6.5747247E-4,2.8253743E-2,-2.1803297E-2,3.2406468E-2],"categories":[],"categories_nodes":[],"categories_segments":[],"categories_sizes":[],"default_left":[0,0,0,0,0,0,0,0,0,0,0,0,0,0,0,0,0,0,0],"id":29,"left_children":[1,3,5,7,9,11,13,-1,-1,-1,-1,15,17,-1,-1,-1,-1,-1,-1],"loss_changes":[7.2607784E0,4.55354E0,7.7630057E0,4.3869667E0,3.1095734E0,1.1444534E1,1.0165722E1,0E0,0E0,0E0,0E0,9.59353E0,3.4556484E0,0E0,0E0,0E0,0E0,0E0,0E0],"parents":[2147483647,0,0,1,1,2,2,3,3,4,4,5,5,6,6,11,11,12,12],"right_children":[2,4,6,8,10,12,14,-1,-1,-1,-1,16,18,-1,-1,-1,-1,-1,-1],"split_conditions":[2.169E3,1E0,1E0,4E0,6.88E2,5.0436E4,1E0,-3.3764407E-2,2.684936E-2,3.537631E-2,-2.4852565E-2,-3E0,1E0,-3.320671E-2,4.518668E-2,6.5747247E-4,2.8253743E-2,-2.1803297E-2,3.2406468E-2],"split_indices":[0,26,26,3,0,0,14,0,0,0,0,3,14,0,0,0,0,0,0],"split_type":[0,0,0,0,0,0,0,0,0,0,0,0,0,0,0,0,0,0,0],"sum_hessian":[2.240779E2,3.7878582E1,1.8619931E2,3.0529694E1,7.3488894E0,1.5916103E2,2.7038294E1,2.7943201E1,2.586492E0,4.835055E0,2.5138345E0,1.2554822E2,3.3612804E1,2.294608E1,4.0922136E0,5.941081E1,6.6137405E1,3.1259676E1,2.3531268E0],"tree_param":{"num_deleted":"0","num_feature":"44","num_nodes":"19","size_leaf_vector":"1"}},{"base_weights":[-1.6718939E-2,5.836208E-1,-3.0006355E-1,7.7073616E-1,-1.3607368E-1,-3.810879E-1,1.3086514E-1,-4.255422E-3,9.1793865E-1,1.9326065E-1,-4.0036678E-1,-1.3127673E-1,-4.470397E-1,6.327869E-1,-2.1250784E-1,3.8531706E-2,-1.8481858E-2,4.9006682E-2,1.7232884E-3,-2.0217385E-2,4.306483E-2,-3.6168732E-3,-2.6831245E-2,1.5914252E-2,-1.8668951E-2,-1.7102947E-2,-2.6598874E-2,5.039805E-2,-1.5593047E-2,-3.0223722E-2,3.643885E-3],"categories":[],"categories_nodes":[],"categories_segments":[],"categories_sizes":[],"default_left":[0,0,0,0,0,0,0,0,0,0,0,0,0,0,0,0,0,0,0,0,0,0,0,0,0,0,0,0,0,0,0],"id":30,"left_children":[1,3,5,7,9,11,13,15,17,19,21,23,25,27,29,-1,-1,-1,-1,-1,-1,-1,-1,-1,-1,-1,-1,-1,-1,-1,-1],"loss_changes":[3.734533E1,9.585962E0,5.256201E0,6.3955E0,1.4158479E0,2.013403E0,4.32999E0,3.0987537E0,2.5536118E0,3.3507388E0,3.57049E-1,3.1319902E0,7.015419E-1,3.9080873E0,1.7447261E0,0E0,0E0,0E0,0E0,0E0,0E0,0E0,0E0,0E0,0E0,0E0,0E0,0E0,0E0,0E0,0E0],"parents":[2147483647,0,0,1,1,2,2,3,3,4,4,5,5,6,6,7,7,8,8,9,9,10,10,11,11,12,12,13,13,14,14],"right_children":[2,4,6,8,10,12,14,16,18,20,22,24,26,28,30,-1,-1,-1,-1,-1,-1,-1,-1,-1,-1,-1,-1,-1,-1,-1,-1],"split_conditions":[4.255E3,2E0,1E0,1.8406821E3,4.2064736E3,1E0,1E0,1E0,4E0,2.7322031E3,2.169E3,1.1923E4,1E0,1E0,2.6552817E3,3.8531706E-2,-1.8481858E-2,4.9006682E-2,1.7232884E-3,-2.0217385E-2,4.306483E-2,-3.6168732E-3,-2.6831245E-2,1.5914252E-2,-1.8668951E-2,-1.7102947E-2,-2.6598874E-2,5.039805E-2,-1.5593047E-2,-3.0223722E-2,3.643885E-3],"split_indices":[0,1,14,2,2,1,5,4,3,2,0,0,16,23,2,0,0,0,0,0,0,0,0,0,0,0,0,0,0,0,0],"split_type":[0,0,0,0,0,0,0,0,0,0,0,0,0,0,0,0,0,0,0,0,0,0,0,0,0,0,0,0,0,0,0],"sum_hessian":[2.1751585E2,6.9404495E1,1.4811136E2,5.5026962E1,1.4377534E1,1.2476783E2,2.334352E1,8.938523E0,4.608844E1,6.520783E0,7.856751E0,2.6684227E1,9.80836E1,9.140149E0,1.4203371E1,2.5088072E0,6.429716E0,4.295507E1,3.1333694E0,3.650161E0,2.870622E0,2.7550638E0,5.101687E0,9.230103E0,1.7454124E1,4.6114513E1,5.1969093E1,6.493989E0,2.64616E0,5.513156E0,8.690214E0],"tree_param":{"num_deleted":"0","num_feature":"44","num_nodes":"31","size_leaf_vector":"1"}},{"base_weights":[-2.2307878E-2,-3.99484E-1,3.7067077E-1,-3.2139014E-2,-1.6330382E-1,5.3067815E-1,-4.15984E-1,-3.3656305E-1,5.0970006E-1,5.6411606E-1,-2.7244657E-2,-3.272091E-2,1.1498802E-2,1.8501205E-2,-2.568598E-2,-2.6949361E-2,4.526517E-2,1.9390263E-2,4.0916387E-2],"categories":[],"categories_nodes":[],"categories_segments":[],"categories_sizes":[],"default_left":[0,0,0,0,0,0,0,0,0,0,0,0,0,0,0,0,0,0,0],"id":31,"left_children":[1,3,5,-1,7,9,11,13,15,17,-1,-1,-1,-1,-1,-1,-1,-1,-1],"loss_changes":[3.1867275E1,6.1971817E0,1.3477702E1,0E0,6.8170776E0,3.4708443E0,2.978658E0,5.9389815E0,5.4936924E0,3.5281792E0,0E0,0E0,0E0,0E0,0E0,0E0,0E0,0E0,0E0],"parents":[2147483647,0,0,1,1,2,2,4,4,5,5,6,6,7,7,8,8,9,9],"right_children":[2,4,6,-1,8,10,12,14,16,18,-1,-1,-1,-1,-1,-1,-1,-1,-1],"split_conditions":[1.2354E4,4.255E3,1E0,-3.2139014E-2,1E0,1E0,1E0,-1.1E1,1E0,4.811333E3,-2.7244657E-2,-3.272091E-2,1.1498802E-2,1.8501205E-2,-2.568598E-2,-2.6949361E-2,4.526517E-2,1.9390263E-2,4.0916387E-2],"split_indices":[0,0,3,0,26,7,26,3,7,2,0,0,0,0,0,0,0,0,0],"split_type":[0,0,0,0,0,0,0,0,0,0,0,0,0,0,0,0,0,0,0],"sum_hessian":[2.1299768E2,1.086756E2,1.04322075E2,5.268335E1,5.5992252E1,8.695968E1,1.73624E1,4.492627E1,1.1065984E1,8.479892E1,2.1607533E0,1.2671904E1,4.6904964E0,8.787748E0,3.6138523E1,2.9317899E0,8.134193E0,5.156268E1,3.3236244E1],"tree_param":{"num_deleted":"0","num_feature":"44","num_nodes":"19","size_leaf_vector":"1"}},{"base_weights":[2.7668432E-3,-2.794078E-1,1.1495077E-1,-5.6199396E-1,8.921029E-2,1.999821E-1,-4.6642667E-1,1.4817049E-1,-3.3047203E-2,-1.7201523E-1,4.6674825E-2,3.6559322E-1,-3.3221343E-1,-3.1827655E-2,2.3442678E-2,3.662071E-2,-2.3606753E-2,-1.4753814E-2,3.5893228E-2,2.3167854E-2,-1.2225759E-2,-2.1197893E-2,2.9148897E-2],"categories":[],"categories_nodes":[],"categories_segments":[],"categories_sizes":[],"default_left":[0,0,0,0,0,0,0,0,0,0,0,0,0,0,0,0,0,0,0,0,0,0,0],"id":32,"left_children":[1,3,5,7,9,11,13,15,-1,17,-1,19,21,-1,-1,-1,-1,-1,-1,-1,-1,-1,-1],"loss_changes":[7.121391E0,6.716706E0,8.049975E0,2.6532707E0,6.476021E0,1.255896E1,3.6139402E0,2.2535226E0,0E0,2.6991374E0,0E0,6.5610895E0,3.1031692E0,0E0,0E0,0E0,0E0,0E0,0E0,0E0,0E0,0E0,0E0],"parents":[2147483647,0,0,1,1,2,2,3,3,4,4,5,5,6,6,7,7,9,9,11,11,12,12],"right_children":[2,4,6,8,10,12,14,16,-1,18,-1,20,22,-1,-1,-1,-1,-1,-1,-1,-1,-1,-1],"split_conditions":[1E0,1E0,1E0,1.95661E3,1.2354E4,5.0436E4,1E0,-2E0,-3.3047203E-2,8E0,4.6674825E-2,1E0,1E0,-3.1827655E-2,2.3442678E-2,3.662071E-2,-2.3606753E-2,-1.4753814E-2,3.5893228E-2,2.3167854E-2,-1.2225759E-2,-2.1197893E-2,2.9148897E-2],"split_indices":[1,3,26,2,0,0,14,3,0,3,0,14,14,0,0,0,0,0,0,0,0,0,0],"split_type":[0,0,0,0,0,0,0,0,0,0,0,0,0,0,0,0,0,0,0,0,0,0,0],"sum_hessian":[2.2295102E2,6.2999256E1,1.5995177E2,3.536416E1,2.76351E1,1.401148E2,1.9836948E1,4.2640004E0,3.1100157E1,2.1713205E1,5.921893E0,1.0709998E2,3.3014828E1,1.7054205E1,2.782743E0,2.102757E0,2.1612434E0,1.9662497E1,2.0507085E0,9.251578E1,1.4584209E1,3.0494616E1,2.5202138E0],"tree_param":{"num_deleted":"0","num_feature":"44","num_nodes":"23","size_leaf_vector":"1"}},{"base_weights":[-1.4670784E-2,5.542669E-1,-2.9105347E-1,6.885955E-1,-5.1588036E-2,-3.6599815E-1,1.1027167E-1,-1.8532056E-2,8.165116E-1,-2.666262E-1,3.9165422E-2,-1.8744501E-1,-4.7155884E-1,3.7237552E-1,-2.7535114E-2,3.7999995E-2,-2.0719184E-2,4.3436065E-2,1.5776148E-3,1.071262E-2,-2.656036E-2,-1.9177575E-2,4.7421504E-2,-8.786119E-3,-2.9233923E-2,4.864565E-2,-1.4899167E-3],"categories":[],"categories_nodes":[],"categories_segments":[],"categories_sizes":[],"default_left":[0,0,0,0,0,0,0,0,0,0,0,0,0,0,0,0,0,0,0,0,0,0,0,0,0,0,0],"id":33,"left_children":[1,3,5,7,9,11,13,15,17,19,-1,21,23,25,-1,-1,-1,-1,-1,-1,-1,-1,-1,-1,-1,-1,-1],"loss_changes":[3.4411373E1,5.8593273E0,4.469343E0,5.3195553E0,2.7074335E0,2.2547035E0,4.3525243E0,3.384748E0,2.0086784E0,1.6167579E0,0E0,1.1021994E1,2.4896564E0,4.313307E0,0E0,0E0,0E0,0E0,0E0,0E0,0E0,0E0,0E0,0E0,0E0,0E0,0E0],"parents":[2147483647,0,0,1,1,2,2,3,3,4,4,5,5,6,6,7,7,8,8,9,9,11,11,12,12,13,13],"right_children":[2,4,6,8,10,12,14,16,18,20,-1,22,24,26,-1,-1,-1,-1,-1,-1,-1,-1,-1,-1,-1,-1,-1],"split_conditions":[4.255E3,2E0,1E0,1.8406821E3,2.551E3,1.2354E4,1E0,1E0,4E0,2.169E3,3.9165422E-2,1E0,1E0,1E0,-2.7535114E-2,3.7999995E-2,-2.0719184E-2,4.3436065E-2,1.5776148E-3,1.071262E-2,-2.656036E-2,-1.9177575E-2,4.7421504E-2,-8.786119E-3,-2.9233923E-2,4.864565E-2,-1.4899167E-3],"split_indices":[0,1,14,2,0,0,23,4,3,0,0,16,16,5,0,0,0,0,0,0,0,0,0,0,0,0,0],"split_type":[0,0,0,0,0,0,0,0,0,0,0,0,0,0,0,0,0,0,0,0,0,0,0,0,0,0,0],"sum_hessian":[2.168139E2,7.0559906E1,1.46254E2,5.7642906E1,1.2916999E1,1.23314E2,2.2939999E1,8.961014E0,4.8681892E1,1.0812698E1,2.1043003E0,4.684783E1,7.646617E1,1.6738935E1,6.2010627E0,2.7104292E0,6.2505846E0,4.554581E1,3.1360822E0,3.9051921E0,6.907506E0,4.0515285E1,6.3325496E0,2.1857275E1,5.4608894E1,6.144563E0,1.0594373E1],"tree_param":{"num_deleted":"0","num_feature":"44","num_nodes":"27","size_leaf_vector":"1"}},{"base_weights":[-9.757933E-3,-3.6251304E-1,3.536278E-1,-4.882572E-1,1.439253E-1,4.047452E-1,-3.0418143E-2,2.243575E-1,-5.823396E-1,-2.871968E-1,3.8880777E-2,3.2109607E-2,5.703594E-1,-2.7516881E-2,3.828373E-2,-3.2176174E-2,-2.5078726E-3,3.3375483E-2,-3.0465527E-2,3.7264664E-2,-2.318844E-2,1.14875585E-2,4.3308996E-2],"categories":[],"categories_nodes":[],"categories_segments":[],"categories_sizes":[],"default_left":[0,0,0,0,0,0,0,0,0,0,0,0,0,0,0,0,0,0,0,0,0,0,0],"id":34,"left_children":[1,3,5,7,9,11,-1,13,15,17,-1,19,21,-1,-1,-1,-1,-1,-1,-1,-1,-1,-1],"loss_changes":[2.8567533E1,7.2707767E0,5.6450634E0,6.218813E0,6.578612E0,6.4523907E0,0E0,5.1653366E0,2.588726E0,4.8886633E0,0E0,1.2129719E1,7.108963E0,0E0,0E0,0E0,0E0,0E0,0E0,0E0,0E0,0E0,0E0],"parents":[2147483647,0,0,1,1,2,2,3,3,4,4,5,5,7,7,8,8,9,9,11,11,12,12],"right_children":[2,4,6,8,10,12,-1,14,16,18,-1,20,22,-1,-1,-1,-1,-1,-1,-1,-1,-1,-1],"split_conditions":[1.2354E4,1E0,1E0,-1.1E1,2E0,1E0,-3.0418143E-2,-1.4E1,4E0,1.6049894E3,3.8880777E-2,2.6848342E3,5.0436E4,-2.7516881E-2,3.828373E-2,-3.2176174E-2,-2.5078726E-3,3.3375483E-2,-3.0465527E-2,3.7264664E-2,-2.318844E-2,1.14875585E-2,4.3308996E-2],"split_indices":[0,26,34,3,1,16,0,3,3,2,0,2,0,0,0,0,0,0,0,0,0,0,0],"split_type":[0,0,0,0,0,0,0,0,0,0,0,0,0,0,0,0,0,0,0,0,0,0,0],"sum_hessian":[2.2085966E2,1.12070305E2,1.0878935E2,8.980774E1,2.2262566E1,1.0385031E2,4.939042E0,1.0312487E1,7.9495255E1,1.3574283E1,8.688282E0,3.232107E1,7.152924E1,4.2349954E0,6.0774918E0,7.11106E1,8.38465E0,3.1539814E0,1.0420301E1,1.3049708E1,1.9271362E1,3.407355E1,3.745569E1],"tree_param":{"num_deleted":"0","num_feature":"44","num_nodes":"23","size_leaf_vector":"1"}},{"base_weights":[6.236251E-3,-3.1819344E-2,4.5969266E-2,1.0266727E-1,-5.015698E-1,-2.7479085E-3,5.0876194E-1,-3.4285158E-2,2.5512705E-2,-2.259009E-3,4.133796E-2,3.384542E-2,-2.7928382E-2],"categories":[],"categories_nodes":[],"categories_segments":[],"categories_sizes":[],"default_left":[0,0,0,0,0,0,0,0,0,0,0,0,0],"id":35,"left_children":[1,-1,3,5,7,9,11,-1,-1,-1,-1,-1,-1],"loss_changes":[5.5492377E0,0E0,6.4010434E0,7.971042E0,3.957212E0,5.2746944E0,7.264696E0,0E0,0E0,0E0,0E0,0E0,0E0],"parents":[2147483647,0,0,2,2,3,3,4,4,5,5,6,6],"right_children":[2,-1,4,6,8,10,12,-1,-1,-1,-1,-1,-1],"split_conditions":[5.79E2,-3.1819344E-2,9E0,4E0,1.7E1,1E0,1E0,-3.4285158E-2,2.5512705E-2,-2.259009E-3,4.133796E-2,3.384542E-2,-2.7928382E-2],"split_indices":[0,0,1,1,1,34,26,0,0,0,0,0,0],"split_type":[0,0,0,0,0,0,0,0,0,0,0,0,0],"sum_hessian":[2.1518715E2,1.1655763E1,2.0353139E2,1.8516946E2,1.8361917E1,1.4779712E2,3.737235E1,1.5807545E1,2.5543733E0,1.415042E2,6.2929153E0,3.2602036E1,4.770313E0],"tree_param":{"num_deleted":"0","num_feature":"44","num_nodes":"13","size_leaf_vector":"1"}},{"base_weights":[-4.6562584E-4,5.360412E-1,-2.6531935E-1,-4.4700797E-3,6.412822E-1,-3.4502524E-1,1.3493206E-1,3.8635664E-2,-2.7097616E-1,6.861105E-1,-2.1168193E-2,-1.8363474E-1,-4.4352347E-1,6.166801E-1,-2.1001415E-1,8.186789E-3,-2.5282336E-2,4.168133E-2,2.2832358E-2,-1.8838055E-2,4.607121E-2,-7.3216E-3,-2.8320333E-2,4.7761295E-2,-1.5070505E-2,-2.7358595E-2,2.3676509E-3],"categories":[],"categories_nodes":[],"categories_segments":[],"categories_sizes":[],"default_left":[0,0,0,0,0,0,0,0,0,0,0,0,0,0,0,0,0,0,0,0,0,0,0,0,0,0,0],"id":36,"left_children":[1,3,5,7,9,11,13,-1,15,17,-1,19,21,23,25,-1,-1,-1,-1,-1,-1,-1,-1,-1,-1,-1,-1],"loss_changes":[3.0656357E1,4.0589657E0,4.6544886E0,2.8220358E0,3.1393013E0,1.8378048E0,4.235014E0,0E0,1.1165352E0,1.5711136E0,0E0,1.04768505E1,2.628416E0,3.570961E0,1.3399096E0,0E0,0E0,0E0,0E0,0E0,0E0,0E0,0E0,0E0,0E0,0E0,0E0],"parents":[2147483647,0,0,1,1,2,2,3,3,4,4,5,5,6,6,8,8,9,9,11,11,12,12,13,13,14,14],"right_children":[2,4,6,8,10,12,14,-1,16,18,-1,20,22,24,26,-1,-1,-1,-1,-1,-1,-1,-1,-1,-1,-1,-1],"split_conditions":[4.255E3,1.9091256E3,1E0,1.5970555E3,1E0,1.2354E4,1E0,3.8635664E-2,1E0,1E0,-2.1168193E-2,1E0,1E0,1E0,2.6552817E3,8.186789E-3,-2.5282336E-2,4.168133E-2,2.2832358E-2,-1.8838055E-2,4.607121E-2,-7.3216E-3,-2.8320333E-2,4.7761295E-2,-1.5070505E-2,-2.7358595E-2,2.3676509E-3],"split_indices":[0,2,14,2,8,0,5,0,4,5,0,16,16,23,2,0,0,0,0,0,0,0,0,0,0,0,0],"split_type":[0,0,0,0,0,0,0,0,0,0,0,0,0,0,0,0,0,0,0,0,0,0,0,0,0,0,0],"sum_hessian":[2.1374333E2,7.030485E1,1.4343848E2,1.1613931E1,5.8690914E1,1.197329E2,2.3705578E1,2.4806E0,9.133331E0,5.666069E1,2.0302231E0,4.6464542E1,7.326836E1,9.562683E0,1.4142894E1,3.3079126E0,5.8254185E0,3.288612E1,2.3774572E1,4.0113194E1,6.351351E0,2.2079348E1,5.118901E1,6.9568834E0,2.6058002E0,5.634939E0,8.507955E0],"tree_param":{"num_deleted":"0","num_feature":"44","num_nodes":"27","size_leaf_vector":"1"}},{"base_weights":[-1.2419569E-2,-3.4020528E-1,3.2737797E-1,-4.6923792E-1,1.4674379E-1,4.5939565E-1,-2.2263646E-1,2.1981373E-1,-5.6846935E-1,-2.7800882E-1,3.7842877E-2,5.213462E-1,-3.1208381E-2,-3.2112632E-2,4.3518093E-1,-2.7279058E-2,3.7386548E-2,-3.1789828E-2,4.699812E-3,-3.0294677E-2,3.1917807E-2,1.030228E-2,3.1551182E-2,-2.4716586E-2,4.1072648E-2],"categories":[],"categories_nodes":[],"categories_segments":[],"categories_sizes":[],"default_left":[0,0,0,0,0,0,0,0,0,0,0,0,0,0,0,0,0,0,0,0,0,0,0,0,0],"id":37,"left_children":[1,3,5,7,9,11,13,15,17,19,-1,21,-1,-1,23,-1,-1,-1,-1,-1,-1,-1,-1,-1,-1],"loss_changes":[2.3157225E1,6.7169657E0,7.5161724E0,5.8603973E0,6.1515484E0,5.874569E0,5.920801E0,4.965961E0,3.3425102E0,4.6675754E0,0E0,2.592928E0,0E0,0E0,3.4778984E0,0E0,0E0,0E0,0E0,0E0,0E0,0E0,0E0,0E0,0E0],"parents":[2147483647,0,0,1,1,2,2,3,3,4,4,5,5,6,6,7,7,8,8,9,9,11,11,14,14],"right_children":[2,4,6,8,10,12,14,16,18,20,-1,22,-1,-1,24,-1,-1,-1,-1,-1,-1,-1,-1,-1,-1],"split_conditions":[1.2354E4,1E0,1E0,-1.1E1,2E0,1E0,5.0436E4,-1.4E1,4E0,3E0,3.7842877E-2,1E0,-3.1208381E-2,-3.2112632E-2,1E0,-2.7279058E-2,3.7386548E-2,-3.1789828E-2,4.699812E-3,-3.0294677E-2,3.1917807E-2,1.030228E-2,3.1551182E-2,-2.4716586E-2,4.1072648E-2],"split_indices":[0,26,3,3,1,24,0,3,3,3,0,16,0,0,16,0,0,0,0,0,0,0,0,0,0],"split_type":[0,0,0,0,0,0,0,0,0,0,0,0,0,0,0,0,0,0,0,0,0,0,0,0,0],"sum_hessian":[2.059105E2,1.0480711E2,1.01103386E2,8.288142E1,2.19257E1,8.166615E1,1.943723E1,1.0280393E1,7.260103E1,1.3247387E1,8.678311E0,7.7740364E1,3.9257908E0,1.1881673E1,7.5555573E0,4.1826963E0,6.0976963E0,6.593975E1,6.6612773E0,1.000596E1,3.2414265E0,2.080599E1,5.6934376E1,2.135943E0,5.419615E0],"tree_param":{"num_deleted":"0","num_feature":"44","num_nodes":"25","size_leaf_vector":"1"}},{"base_weights":[-5.4295757E-3,-3.130764E-2,3.2372847E-2,7.6670825E-1,1.8904703E-3,1.3764326E-2,5.4178443E-2,7.3839135E-2,-4.0579686E-1,-1.21481E-2,8.899727E-3,-3.238308E-2,3.3526592E-2],"categories":[],"categories_nodes":[],"categories_segments":[],"categories_sizes":[],"default_left":[0,0,0,0,0,0,0,0,0,0,0,0,0],"id":38,"left_children":[1,-1,3,5,7,-1,-1,9,11,-1,-1,-1,-1],"loss_changes":[5.054913E0,0E0,4.5469294E0,9.6235704E-1,5.782052E0,0E0,0E0,5.571123E0,8.132158E0,0E0,0E0,0E0,0E0],"parents":[2147483647,0,0,2,2,3,3,4,4,7,7,8,8],"right_children":[2,-1,4,6,8,-1,-1,10,12,-1,-1,-1,-1],"split_conditions":[5.79E2,-3.130764E-2,6.88E2,1E0,1E0,1.3764326E-2,5.4178443E-2,1E0,1E0,-1.21481E-2,8.899727E-3,-3.238308E-2,3.3526592E-2],"split_indices":[0,0,0,26,26,0,0,1,14,0,0,0,0],"split_type":[0,0,0,0,0,0,0,0,0,0,0,0,0],"sum_hessian":[2.135611E2,1.136596E1,2.0219513E2,7.09602E0,1.950991E2,3.5143614E0,3.5816588E0,1.6652896E2,2.8570152E1,4.087378E1,1.2565518E2,2.3653234E1,4.9169164E0],"tree_param":{"num_deleted":"0","num_feature":"44","num_nodes":"13","size_leaf_vector":"1"}},{"base_weights":[9.624758E-3,5.244947E-1,-2.6004595E-1,6.9204134E-1,-1.4438726E-1,-3.5434747E-1,2.920661E-1,8.349313E-1,1.9676831E-1,1.7512192E-1,-4.0008664E-1,-8.586267E-2,-4.230009E-1,4.8822728E-1,-2.0422181E-2,4.501934E-2,-1.5204254E-2,-1.8733818E-2,2.4407016E-2,-1.9965818E-2,4.042622E-2,-4.038868E-3,-2.6626501E-2,2.54781E-2,-1.8592104E-2,-2.166121E-2,5.708429E-4,3.918836E-2,-1.1545356E-2],"categories":[],"categories_nodes":[],"categories_segments":[],"categories_sizes":[],"default_left":[0,0,0,0,0,0,0,0,0,0,0,0,0,0,0,0,0,0,0,0,0,0,0,0,0,0,0,0,0],"id":39,"left_children":[1,3,5,7,9,11,13,15,17,19,21,23,25,27,-1,-1,-1,-1,-1,-1,-1,-1,-1,-1,-1,-1,-1,-1,-1],"loss_changes":[2.9297945E1,8.227711E0,7.3147125E0,3.9523697E0,1.3245399E0,2.1525373E0,3.051243E0,3.6165981E0,2.5693913E0,3.0595057E0,3.305614E-1,4.5207887E0,4.2381096E-1,3.7236962E0,0E0,0E0,0E0,0E0,0E0,0E0,0E0,0E0,0E0,0E0,0E0,0E0,0E0,0E0,0E0],"parents":[2147483647,0,0,1,1,2,2,3,3,4,4,5,5,6,6,7,7,8,8,9,9,10,10,11,11,12,12,13,13],"right_children":[2,4,6,8,10,12,14,16,18,20,22,24,26,28,-1,-1,-1,-1,-1,-1,-1,-1,-1,-1,-1,-1,-1,-1,-1],"split_conditions":[4.255E3,2E0,1E0,1E0,4.2064736E3,1E0,1E0,5E0,1.8406821E3,2.7322031E3,2.169E3,1.1923E4,5E0,1E0,-2.0422181E-2,4.501934E-2,-1.5204254E-2,-1.8733818E-2,2.4407016E-2,-1.9965818E-2,4.042622E-2,-4.038868E-3,-2.6626501E-2,2.54781E-2,-1.8592104E-2,-2.166121E-2,5.708429E-4,3.918836E-2,-1.1545356E-2],"split_indices":[0,1,14,26,2,1,23,3,2,2,0,0,3,27,0,0,0,0,0,0,0,0,0,0,0,0,0,0,0],"split_type":[0,0,0,0,0,0,0,0,0,0,0,0,0,0,0,0,0,0,0,0,0,0,0,0,0,0,0,0,0],"sum_hessian":[2.0902905E2,7.1524895E1,1.3750415E2,5.7169914E1,1.4354981E1,1.1775041E2,1.975374E1,4.3836857E1,1.3333058E1,6.521352E0,7.83363E0,2.443653E1,9.331388E1,1.5669037E1,4.084703E0,4.1652718E1,2.1841364E0,4.406006E0,8.9270525E0,3.6136606E0,2.907691E0,2.7686236E0,5.0650063E0,7.674984E0,1.6761547E1,9.1171074E1,2.1428087E0,1.1041485E1,4.6275525E0],"tree_param":{"num_deleted":"0","num_feature":"44","num_nodes":"29","size_leaf_vector":"1"}},{"base_weights":[-1.8100811E-2,-3.797144E-1,3.296013E-1,-4.163697E-1,3.6709584E-2,2.3267663E-1,4.6629112E-2,-5.210019E-1,4.8683956E-2,-6.156598E-2,5.499512E-1,-2.8677164E-2,1.7766202E-2,-2.8062675E-2,1.9315101E-2,-1.7202197E-2,4.024986E-2,-3.2137282E-2,3.662092E-2],"categories":[],"categories_nodes":[],"categories_segments":[],"categories_sizes":[],"default_left":[0,0,0,0,0,0,0,0,0,0,0,0,0,0,0,0,0,0,0],"id":40,"left_children":[1,3,5,7,-1,9,-1,11,13,15,17,-1,-1,-1,-1,-1,-1,-1,-1],"loss_changes":[2.6978676E1,4.599334E0,6.177741E0,5.010313E0,0E0,8.958384E0,0E0,4.058319E0,4.279799E0,1.263813E1,1.050317E1,0E0,0E0,0E0,0E0,0E0,0E0,0E0,0E0],"parents":[2147483647,0,0,1,1,2,2,3,3,5,5,7,7,8,8,9,9,10,10],"right_children":[2,4,6,8,-1,10,-1,12,14,16,18,-1,-1,-1,-1,-1,-1,-1,-1],"split_conditions":[1.2354E4,1E0,1E0,1E0,3.6709584E-2,5.0436E4,4.6629112E-2,6E0,2.165E3,1E0,1E0,-2.8677164E-2,1.7766202E-2,-2.8062675E-2,1.9315101E-2,-1.7202197E-2,4.024986E-2,-3.2137282E-2,3.662092E-2],"split_indices":[0,20,23,26,0,0,0,1,0,26,16,0,0,0,0,0,0,0,0],"split_type":[0,0,0,0,0,0,0,0,0,0,0,0,0,0,0,0,0,0,0],"sum_hessian":[2.1257439E2,1.041575E2,1.0841689E2,1.0144544E2,2.7120566E0,9.459701E1,1.3819884E1,8.271512E1,1.873033E1,4.9498093E1,4.5098915E1,7.8362305E1,4.3528104E0,6.437683E0,1.2292645E1,3.7784325E1,1.1713768E1,5.6493573E0,3.944956E1],"tree_param":{"num_deleted":"0","num_feature":"44","num_nodes":"19","size_leaf_vector":"1"}},{"base_weights":[-8.53618E-3,-3.703116E-1,6.511525E-2,-5.336354E-1,2.4374376E-1,1.9297276E-1,-2.2879963E-1,-3.259024E-2,2.6389156E-2,5.8545023E-1,-2.3579631E-2,3.0821776E-1,-4.5701787E-1,-3.2712102E-1,4.5010023E-2,1.5800327E-2,3.8490187E-2,6.2719703E-4,2.476857E-2,-3.1541806E-2,3.3217758E-2,-2.1379603E-2,1.09420335E-2],"categories":[],"categories_nodes":[],"categories_segments":[],"categories_sizes":[],"default_left":[0,0,0,0,0,0,0,0,0,0,0,0,0,0,0,0,0,0,0,0,0,0,0],"id":41,"left_children":[1,3,5,7,9,11,13,-1,-1,15,-1,17,19,21,-1,-1,-1,-1,-1,-1,-1,-1,-1],"loss_changes":[5.9925423E0,3.9448857E0,7.0698824E0,4.151964E0,2.3973117E0,9.940743E0,6.636467E0,0E0,0E0,7.0613384E-2,0E0,6.1759806E0,4.337898E0,3.0166597E0,0E0,0E0,0E0,0E0,0E0,0E0,0E0,0E0,0E0],"parents":[2147483647,0,0,1,1,2,2,3,3,4,4,5,5,6,6,9,9,11,11,12,12,13,13],"right_children":[2,4,6,8,10,12,14,-1,-1,16,-1,18,20,22,-1,-1,-1,-1,-1,-1,-1,-1,-1],"split_conditions":[2.169E3,1E0,4.4546E4,4E0,6.88E2,1E0,1E0,-3.259024E-2,2.6389156E-2,1E0,-2.3579631E-2,-3E0,1E0,1E0,4.5010023E-2,1.5800327E-2,3.8490187E-2,6.2719703E-4,2.476857E-2,-3.1541806E-2,3.3217758E-2,-2.1379603E-2,1.09420335E-2],"split_indices":[0,26,0,3,0,26,34,0,0,5,0,3,14,14,0,0,0,0,0,0,0,0,0],"split_type":[0,0,0,0,0,0,0,0,0,0,0,0,0,0,0,0,0,0,0,0,0,0,0],"sum_hessian":[2.2299574E2,3.70379E1,1.8595784E2,2.9359858E1,7.6780424E0,1.2982529E2,5.613256E1,2.676588E1,2.5939772E0,5.3188663E0,2.3591764E0,1.1072013E2,1.910515E1,5.228911E1,3.8434536E0,3.263378E0,2.055488E0,4.333095E1,6.738918E1,1.6919924E1,2.1852272E0,4.434525E1,7.9438605E0],"tree_param":{"num_deleted":"0","num_feature":"44","num_nodes":"23","size_leaf_vector":"1"}},{"base_weights":[7.3112114E-3,5.2483314E-1,-2.509601E-1,6.6757554E-1,-1.11202314E-1,-5.2813303E-2,-3.8176847E-1,-5.816341E-2,8.0282736E-1,3.7342837E-1,-3.992199E-1,2.7656E-1,-4.5757723E-1,-4.345125E-1,4.979386E-2,3.3360116E-2,-2.0314189E-2,4.3364312E-2,2.4139132E-2,-6.954483E-3,3.7126098E-2,-4.518771E-3,-2.6354868E-2,3.8343202E-2,-1.7876324E-3,-9.119502E-3,-2.5263352E-2,-9.744147E-3,-2.7725238E-2],"categories":[],"categories_nodes":[],"categories_segments":[],"categories_sizes":[],"default_left":[0,0,0,0,0,0,0,0,0,0,0,0,0,0,0,0,0,0,0,0,0,0,0,0,0,0,0,0,0],"id":42,"left_children":[1,3,5,7,9,11,13,15,17,19,21,23,25,27,-1,-1,-1,-1,-1,-1,-1,-1,-1,-1,-1,-1,-1,-1,-1],"loss_changes":[2.718656E1,6.2215385E0,3.4971895E0,5.4887333E0,2.0010166E0,7.475467E0,6.3606195E0,2.7057517E0,5.4676247E-1,1.1365938E0,3.0012035E-1,4.776716E0,2.3735094E-1,2.171218E0,0E0,0E0,0E0,0E0,0E0,0E0,0E0,0E0,0E0,0E0,0E0,0E0,0E0,0E0,0E0],"parents":[2147483647,0,0,1,1,2,2,3,3,4,4,5,5,6,6,7,7,8,8,9,9,10,10,11,11,12,12,13,13],"right_children":[2,4,6,8,10,12,14,16,18,20,22,24,26,28,-1,-1,-1,-1,-1,-1,-1,-1,-1,-1,-1,-1,-1,-1,-1],"split_conditions":[4.255E3,2E0,1.2354E4,1.8406821E3,4.2064736E3,1E0,1E0,1E0,1E0,3.092476E3,2.169E3,1E0,-1.2E1,1E0,4.979386E-2,3.3360116E-2,-2.0314189E-2,4.3364312E-2,2.4139132E-2,-6.954483E-3,3.7126098E-2,-4.518771E-3,-2.6354868E-2,3.8343202E-2,-1.7876324E-3,-9.119502E-3,-2.5263352E-2,-9.744147E-3,-2.7725238E-2],"split_indices":[0,1,0,2,2,7,7,4,26,2,0,5,3,16,0,0,0,0,0,0,0,0,0,0,0,0,0,0,0],"split_type":[0,0,0,0,0,0,0,0,0,0,0,0,0,0,0,0,0,0,0,0,0,0,0,0,0,0,0,0,0],"sum_hessian":[2.0141382E2,6.6709595E1,1.3470422E2,5.4441875E1,1.2267717E1,5.4123062E1,8.058117E1,8.641733E0,4.5800144E1,4.4624543E0,7.805263E0,3.0015188E1,2.4107874E1,7.826918E1,2.3119867E0,2.505185E0,6.136548E0,3.6698883E1,9.10126E0,2.1291316E0,2.3333228E0,2.7852273E0,5.0200357E0,1.1113114E1,1.8902075E1,4.273389E0,1.9834484E1,2.6991049E1,5.1278133E1],"tree_param":{"num_deleted":"0","num_feature":"44","num_nodes":"29","size_leaf_vector":"1"}},{"base_weights":[-1.225593E-2,-2.4291834E-1,4.769439E-1,-4.036049E-1,3.4156054E-1,-2.7246812E-1,6.2673914E-1,2.3341945E-1,-5.8492E-1,-2.785925E-2,5.914583E-1,3.5221886E-2,-3.3168044E-2,2.7375123E-1,7.847409E-1,2.2518203E-2,-3.214954E-2,-3.2228462E-2,-1.1315612E-2,8.494697E-3,3.410105E-2,-3.0763969E-3,4.7478788E-2,1.0251639E-2,4.285151E-2],"categories":[],"categories_nodes":[],"categories_segments":[],"categories_sizes":[],"default_left":[0,0,0,0,0,0,0,0,0,0,0,0,0,0,0,0,0,0,0,0,0,0,0,0,0],"id":43,"left_children":[1,3,5,7,9,11,13,15,17,-1,19,-1,-1,21,23,-1,-1,-1,-1,-1,-1,-1,-1,-1,-1],"loss_changes":[2.370882E1,1.354465E1,7.7294693E0,1.3121979E1,7.364773E0,5.01674E0,2.931841E0,5.161611E0,1.7322655E0,0E0,8.383627E-1,0E0,0E0,4.3593326E0,1.4351025E0,0E0,0E0,0E0,0E0,0E0,0E0,0E0,0E0,0E0,0E0],"parents":[2147483647,0,0,1,1,2,2,3,3,4,4,5,5,6,6,7,7,8,8,10,10,13,13,14,14],"right_children":[2,4,6,8,10,12,14,16,18,-1,20,-1,-1,22,24,-1,-1,-1,-1,-1,-1,-1,-1,-1,-1],"split_conditions":[4.4546E4,1E0,1E0,-1.1E1,2.165E3,1E0,5.0436E4,1E0,1E0,-2.785925E-2,-5E0,3.5221886E-2,-3.3168044E-2,6E0,-8.2E1,2.2518203E-2,-3.214954E-2,-3.2228462E-2,-1.1315612E-2,8.494697E-3,3.410105E-2,-3.0763969E-3,4.7478788E-2,1.0251639E-2,4.285151E-2],"split_indices":[0,26,16,3,0,1,0,43,14,0,3,0,0,1,3,0,0,0,0,0,0,0,0,0,0],"split_type":[0,0,0,0,0,0,0,0,0,0,0,0,0,0,0,0,0,0,0,0,0,0,0,0,0],"sum_hessian":[2.0808328E2,1.4175015E2,6.633312E1,1.11426056E2,3.0324099E1,1.0913735E1,5.5419384E1,2.4624403E1,8.680166E1,6.329761E0,2.3994337E1,2.88972E0,8.024015E0,1.798102E1,3.7438362E1,2.012807E1,4.4963307E0,7.373884E1,1.3062818E1,4.7516503E0,1.9242687E1,1.2626115E1,5.3549056E0,4.576267E0,3.28621E1],"tree_param":{"num_deleted":"0","num_feature":"44","num_nodes":"25","size_leaf_vector":"1"}},{"base_weights":[1.0772486E-2,-3.0494569E-2,4.66207E-2,7.704263E-1,1.746973E-2,1.5866732E-2,5.1243003E-2,8.344548E-2,-3.8520047E-1,8.804928E-3,-1.5585496E-2,-3.163014E-2,3.2505725E-2],"categories":[],"categories_nodes":[],"categories_segments":[],"categories_sizes":[],"default_left":[0,0,0,0,0,0,0,0,0,0,0,0,0],"id":44,"left_children":[1,-1,3,5,7,-1,-1,9,11,-1,-1,-1,-1],"loss_changes":[4.8769083E0,0E0,4.3529444E0,5.9572077E-1,5.3442016E0,0E0,0E0,6.3751383E0,7.66703E0,0E0,0E0,0E0,0E0],"parents":[2147483647,0,0,2,2,3,3,4,4,7,7,8,8],"right_children":[2,-1,4,6,8,-1,-1,10,12,-1,-1,-1,-1],"split_conditions":[5.79E2,-3.0494569E-2,6.88E2,1E0,1E0,1.5866732E-2,5.1243003E-2,5.0436E4,1E0,8.804928E-3,-1.5585496E-2,-3.163014E-2,3.2505725E-2],"split_indices":[0,0,0,26,26,0,0,0,14,0,0,0,0],"split_type":[0,0,0,0,0,0,0,0,0,0,0,0,0],"sum_hessian":[2.1691202E2,1.0969892E1,2.0594212E2,6.988634E0,1.9895349E2,3.3213122E0,3.6673217E0,1.7162608E2,2.7327414E1,1.3947694E2,3.2149143E1,2.2370628E1,4.9567857E0],"tree_param":{"num_deleted":"0","num_feature":"44","num_nodes":"13","size_leaf_vector":"1"}},{"base_weights":[1.6116098E-2,4.9568734E-1,-2.3826806E-1,6.196532E-1,-8.993857E-2,-3.170053E-1,1.2954113E-1,1.570447E-2,7.291807E-1,3.9728117E-1,-3.941217E-1,-1.6520593E-1,-4.1180518E-1,6.025578E-1,-2.0803635E-1,3.5047155E-2,-1.7681817E-2,3.9245714E-2,-2.0294333E-2,-6.139401E-3,3.7160866E-2,-4.533563E-3,-2.6034271E-2,-1.7458955E-2,4.4059064E-2,-2.4290368E-2,4.999254E-2,4.5687135E-2,-1.3857213E-2,-2.6782284E-2,1.8500378E-3],"categories":[],"categories_nodes":[],"categories_segments":[],"categories_sizes":[],"default_left":[0,0,0,0,0,0,0,0,0,0,0,0,0,0,0,0,0,0,0,0,0,0,0,0,0,0,0,0,0,0,0],"id":45,"left_children":[1,3,5,7,9,11,13,15,17,19,21,23,25,27,29,-1,-1,-1,-1,-1,-1,-1,-1,-1,-1,-1,-1,-1,-1,-1,-1],"loss_changes":[2.5233263E1,5.259365E0,3.956264E0,3.9100208E0,2.1418264E0,1.5385952E0,4.0451126E0,2.8097713E0,3.4917622E0,1.10715E0,2.8879118E-1,8.891446E0,7.595154E0,3.122049E0,1.2294205E0,0E0,0E0,0E0,0E0,0E0,0E0,0E0,0E0,0E0,0E0,0E0,0E0,0E0,0E0,0E0,0E0],"parents":[2147483647,0,0,1,1,2,2,3,3,4,4,5,5,6,6,7,7,8,8,9,9,10,10,11,11,12,12,13,13,14,14],"right_children":[2,4,6,8,10,12,14,16,18,20,22,24,26,28,30,-1,-1,-1,-1,-1,-1,-1,-1,-1,-1,-1,-1,-1,-1,-1,-1],"split_conditions":[4.255E3,2E0,1E0,1.8406821E3,4.2064736E3,1.2354E4,1E0,1E0,5E0,2.6848342E3,2.169E3,1E0,1E0,1E0,2.6552817E3,3.5047155E-2,-1.7681817E-2,3.9245714E-2,-2.0294333E-2,-6.139401E-3,3.7160866E-2,-4.533563E-3,-2.6034271E-2,-1.7458955E-2,4.4059064E-2,-2.4290368E-2,4.999254E-2,4.5687135E-2,-1.3857213E-2,-2.6782284E-2,1.8500378E-3],"split_indices":[0,1,14,2,2,0,5,4,3,2,0,16,7,23,2,0,0,0,0,0,0,0,0,0,0,0,0,0,0,0,0],"split_type":[0,0,0,0,0,0,0,0,0,0,0,0,0,0,0,0,0,0,0,0,0,0,0,0,0,0,0,0,0,0,0],"sum_hessian":[2.0486981E2,7.067777E1,1.3419205E2,5.8282394E1,1.239538E1,1.10644424E2,2.3547623E1,9.122594E0,4.9159798E1,4.646644E0,7.748736E0,4.3589283E1,6.705514E1,9.479672E0,1.4067951E1,2.8805263E0,6.2420673E0,4.7153E1,2.006799E0,2.1138325E0,2.5328116E0,2.7858238E0,4.962912E0,3.7638138E1,5.9511423E0,6.433825E1,2.7168946E0,6.974001E0,2.5056717E0,5.5122347E0,8.5557165E0],"tree_param":{"num_deleted":"0","num_feature":"44","num_nodes":"31","size_leaf_vector":"1"}},{"base_weights":[-2.0808542E-2,-4.0960398E-1,3.3823422E-1,-4.4926515E-1,3.5946906E-2,3.888888E-1,-3.0515248E-2,-5.664586E-1,3.529841E-2,2.9995343E-1,4.4020563E-2,-3.130526E-2,1.7308189E-2,-1.3951425E-2,3.5234045E-2,-7.159229E-3,2.4090147E-2],"categories":[],"categories_nodes":[],"categories_segments":[],"categories_sizes":[],"default_left":[0,0,0,0,0,0,0,0,0,0,0,0,0,0,0,0,0],"id":46,"left_children":[1,3,5,7,-1,9,-1,11,13,15,-1,-1,-1,-1,-1,-1,-1],"loss_changes":[2.8498365E1,4.7089806E0,5.3385124E0,5.43067E0,0E0,4.1683636E0,0E0,4.396349E0,4.2989197E0,7.110308E0,0E0,0E0,0E0,0E0,0E0,0E0,0E0],"parents":[2147483647,0,0,1,1,2,2,3,3,5,5,7,7,8,8,9,9],"right_children":[2,4,6,8,-1,10,-1,12,14,16,-1,-1,-1,-1,-1,-1,-1],"split_conditions":[1.2354E4,1E0,1E0,1E0,3.5946906E-2,1E0,-3.0515248E-2,6E0,3E0,1E0,4.4020563E-2,-3.130526E-2,1.7308189E-2,-1.3951425E-2,3.5234045E-2,-7.159229E-3,2.4090147E-2],"split_indices":[0,20,34,26,0,23,0,1,1,16,0,0,0,0,0,0,0],"split_type":[0,0,0,0,0,0,0,0,0,0,0,0,0,0,0,0,0],"sum_hessian":[2.0215904E2,9.699047E1,1.0516857E2,9.427906E1,2.7114124E0,1.003971E2,4.7714667E0,7.578193E1,1.8497135E1,8.6378204E1,1.4018898E1,7.142756E1,4.354371E0,1.2983521E1,5.513613E0,2.51949E1,6.1183304E1],"tree_param":{"num_deleted":"0","num_feature":"44","num_nodes":"17","size_leaf_vector":"1"}},{"base_weights":[2.62628E-3,-3.4852916E-1,7.320652E-2,-5.140802E-1,2.3112191E-1,5.839589E-1,2.2439277E-2,-3.140425E-2,8.581575E-3,5.555452E-1,-2.3204377E-2,-2.5263408E-2,4.343665E-2,-1.4249076E-2,4.2627554E-2,1.4612724E-2,3.703059E-2,3.7381544E-3,-1.6455114E-2],"categories":[],"categories_nodes":[],"categories_segments":[],"categories_sizes":[],"default_left":[0,0,0,0,0,0,0,0,0,0,0,0,0,0,0,0,0,0,0],"id":47,"left_children":[1,3,5,7,9,11,13,-1,-1,15,-1,-1,-1,17,-1,-1,-1,-1,-1],"loss_changes":[5.327953E0,3.5713243E0,4.6273055E0,2.3197713E0,2.216106E0,5.445346E0,5.0014324E0,0E0,0E0,9.4189405E-2,0E0,0E0,0E0,4.449089E0,0E0,0E0,0E0,0E0,0E0],"parents":[2147483647,0,0,1,1,2,2,3,3,4,4,5,5,6,6,9,9,13,13],"right_children":[2,4,6,8,10,12,14,-1,-1,16,-1,-1,-1,18,-1,-1,-1,-1,-1],"split_conditions":[2.169E3,1E0,2.551E3,2E0,6.88E2,1E0,1E0,-3.140425E-2,8.581575E-3,1E0,-2.3204377E-2,-2.5263408E-2,4.343665E-2,5.0436E4,4.2627554E-2,1.4612724E-2,3.703059E-2,3.7381544E-3,-1.6455114E-2],"split_indices":[0,26,0,1,0,1,34,0,0,5,0,0,0,0,0,0,0,0,0],"split_type":[0,0,0,0,0,0,0,0,0,0,0,0,0,0,0,0,0,0,0],"sum_hessian":[2.1294052E2,3.4977936E1,1.7796259E2,2.7295372E1,7.6825647E0,1.5140126E1,1.6282246E2,2.3476301E1,3.8190708E0,5.3751273E0,2.3074374E0,2.9774506E0,1.2162675E1,1.5687204E2,5.95042E0,3.2832685E0,2.0918589E0,1.2289183E2,3.398021E1],"tree_param":{"num_deleted":"0","num_feature":"44","num_nodes":"19","size_leaf_vector":"1"}},{"base_weights":[9.27172E-3,4.4535926E-1,-2.245112E-1,5.944444E-1,-1.5888748E-1,-3.022722E-1,1.3043366E-1,1.2216474E-2,7.0289797E-1,1.5858003E-1,-4.208641E-1,-7.5233527E-3,-3.7700605E-1,5.8708555E-1,-1.9094343E-1,3.4131087E-2,-1.7461842E-2,3.7988868E-2,-2.0442372E-2,-1.9473631E-2,3.7728593E-2,-7.895907E-3,-2.5511583E-2,1.7084105E-2,-2.0314373E-2,-1.3750498E-2,-2.3279851E-2,4.4201743E-2,-1.3347841E-2,-2.6560774E-2,2.6852645E-3],"categories":[],"categories_nodes":[],"categories_segments":[],"categories_sizes":[],"default_left":[0,0,0,0,0,0,0,0,0,0,0,0,0,0,0,0,0,0,0,0,0,0,0,0,0,0,0,0,0,0,0],"id":48,"left_children":[1,3,5,7,9,11,13,15,17,19,21,23,25,27,29,-1,-1,-1,-1,-1,-1,-1,-1,-1,-1,-1,-1,-1,-1,-1,-1],"loss_changes":[2.0899954E1,6.538907E0,3.7236862E0,3.6280136E0,1.3098317E0,2.4157362E0,3.7350578E0,2.6763666E0,3.379486E0,2.7383935E0,1.18287325E-1,3.3734088E0,6.632166E-1,2.8843305E0,1.2975528E0,0E0,0E0,0E0,0E0,0E0,0E0,0E0,0E0,0E0,0E0,0E0,0E0,0E0,0E0,0E0,0E0],"parents":[2147483647,0,0,1,1,2,2,3,3,4,4,5,5,6,6,7,7,8,8,9,9,10,10,11,11,12,12,13,13,14,14],"right_children":[2,4,6,8,10,12,14,16,18,20,22,24,26,28,30,-1,-1,-1,-1,-1,-1,-1,-1,-1,-1,-1,-1,-1,-1,-1,-1],"split_conditions":[4.255E3,2E0,1E0,1.8406821E3,4.2064736E3,1E0,1E0,1E0,5E0,2.7322031E3,2.169E3,1E0,1E0,1E0,2.6552817E3,3.4131087E-2,-1.7461842E-2,3.7988868E-2,-2.0442372E-2,-1.9473631E-2,3.7728593E-2,-7.895907E-3,-2.5511583E-2,1.7084105E-2,-2.0314373E-2,-1.3750498E-2,-2.3279851E-2,4.4201743E-2,-1.3347841E-2,-2.6560774E-2,2.6852645E-3],"split_indices":[0,1,14,2,2,1,5,4,3,2,0,23,16,23,2,0,0,0,0,0,0,0,0,0,0,0,0,0,0,0,0],"split_type":[0,0,0,0,0,0,0,0,0,0,0,0,0,0,0,0,0,0,0,0,0,0,0,0,0,0,0,0,0,0,0],"sum_hessian":[2.030216E2,7.053813E1,1.3248347E2,5.659157E1,1.3946556E1,1.08796776E2,2.3686703E1,9.060945E0,4.753063E1,6.4839187E0,7.462638E0,2.2228533E1,8.656824E1,9.44265E0,1.4244053E1,2.8627374E0,6.198207E0,4.5518394E1,2.0122337E0,3.5583248E0,2.9255939E0,2.594857E0,4.8677807E0,1.1926987E1,1.0301546E1,4.2147476E1,4.4420765E1,6.9804425E0,2.4622073E0,5.4677873E0,8.776265E0],"tree_param":{"num_deleted":"0","num_feature":"44","num_nodes":"31","size_leaf_vector":"1"}},{"base_weights":[4.810824E-3,-3.1715655E-1,2.9867363E-1,-4.4251323E-1,1.5153037E-1,2.0680009E-1,4.280211E-2,2.036552E-1,-5.424739E-1,-2.4800761E-1,3.4222852E-2,-6.1789908E-2,4.993933E-1,-2.656371E-2,3.5123494E-2,-3.0705443E-2,9.529294E-4,-2.9218545E-2,3.0854506E-2,-1.3989411E-2,4.383252E-2,-3.1134972E-2,3.322734E-2],"categories":[],"categories_nodes":[],"categories_segments":[],"categories_sizes":[],"default_left":[0,0,0,0,0,0,0,0,0,0,0,0,0,0,0,0,0,0,0,0,0,0,0],"id":49,"left_children":[1,3,5,7,9,11,-1,13,15,17,-1,19,21,-1,-1,-1,-1,-1,-1,-1,-1,-1,-1],"loss_changes":[1.9617607E1,5.8805237E0,5.3735666E0,5.1694355E0,4.774261E0,7.447494E0,0E0,4.486419E0,2.7511463E0,4.170593E0,0E0,1.0493685E1,8.80478E0,0E0,0E0,0E0,0E0,0E0,0E0,0E0,0E0,0E0,0E0],"parents":[2147483647,0,0,1,1,2,2,3,3,4,4,5,5,7,7,8,8,9,9,11,11,12,12],"right_children":[2,4,6,8,10,12,-1,14,16,18,-1,20,22,-1,-1,-1,-1,-1,-1,-1,-1,-1,-1],"split_conditions":[1.2354E4,1E0,1E0,-1.1E1,2E0,5.0436E4,4.280211E-2,-1.4E1,4E0,3E0,3.4222852E-2,1E0,1E0,-2.656371E-2,3.5123494E-2,-3.0705443E-2,9.529294E-4,-2.9218545E-2,3.0854506E-2,-1.3989411E-2,4.383252E-2,-3.1134972E-2,3.322734E-2],"split_indices":[0,26,23,3,1,0,0,3,3,3,0,27,16,0,0,0,0,0,0,0,0,0,0],"split_type":[0,0,0,0,0,0,0,0,0,0,0,0,0,0,0,0,0,0,0,0,0,0,0],"sum_hessian":[2.053419E2,9.794754E1,1.0739436E2,7.732245E1,2.0625092E1,9.337412E1,1.4020241E1,1.0220096E1,6.7102356E1,1.2093306E1,8.531786E0,4.9095264E1,4.427886E1,4.1057734E0,6.114322E0,5.942753E1,7.674826E0,8.941296E0,3.1520104E0,4.040995E1,8.685315E0,5.3255253E0,3.895333E1],"tree_param":{"num_deleted":"0","num_feature":"44","num_nodes":"23","size_leaf_vector":"1"}},{"base_weights":[-4.1682683E-3,-2.6095003E-1,9.745463E-2,-3.3338735E-1,2.5859565E-2,1.7483425E-1,-3.5568565E-1,-4.7130293E-1,6.333639E-2,2.4542576E-1,-3.7540856E-1,-3.3331703E-2,3.24315E-1,-2.738643E-2,3.309671E-2,3.59864E-2,-4.527501E-3,5.089736E-3,3.3378534E-2,-2.9456317E-2,5.347535E-3,-2.3468284E-2,3.648525E-2],"categories":[],"categories_nodes":[],"categories_segments":[],"categories_sizes":[],"default_left":[0,0,0,0,0,0,0,0,0,0,0,0,0,0,0,0,0,0,0,0,0,0,0],"id":50,"left_children":[1,3,5,7,-1,9,11,13,15,17,19,-1,21,-1,-1,-1,-1,-1,-1,-1,-1,-1,-1],"loss_changes":[5.6008744E0,3.60253E0,5.455233E0,3.1091337E0,0E0,5.221027E0,5.0293665E0,3.9897127E0,1.6206534E0,7.0645704E0,1.6515238E0,0E0,2.8571548E0,0E0,0E0,0E0,0E0,0E0,0E0,0E0,0E0,0E0,0E0],"parents":[2147483647,0,0,1,1,2,2,3,3,5,5,6,6,7,7,8,8,9,9,10,10,12,12],"right_children":[2,4,6,8,-1,10,12,14,16,18,20,-1,22,-1,-1,-1,-1,-1,-1,-1,-1,-1,-1],"split_conditions":[1E0,1E0,7E0,1E0,2.5859565E-2,1E0,1.3E1,8E0,-5E0,4E0,1E0,-3.3331703E-2,-8.2E1,-2.738643E-2,3.309671E-2,3.59864E-2,-4.527501E-3,5.089736E-3,3.3378534E-2,-2.9456317E-2,5.347535E-3,-2.3468284E-2,3.648525E-2],"split_indices":[1,34,1,26,0,26,1,3,3,1,5,0,3,0,0,0,0,0,0,0,0,0,0],"split_type":[0,0,0,0,0,0,0,0,0,0,0,0,0,0,0,0,0,0,0,0,0,0,0],"sum_hessian":[2.1266022E2,5.9853634E1,1.528066E2,5.5279236E1,4.574395E0,1.310434E2,2.1763199E1,4.087991E1,1.4399328E1,1.1663418E2,1.4409212E1,1.4947646E1,6.8155527E0,3.878117E1,2.0987382E0,2.036362E0,1.2362967E1,8.795083E1,2.8683352E1,9.831742E0,4.57747E0,2.2508943E0,4.564658E0],"tree_param":{"num_deleted":"0","num_feature":"44","num_nodes":"23","size_leaf_vector":"1"}},{"base_weights":[-2.634084E-3,4.347583E-1,-2.3472956E-1,5.774759E-1,-1.3787545E-1,-3.1032497E-1,1.1869378E-1,6.974935E-1,1.58972E-1,8.229836E-3,-2.606584E-1,-5.16329E-2,-3.7849215E-1,5.895868E-1,-2.2602618E-1,3.7879616E-2,-1.559598E-2,3.334753E-2,-2.722918E-3,-3.0324622E-3,-2.0386139E-2,1.5442445E-2,-1.499224E-2,-1.4480801E-2,-2.294287E-2,4.3682523E-2,-1.29649965E-2,-2.49988E-3,-2.8703291E-2],"categories":[],"categories_nodes":[],"categories_segments":[],"categories_sizes":[],"default_left":[0,0,0,0,0,0,0,0,0,0,0,0,0,0,0,0,0,0,0,0,0,0,0,0,0,0,0,0,0],"id":51,"left_children":[1,3,5,7,9,11,13,15,17,-1,19,21,23,25,27,-1,-1,-1,-1,-1,-1,-1,-1,-1,-1,-1,-1,-1,-1],"loss_changes":[2.0895277E1,5.9114046E0,3.6294045E0,2.7679214E0,6.016076E-1,1.9387426E0,4.096797E0,2.9204826E0,1.5616199E0,0E0,3.013966E-1,2.268446E0,4.9373722E-1,2.781886E0,8.792474E-1,0E0,0E0,0E0,0E0,0E0,0E0,0E0,0E0,0E0,0E0,0E0,0E0,0E0,0E0],"parents":[2147483647,0,0,1,1,2,2,3,3,4,4,5,5,6,6,7,7,8,8,10,10,11,11,12,12,13,13,14,14],"right_children":[2,4,6,8,10,12,14,16,18,-1,20,22,24,26,28,-1,-1,-1,-1,-1,-1,-1,-1,-1,-1,-1,-1,-1,-1],"split_conditions":[4.255E3,2E0,1E0,1E0,2.169E3,1E0,1E0,5E0,1E0,8.229836E-3,3E0,1.1923E4,1E0,1E0,2E0,3.7879616E-2,-1.559598E-2,3.334753E-2,-2.722918E-3,-3.0324622E-3,-2.0386139E-2,1.5442445E-2,-1.499224E-2,-1.4480801E-2,-2.294287E-2,4.3682523E-2,-1.29649965E-2,-2.49988E-3,-2.8703291E-2],"split_indices":[0,1,14,26,0,1,5,3,3,0,1,0,16,23,3,0,0,0,0,0,0,0,0,0,0,0,0,0,0],"split_type":[0,0,0,0,0,0,0,0,0,0,0,0,0,0,0,0,0,0,0,0,0,0,0,0,0,0,0,0,0],"sum_hessian":[2.0382547E2,7.035872E1,1.3346675E2,5.631489E1,1.4043826E1,1.1004966E2,2.3417097E1,4.324621E1,1.3068682E1,3.9565165E0,1.008731E1,2.331761E1,8.673205E1,9.597044E0,1.3820052E1,4.105154E1,2.1946695E0,3.2377381E0,9.830944E0,4.8727345E0,5.214575E0,9.408791E0,1.3908819E1,4.3371338E1,4.336071E1,7.1689277E0,2.428116E0,9.937568E0,3.882485E0],"tree_param":{"num_deleted":"0","num_feature":"44","num_nodes":"29","size_leaf_vector":"1"}},{"base_weights":[1.2450788E-2,-3.1335777E-1,3.1688845E-1,-4.359112E-1,1.3501766E-1,3.624102E-1,-3.206141E-2,2.2059856E-1,-5.367713E-1,-2.5432912E-1,3.3339422E-2,5.154362E-1,4.8971824E-2,-2.6311312E-2,3.6610987E-2,-3.0434325E-2,-7.2083996E-5,2.9238379E-2,-2.891967E-2,2.8146101E-2,-2.6382247E-2,-1.905345E-2,2.1754872E-2],"categories":[],"categories_nodes":[],"categories_segments":[],"categories_sizes":[],"default_left":[0,0,0,0,0,0,0,0,0,0,0,0,0,0,0,0,0,0,0,0,0,0,0],"id":52,"left_children":[1,3,5,7,9,11,-1,13,15,17,-1,19,21,-1,-1,-1,-1,-1,-1,-1,-1,-1,-1],"loss_changes":[2.0080404E1,5.4335327E0,4.7960815E0,5.2204113E0,4.674663E0,4.7965317E0,0E0,4.576767E0,2.5816479E0,3.950879E0,0E0,3.6376648E0,5.8254247E0,0E0,0E0,0E0,0E0,0E0,0E0,0E0,0E0,0E0,0E0],"parents":[2147483647,0,0,1,1,2,2,3,3,4,4,5,5,7,7,8,8,9,9,11,11,12,12],"right_children":[2,4,6,8,10,12,-1,14,16,18,-1,20,22,-1,-1,-1,-1,-1,-1,-1,-1,-1,-1],"split_conditions":[1.2354E4,1E0,1E0,-1.1E1,2E0,-1E0,-3.206141E-2,-1.4E1,4E0,1.6049894E3,3.3339422E-2,1.7E1,5.0436E4,-2.6311312E-2,3.6610987E-2,-3.0434325E-2,-7.2083996E-5,2.9238379E-2,-2.891967E-2,2.8146101E-2,-2.6382247E-2,-1.905345E-2,2.1754872E-2],"split_indices":[0,26,24,3,1,3,0,3,3,2,0,1,0,0,0,0,0,0,0,0,0,0,0],"split_type":[0,0,0,0,0,0,0,0,0,0,0,0,0,0,0,0,0,0,0,0,0,0,0],"sum_hessian":[2.00446E2,9.68104E1,1.0363559E2,7.605128E1,2.0759123E1,9.952857E1,4.1070232E0,9.969769E0,6.608151E1,1.228566E1,8.473464E0,6.644468E1,3.308389E1,4.0416036E0,5.928165E0,5.8134766E1,7.9467435E0,3.198732E0,9.086927E0,6.3991806E1,2.4528716E0,1.5658073E1,1.7425817E1],"tree_param":{"num_deleted":"0","num_feature":"44","num_nodes":"23","size_leaf_vector":"1"}},{"base_weights":[1.1974829E-2,-3.3681226E-1,8.126343E-2,-4.2393628E-1,3.7130658E-2,1.4394954E-1,-3.3171886E-1,-3.136395E-2,2.286583E-1,2.506194E-1,-2.8338447E-1,-3.0176762E-2,8.161724E-2,2.642618E-2,-2.2461945E-2,-1.0144222E-2,1.7374232E-2,3.8448472E-3,-2.2608507E-2,3.470246E-2,-7.68832E-3],"categories":[],"categories_nodes":[],"categories_segments":[],"categories_sizes":[],"default_left":[0,0,0,0,0,0,0,0,0,0,0,0,0,0,0,0,0,0,0,0,0],"id":53,"left_children":[1,3,5,7,-1,9,11,-1,13,15,17,-1,19,-1,-1,-1,-1,-1,-1,-1,-1],"loss_changes":[5.1903305E0,3.6628685E0,4.682683E0,4.599329E0,0E0,7.1884184E0,2.734118E0,0E0,2.0079918E0,5.5826917E0,1.9599576E0,0E0,1.6003801E0,0E0,0E0,0E0,0E0,0E0,0E0,0E0,0E0],"parents":[2147483647,0,0,1,1,2,2,3,3,5,5,6,6,8,8,9,9,10,10,12,12],"right_children":[2,4,6,8,-1,10,12,-1,14,16,18,-1,20,-1,-1,-1,-1,-1,-1,-1,-1],"split_conditions":[2.169E3,5E0,1E0,1E0,3.7130658E-2,5.0436E4,1E0,-3.136395E-2,6.88E2,-1.9E1,-2.2E1,-3.0176762E-2,-5E0,2.642618E-2,