{"learner":{"attributes":{"scikit_learn":"{\"_estimator_type\": \"classifier\"}"},"feature_names":[],"feature_types":[],"gradient_booster":{"model":{"cats":{"enc":[],"feature_segments":[],"sorted_idx":[]},"gbtree_model_param":{"num_parallel_tree":"1","num_trees":"3000"},"iteration_indptr":[0,3,6,9,12,15,18,21,24,27,30,33,36,39,42,45,48,51,54,57,60,63,66,69,72,75,78,81,84,87,90,93,96,99,102,105,108,111,114,117,120,123,126,129,132,135,138,141,144,147,150,153,156,159,162,165,168,171,174,177,180,183,186,189,192,195,198,201,204,207,210,213,216,219,222,225,228,231,234,237,240,243,246,249,252,255,258,261,264,267,270,273,276,279,282,285,288,291,294,297,300,303,306,309,312,315,318,321,324,327,330,333,336,339,342,345,348,351,354,357,360,363,366,369,372,375,378,381,384,387,390,393,396,399,402,405,408,411,414,417,420,423,426,429,432,435,438,441,444,447,450,453,456,459,462,465,468,471,474,477,480,483,486,489,492,495,498,501,504,507,510,513,516,519,522,525,528,531,534,537,540,543,546,549,552,555,558,561,564,567,570,573,576,579,582,585,588,591,594,597,600,603,606,609,612,615,618,621,624,627,630,633,636,639,642,645,648,651,654,657,660,663,666,669,672,675,678,681,684,687,690,693,696,699,702,705,708,711,714,717,720,723,726,729,732,735,738,741,744,747,750,753,756,759,762,765,768,771,774,777,780,783,786,789,792,795,798,801,804,807,810,813,816,819,822,825,828,831,834,837,840,843,846,849,852,855,858,861,864,867,870,873,876,879,882,885,888,891,894,897,900,903,906,909,912,915,918,921,924,927,930,933,936,939,942,945,948,951,954,957,960,963,966,969,972,975,978,981,984,987,990,993,996,999,1002,1005,1008,1011,1014,1017,1020,1023,1026,1029,1032,1035,1038,1041,1044,1047,1050,1053,1056,1059,1062,1065,1068,1071,1074,1077,1080,1083,1086,1089,1092,1095,1098,1101,1104,1107,1110,1113,1116,1119,1122,1125,1128,1131,1134,1137,1140,1143,1146,1149,1152,1155,1158,1161,1164,1167,1170,1173,1176,1179,1182,1185,1188,1191,1194,1197,1200,1203,1206,1209,1212,1215,1218,1221,1224,1227,1230,1233,1236,1239,1242,1245,1248,1251,1254,1257,1260,1263,1266,1269,1272,1275,1278,1281,1284,1287,1290,1293,1296,1299,1302,1305,1308,1311,1314,1317,1320,1323,1326,1329,1332,1335,1338,1341,1344,1347,1350,1353,1356,1359,1362,1365,1368,1371,1374,1377,1380,1383,1386,1389,1392,1395,1398,1401,1404,1407,1410,1413,1416,1419,1422,1425,1428,1431,1434,1437,1440,1443,1446,1449,1452,1455,1458,1461,1464,1467,1470,1473,1476,1479,1482,1485,1488,1491,1494,1497,1500,1503,1506,1509,1512,1515,1518,1521,1524,1527,1530,1533,1536,1539,1542,1545,1548,1551,1554,1557,1560,1563,1566,1569,1572,1575,1578,1581,1584,1587,1590,1593,1596,1599,1602,1605,1608,1611,1614,1617,1620,1623,1626,1629,1632,1635,1638,1641,1644,1647,1650,1653,1656,1659,1662,1665,1668,1671,1674,1677,1680,1683,1686,1689,1692,1695,1698,1701,1704,1707,1710,1713,1716,1719,1722,1725,1728,1731,1734,1737,1740,1743,1746,1749,1752,1755,1758,1761,1764,1767,1770,1773,1776,1779,1782,1785,1788,1791,1794,1797,1800,1803,1806,1809,1812,1815,1818,1821,1824,1827,1830,1833,1836,1839,1842,1845,1848,1851,1854,1857,1860,1863,1866,1869,1872,1875,1878,1881,1884,1887,1890,1893,1896,1899,1902,1905,1908,1911,1914,1917,1920,1923,1926,1929,1932,1935,1938,1941,1944,1947,1950,1953,1956,1959,1962,1965,1968,1971,1974,1977,1980,1983,1986,1989,1992,1995,1998,2001,2004,2007,2010,2013,2016,2019,2022,2025,2028,2031,2034,2037,2040,2043,2046,2049,2052,2055,2058,2061,2064,2067,2070,2073,2076,2079,2082,2085,2088,2091,2094,2097,2100,2103,2106,2109,2112,2115,2118,2121,2124,2127,2130,2133,2136,2139,2142,2145,2148,2151,2154,2157,2160,2163,2166,2169,2172,2175,2178,2181,2184,2187,2190,2193,2196,2199,2202,2205,2208,2211,2214,2217,2220,2223,2226,2229,2232,2235,2238,2241,2244,2247,2250,2253,2256,2259,2262,2265,2268,2271,2274,2277,2280,2283,2286,2289,2292,2295,2298,2301,2304,2307,2310,2313,2316,2319,2322,2325,2328,2331,2334,2337,2340,2343,2346,2349,2352,2355,2358,2361,2364,2367,2370,2373,2376,2379,2382,2385,2388,2391,2394,2397,2400,2403,2406,2409,2412,2415,2418,2421,2424,2427,2430,2433,2436,2439,2442,2445,2448,2451,2454,2457,2460,2463,2466,2469,2472,2475,2478,2481,2484,2487,2490,2493,2496,2499,2502,2505,2508,2511,2514,2517,2520,2523,2526,2529,2532,2535,2538,2541,2544,2547,2550,2553,2556,2559,2562,2565,2568,2571,2574,2577,2580,2583,2586,2589,2592,2595,2598,2601,2604,2607,2610,2613,2616,2619,2622,2625,2628,2631,2634,2637,2640,2643,2646,2649,2652,2655,2658,2661,2664,2667,2670,2673,2676,2679,2682,2685,2688,2691,2694,2697,2700,2703,2706,2709,2712,2715,2718,2721,2724,2727,2730,2733,2736,2739,2742,2745,2748,2751,2754,2757,2760,2763,2766,2769,2772,2775,2778,2781,2784,2787,2790,2793,2796,2799,2802,2805,2808,2811,2814,2817,2820,2823,2826,2829,2832,2835,2838,2841,2844,2847,2850,2853,2856,2859,2862,2865,2868,2871,2874,2877,2880,2883,2886,2889,2892,2895,2898,2901,2904,2907,2910,2913,2916,2919,2922,2925,2928,2931,2934,2937,2940,2943,2946,2949,2952,2955,2958,2961,2964,2967,2970,2973,2976,2979,2982,2985,2988,2991,2994,2997,3000],"tree_info":[0,1,2,0,1,2,0,1,2,0,1,2,0,1,2,0,1,2,0,1,2,0,1,2,0,1,2,0,1,2,0,1,2,0,1,2,0,1,2,0,1,2,0,1,2,0,1,2,0,1,2,0,1,2,0,1,2,0,1,2,0,1,2,0,1,2,0,1,2,0,1,2,0,1,2,0,1,2,0,1,2,0,1,2,0,1,2,0,1,2,0,1,2,0,1,2,0,1,2,0,1,2,0,1,2,0,1,2,0,1,2,0,1,2,0,1,2,0,1,2,0,1,2,0,1,2,0,1,2,0,1,2,0,1,2,0,1,2,0,1,2,0,1,2,0,1,2,0,1,2,0,1,2,0,1,2,0,1,2,0,1,2,0,1,2,0,1,2,0,1,2,0,1,2,0,1,2,0,1,2,0,1,2,0,1,2,0,1,2,0,1,2,0,1,2,0,1,2,0,1,2,0,1,2,0,1,2,0,1,2,0,1,2,0,1,2,0,1,2,0,1,2,0,1,2,0,1,2,0,1,2,0,1,2,0,1,2,0,1,2,0,1,2,0,1,2,0,1,2,0,1,2,0,1,2,0,1,2,0,1,2,0,1,2,0,1,2,0,1,2,0,1,2,0,1,2,0,1,2,0,1,2,0,1,2,0,1,2,0,1,2,0,1,2,0,1,2,0,1,2,0,1,2,0,1,2,0,1,2,0,1,2,0,1,2,0,1,2,0,1,2,0,1,2,0,1,2,0,1,2,0,1,2,0,1,2,0,1,2,0,1,2,0,1,2,0,1,2,0,1,2,0,1,2,0,1,2,0,1,2,0,1,2,0,1,2,0,1,2,0,1,2,0,1,2,0,1,2,0,1,2,0,1,2,0,1,2,0,1,2,0,1,2,0,1,2,0,1,2,0,1,2,0,1,2,0,1,2,0,1,2,0,1,2,0,1,2,0,1,2,0,1,2,0,1,2,0,1,2,0,1,2,0,1,2,0,1,2,0,1,2,0,1,2,0,1,2,0,1,2,0,1,2,0,1,2,0,1,2,0,1,2,0,1,2,0,1,2,0,1,2,0,1,2,0,1,2,0,1,2,0,1,2,0,1,2,0,1,2,0,1,2,0,1,2,0,1,2,0,1,2,0,1,2,0,1,2,0,1,2,0,1,2,0,1,2,0,1,2,0,1,2,0,1,2,0,1,2,0,1,2,0,1,2,0,1,2,0,1,2,0,1,2,0,1,2,0,1,2,0,1,2,0,1,2,0,1,2,0,1,2,0,1,2,0,1,2,0,1,2,0,1,2,0,1,2,0,1,2,0,1,2,0,1,2,0,1,2,0,1,2,0,1,2,0,1,2,0,1,2,0,1,2,0,1,2,0,1,2,0,1,2,0,1,2,0,1,2,0,1,2,0,1,2,0,1,2,0,1,2,0,1,2,0,1,2,0,1,2,0,1,2,0,1,2,0,1,2,0,1,2,0,1,2,0,1,2,0,1,2,0,1,2,0,1,2,0,1,2,0,1,2,0,1,2,0,1,2,0,1,2,0,1,2,0,1,2,0,1,2,0,1,2,0,1,2,0,1,2,0,1,2,0,1,2,0,1,2,0,1,2,0,1,2,0,1,2,0,1,2,0,1,2,0,1,2,0,1,2,0,1,2,0,1,2,0,1,2,0,1,2,0,1,2,0,1,2,0,1,2,0,1,2,0,1,2,0,1,2,0,1,2,0,1,2,0,1,2,0,1,2,0,1,2,0,1,2,0,1,2,0,1,2,0,1,2,0,1,2,0,1,2,0,1,2,0,1,2,0,1,2,0,1,2,0,1,2,0,1,2,0,1,2,0,1,2,0,1,2,0,1,2,0,1,2,0,1,2,0,1,2,0,1,2,0,1,2,0,1,2,0,1,2,0,1,2,0,1,2,0,1,2,0,1,2,0,1,2,0,1,2,0,1,2,0,1,2,0,1,2,0,1,2,0,1,2,0,1,2,0,1,2,0,1,2,0,1,2,0,1,2,0,1,2,0,1,2,0,1,2,0,1,2,0,1,2,0,1,2,0,1,2,0,1,2,0,1,2,0,1,2,0,1,2,0,1,2,0,1,2,0,1,2,0,1,2,0,1,2,0,1,2,0,1,2,0,1,2,0,1,2,0,1,2,0,1,2,0,1,2,0,1,2,0,1,2,0,1,2,0,1,2,0,1,2,0,1,2,0,1,2,0,1,2,0,1,2,0,1,2,0,1,2,0,1,2,0,1,2,0,1,2,0,1,2,0,1,2,0,1,2,0,1,2,0,1,2,0,1,2,0,1,2,0,1,2,0,1,2,0,1,2,0,1,2,0,1,2,0,1,2,0,1,2,0,1,2,0,1,2,0,1,2,0,1,2,0,1,2,0,1,2,0,1,2,0,1,2,0,1,2,0,1,2,0,1,2,0,1,2,0,1,2,0,1,2,0,1,2,0,1,2,0,1,2,0,1,2,0,1,2,0,1,2,0,1,2,0,1,2,0,1,2,0,1,2,0,1,2,0,1,2,0,1,2,0,1,2,0,1,2,0,1,2,0,1,2,0,1,2,0,1,2,0,1,2,0,1,2,0,1,2,0,1,2,0,1,2,0,1,2,0,1,2,0,1,2,0,1,2,0,1,2,0,1,2,0,1,2,0,1,2,0,1,2,0,1,2,0,1,2,0,1,2,0,1,2,0,1,2,0,1,2,0,1,2,0,1,2,0,1,2,0,1,2,0,1,2,0,1,2,0,1,2,0,1,2,0,1,2,0,1,2,0,1,2,0,1,2,0,1,2,0,1,2,0,1,2,0,1,2,0,1,2,0,1,2,0,1,2,0,1,2,0,1,2,0,1,2,0,1,2,0,1,2,0,1,2,0,1,2,0,1,2,0,1,2,0,1,2,0,1,2,0,1,2,0,1,2,0,1,2,0,1,2,0,1,2,0,1,2,0,1,2,0,1,2,0,1,2,0,1,2,0,1,2,0,1,2,0,1,2,0,1,2,0,1,2,0,1,2,0,1,2,0,1,2,0,1,2,0,1,2,0,1,2,0,1,2,0,1,2,0,1,2,0,1,2,0,1,2,0,1,2,0,1,2,0,1,2,0,1,2,0,1,2,0,1,2,0,1,2,0,1,2,0,1,2,0,1,2,0,1,2,0,1,2,0,1,2,0,1,2,0,1,2,0,1,2,0,1,2,0,1,2,0,1,2,0,1,2,0,1,2,0,1,2,0,1,2,0,1,2,0,1,2,0,1,2,0,1,2,0,1,2,0,1,2,0,1,2,0,1,2,0,1,2,0,1,2,0,1,2,0,1,2,0,1,2,0,1,2,0,1,2,0,1,2,0,1,2,0,1,2,0,1,2,0,1,2,0,1,2,0,1,2,0,1,2,0,1,2,0,1,2,0,1,2,0,1,2,0,1,2,0,1,2,0,1,2,0,1,2,0,1,2,0,1,2,0,1,2,0,1,2,0,1,2,0,1,2,0,1,2,0,1,2,0,1,2,0,1,2,0,1,2,0,1,2,0,1,2,0,1,2,0,1,2,0,1,2,0,1,2,0,1,2,0,1,2,0,1,2,0,1,2,0,1,2,0,1,2,0,1,2,0,1,2,0,1,2,0,1,2,0,1,2,0,1,2,0,1,2,0,1,2,0,1,2,0,1,2,0,1,2,0,1,2,0,1,2,0,1,2,0,1,2,0,1,2,0,1,2,0,1,2,0,1,2,0,1,2,0,1,2,0,1,2,0,1,2,0,1,2,0,1,2,0,1,2,0,1,2,0,1,2,0,1,2,0,1,2,0,1,2,0,1,2,0,1,2,0,1,2,0,1,2,0,1,2,0,1,2,0,1,2,0,1,2,0,1,2,0,1,2,0,1,2,0,1,2,0,1,2,0,1,2,0,1,2,0,1,2,0,1,2,0,1,2,0,1,2,0,1,2,0,1,2,0,1,2,0,1,2,0,1,2,0,1,2,0,1,2,0,1,2,0,1,2,0,1,2,0,1,2,0,1,2,0,1,2,0,1,2,0,1,2,0,1,2,0,1,2,0,1,2,0,1,2,0,1,2,0,1,2,0,1,2,0,1,2,0,1,2,0,1,2,0,1,2,0,1,2,0,1,2,0,1,2,0,1,2,0,1,2,0,1,2,0,1,2,0,1,2,0,1,2,0,1,2,0,1,2,0,1,2,0,1,2,0,1,2,0,1,2,0,1,2,0,1,2,0,1,2,0,1,2,0,1,2,0,1,2,0,1,2,0,1,2,0,1,2,0,1,2,0,1,2,0,1,2,0,1,2,0,1,2,0,1,2,0,1,2,0,1,2,0,1,2,0,1,2,0,1,2,0,1,2,0,1,2,0,1,2,0,1,2,0,1,2,0,1,2,0,1,2,0,1,2,0,1,2,0,1,2,0,1,2,0,1,2,0,1,2,0,1,2,0,1,2,0,1,2,0,1,2,0,1,2,0,1,2,0,1,2,0,1,2,0,1,2,0,1,2,0,1,2,0,1,2,0,1,2,0,1,2,0,1,2,0,1,2,0,1,2,0,1,2,0,1,2,0,1,2,0,1,2,0,1,2,0,1,2,0,1,2,0,1,2,0,1,2,0,1,2,0,1,2,0,1,2,0,1,2,0,1,2,0,1,2,0,1,2,0,1,2,0,1,2,0,1,2,0,1,2,0,1,2,0,1,2,0,1,2,0,1,2,0,1,2,0,1,2,0,1,2,0,1,2,0,1,2,0,1,2,0,1,2,0,1,2,0,1,2,0,1,2,0,1,2,0,1,2,0,1,2,0,1,2,0,1,2,0,1,2,0,1,2,0,1,2,0,1,2,0,1,2,0,1,2,0,1,2,0,1,2,0,1,2,0,1,2,0,1,2,0,1,2,0,1,2,0,1,2,0,1,2,0,1,2,0,1,2,0,1,2,0,1,2,0,1,2,0,1,2,0,1,2,0,1,2,0,1,2,0,1,2,0,1,2,0,1,2,0,1,2,0,1,2,0,1,2,0,1,2,0,1,2,0,1,2,0,1,2,0,1,2,0,1,2,0,1,2,0,1,2,0,1,2,0,1,2,0,1,2,0,1,2,0,1,2,0,1,2,0,1,2,0,1,2,0,1,2,0,1,2,0,1,2,0,1,2,0,1,2,0,1,2,0,1,2,0,1,2,0,1,2,0,1,2,0,1,2,0,1,2,0,1,2,0,1,2,0,1,2,0,1,2,0,1,2,0,1,2,0,1,2,0,1,2,0,1,2,0,1,2,0,1,2,0,1,2,0,1,2,0,1,2,0,1,2,0,1,2,0,1,2,0,1,2,0,1,2,0,1,2,0,1,2,0,1,2,0,1,2,0,1,2,0,1,2,0,1,2,0,1,2,0,1,2,0,1,2,0,1,2,0,1,2,0,1,2,0,1,2,0,1,2,0,1,2,0,1,2,0,1,2,0,1,2,0,1,2,0,1,2,0,1,2,0,1,2,0,1,2,0,1,2,0,1,2,0,1,2,0,1,2,0,1,2,0,1,2,0,1,2,0,1,2,0,1,2,0,1,2,0,1,2,0,1,2,0,1,2,0,1,2,0,1,2,0,1,2,0,1,2,0,1,2,0,1,2,0,1,2,0,1,2,0,1,2,0,1,2,0,1,2,0,1,2,0,1,2,0,1,2,0,1,2,0,1,2,0,1,2,0,1,2,0,1,2,0,1,2,0,1,2,0,1,2,0,1,2,0,1,2,0,1,2,0,1,2,0,1,2,0,1,2,0,1,2,0,1,2,0,1,2,0,1,2,0,1,2,0,1,2,0,1,2,0,1,2,0,1,2,0,1,2,0,1,2,0,1,2,0,1,2,0,1,2,0,1,2,0,1,2,0,1,2,0,1,2,0,1,2,0,1,2,0,1,2,0,1,2,0,1,2,0,1,2,0,1,2,0,1,2,0,1,2,0,1,2,0,1,2,0,1,2,0,1,2,0,1,2,0,1,2,0,1,2,0,1,2,0,1,2,0,1,2,0,1,2,0,1,2,0,1,2,0,1,2,0,1,2,0,1,2,0,1,2,0,1,2,0,1,2,0,1,2,0,1,2,0,1,2,0,1,2,0,1,2,0,1,2,0,1,2,0,1,2,0,1,2,0,1,2,0,1,2,0,1,2,0,1,2,0,1,2,0,1,2,0,1,2,0,1,2,0,1,2,0,1,2,0,1,2,0,1,2,0,1,2,0,1,2,0,1,2,0,1,2,0,1,2,0,1,2,0,1,2,0,1,2,0,1,2,0,1,2,0,1,2,0,1,2,0,1,2,0,1,2,0,1,2,0,1,2,0,1,2,0,1,2,0,1,2,0,1,2,0,1,2,0,1,2,0,1,2,0,1,2,0,1,2,0,1,2,0,1,2,0,1,2,0,1,2,0,1,2,0,1,2,0,1,2,0,1,2,0,1,2,0,1,2,0,1,2,0,1,2,0,1,2,0,1,2,0,1,2,0,1,2,0,1,2,0,1,2,0,1,2,0,1,2,0,1,2,0,1,2,0,1,2,0,1,2,0,1,2,0,1,2,0,1,2,0,1,2,0,1,2,0,1,2,0,1,2,0,1,2,0,1,2,0,1,2,0,1,2,0,1,2,0,1,2,0,1,2,0,1,2,0,1,2,0,1,2,0,1,2,0,1,2,0,1,2,0,1,2,0,1,2,0,1,2,0,1,2,0,1,2,0,1,2,0,1,2,0,1,2],"trees":[{"base_weights":[-1.293439E-2,5.0000334E-1,-3.6149183E-1,6.2835866E-1,-3.4261819E-3,-4.355116E-1,5.134324E-3,1.2498693E-1,9.609888E-1,-4.8998845E-1,2.1277715E-3,6.399416E-3,-1.0869957E-3,7.2860927E-3,1.5717478E-3,-2.162938E-3,-4.220812E-3],"categories":[],"categories_nodes":[],"categories_segments":[],"categories_sizes":[],"default_left":[0,0,0,0,0,0,0,0,0,0,0,0,0,0,0,0,0],"id":0,"left_children":[1,3,5,7,-1,9,-1,11,13,15,-1,-1,-1,-1,-1,-1,-1],"loss_changes":[1.5135997E1,5.069068E0,4.912221E0,5.082569E0,0E0,2.2467403E0,0E0,4.088509E0,2.968954E0,1.00352E0,0E0,0E0,0E0,0E0,0E0,0E0,0E0],"parents":[2147483647,0,0,1,1,2,2,3,3,5,5,7,7,8,8,9,9],"right_children":[2,4,6,8,-1,10,-1,12,14,16,-1,-1,-1,-1,-1,-1,-1],"split_conditions":[1.8777E4,1E0,1E0,7.397E3,-3.4261819E-3,1E0,5.134324E-3,5.434E3,1E1,9.5921E4,2.1277715E-3,6.399416E-3,-1.0869957E-3,7.2860927E-3,1.5717478E-3,-2.162938E-3,-4.220812E-3],"split_indices":[1,21,6,1,0,11,0,1,4,1,0,0,0,0,0,0,0],"split_type":[0,0,0,0,0,0,0,0,0,0,0,0,0,0,0,0,0],"sum_hessian":[8.264783E1,3.326318E1,4.9384647E1,3.0072529E1,3.190649E0,4.715907E1,2.2255783E0,1.2512709E1,1.755982E1,4.4472733E1,2.686337E0,2.4607668E0,1.0051942E1,1.2347387E1,5.212434E0,2.9354624E1,1.5118109E1],"tree_param":{"num_deleted":"0","num_feature":"47","num_nodes":"17","size_leaf_vector":"1"}},{"base_weights":[-3.6338322E-2,-4.409423E-1,5.010029E-1,-5.3682274E-1,6.65586E-2,-6.676124E-2,9.0366745E-1,-6.018203E-1,-7.087336E-2,-3.0883853E-3,5.1484937E-3,-4.059213E-1,7.670144E-1,1.1262552E0,-1.7768253E-3,-3.9752624E-3,-2.0364583E-3,1.7998002E-3,-3.0911884E-3,-1.1900404E-3,-3.6984226E-3,6.0547055E-3,1.6006301E-3,4.273756E-3,8.163935E-3],"categories":[],"categories_nodes":[],"categories_segments":[],"categories_sizes":[],"default_left":[0,0,0,0,0,0,0,0,0,0,0,0,0,0,0,0,0,0,0,0,0,0,0,0,0],"id":1,"left_children":[1,3,5,7,9,11,13,15,17,-1,-1,19,21,23,-1,-1,-1,-1,-1,-1,-1,-1,-1,-1,-1],"loss_changes":[1.876738E1,2.4295607E0,8.544508E0,1.21385E0,4.4478707E0,4.929115E0,6.1503887E0,3.5316467E-1,1.1781853E0,0E0,0E0,4.1348815E-1,3.445692E-1,8.337536E-1,0E0,0E0,0E0,0E0,0E0,0E0,0E0,0E0,0E0,0E0,0E0],"parents":[2147483647,0,0,1,1,2,2,3,3,4,4,5,5,6,6,7,7,8,8,11,11,12,12,13,13],"right_children":[2,4,6,8,10,12,14,16,18,-1,-1,20,22,24,-1,-1,-1,-1,-1,-1,-1,-1,-1,-1,-1],"split_conditions":[3.3385E4,1.3E1,2E0,1E0,1.2128E4,3.2791587E3,6.7082935E2,1E0,3.3403765E3,-3.0883853E-3,5.1484937E-3,4.5E1,3.8290315E3,2.553595E3,-1.7768253E-3,-3.9752624E-3,-2.0364583E-3,1.7998002E-3,-3.0911884E-3,-1.1900404E-3,-3.6984226E-3,6.0547055E-3,1.6006301E-3,4.273756E-3,8.163935E-3],"split_indices":[1,4,2,7,1,3,5,14,3,0,0,4,3,3,0,0,0,0,0,0,0,0,0,0,0],"split_type":[0,0,0,0,0,0,0,0,0,0,0,0,0,0,0,0,0,0,0,0,0,0,0,0,0],"sum_hessian":[8.430626E1,4.8195614E1,3.611064E1,4.0488483E1,7.7071314E0,1.5329697E1,2.0780945E1,3.527605E1,5.212431E0,4.64533E0,3.0618017E0,1.1261812E1,4.0678844E0,1.7580679E1,3.2002652E0,2.740868E1,7.8673716E0,3.0182483E0,2.1941824E0,6.647877E0,4.613935E0,2.055719E0,2.0121655E0,7.816015E0,9.764665E0],"tree_param":{"num_deleted":"0","num_feature":"47","num_nodes":"25","size_leaf_vector":"1"}},{"base_weights":[3.350031E-2,2.181573E-1,-4.0063062E-1,-2.3778886E-1,3.959606E-1,-5.7930046E-1,2.5216928E-1,-4.037629E-3,2.7777055E-1,5.627848E-1,-3.458041E-1,-4.2406977E-3,7.255074E-4,5.0009103E-3,-3.1234869E-3,5.608654E-3,-1.02721E-3,1.5455699E-3,5.27671E-3,1.978109E-3,-3.7940606E-3],"categories":[],"categories_nodes":[],"categories_segments":[],"categories_sizes":[],"default_left":[0,0,0,0,0,0,0,0,0,0,0,0,0,0,0,0,0,0,0,0,0],"id":2,"left_children":[1,3,5,7,9,11,13,-1,15,17,19,-1,-1,-1,-1,-1,-1,-1,-1,-1,-1],"loss_changes":[6.848842E0,4.9438124E0,3.1228786E0,4.0923676E0,5.5667686E0,1.901226E0,3.2104928E0,0E0,2.7191787E0,3.2355099E0,1.8711902E0,0E0,0E0,0E0,0E0,0E0,0E0,0E0,0E0,0E0,0E0],"parents":[2147483647,0,0,1,1,2,2,3,3,4,4,5,5,6,6,8,8,9,9,10,10],"right_children":[2,4,6,8,10,12,14,-1,16,18,20,-1,-1,-1,-1,-1,-1,-1,-1,-1,-1],"split_conditions":[3.1322815E3,2.024E3,4.5394727E3,2.4409329E3,7E0,6.6E1,1.9602E4,-4.037629E-3,2.553595E3,1.9528E4,3.1376E4,-4.2406977E-3,7.255074E-4,5.0009103E-3,-3.1234869E-3,5.608654E-3,-1.02721E-3,1.5455699E-3,5.27671E-3,1.978109E-3,-3.7940606E-3],"split_indices":[3,0,3,3,2,4,1,0,3,1,1,0,0,0,0,0,0,0,0,0,0],"split_type":[0,0,0,0,0,0,0,0,0,0,0,0,0,0,0,0,0,0,0,0,0],"sum_hessian":[8.3343735E1,5.8821552E1,2.4522182E1,1.6408188E1,4.2413364E1,1.9341145E1,5.1810365E0,8.732451E0,7.6757374E0,3.4822918E1,7.5904455E0,1.6354292E1,2.986854E0,2.911906E0,2.2691307E0,2.6767178E0,4.9990196E0,1.865627E1,1.6166649E1,2.2159593E0,5.374486E0],"tree_param":{"num_deleted":"0","num_feature":"47","num_nodes":"21","size_leaf_vector":"1"}},{"base_weights":[1.794853E-2,5.4761225E-1,-3.582882E-1,6.753819E-1,-3.4215697E-3,-1.12584755E-1,-6.6472256E-1,1.6821069E-1,1.0668718E0,3.6225732E-2,-3.8017565E-3,-4.254564E-3,-1.8225376E-3,6.367812E-3,-5.1999826E-4,7.836865E-3,6.764542E-4,3.2105623E-3,-7.127992E-4],"categories":[],"categories_nodes":[],"categories_segments":[],"categories_sizes":[],"default_left":[0,0,0,0,0,0,0,0,0,0,0,0,0,0,0,0,0,0,0],"id":3,"left_children":[1,3,5,7,-1,9,11,13,15,17,-1,-1,-1,-1,-1,-1,-1,-1,-1],"loss_changes":[1.7057093E1,5.4606695E0,3.6953435E0,6.243349E0,0E0,2.2711112E0,1.3824368E-1,3.5699682E0,3.9778233E0,1.8809531E0,0E0,0E0,0E0,0E0,0E0,0E0,0E0,0E0,0E0],"parents":[2147483647,0,0,1,1,2,2,3,3,5,5,6,6,7,7,8,8,9,9],"right_children":[2,4,6,8,-1,10,12,14,16,18,-1,-1,-1,-1,-1,-1,-1,-1,-1],"split_conditions":[1.8777E4,1E0,6.5384E4,7.47E3,-3.4215697E-3,9E0,6.6969257E2,5.434E3,1E1,2.024E3,-3.8017565E-3,-4.254564E-3,-1.8225376E-3,6.367812E-3,-5.1999826E-4,7.836865E-3,6.764542E-4,3.2105623E-3,-7.127992E-4],"split_indices":[1,21,1,1,0,2,5,1,4,0,0,0,0,0,0,0,0,0,0],"split_type":[0,0,0,0,0,0,0,0,0,0,0,0,0,0,0,0,0,0,0],"sum_hessian":[8.360948E1,3.4535343E1,4.907414E1,3.1348175E1,3.1871705E0,2.7994862E1,2.1079279E1,1.4279234E1,1.706894E1,2.2499447E1,5.4954143E0,1.7912918E1,3.16636E0,2.4678593E0,1.1811376E1,1.3351716E1,3.717224E0,4.752948E0,1.7746498E1],"tree_param":{"num_deleted":"0","num_feature":"47","num_nodes":"19","size_leaf_vector":"1"}},{"base_weights":[-3.157755E-2,-4.57203E-1,5.02381E-1,-5.4569036E-1,2.2841785E-2,-8.691472E-2,9.1882443E-1,-3.3945546E-1,-3.8159874E-3,-3.0837443E-3,4.869679E-3,-4.1857177E-1,7.62846E-1,1.1340446E0,-1.7709268E-3,1.922471E-3,-3.735069E-3,-1.3872075E-3,-3.6944232E-3,6.02373E-3,1.5899615E-3,4.1102045E-3,8.181427E-3],"categories":[],"categories_nodes":[],"categories_segments":[],"categories_sizes":[],"default_left":[0,0,0,0,0,0,0,0,0,0,0,0,0,0,0,0,0,0,0,0,0,0,0],"id":4,"left_children":[1,3,5,7,9,11,13,15,-1,-1,-1,17,19,21,-1,-1,-1,-1,-1,-1,-1,-1,-1],"loss_changes":[1.9673223E1,2.0569181E0,9.509451E0,5.4173756E-1,3.9953194E0,5.0607224E0,6.2395782E0,2.913906E0,0E0,0E0,0E0,3.2853603E-1,3.434074E-1,1.0656319E0,0E0,0E0,0E0,0E0,0E0,0E0,0E0,0E0,0E0],"parents":[2147483647,0,0,1,1,2,2,3,3,4,4,5,5,6,6,7,7,11,11,12,12,13,13],"right_children":[2,4,6,8,10,12,14,16,-1,-1,-1,18,20,22,-1,-1,-1,-1,-1,-1,-1,-1,-1],"split_conditions":[3.3385E4,1.3E1,2E0,8.319E3,1.2128E4,3.2791587E3,6.744464E2,6.6969257E2,-3.8159874E-3,-3.0837443E-3,4.869679E-3,4.5E1,3.8290315E3,2.553595E3,-1.7709268E-3,1.922471E-3,-3.735069E-3,-1.3872075E-3,-3.6944232E-3,6.02373E-3,1.5899615E-3,4.1102045E-3,8.181427E-3],"split_indices":[1,4,2,1,1,3,5,5,0,0,0,4,3,3,0,0,0,0,0,0,0,0,0],"split_type":[0,0,0,0,0,0,0,0,0,0,0,0,0,0,0,0,0,0,0,0,0,0,0],"sum_hessian":[8.455395E1,4.7129856E1,3.7424088E1,3.967902E1,7.4508395E0,1.5823729E1,2.1600357E1,1.3532898E1,2.614612E1,4.640887E0,2.8099527E0,1.1746541E1,4.077188E0,1.8403532E1,3.196825E0,4.022822E0,9.510076E0,7.1368585E0,4.6096826E0,2.0619955E0,2.0151923E0,7.5731444E0,1.0830388E1],"tree_param":{"num_deleted":"0","num_feature":"47","num_nodes":"23","size_leaf_vector":"1"}},{"base_weights":[-4.3371953E-2,-1.105498E-1,5.8778976E-3,-1.6018778E-1,5.598221E-3,-2.1346433E-1,5.5908943E-3,-1.5821271E-3,3.3908407E-3],"categories":[],"categories_nodes":[],"categories_segments":[],"categories_sizes":[],"default_left":[0,0,0,0,0,0,0,0,0],"id":5,"left_children":[1,3,-1,5,-1,7,-1,-1,-1],"loss_changes":[5.740822E0,4.179956E0,0E0,4.569669E0,0E0,2.981966E0,0E0,0E0,0E0],"parents":[2147483647,0,0,1,1,3,3,5,5],"right_children":[2,4,-1,6,-1,8,-1,-1,-1],"split_conditions":[1E0,1E0,5.8778976E-3,6.913481E2,5.598221E-3,1E0,5.5908943E-3,-1.5821271E-3,3.3908407E-3],"split_indices":[22,39,0,5,0,21,0,0,0],"split_type":[0,0,0,0,0,0,0,0,0],"sum_hessian":[8.095812E1,7.680648E1,4.1516447E0,7.412714E1,2.6793396E0,7.144596E1,2.6811774E0,6.773789E1,3.7080684E0],"tree_param":{"num_deleted":"0","num_feature":"47","num_nodes":"9","size_leaf_vector":"1"}},{"base_weights":[-8.542925E-3,5.570572E-1,-3.9953065E-1,8.518234E-1,1.7761281E-1,-1.4935182E-1,-4.2790123E-3,3.852919E-1,7.10177E-3,-2.3593542E-3,4.0817067E-1,1.2554176E-1,-4.0731442E-1,-1.2296379E-3,5.7092924E-3,-1.9883376E-3,4.43287E-3,-1.234377E-3,3.6634773E-3,-3.5978372E-3,2.1212597E-3],"categories":[],"categories_nodes":[],"categories_segments":[],"categories_sizes":[],"default_left":[0,0,0,0,0,0,0,0,0,0,0,0,0,0,0,0,0,0,0,0,0],"id":6,"left_children":[1,3,5,7,9,11,-1,13,-1,-1,15,17,19,-1,-1,-1,-1,-1,-1,-1,-1],"loss_changes":[1.860856E1,3.6962528E0,3.7964373E0,2.5000906E0,2.306185E0,2.102952E0,0E0,3.3432658E0,0E0,0E0,3.2044916E0,2.499167E0,2.4307704E0,0E0,0E0,0E0,0E0,0E0,0E0,0E0,0E0],"parents":[2147483647,0,0,1,1,2,2,3,3,4,4,5,5,7,7,10,10,11,11,12,12],"right_children":[2,4,6,8,10,12,-1,14,-1,-1,16,18,20,-1,-1,-1,-1,-1,-1,-1,-1],"split_conditions":[1.8777E4,3E0,6.5384E4,2.4643914E3,6.64475E2,2E0,-4.2790123E-3,7.47E3,7.10177E-3,-2.3593542E-3,6.259E3,1E0,6.744464E2,-1.2296379E-3,5.7092924E-3,-1.9883376E-3,4.43287E-3,-1.234377E-3,3.6634773E-3,-3.5978372E-3,2.1212597E-3],"split_indices":[1,4,1,3,5,2,0,1,0,0,1,4,5,0,0,0,0,0,0,0,0],"split_type":[0,0,0,0,0,0,0,0,0,0,0,0,0,0,0,0,0,0,0,0,0],"sum_hessian":[8.214088E1,3.3399967E1,4.8740906E1,1.8096796E1,1.5303172E1,2.793459E1,2.0806318E1,8.419638E0,9.677159E0,4.1996684E0,1.1103504E1,1.3772009E1,1.41625805E1,4.434973E0,3.9846647E0,3.429752E0,7.673752E0,8.525268E0,5.246742E0,1.1474112E1,2.688469E0],"tree_param":{"num_deleted":"0","num_feature":"47","num_nodes":"21","size_leaf_vector":"1"}},{"base_weights":[2.1139864E-2,-3.9599004E-1,5.402767E-1,-5.0294614E-1,1.0682065E-1,-3.558031E-2,9.133921E-1,-5.686935E-1,-6.9714814E-2,-3.0798058E-3,5.335196E-3,-3.8332793E-1,7.6039726E-1,1.1270406E0,-1.7693628E-3,-3.7757815E-3,-1.8774241E-3,1.7961833E-3,-3.0793992E-3,-1.3851251E-3,-3.46939E-3,6.0077747E-3,1.5820827E-3,4.2293295E-3,8.109664E-3],"categories":[],"categories_nodes":[],"categories_segments":[],"categories_sizes":[],"default_left":[0,0,0,0,0,0,0,0,0,0,0,0,0,0,0,0,0,0,0,0,0,0,0,0,0],"id":7,"left_children":[1,3,5,7,9,11,13,15,17,-1,-1,19,21,23,-1,-1,-1,-1,-1,-1,-1,-1,-1,-1,-1],"loss_changes":[1.8120977E1,2.5505867E0,8.039269E0,1.0558376E0,4.807721E0,4.613493E0,6.1795807E0,3.185606E-1,1.1697419E0,0E0,0E0,2.0920539E-1,3.4415817E-1,8.9162445E-1,0E0,0E0,0E0,0E0,0E0,0E0,0E0,0E0,0E0,0E0,0E0],"parents":[2147483647,0,0,1,1,2,2,3,3,4,4,5,5,6,6,7,7,8,8,11,11,12,12,13,13],"right_children":[2,4,6,8,10,12,14,16,18,-1,-1,20,22,24,-1,-1,-1,-1,-1,-1,-1,-1,-1,-1,-1],"split_conditions":[3.3385E4,1.3E1,2E0,1E0,1.2128E4,3.2791587E3,6.744464E2,1E0,3.3403765E3,-3.0798058E-3,5.335196E-3,4.5E1,3.9014753E3,2.553595E3,-1.7693628E-3,-3.7757815E-3,-1.8774241E-3,1.7961833E-3,-3.0793992E-3,-1.3851251E-3,-3.46939E-3,6.0077747E-3,1.5820827E-3,4.2293295E-3,8.109664E-3],"split_indices":[1,4,2,7,1,3,5,14,3,0,0,4,3,3,0,0,0,0,0,0,0,0,0,0,0],"split_type":[0,0,0,0,0,0,0,0,0,0,0,0,0,0,0,0,0,0,0,0,0,0,0,0,0],"sum_hessian":[8.169332E1,4.5428463E1,3.626486E1,3.7459866E1,7.968599E0,1.4614241E1,2.1650616E1,3.225253E1,5.2073355E0,4.637104E0,3.3314948E0,1.0531601E1,4.0826397E0,1.8454704E1,3.1959114E0,2.489421E1,7.3583193E0,3.0195818E0,2.1877534E0,7.13462E0,3.396981E0,2.0652184E0,2.0174212E0,7.845452E0,1.0609252E1],"tree_param":{"num_deleted":"0","num_feature":"47","num_nodes":"25","size_leaf_vector":"1"}},{"base_weights":[-4.1300185E-2,1.03946224E-1,-4.581295E-1,1.7739579E-1,-3.7264104E-3,-4.2110914E-3,2.5129923E-1,9.121528E-2,6.4021284E-3,4.978177E-3,-3.117569E-3,-2.7298527E-3,1.4557656E-3],"categories":[],"categories_nodes":[],"categories_segments":[],"categories_sizes":[],"default_left":[0,0,0,0,0,0,0,0,0,0,0,0,0],"id":8,"left_children":[1,3,5,7,-1,-1,9,11,-1,-1,-1,-1,-1],"loss_changes":[4.995877E0,3.38124E0,3.8600683E0,4.2385335E0,0E0,0E0,3.188474E0,4.464734E0,0E0,0E0,0E0,0E0,0E0],"parents":[2147483647,0,0,1,1,2,2,3,3,6,6,7,7],"right_children":[2,4,6,8,-1,-1,10,12,-1,-1,-1,-1,-1],"split_conditions":[3.2791587E3,1.41192E5,4.5394727E3,1.32774E5,-3.7264104E-3,-4.2110914E-3,1.9602E4,6.6140625E2,6.4021284E-3,4.978177E-3,-3.117569E-3,-2.7298527E-3,1.4557656E-3],"split_indices":[3,1,3,1,0,0,1,5,0,0,0,0,0],"split_type":[0,0,0,0,0,0,0,0,0,0,0,0,0],"sum_hessian":[8.073131E1,6.042613E1,2.0305182E1,5.5553455E1,4.872672E0,1.5121118E1,5.1840644E0,5.1652287E1,3.9011688E0,2.9182456E0,2.265819E0,1.0775798E1,4.087649E1],"tree_param":{"num_deleted":"0","num_feature":"47","num_nodes":"13","size_leaf_vector":"1"}},{"base_weights":[9.129783E-3,5.285222E-1,-3.56221E-1,8.694251E-1,1.2531053E-1,-4.304393E-1,5.099237E-3,3.857332E-1,7.3316237E-3,6.0465443E-1,-8.797698E-2,-1.2222286E-1,-4.055951E-3,5.7243905E-3,-1.233809E-3,5.0640134E-3,1.0416736E-3,-2.1355962E-3,4.3732333E-3,5.8917E-4,-3.8256093E-3],"categories":[],"categories_nodes":[],"categories_segments":[],"categories_sizes":[],"default_left":[0,0,0,0,0,0,0,0,0,0,0,0,0,0,0,0,0,0,0,0,0],"id":9,"left_children":[1,3,5,7,9,11,-1,13,-1,15,17,19,-1,-1,-1,-1,-1,-1,-1,-1,-1],"loss_changes":[1.6151218E1,4.7212944E0,4.839858E0,2.7466354E0,1.8185698E0,3.531086E0,0E0,3.3613229E0,0E0,4.15151E-1,3.0661242E0,2.6064296E0,0E0,0E0,0E0,0E0,0E0,0E0,0E0,0E0,0E0],"parents":[2147483647,0,0,1,1,2,2,3,3,4,4,5,5,7,7,9,9,10,10,11,11],"right_children":[2,4,6,8,10,12,-1,14,-1,16,18,20,-1,-1,-1,-1,-1,-1,-1,-1,-1],"split_conditions":[1.8777E4,3E0,1E0,7.47E3,2.1896394E3,2E0,5.099237E-3,2.025E3,7.3316237E-3,1E0,3.4078926E3,9.5921E4,-4.055951E-3,5.7243905E-3,-1.233809E-3,5.0640134E-3,1.0416736E-3,-2.1355962E-3,4.3732333E-3,5.8917E-4,-3.8256093E-3],"split_indices":[1,4,6,1,3,2,0,0,0,2,3,1,0,0,0,0,0,0,0,0,0],"split_type":[0,0,0,0,0,0,0,0,0,0,0,0,0,0,0,0,0,0,0,0,0],"sum_hessian":[8.312159E1,3.4140263E1,4.8981327E1,1.7872972E1,1.626729E1,4.6747765E1,2.2335615E0,8.417426E0,9.455547E0,4.444272E0,1.1823017E1,2.139305E1,2.5354717E1,3.979564E0,4.4378624E0,2.241544E0,2.2027283E0,9.327519E0,2.4954982E0,1.5551453E1,5.841596E0],"tree_param":{"num_deleted":"0","num_feature":"47","num_nodes":"21","size_leaf_vector":"1"}},{"base_weights":[-1.0433754E-2,-4.037363E-1,4.6178508E-1,-5.6629324E-1,1.7978522E-1,6.603616E-1,-4.2245692E-1,-6.3472915E-1,1.3136861E-4,7.626744E-1,-2.9047635E-1,7.6099937E-3,4.6129423E-1,9.6158146E-5,-3.6516886E-3,-2.1538383E-3,-4.0578186E-3,1.5969665E-3,6.0119512E-3,-3.409584E-3,7.346743E-4,1.2484284E-3,6.632612E-3],"categories":[],"categories_nodes":[],"categories_segments":[],"categories_sizes":[],"default_left":[0,0,0,0,0,0,0,0,0,0,0,0,0,0,0,0,0,0,0,0,0,0,0],"id":10,"left_children":[1,3,5,7,9,11,13,15,-1,17,19,-1,21,-1,-1,-1,-1,-1,-1,-1,-1,-1,-1],"loss_changes":[1.5619353E1,4.4527874E0,6.991068E0,1.4676962E0,3.169094E0,3.2401009E0,6.317576E-1,1.2850285E-1,0E0,3.3662868E-1,8.353221E-1,0E0,3.9099956E0,0E0,0E0,0E0,0E0,0E0,0E0,0E0,0E0,0E0,0E0],"parents":[2147483647,0,0,1,1,2,2,3,3,4,4,5,5,6,6,7,7,9,9,10,10,12,12],"right_children":[2,4,6,8,10,12,14,16,-1,18,20,-1,22,-1,-1,-1,-1,-1,-1,-1,-1,-1,-1],"split_conditions":[2E0,3.2936926E3,6.7082935E2,1E0,3.9014753E3,6.5889185E2,1E0,6.603699E2,1.3136861E-4,2E0,1E0,7.6099937E-3,3.9E1,9.6158146E-5,-3.6516886E-3,-2.1538383E-3,-4.0578186E-3,1.5969665E-3,6.0119512E-3,-3.409584E-3,7.346743E-4,1.2484284E-3,6.632612E-3],"split_indices":[2,3,5,14,3,5,46,5,0,4,4,0,4,0,0,0,0,0,0,0,0,0,0],"split_type":[0,0,0,0,0,0,0,0,0,0,0,0,0,0,0,0,0,0,0,0,0,0,0],"sum_hessian":[8.2095566E1,4.486955E1,3.7226013E1,3.5116383E1,9.753168E0,3.0605947E1,6.620067E0,3.1385536E1,3.7308445E0,4.07741E0,5.6757584E0,6.2244644E0,2.4381483E1,2.245303E0,4.3747644E0,5.374117E0,2.601142E1,2.0130632E0,2.0643468E0,3.1681962E0,2.5075622E0,1.8451075E1,5.9304094E0],"tree_param":{"num_deleted":"0","num_feature":"47","num_nodes":"23","size_leaf_vector":"1"}},{"base_weights":[3.136484E-2,2.1289481E-1,-3.9831147E-1,-2.5184697E-1,4.0069288E-1,-5.7434446E-1,2.1042696E-1,-4.015866E-3,1.941769E-1,5.5929756E-1,-3.314019E-1,-4.218706E-3,7.143356E-4,4.9551893E-3,-3.2135232E-3,5.574456E-3,-1.4149726E-3,1.6180282E-3,5.095524E-3,1.9665689E-3,-3.749678E-3],"categories":[],"categories_nodes":[],"categories_segments":[],"categories_sizes":[],"default_left":[0,0,0,0,0,0,0,0,0,0,0,0,0,0,0,0,0,0,0,0,0],"id":11,"left_children":[1,3,5,7,9,11,13,-1,15,17,19,-1,-1,-1,-1,-1,-1,-1,-1,-1,-1],"loss_changes":[6.6815042E0,5.3469114E0,2.8498578E0,3.4652696E0,5.2008176E0,1.8715615E0,3.4011142E0,0E0,3.2007244E0,2.7837238E0,1.8145964E0,0E0,0E0,0E0,0E0,0E0,0E0,0E0,0E0,0E0,0E0],"parents":[2147483647,0,0,1,1,2,2,3,3,4,4,5,5,6,6,8,8,9,9,10,10],"right_children":[2,4,6,8,10,12,14,-1,16,18,20,-1,-1,-1,-1,-1,-1,-1,-1,-1,-1],"split_conditions":[3.1322815E3,2.024E3,4.5394727E3,2.4409329E3,7E0,4.5E1,1.9602E4,-4.015866E-3,2.553595E3,1.9528E4,3.1376E4,-4.218706E-3,7.143356E-4,4.9551893E-3,-3.2135232E-3,5.574456E-3,-1.4149726E-3,1.6180282E-3,5.095524E-3,1.9665689E-3,-3.749678E-3],"split_indices":[3,0,3,3,2,4,1,0,3,1,1,0,0,0,0,0,0,0,0,0,0],"split_type":[0,0,0,0,0,0,0,0,0,0,0,0,0,0,0,0,0,0,0,0,0],"sum_hessian":[8.35741E1,5.9107033E1,2.4467062E1,1.6912586E1,4.2194447E1,1.9022654E1,5.4444084E0,8.477398E0,8.435189E0,3.487499E1,7.3194604E0,1.6031404E1,2.991249E0,2.9246383E0,2.51977E0,2.6852915E0,5.749898E0,1.8412998E1,1.6461988E1,2.219326E0,5.1001344E0],"tree_param":{"num_deleted":"0","num_feature":"47","num_nodes":"21","size_leaf_vector":"1"}},{"base_weights":[-1.317558E-2,5.205734E-1,-3.995905E-1,6.431987E-1,-3.422258E-3,-1.7798854E-1,-6.626184E-1,1.2082934E-1,1.0128195E0,3.6073422E-1,-3.929865E-1,-4.2468645E-3,-1.0281873E-3,6.2835123E-3,-9.0596866E-4,7.7033616E-3,9.123245E-4,-5.45882E-4,6.3709933E-3,-3.3676466E-3,7.7009073E-4],"categories":[],"categories_nodes":[],"categories_segments":[],"categories_sizes":[],"default_left":[0,0,0,0,0,0,0,0,0,0,0,0,0,0,0,0,0,0,0,0,0],"id":12,"left_children":[1,3,5,7,-1,9,11,13,15,17,19,-1,-1,-1,-1,-1,-1,-1,-1,-1,-1],"loss_changes":[1.7773075E1,5.2094154E0,2.7944636E0,6.2512846E0,0E0,3.4411213E0,3.7778854E-1,3.8887424E0,4.283886E0,2.8350654E0,1.9003294E0,0E0,0E0,0E0,0E0,0E0,0E0,0E0,0E0,0E0,0E0],"parents":[2147483647,0,0,1,1,2,2,3,3,5,5,6,6,7,7,8,8,9,9,10,10],"right_children":[2,4,6,8,-1,10,12,14,16,18,20,-1,-1,-1,-1,-1,-1,-1,-1,-1,-1],"split_conditions":[1.8777E4,1E0,6.5384E4,7.47E3,-3.422258E-3,2.3968765E3,6.700613E2,5.434E3,1E1,6.626265E2,3.984059E3,-4.2468645E-3,-1.0281873E-3,6.2835123E-3,-9.0596866E-4,7.7033616E-3,9.123245E-4,-5.45882E-4,6.3709933E-3,-3.3676466E-3,7.7009073E-4],"split_indices":[1,21,1,1,0,3,5,1,4,5,3,0,0,0,0,0,0,0,0,0,0],"split_type":[0,0,0,0,0,0,0,0,0,0,0,0,0,0,0,0,0,0,0,0,0],"sum_hessian":[8.416453E1,3.519837E1,4.8966156E1,3.2010715E1,3.187658E0,2.7485888E1,2.1480267E1,1.38143635E1,1.819635E1,7.646962E0,1.9838926E1,1.9266996E1,2.2132714E0,2.4866738E0,1.1327689E1,1.3464508E1,4.7318425E0,5.1798425E0,2.4671197E0,1.4939739E1,4.899186E0],"tree_param":{"num_deleted":"0","num_feature":"47","num_nodes":"21","size_leaf_vector":"1"}},{"base_weights":[-3.4153417E-3,-4.1854772E-1,4.952681E-1,-5.2383095E-1,1.949549E-1,-8.6083695E-2,9.0324867E-1,-5.748968E-1,-1.3636674E-1,-2.6919495E-3,5.0692707E-3,-4.1613048E-1,7.5452214E-1,1.1137694E0,-1.7636009E-3,-2.4851032E-3,-4.0650237E-3,1.3052248E-3,-3.0709533E-3,-1.3748955E-3,-3.6796865E-3,5.959052E-3,1.5706916E-3,4.1786553E-3,8.014771E-3],"categories":[],"categories_nodes":[],"categories_segments":[],"categories_sizes":[],"default_left":[0,0,0,0,0,0,0,0,0,0,0,0,0,0,0,0,0,0,0,0,0,0,0,0,0],"id":13,"left_children":[1,3,5,7,9,11,13,15,17,-1,-1,19,21,23,-1,-1,-1,-1,-1,-1,-1,-1,-1,-1,-1],"loss_changes":[1.7569178E1,3.0932856E0,9.222712E0,7.090368E-1,3.5212455E0,4.9785967E0,6.059553E0,2.9410648E-1,9.013244E-1,0E0,0E0,3.2827663E-1,3.3922315E-1,8.8127327E-1,0E0,0E0,0E0,0E0,0E0,0E0,0E0,0E0,0E0,0E0,0E0],"parents":[2147483647,0,0,1,1,2,2,3,3,4,4,5,5,6,6,7,7,8,8,11,11,12,12,13,13],"right_children":[2,4,6,8,10,12,14,16,18,-1,-1,20,22,24,-1,-1,-1,-1,-1,-1,-1,-1,-1,-1,-1],"split_conditions":[3.3385E4,1.3E1,2E0,1E0,1.1262E4,3.2791587E3,6.744464E2,6.679483E2,3.3403765E3,-2.6919495E-3,5.0692707E-3,4.5E1,3.9014753E3,2.553595E3,-1.7636009E-3,-2.4851032E-3,-4.0650237E-3,1.3052248E-3,-3.0709533E-3,-1.3748955E-3,-3.6796865E-3,5.959052E-3,1.5706916E-3,4.1786553E-3,8.014771E-3],"split_indices":[1,4,2,7,1,3,5,5,3,0,0,4,3,3,0,0,0,0,0,0,0,0,0,0,0],"split_type":[0,0,0,0,0,0,0,0,0,0,0,0,0,0,0,0,0,0,0,0,0,0,0,0,0],"sum_hessian":[8.286588E1,4.530889E1,3.7556995E1,3.8797085E1,6.5118074E0,1.581311E1,2.1743885E1,3.3851837E1,4.9452453E0,3.4273806E0,3.0844269E0,1.1717454E1,4.0956564E0,1.8551361E1,3.1925242E0,1.515354E1,1.8698298E1,2.7622147E0,2.1830306E0,7.123603E0,4.5938506E0,2.0750248E0,2.0206316E0,7.8788257E0,1.0672535E1],"tree_param":{"num_deleted":"0","num_feature":"47","num_nodes":"25","size_leaf_vector":"1"}},{"base_weights":[-2.5843639E-2,1.4507762E-1,-3.9754674E-1,-2.354764E-1,3.9467242E-1,-5.732903E-1,2.0979336E-1,2.6895555E-3,-4.1399276E-1,-3.306634E-3,4.9686173E-1,-4.2112255E-3,7.1168627E-4,4.93534E-3,-3.2082524E-3,-4.0851207E-3,7.51209E-6,3.5055757E-3,-3.0064262E-3],"categories":[],"categories_nodes":[],"categories_segments":[],"categories_sizes":[],"default_left":[0,0,0,0,0,0,0,0,0,0,0,0,0,0,0,0,0,0,0],"id":14,"left_children":[1,3,5,7,9,11,13,-1,15,-1,17,-1,-1,-1,-1,-1,-1,-1,-1],"loss_changes":[5.1395273E0,5.3670197E0,2.8381019E0,2.946464E0,3.5508184E0,1.8640227E0,3.3808103E0,0E0,2.0460427E0,0E0,3.0075712E0,0E0,0E0,0E0,0E0,0E0,0E0,0E0,0E0],"parents":[2147483647,0,0,1,1,2,2,3,3,4,4,5,5,6,6,8,8,10,10],"right_children":[2,4,6,8,10,12,14,-1,16,-1,18,-1,-1,-1,-1,-1,-1,-1,-1],"split_conditions":[3.1322815E3,2.423E3,4.5394727E3,6.677E3,-9E0,6.6E1,1.9602E4,2.6895555E-3,2.025E3,-3.306634E-3,1.3E1,-4.2112255E-3,7.1168627E-4,4.93534E-3,-3.2082524E-3,-4.0851207E-3,7.51209E-6,3.5055757E-3,-3.0064262E-3],"split_indices":[3,3,3,1,4,4,1,0,0,0,2,0,0,0,0,0,0,0,0],"split_type":[0,0,0,0,0,0,0,0,0,0,0,0,0,0,0,0,0,0,0],"sum_hessian":[7.898891E1,5.4525837E1,2.446307E1,2.161947E1,3.2906364E1,1.9016426E1,5.446644E0,4.163152E0,1.7456318E1,2.7803938E0,3.0125973E1,1.6024162E1,2.9922652E0,2.9301438E0,2.5164998E0,1.0237474E1,7.2188444E0,2.8081102E1,2.0448704E0],"tree_param":{"num_deleted":"0","num_feature":"47","num_nodes":"19","size_leaf_vector":"1"}},{"base_weights":[6.4027826E-3,5.714438E-1,-3.708162E-1,8.116799E-1,-5.308173E-2,-4.423817E-1,5.07085E-3,2.0807414E-1,7.234662E-3,-2.7613232E-1,3.6202734E-3,-1.2897886E-1,-4.0687895E-3,3.068948E-3,-1.2309535E-3,2.1126964E-3,-3.7320594E-3,5.065125E-4,-3.8146551E-3],"categories":[],"categories_nodes":[],"categories_segments":[],"categories_sizes":[],"default_left":[0,0,0,0,0,0,0,0,0,0,0,0,0,0,0,0,0,0,0],"id":15,"left_children":[1,3,5,7,9,11,-1,13,-1,15,-1,17,-1,-1,-1,-1,-1,-1,-1],"loss_changes":[1.8517752E1,5.26068E0,4.9084015E0,5.738085E0,1.7186555E0,3.597065E0,0E0,1.5033715E0,0E0,2.08724E0,0E0,2.502534E0,0E0,0E0,0E0,0E0,0E0,0E0,0E0],"parents":[2147483647,0,0,1,1,2,2,3,3,4,4,5,5,7,7,9,9,11,11],"right_children":[2,4,6,8,10,12,-1,14,-1,16,-1,18,-1,-1,-1,-1,-1,-1,-1],"split_conditions":[1.8777E4,1E1,1E0,7.47E3,3.1132725E3,2E0,5.07085E-3,2.025E3,7.234662E-3,8.319E3,3.6202734E-3,9.5921E4,-4.0687895E-3,3.068948E-3,-1.2309535E-3,2.1126964E-3,-3.7320594E-3,5.065125E-4,-3.8146551E-3],"split_indices":[1,4,6,1,3,2,0,0,0,1,0,1,0,0,0,0,0,0,0],"split_type":[0,0,0,0,0,0,0,0,0,0,0,0,0,0,0,0,0,0,0],"sum_hessian":[8.488482E1,3.377618E1,5.1108643E1,2.4176525E1,9.599654E0,4.8868652E1,2.2399898E0,1.0153392E1,1.4023132E1,7.5975423E0,2.0021124E0,2.1643356E1,2.7225296E1,5.717516E0,4.4358764E0,2.6912136E0,4.9063287E0,1.581679E1,5.826567E0],"tree_param":{"num_deleted":"0","num_feature":"47","num_nodes":"19","size_leaf_vector":"1"}},{"base_weights":[-1.7811464E-2,-4.3561414E-1,4.7900134E-1,-5.427822E-1,1.12464435E-1,-8.645488E-2,8.843976E-1,-5.9949464E-1,-1.3571218E-1,-2.937981E-3,5.049959E-3,1.0326758E-1,-2.6150933E-3,1.0967396E0,-1.7611572E-3,-2.4781702E-3,-4.0938687E-3,1.5891688E-3,-2.4524946E-3,-3.0814586E-3,1.7944071E-3,2.5892812E-3,7.175137E-3],"categories":[],"categories_nodes":[],"categories_segments":[],"categories_sizes":[],"default_left":[0,0,0,0,0,0,0,0,0,0,0,0,0,0,0,0,0,0,0,0,0,0,0],"id":16,"left_children":[1,3,5,7,9,11,13,15,17,-1,-1,19,-1,21,-1,-1,-1,-1,-1,-1,-1,-1,-1],"loss_changes":[1.7301098E1,2.719061E0,8.8085E0,7.9644966E-1,4.025535E0,1.1597754E0,5.893467E0,2.2904587E-1,7.5817245E-1,0E0,0E0,1.5675867E0,0E0,7.421818E-1,0E0,0E0,0E0,0E0,0E0,0E0,0E0,0E0,0E0],"parents":[2147483647,0,0,1,1,2,2,3,3,4,4,5,5,6,6,7,7,8,8,11,11,13,13],"right_children":[2,4,6,8,10,12,14,16,18,-1,-1,20,-1,22,-1,-1,-1,-1,-1,-1,-1,-1,-1],"split_conditions":[3.3385E4,1.3E1,2E0,1E0,1.2128E4,4.5E1,6.744464E2,8.356E3,1.2496E4,-2.937981E-3,5.049959E-3,-2.1E1,-2.6150933E-3,3E0,-1.7611572E-3,-2.4781702E-3,-4.0938687E-3,1.5891688E-3,-2.4524946E-3,-3.0814586E-3,1.7944071E-3,2.5892812E-3,7.175137E-3],"split_indices":[1,4,2,7,1,4,5,1,1,0,0,4,0,2,0,0,0,0,0,0,0,0,0],"split_type":[0,0,0,0,0,0,0,0,0,0,0,0,0,0,0,0,0,0,0,0,0,0,0],"sum_hessian":[8.134552E1,4.4253235E1,3.709228E1,3.7023537E1,7.229699E0,1.5817043E1,2.127524E1,3.2081303E1,4.9422345E0,4.139787E0,3.089912E0,1.0707345E1,5.1096973E0,1.8084166E1,3.191075E0,1.1707812E1,2.037349E1,2.01539E0,2.9268444E0,2.1888113E0,8.518535E0,3.0394793E0,1.5044685E1],"tree_param":{"num_deleted":"0","num_feature":"47","num_nodes":"23","size_leaf_vector":"1"}},{"base_weights":[2.4015587E-2,1.990505E-1,-3.962973E-1,-2.5809157E-1,3.8410342E-1,-5.761961E-1,2.888354E-1,-4.0196227E-3,1.9131087E-1,5.456663E-1,-3.4322774E-1,-4.214644E-3,1.0619861E-3,6.26855E-3,-3.2033494E-3,-3.288776E-3,3.4747415E-3,1.5262372E-3,5.0520184E-3,1.9234867E-3,-3.773276E-3],"categories":[],"categories_nodes":[],"categories_segments":[],"categories_sizes":[],"default_left":[0,0,0,0,0,0,0,0,0,0,0,0,0,0,0,0,0,0,0,0,0],"id":17,"left_children":[1,3,5,7,9,11,13,-1,15,17,19,-1,-1,-1,-1,-1,-1,-1,-1,-1,-1],"loss_changes":[6.3592815E0,5.2539043E0,3.30111E0,3.4886992E0,5.3315783E0,2.0714507E0,4.261474E0,0E0,3.0303288E0,2.9112244E0,1.8267773E0,0E0,0E0,0E0,0E0,0E0,0E0,0E0,0E0,0E0,0E0],"parents":[2147483647,0,0,1,1,2,2,3,3,4,4,5,5,6,6,8,8,9,9,10,10],"right_children":[2,4,6,8,10,12,14,-1,16,18,20,-1,-1,-1,-1,-1,-1,-1,-1,-1,-1],"split_conditions":[3.1322815E3,2.024E3,4.5394727E3,1.1E1,7E0,6.6E1,1.9602E4,-4.0196227E-3,2.4352886E3,1.9528E4,-8E0,-4.214644E-3,1.0619861E-3,6.26855E-3,-3.2033494E-3,-3.288776E-3,3.4747415E-3,1.5262372E-3,5.0520184E-3,1.9234867E-3,-3.773276E-3],"split_indices":[3,0,3,4,2,4,1,0,3,1,4,0,0,0,0,0,0,0,0,0,0],"split_type":[0,0,0,0,0,0,0,0,0,0,0,0,0,0,0,0,0,0,0,0,0],"sum_hessian":[8.436695E1,5.9934345E1,2.4432608E1,1.7156763E1,4.277758E1,1.9477345E1,4.9552636E0,8.6964E0,8.460363E0,3.520682E1,7.5707603E0,1.6739058E1,2.7382877E0,2.441832E0,2.5134315E0,2.768429E0,5.691934E0,1.8691662E1,1.651516E1,2.2409253E0,5.329835E0],"tree_param":{"num_deleted":"0","num_feature":"47","num_nodes":"21","size_leaf_vector":"1"}},{"base_weights":[1.7780267E-2,5.3378826E-1,-3.5296962E-1,6.589083E-1,-3.4140595E-3,-4.2699626E-1,5.0477386E-3,1.7860092E-1,1.0141417E0,-1.2863818E-1,-4.024933E-3,6.2422035E-3,-4.5129732E-4,7.797714E-3,9.067323E-4,5.0430186E-4,-3.8075352E-3],"categories":[],"categories_nodes":[],"categories_segments":[],"categories_sizes":[],"default_left":[0,0,0,0,0,0,0,0,0,0,0,0,0,0,0,0,0],"id":18,"left_children":[1,3,5,7,-1,9,-1,11,13,15,-1,-1,-1,-1,-1,-1,-1],"loss_changes":[1.6373367E1,5.3104467E0,4.764679E0,5.3790627E0,0E0,3.3754816E0,0E0,3.37423E0,4.3662395E0,2.4893363E0,0E0,0E0,0E0,0E0,0E0,0E0,0E0],"parents":[2147483647,0,0,1,1,2,2,3,3,5,5,7,7,8,8,9,9],"right_children":[2,4,6,8,-1,10,-1,12,14,16,-1,-1,-1,-1,-1,-1,-1],"split_conditions":[1.8777E4,1E0,1E0,7.47E3,-3.4140595E-3,2E0,5.0477386E-3,5.434E3,1E1,9.5921E4,-4.024933E-3,6.2422035E-3,-4.5129732E-4,7.797714E-3,9.067323E-4,5.0430186E-4,-3.8075352E-3],"split_indices":[1,21,6,1,0,2,0,1,4,1,0,0,0,0,0,0,0],"split_type":[0,0,0,0,0,0,0,0,0,0,0,0,0,0,0,0,0],"sum_hessian":[8.360072E1,3.4769264E1,4.8831455E1,3.158791E1,3.1813543E0,4.6586246E1,2.2452085E0,1.4068629E1,1.751928E1,2.1637299E1,2.494895E1,2.4958322E0,1.1572798E1,1.2784434E1,4.734846E0,1.5820608E1,5.8166904E0],"tree_param":{"num_deleted":"0","num_feature":"47","num_nodes":"17","size_leaf_vector":"1"}},{"base_weights":[-7.499848E-3,-4.3318045E-1,5.022238E-1,-9.981637E-2,-6.375192E-1,-8.672363E-2,9.046567E-1,-3.614254E-1,3.47416E-1,-4.1315877E-3,-2.894579E-1,-4.549324E-1,7.8349715E-1,1.1084399E0,-1.7575871E-3,2.1979373E-3,-3.3510723E-3,-2.1682912E-3,4.5504225E-3,8.596554E-5,-3.0551823E-3,-3.2135127E-3,-1.135209E-3,6.13955E-3,1.5564734E-3,4.1248454E-3,7.944188E-3],"categories":[],"categories_nodes":[],"categories_segments":[],"categories_sizes":[],"default_left":[0,0,0,0,0,0,0,0,0,0,0,0,0,0,0,0,0,0,0,0,0,0,0,0,0,0,0],"id":19,"left_children":[1,3,5,7,9,11,13,15,17,-1,19,21,23,25,-1,-1,-1,-1,-1,-1,-1,-1,-1,-1,-1,-1,-1],"loss_changes":[1.8681042E1,3.1315775E0,9.366244E0,2.3498538E0,3.1439495E-1,5.7458844E0,6.027437E0,1.9952863E0,2.4665082E0,0E0,3.69299E-1,1.6552925E-1,4.0909576E-1,9.210758E-1,0E0,0E0,0E0,0E0,0E0,0E0,0E0,0E0,0E0,0E0,0E0,0E0,0E0],"parents":[2147483647,0,0,1,1,2,2,3,3,4,4,5,5,6,6,7,7,8,8,10,10,11,11,12,12,13,13],"right_children":[2,4,6,8,10,12,14,16,18,-1,20,22,24,26,-1,-1,-1,-1,-1,-1,-1,-1,-1,-1,-1,-1,-1],"split_conditions":[3.3385E4,6.673146E2,2E0,5E0,1E0,3.2791587E3,6.744464E2,8.356E3,8.319E3,-4.1315877E-3,2.024E3,6.626265E2,3.9014753E3,2.553595E3,-1.7575871E-3,2.1979373E-3,-3.3510723E-3,-2.1682912E-3,4.5504225E-3,8.596554E-5,-3.0551823E-3,-3.2135127E-3,-1.135209E-3,6.13955E-3,1.5564734E-3,4.1248454E-3,7.944188E-3],"split_indices":[1,5,2,4,7,3,5,1,1,0,0,5,3,3,0,0,0,0,0,0,0,0,0,0,0,0,0],"split_type":[0,0,0,0,0,0,0,0,0,0,0,0,0,0,0,0,0,0,0,0,0,0,0,0,0,0,0],"sum_hessian":[8.409325E1,4.5906204E1,3.818704E1,1.801101E1,2.7895195E1,1.5819791E1,2.2367249E1,1.1484817E1,6.526193E0,2.3472212E1,4.4229827E0,1.14516E1,4.3681912E0,1.9178284E1,3.188964E0,2.2644773E0,9.22034E0,2.4395666E0,4.0866265E0,2.2488227E0,2.1741602E0,8.006113E0,3.4454868E0,2.3435738E0,2.0246174E0,7.914041E0,1.1264243E1],"tree_param":{"num_deleted":"0","num_feature":"47","num_nodes":"27","size_leaf_vector":"1"}},{"base_weights":[3.741088E-3,1.6467236E-1,-3.7773192E-1,-4.597568E-2,6.060638E-1,-5.620024E-1,2.4715899E-1,1.7279099E-1,-4.8859453E-1,-8.595373E-2,8.160868E-1,-4.180229E-3,7.024672E-4,4.889944E-3,-3.0990096E-3,-6.103037E-4,3.7930277E-3,-4.008119E-3,-3.1109722E-4,1.9581725E-3,-2.9950887E-3,5.877421E-3,2.2474222E-3],"categories":[],"categories_nodes":[],"categories_segments":[],"categories_sizes":[],"default_left":[0,0,0,0,0,0,0,0,0,0,0,0,0,0,0,0,0,0,0,0,0,0,0],"id":20,"left_children":[1,3,5,7,9,11,13,15,17,19,21,-1,-1,-1,-1,-1,-1,-1,-1,-1,-1,-1,-1],"loss_changes":[4.999713E0,5.3518887E0,2.921638E0,3.927784E0,2.7689943E0,1.8166809E0,3.108572E0,3.5071383E0,1.0146525E0,1.0536982E0,6.6822624E-1,0E0,0E0,0E0,0E0,0E0,0E0,0E0,0E0,0E0,0E0,0E0,0E0],"parents":[2147483647,0,0,1,1,2,2,3,3,4,4,5,5,6,6,7,7,8,8,9,9,10,10],"right_children":[2,4,6,8,10,12,14,16,18,20,22,-1,-1,-1,-1,-1,-1,-1,-1,-1,-1,-1,-1],"split_conditions":[3.1322815E3,2.7587622E3,4.5394727E3,2E0,2E0,6.6E1,1.9602E4,3.157E4,6.673146E2,-8E0,5E0,-4.180229E-3,7.024672E-4,4.889944E-3,-3.0990096E-3,-6.103037E-4,3.7930277E-3,-4.008119E-3,-3.1109722E-4,1.9581725E-3,-2.9950887E-3,5.877421E-3,2.2474222E-3],"split_indices":[3,3,3,2,4,4,1,1,5,4,2,0,0,0,0,0,0,0,0,0,0,0,0],"split_type":[0,0,0,0,0,0,0,0,0,0,0,0,0,0,0,0,0,0,0,0,0,0,0],"sum_hessian":[7.942735E1,5.626097E1,2.3166382E1,3.8691715E1,1.7569256E1,1.7968418E1,5.197965E0,2.630162E1,1.2390096E1,4.2282114E0,1.3341044E1,1.4972515E1,2.9959018E0,2.9426763E0,2.2552888E0,1.695095E1,9.35067E0,8.406828E0,3.9832683E0,2.2216635E0,2.006548E0,8.846677E0,4.494368E0],"tree_param":{"num_deleted":"0","num_feature":"47","num_nodes":"23","size_leaf_vector":"1"}},{"base_weights":[1.0639771E-2,5.122774E-1,-3.5389835E-1,6.3298845E-1,-3.4101072E-3,-4.2752507E-1,5.024058E-3,1.6151246E-1,9.835856E-1,-8.601236E-2,-4.043934E-3,6.2133367E-3,-5.371728E-4,7.515107E-3,9.078697E-4,4.36663E-3,-1.6436549E-3],"categories":[],"categories_nodes":[],"categories_segments":[],"categories_sizes":[],"default_left":[0,0,0,0,0,0,0,0,0,0,0,0,0,0,0,0,0],"id":21,"left_children":[1,3,5,7,-1,9,-1,11,13,15,-1,-1,-1,-1,-1,-1,-1],"loss_changes":[1.5793612E1,5.1000547E0,4.746501E0,5.3226547E0,0E0,3.9641552E0,0E0,3.4584372E0,4.023382E0,3.438008E0,0E0,0E0,0E0,0E0,0E0,0E0,0E0],"parents":[2147483647,0,0,1,1,2,2,3,3,5,5,7,7,8,8,9,9],"right_children":[2,4,6,8,-1,10,-1,12,14,16,-1,-1,-1,-1,-1,-1,-1],"split_conditions":[1.8777E4,1E0,1E0,7.47E3,-3.4101072E-3,2E0,5.024058E-3,5.434E3,1E1,2.024E3,-4.043934E-3,6.2133367E-3,-5.371728E-4,7.515107E-3,9.078697E-4,4.36663E-3,-1.6436549E-3],"split_indices":[1,21,6,1,0,2,0,1,4,0,0,0,0,0,0,0,0],"split_type":[0,0,0,0,0,0,0,0,0,0,0,0,0,0,0,0,0],"sum_hessian":[8.43757E1,3.5339733E1,4.9035973E1,3.21614E1,3.178332E0,4.6785427E1,2.250545E0,1.433912E1,1.7822283E1,2.0176647E1,2.660878E1,2.5022078E0,1.1836912E1,1.3088174E1,4.734108E0,3.246393E0,1.6930254E1],"tree_param":{"num_deleted":"0","num_feature":"47","num_nodes":"17","size_leaf_vector":"1"}},{"base_weights":[5.6829103E-3,-3.97431E-1,5.027987E-1,-5.096214E-1,2.3595668E-1,-4.2171977E-2,8.797514E-1,-5.730968E-1,-6.6960976E-2,-2.675642E-3,5.2330745E-3,-4.0088063E-1,7.799769E-1,1.0868185E0,-1.7539752E-3,-3.7904591E-3,-1.8479809E-3,1.7887782E-3,-3.0524186E-3,-1.3649728E-3,-3.5904432E-3,6.1113853E-3,1.5493487E-3,4.093514E-3,7.837927E-3],"categories":[],"categories_nodes":[],"categories_segments":[],"categories_sizes":[],"default_left":[0,0,0,0,0,0,0,0,0,0,0,0,0,0,0,0,0,0,0,0,0,0,0,0,0],"id":22,"left_children":[1,3,5,7,9,11,13,15,17,-1,-1,19,21,23,-1,-1,-1,-1,-1,-1,-1,-1,-1,-1,-1],"loss_changes":[1.7105469E1,3.4703026E0,7.888133E0,1.0958452E0,3.7631128E0,5.2025104E0,5.8117504E0,3.5224628E-1,1.150807E0,0E0,0E0,2.8184617E-1,4.062271E-1,8.360214E-1,0E0,0E0,0E0,0E0,0E0,0E0,0E0,0E0,0E0,0E0,0E0],"parents":[2147483647,0,0,1,1,2,2,3,3,4,4,5,5,6,6,7,7,8,8,11,11,12,12,13,13],"right_children":[2,4,6,8,10,12,14,16,18,-1,-1,20,22,24,-1,-1,-1,-1,-1,-1,-1,-1,-1,-1,-1],"split_conditions":[3.3385E4,1.3E1,2E0,1E0,1.2128E4,3.2791587E3,6.744464E2,1E0,3.3403765E3,-2.675642E-3,5.2330745E-3,4.5E1,3.9014753E3,2.553595E3,-1.7539752E-3,-3.7904591E-3,-1.8479809E-3,1.7887782E-3,-3.0524186E-3,-1.3649728E-3,-3.5904432E-3,6.1113853E-3,1.5493487E-3,4.093514E-3,7.837927E-3],"split_indices":[1,4,2,7,1,3,5,14,3,0,0,4,3,3,0,0,0,0,0,0,0,0,0,0,0],"split_type":[0,0,0,0,0,0,0,0,0,0,0,0,0,0,0,0,0,0,0,0,0,0,0,0,0],"sum_hessian":[8.33619E1,4.6144005E1,3.72179E1,3.9366512E1,6.7774916E0,1.5580653E1,2.1637245E1,3.4171776E1,5.194738E0,3.41568E0,3.3618116E0,1.1204472E1,4.3761816E0,1.8450422E1,3.1868215E0,2.6849089E1,7.3226852E0,3.0222526E0,2.172485E0,7.1127515E0,4.0917206E0,2.349569E0,2.0266125E0,7.934498E0,1.0515924E1],"tree_param":{"num_deleted":"0","num_feature":"47","num_nodes":"25","size_leaf_vector":"1"}},{"base_weights":[-1.8333355E-2,-8.283537E-2,5.789483E-3,-1.3033204E-1,5.4744086E-3,3.2124832E-2,-4.8574105E-1,-1.1027701E-3,2.555298E-3,-4.2182184E-3,1.7121338E-3],"categories":[],"categories_nodes":[],"categories_segments":[],"categories_sizes":[],"default_left":[0,0,0,0,0,0,0,0,0,0,0],"id":23,"left_children":[1,3,-1,5,-1,7,9,-1,-1,-1,-1],"loss_changes":[5.3368554E0,3.8394248E0,0E0,4.403556E0,0E0,4.592357E0,4.2056284E0,0E0,0E0,0E0,0E0],"parents":[2147483647,0,0,1,1,3,3,5,5,6,6],"right_children":[2,4,-1,6,-1,8,10,-1,-1,-1,-1],"split_conditions":[1E0,1E0,5.789483E-3,3.1322815E3,5.4744086E-3,2.713708E3,4.5394727E3,-1.1027701E-3,2.555298E-3,-4.2182184E-3,1.7121338E-3],"split_indices":[22,39,0,3,0,3,3,0,0,0,0],"split_type":[0,0,0,0,0,0,0,0,0,0,0],"sum_hessian":[8.188881E1,7.770691E1,4.1818986E0,7.49968E1,2.7101028E0,5.2094227E1,2.2902575E1,3.398924E1,1.810499E1,1.7936365E1,4.9662094E0],"tree_param":{"num_deleted":"0","num_feature":"47","num_nodes":"11","size_leaf_vector":"1"}},{"base_weights":[2.1431893E-3,5.0485694E-1,-3.545823E-1,6.272785E-1,-3.4066415E-3,-4.4440117E-1,4.3041217E-3,8.490833E-2,9.8964393E-1,-1.4308503E-1,-4.0181964E-3,5.7780663E-3,-8.4262766E-4,5.9347047E-4,6.684712E-3,4.833679E-4,-3.7998082E-3],"categories":[],"categories_nodes":[],"categories_segments":[],"categories_sizes":[],"default_left":[0,0,0,0,0,0,0,0,0,0,0,0,0,0,0,0,0],"id":24,"left_children":[1,3,5,7,-1,9,-1,11,13,15,-1,-1,-1,-1,-1,-1,-1],"loss_changes":[1.5398219E1,5.0358877E0,5.154813E0,6.29599E0,0E0,3.0922928E0,0E0,2.924457E0,2.0370522E0,2.393211E0,0E0,0E0,0E0,0E0,0E0,0E0,0E0],"parents":[2147483647,0,0,1,1,2,2,3,3,5,5,7,7,8,8,9,9],"right_children":[2,4,6,8,-1,10,-1,12,14,16,-1,-1,-1,-1,-1,-1,-1],"split_conditions":[1.8777E4,1E0,6.81733E2,7.47E3,-3.4066415E-3,2E0,4.3041217E-3,5.434E3,6.5909033E2,9.5921E4,-4.0181964E-3,5.7780663E-3,-8.4262766E-4,5.9347047E-4,6.684712E-3,4.833679E-4,-3.7998082E-3],"split_indices":[1,21,5,1,0,2,0,1,5,1,0,0,0,0,0,0,0],"split_type":[0,0,0,0,0,0,0,0,0,0,0,0,0,0,0,0,0],"sum_hessian":[8.386665E1,3.4637985E1,4.9228672E1,3.146232E1,3.175665E0,4.596281E1,3.2658594E0,1.3095682E1,1.8366638E1,2.036352E1,2.559929E1,2.0058908E0,1.1089791E1,2.4719772E0,1.589466E1,1.4557681E1,5.805839E0],"tree_param":{"num_deleted":"0","num_feature":"47","num_nodes":"17","size_leaf_vector":"1"}},{"base_weights":[-1.3521452E-2,-4.047706E-1,4.8747888E-1,-5.1108956E-1,1.5387268E-1,-8.5972175E-2,9.0491456E-1,-5.763348E-1,-8.815047E-3,-3.0577555E-3,6.4572887E-3,-4.5284218E-1,7.768128E-1,5.458295E-1,7.6911114E-3,-3.7935344E-3,-1.987082E-3,2.6479624E-3,-3.0483177E-3,-1.7017112E-3,-3.6603464E-3,6.084582E-3,1.544118E-3,6.6973236E-3,1.3579465E-3],"categories":[],"categories_nodes":[],"categories_segments":[],"categories_sizes":[],"default_left":[0,0,0,0,0,0,0,0,0,0,0,0,0,0,0,0,0,0,0,0,0,0,0,0,0],"id":25,"left_children":[1,3,5,7,9,11,13,15,17,-1,-1,19,21,23,-1,-1,-1,-1,-1,-1,-1,-1,-1,-1,-1],"loss_changes":[1.6861856E1,2.946391E0,9.110298E0,1.3318043E0,5.7431736E0,5.672397E0,2.2677746E0,2.8536606E-1,1.5064076E0,0E0,0E0,1.5756202E-1,4.0256643E-1,2.110951E0,0E0,0E0,0E0,0E0,0E0,0E0,0E0,0E0,0E0,0E0,0E0],"parents":[2147483647,0,0,1,1,2,2,3,3,4,4,5,5,6,6,7,7,8,8,11,11,12,12,13,13],"right_children":[2,4,6,8,10,12,14,16,18,-1,-1,20,22,24,-1,-1,-1,-1,-1,-1,-1,-1,-1,-1,-1],"split_conditions":[3.3385E4,1.3E1,2E0,1E0,1.2128E4,3.2791587E3,9.2211E4,1E0,3.3403765E3,-3.0577555E-3,6.4572887E-3,4.5E1,3.9014753E3,6E0,7.6911114E-3,-3.7935344E-3,-1.987082E-3,2.6479624E-3,-3.0483177E-3,-1.7017112E-3,-3.6603464E-3,6.084582E-3,1.544118E-3,6.6973236E-3,1.3579465E-3],"split_indices":[1,4,2,7,1,3,1,14,3,0,0,4,3,4,0,0,0,0,0,0,0,0,0,0,0],"split_type":[0,0,0,0,0,0,0,0,0,0,0,0,0,0,0,0,0,0,0,0,0,0,0,0,0],"sum_hessian":[8.401624E1,4.728318E1,3.673306E1,3.979472E1,7.4884615E0,1.5809228E1,2.0923832E1,3.50892E1,4.7055197E0,4.6156206E0,2.8728406E0,1.1425894E1,4.3833346E0,1.1969392E1,8.954441E0,2.7286093E1,7.8031073E0,2.5354278E0,2.1700919E0,6.853228E0,4.5726657E0,2.3552601E0,2.0280743E0,3.4021559E0,8.567236E0],"tree_param":{"num_deleted":"0","num_feature":"47","num_nodes":"25","size_leaf_vector":"1"}},{"base_weights":[1.2087183E-2,1.6423395E-1,-4.4825783E-1,-3.8167086E-1,3.5583988E-1,-4.156255E-3,2.0574543E-1,-4.0166387E-3,2.2242554E-2,5.207504E-1,-3.7379208E-1,4.856011E-3,-3.196174E-3,4.2898967E-3,-3.5437613E-3,1.2417362E-3,4.974967E-3,-3.8311612E-3,1.8946674E-3],"categories":[],"categories_nodes":[],"categories_segments":[],"categories_sizes":[],"default_left":[0,0,0,0,0,0,0,0,0,0,0,0,0,0,0,0,0,0,0],"id":26,"left_children":[1,3,5,7,9,-1,11,-1,13,15,17,-1,-1,-1,-1,-1,-1,-1,-1],"loss_changes":[5.8944497E0,6.7458935E0,3.4858432E0,1.9793019E0,5.8852797E0,0E0,3.310838E0,0E0,3.818412E0,3.6020746E0,1.8995436E0,0E0,0E0,0E0,0E0,0E0,0E0,0E0,0E0],"parents":[2147483647,0,0,1,1,2,2,3,3,4,4,6,6,8,8,9,9,10,10],"right_children":[2,4,6,8,10,-1,12,-1,14,16,18,-1,-1,-1,-1,-1,-1,-1,-1],"split_conditions":[3.2791587E3,2.024E3,4.5394727E3,1.1E1,7E0,-4.156255E-3,1.9602E4,-4.0166387E-3,1E0,1.9528E4,1E0,4.856011E-3,-3.196174E-3,4.2898967E-3,-3.5437613E-3,1.2417362E-3,4.974967E-3,-3.8311612E-3,1.8946674E-3],"split_indices":[3,0,3,4,2,0,1,0,2,1,31,0,0,0,0,0,0,0,0],"split_type":[0,0,0,0,0,0,0,0,0,0,0,0,0,0,0,0,0,0,0],"sum_hessian":[8.2107216E1,6.219473E1,1.991249E1,1.5900531E1,4.6294197E1,1.4451624E1,5.460868E0,8.901357E0,6.999174E0,3.7993282E1,8.300914E0,2.95197E0,2.5088975E0,3.2072883E0,3.7918856E0,1.9660563E1,1.833272E1,6.051635E0,2.2492788E0],"tree_param":{"num_deleted":"0","num_feature":"47","num_nodes":"19","size_leaf_vector":"1"}},{"base_weights":[6.6576283E-3,5.368372E-1,-3.5713097E-1,6.658022E-1,-3.4024033E-3,-1.330984E-1,-6.534737E-1,1.5932679E-1,1.079485E0,7.3865587E-3,-3.7661458E-3,-4.2001205E-3,-1.0154694E-3,6.1555644E-3,-5.414819E-4,7.382417E-3,2.3229416E-3,3.1583656E-3,-8.7371754E-4],"categories":[],"categories_nodes":[],"categories_segments":[],"categories_sizes":[],"default_left":[0,0,0,0,0,0,0,0,0,0,0,0,0,0,0,0,0,0,0],"id":27,"left_children":[1,3,5,7,-1,9,11,13,15,17,-1,-1,-1,-1,-1,-1,-1,-1,-1],"loss_changes":[1.6460358E1,5.3210564E0,3.2740178E0,6.43874E0,0E0,2.0950592E0,3.6699963E-1,3.414254E0,1.3201103E0,2.0157719E0,0E0,0E0,0E0,0E0,0E0,0E0,0E0,0E0,0E0],"parents":[2147483647,0,0,1,1,2,2,3,3,5,5,6,6,7,7,8,8,9,9],"right_children":[2,4,6,8,-1,10,12,14,16,18,-1,-1,-1,-1,-1,-1,-1,-1,-1],"split_conditions":[1.8777E4,1E0,6.5384E4,7.47E3,-3.4024033E-3,9E0,6.700613E2,5.434E3,1E1,2.024E3,-3.7661458E-3,-4.2001205E-3,-1.0154694E-3,6.1555644E-3,-5.414819E-4,7.382417E-3,2.3229416E-3,3.1583656E-3,-8.7371754E-4],"split_indices":[1,21,1,1,0,2,5,1,4,0,0,0,0,0,0,0,0,0,0],"split_type":[0,0,0,0,0,0,0,0,0,0,0,0,0,0,0,0,0,0,0],"sum_hessian":[8.334882E1,3.3724136E1,4.9624687E1,3.0551756E1,3.1723802E0,2.9085463E1,2.0539227E1,1.4358126E1,1.619363E1,2.3418652E1,5.66681E0,1.8331478E1,2.207748E0,2.514892E0,1.1843234E1,1.2657317E1,3.536313E0,4.776404E0,1.8642248E1],"tree_param":{"num_deleted":"0","num_feature":"47","num_nodes":"19","size_leaf_vector":"1"}},{"base_weights":[1.4746216E-2,-3.9332676E-1,5.327804E-1,-5.0443304E-1,2.0808975E-1,1.4096905E-2,8.638973E-1,-5.6821156E-1,-6.690747E-2,-2.9186925E-3,6.429679E-3,-3.7725228E-1,5.5668224E-3,1.0704291E0,-1.7560229E-3,-3.7510458E-3,-1.9805643E-3,1.7738703E-3,-3.0417917E-3,-8.1463193E-4,-3.6537037E-3,2.1025902E-3,7.0290207E-3],"categories":[],"categories_nodes":[],"categories_segments":[],"categories_sizes":[],"default_left":[0,0,0,0,0,0,0,0,0,0,0,0,0,0,0,0,0,0,0,0,0,0,0],"id":28,"left_children":[1,3,5,7,9,11,13,15,17,-1,-1,19,-1,21,-1,-1,-1,-1,-1,-1,-1,-1,-1],"loss_changes":[1.7670815E1,3.2307916E0,6.3116226E0,1.0719376E0,5.3207073E0,5.843676E0,5.6776333E0,2.6270485E-1,1.1381063E0,0E0,0E0,5.5892694E-1,0E0,9.917698E-1,0E0,0E0,0E0,0E0,0E0,0E0,0E0,0E0,0E0],"parents":[2147483647,0,0,1,1,2,2,3,3,4,4,5,5,6,6,7,7,8,8,11,11,13,13],"right_children":[2,4,6,8,10,12,14,16,18,-1,-1,20,-1,22,-1,-1,-1,-1,-1,-1,-1,-1,-1],"split_conditions":[3.3385E4,1.3E1,2E0,1E0,1.2128E4,3.2791587E3,6.744464E2,1E0,3.3403765E3,-2.9186925E-3,6.429679E-3,4.5E1,5.5668224E-3,3E0,-1.7560229E-3,-3.7510458E-3,-1.9805643E-3,1.7738703E-3,-3.0417917E-3,-8.1463193E-4,-3.6537037E-3,2.1025902E-3,7.0290207E-3],"split_indices":[1,4,2,7,1,3,5,14,3,0,0,4,0,2,0,0,0,0,0,0,0,0,0],"split_type":[0,0,0,0,0,0,0,0,0,0,0,0,0,0,0,0,0,0,0,0,0,0,0],"sum_hessian":[8.159985E1,4.577896E1,3.5820896E1,3.8776592E1,7.002367E0,1.4363511E1,2.1457384E1,3.358254E1,5.194053E0,4.1229315E0,2.8794355E0,1.0467361E1,3.8961496E0,1.8269434E1,3.1879501E0,2.5788013E1,7.7945256E0,3.0277414E0,2.166312E0,5.9020853E0,4.565276E0,2.7988734E0,1.547056E1],"tree_param":{"num_deleted":"0","num_feature":"47","num_nodes":"23","size_leaf_vector":"1"}},{"base_weights":[-3.3344854E-2,1.2150063E-1,-3.9569294E-1,2.52225E-1,-4.461556E-1,-5.691243E-1,2.0499921E-1,-3.170223E-1,4.714912E-1,-1.1634728E-4,-3.887583E-3,-4.175941E-3,6.9689984E-4,4.8348126E-3,-3.190793E-3,-3.9615273E-3,1.2156094E-3,1.2777842E-3,5.2394513E-3],"categories":[],"categories_nodes":[],"categories_segments":[],"categories_sizes":[],"default_left":[0,0,0,0,0,0,0,0,0,0,0,0,0,0,0,0,0,0,0],"id":29,"left_children":[1,3,5,7,9,11,13,15,17,-1,-1,-1,-1,-1,-1,-1,-1,-1,-1],"loss_changes":[4.7955184E0,4.5682645E0,2.78027E0,6.320975E0,9.863601E-1,1.8286676E0,3.2896068E0,2.692625E0,3.563218E0,0E0,0E0,0E0,0E0,0E0,0E0,0E0,0E0,0E0,0E0],"parents":[2147483647,0,0,1,1,2,2,3,3,4,4,5,5,6,6,7,7,8,8],"right_children":[2,4,6,8,10,12,14,16,18,-1,-1,-1,-1,-1,-1,-1,-1,-1,-1],"split_conditions":[3.1322815E3,7E0,4.5394727E3,2.024E3,5.6616E4,6.6E1,1.9602E4,1.1E1,2.713708E3,-1.1634728E-4,-3.887583E-3,-4.175941E-3,6.9689984E-4,4.8348126E-3,-3.190793E-3,-3.9615273E-3,1.2156094E-3,1.2777842E-3,5.2394513E-3],"split_indices":[3,2,3,0,1,4,1,4,3,0,0,0,0,0,0,0,0,0,0],"split_type":[0,0,0,0,0,0,0,0,0,0,0,0,0,0,0,0,0,0,0],"sum_hessian":[8.361261E1,5.904504E1,2.4567566E1,4.8444523E1,1.0600516E1,1.9104332E1,5.463234E0,1.3347253E1,3.509727E1,3.7548714E0,6.8456454E0,1.6106815E1,2.9975162E0,2.9577553E0,2.5054789E0,7.8749166E0,5.472336E0,2.2286177E1,1.2811095E1],"tree_param":{"num_deleted":"0","num_feature":"47","num_nodes":"19","size_leaf_vector":"1"}},{"base_weights":[4.73495E-3,5.363712E-1,-3.4878677E-1,8.444963E-1,1.4071727E-1,-4.2256254E-1,4.98132E-3,3.3708963E-1,7.103541E-3,4.7833407E-3,-8.030936E-2,-9.30884E-2,-4.0122187E-3,-1.8788865E-3,4.605904E-3,-1.5795066E-3,3.5194152E-3,3.8246997E-3,-1.6329142E-3],"categories":[],"categories_nodes":[],"categories_segments":[],"categories_sizes":[],"default_left":[0,0,0,0,0,0,0,0,0,0,0,0,0,0,0,0,0,0,0],"id":30,"left_children":[1,3,5,7,9,11,-1,13,-1,-1,15,17,-1,-1,-1,-1,-1,-1,-1],"loss_changes":[1.5528391E1,3.9035864E0,4.667904E0,2.7611504E0,2.3342779E0,3.779457E0,0E0,2.6908736E0,0E0,0E0,1.6932424E0,2.9753065E0,0E0,0E0,0E0,0E0,0E0,0E0,0E0],"parents":[2147483647,0,0,1,1,2,2,3,3,4,4,5,5,7,7,10,10,11,11],"right_children":[2,4,6,8,10,12,-1,14,-1,-1,16,18,-1,-1,-1,-1,-1,-1,-1],"split_conditions":[1.8777E4,3E0,1E0,2.4643914E3,2.024E3,2E0,4.98132E-3,-3E0,7.103541E-3,4.7833407E-3,3.4078926E3,2.024E3,-4.0122187E-3,-1.8788865E-3,4.605904E-3,-1.5795066E-3,3.5194152E-3,3.8246997E-3,-1.6329142E-3],"split_indices":[1,4,6,3,0,2,0,4,0,0,3,0,0,0,0,0,0,0,0],"split_type":[0,0,0,0,0,0,0,0,0,0,0,0,0,0,0,0,0,0,0],"sum_hessian":[8.0626625E1,3.1994759E1,4.8631863E1,1.7349205E1,1.4645553E1,4.637177E1,2.2600956E0,7.7527704E0,9.596436E0,3.032206E0,1.1613346E1,2.0418522E1,2.5953247E1,3.1971312E0,4.5556393E0,9.5882845E0,2.0250614E0,3.5156417E0,1.690288E1],"tree_param":{"num_deleted":"0","num_feature":"47","num_nodes":"19","size_leaf_vector":"1"}},{"base_weights":[-1.375169E-2,-4.197842E-1,4.7984427E-1,-1.8486917E-1,-3.8180002E-3,-6.1980784E-2,8.647796E-1,-3.1160966E-1,4.259495E-3,1.310688E-1,-2.5908381E-3,1.0679287E0,-1.7531151E-3,-2.9411009E-3,1.4214776E-3,-3.068874E-3,1.9582442E-3,2.8698866E-3,6.956182E-3],"categories":[],"categories_nodes":[],"categories_segments":[],"categories_sizes":[],"default_left":[0,0,0,0,0,0,0,0,0,0,0,0,0,0,0,0,0,0,0],"id":31,"left_children":[1,3,5,7,-1,9,11,13,-1,15,-1,17,-1,-1,-1,-1,-1,-1,-1],"loss_changes":[1.7238169E1,2.2821226E0,8.152921E0,2.947128E0,0E0,1.2747797E0,5.66391E0,2.2465394E0,0E0,1.670065E0,0E0,5.012684E-1,0E0,0E0,0E0,0E0,0E0,0E0,0E0],"parents":[2147483647,0,0,1,1,2,2,3,3,5,5,6,6,7,7,9,9,11,11],"right_children":[2,4,6,8,-1,10,12,14,-1,16,-1,18,-1,-1,-1,-1,-1,-1,-1],"split_conditions":[3.3385E4,6.684246E2,2E0,1E0,-3.8180002E-3,4.5E1,6.744464E2,1.2E1,4.259495E-3,-2.1E1,-2.5908381E-3,3E0,-1.7531151E-3,-2.9411009E-3,1.4214776E-3,-3.068874E-3,1.9582442E-3,2.8698866E-3,6.956182E-3],"split_indices":[1,5,2,24,0,4,5,4,0,4,0,2,0,0,0,0,0,0,0],"split_type":[0,0,0,0,0,0,0,0,0,0,0,0,0,0,0,0,0,0,0],"sum_hessian":[8.4006874E1,4.6173798E1,3.7833073E1,2.3036858E1,2.3136942E1,1.6062664E1,2.1770409E1,2.0749565E1,2.2872918E0,1.0977818E1,5.084847E0,1.8584206E1,3.1862035E0,1.5733738E1,5.015827E0,2.18159E0,8.796227E0,3.3316169E0,1.5252588E1],"tree_param":{"num_deleted":"0","num_feature":"47","num_nodes":"19","size_leaf_vector":"1"}},{"base_weights":[-2.05216E-2,1.7737626E-1,-4.9288726E-1,-2.8275454E-2,5.3739065E-1,-4.2024315E-3,2.0424864E-1,-1.7571634E-1,5.7313764E-3,7.4149626E-1,-1.4854078E-1,4.815236E-3,-3.186164E-3,2.7299416E-3,-2.0095876E-3,-3.2000535E-3,5.9927637E-3,1.9055186E-3,-3.2005827E-3],"categories":[],"categories_nodes":[],"categories_segments":[],"categories_sizes":[],"default_left":[0,0,0,0,0,0,0,0,0,0,0,0,0,0,0,0,0,0,0],"id":32,"left_children":[1,3,5,7,9,-1,11,13,-1,15,17,-1,-1,-1,-1,-1,-1,-1,-1],"loss_changes":[7.859042E0,4.407513E0,3.7324219E0,5.7807555E0,3.1367397E0,0E0,3.2704477E0,3.6173816E0,0E0,6.052348E0,1.2082952E0,0E0,0E0,0E0,0E0,0E0,0E0,0E0,0E0],"parents":[2147483647,0,0,1,1,2,2,3,3,4,4,6,6,7,7,9,9,10,10],"right_children":[2,4,6,8,10,-1,12,14,-1,16,18,-1,-1,-1,-1,-1,-1,-1,-1],"split_conditions":[3.1322815E3,2.713708E3,4.5394727E3,1E0,7E0,-4.2024315E-3,1.9602E4,6.677E3,5.7313764E-3,1E0,6.611743E2,4.815236E-3,-3.186164E-3,2.7299416E-3,-2.0095876E-3,-3.2000535E-3,5.9927637E-3,1.9055186E-3,-3.2005827E-3],"split_indices":[3,3,3,22,2,0,1,1,0,4,5,0,0,0,0,0,0,0,0],"split_type":[0,0,0,0,0,0,0,0,0,0,0,0,0,0,0,0,0,0,0],"sum_hessian":[8.2136536E1,5.832552E1,2.3811016E1,3.7707344E1,2.0618176E1,1.8345407E1,5.4656076E0,3.3505714E1,4.20163E0,1.5827534E1,4.7906427E0,2.9630814E0,2.5025263E0,6.378905E0,2.712681E1,2.4778104E0,1.3349723E1,2.2457511E0,2.5448916E0],"tree_param":{"num_deleted":"0","num_feature":"47","num_nodes":"19","size_leaf_vector":"1"}},{"base_weights":[-1.9476758E-2,4.799792E-1,-3.6816424E-1,6.041551E-1,-3.402348E-3,-1.2378521E-1,-6.5480816E-1,1.729072E-1,9.480954E-1,5.248357E-1,-2.8080314E-1,-4.1964953E-3,-1.0110256E-3,6.1004455E-3,-4.6331043E-4,7.2619263E-3,3.8139196E-4,5.4921666E-3,-8.031638E-4,-3.5077343E-3,1.6113478E-4],"categories":[],"categories_nodes":[],"categories_segments":[],"categories_sizes":[],"default_left":[0,0,0,0,0,0,0,0,0,0,0,0,0,0,0,0,0,0,0,0,0],"id":33,"left_children":[1,3,5,7,-1,9,11,13,15,17,19,-1,-1,-1,-1,-1,-1,-1,-1,-1,-1],"loss_changes":[1.4601548E1,4.826378E0,3.3753266E0,4.4806776E0,0E0,2.9855547E0,3.696766E-1,3.2690995E0,3.9119368E0,1.60934E0,2.1737704E0,0E0,0E0,0E0,0E0,0E0,0E0,0E0,0E0,0E0,0E0],"parents":[2147483647,0,0,1,1,2,2,3,3,5,5,6,6,7,7,8,8,9,9,10,10],"right_children":[2,4,6,8,-1,10,12,14,16,18,20,-1,-1,-1,-1,-1,-1,-1,-1,-1,-1],"split_conditions":[1.8777E4,1E0,6.5384E4,7.47E3,-3.402348E-3,2.024E3,6.700613E2,5.434E3,1E1,2.352354E3,3.2692E4,-4.1964953E-3,-1.0110256E-3,6.1004455E-3,-4.6331043E-4,7.2619263E-3,3.8139196E-4,5.4921666E-3,-8.031638E-4,-3.5077343E-3,1.6113478E-4],"split_indices":[1,21,1,1,0,0,5,1,4,3,1,0,0,0,0,0,0,0,0,0,0],"split_type":[0,0,0,0,0,0,0,0,0,0,0,0,0,0,0,0,0,0,0,0,0],"sum_hessian":[8.1828026E1,3.348622E1,4.834181E1,3.031404E1,3.1721814E0,2.6867603E1,2.1474205E1,1.4116658E1,1.6197382E1,4.779906E0,2.2087698E1,1.9268513E1,2.2056909E0,2.526897E0,1.1589761E1,1.220947E1,3.9879122E0,2.7561777E0,2.023728E0,1.0660256E1,1.1427442E1],"tree_param":{"num_deleted":"0","num_feature":"47","num_nodes":"21","size_leaf_vector":"1"}},{"base_weights":[-8.718857E-3,-4.1472727E-1,4.894378E-1,-2.2239394E-1,-4.0309895E-3,2.962438E-1,7.3324204E-3,-3.459865E-1,4.6144985E-3,6.950896E-2,9.7539467E-1,-2.5425672E-3,1.731917E-3,1.1065349E-3,-3.3872135E-3,6.8735704E-3,2.9356005E-3],"categories":[],"categories_nodes":[],"categories_segments":[],"categories_sizes":[],"default_left":[0,0,0,0,0,0,0,0,0,0,0,0,0,0,0,0,0],"id":34,"left_children":[1,3,5,7,-1,9,-1,11,-1,13,15,-1,-1,-1,-1,-1,-1],"loss_changes":[1.7748928E1,2.2408676E0,5.216588E0,3.8377063E0,0E0,4.9381886E0,0E0,1.4355557E0,0E0,1.9583436E0,1.06377125E-1,0E0,0E0,0E0,0E0,0E0,0E0],"parents":[2147483647,0,0,1,1,2,2,3,3,5,5,7,7,9,9,10,10],"right_children":[2,4,6,8,-1,10,-1,12,-1,14,16,-1,-1,-1,-1,-1,-1],"split_conditions":[3.3385E4,6.6969257E2,1.41192E5,1E0,-4.0309895E-3,3.2791587E3,7.3324204E-3,1E0,4.6144985E-3,6.744464E2,4.154967E3,-2.5425672E-3,1.731917E-3,1.1065349E-3,-3.3872135E-3,6.8735704E-3,2.9356005E-3],"split_indices":[1,5,1,24,0,3,0,21,0,5,3,0,0,0,0,0,0],"split_type":[0,0,0,0,0,0,0,0,0,0,0,0,0,0,0,0,0],"sum_hessian":[8.575127E1,4.733759E1,3.841368E1,2.814672E1,1.919087E1,3.1509129E1,6.9045525E0,2.5605862E1,2.5408585E0,2.4449123E1,7.0600047E0,2.3106459E1,2.4994037E0,2.1298195E1,3.150928E0,4.224407E0,2.8355975E0],"tree_param":{"num_deleted":"0","num_feature":"47","num_nodes":"17","size_leaf_vector":"1"}},{"base_weights":[1.4351415E-2,1.7744596E-1,-3.8008597E-1,-3.621952E-1,3.704517E-1,-5.6253684E-1,2.8096405E-1,-4.0480774E-3,2.4209557E-1,5.170739E-1,-3.2709935E-1,-4.153979E-3,7.029869E-4,2.405982E-3,7.187122E-4,-2.9823533E-3,4.2793034E-3,1.8390573E-3,5.010573E-3,1.8986176E-3,-3.7143005E-3],"categories":[],"categories_nodes":[],"categories_segments":[],"categories_sizes":[],"default_left":[0,0,0,0,0,0,0,0,0,0,0,0,0,0,0,0,0,0,0,0,0],"id":35,"left_children":[1,3,5,7,9,11,13,-1,15,17,19,-1,-1,-1,-1,-1,-1,-1,-1,-1,-1],"loss_changes":[5.3984966E0,6.3114924E0,3.1202223E0,3.2091722E0,4.687672E0,1.8085427E0,6.7646414E-2,0E0,2.52533E0,2.2145815E0,1.7526627E0,0E0,0E0,0E0,0E0,0E0,0E0,0E0,0E0,0E0,0E0],"parents":[2147483647,0,0,1,1,2,2,3,3,4,4,5,5,6,6,8,8,9,9,10,10],"right_children":[2,4,6,8,10,12,14,-1,16,18,20,-1,-1,-1,-1,-1,-1,-1,-1,-1,-1],"split_conditions":[3.1322815E3,2.024E3,4.5394727E3,2.8E1,7E0,6.6E1,5.5401367E3,-4.0480774E-3,2.5092314E3,2.713708E3,0E0,-4.153979E-3,7.029869E-4,2.405982E-3,7.187122E-4,-2.9823533E-3,4.2793034E-3,1.8390573E-3,5.010573E-3,1.8986176E-3,-3.7143005E-3],"split_indices":[3,0,3,4,2,4,3,0,3,3,4,0,0,0,0,0,0,0,0,0,0],"split_type":[0,0,0,0,0,0,0,0,0,0,0,0,0,0,0,0,0,0,0,0,0],"sum_hessian":[8.186962E1,5.8309544E1,2.3560081E1,1.5129916E1,4.3179626E1,1.8580782E1,4.9792995E0,9.89608E0,5.2338367E0,3.589366E1,7.2859654E0,1.5585968E1,2.9948127E0,2.0011213E0,2.9781783E0,2.0159338E0,3.217903E0,2.2776787E1,1.3116875E1,2.2476623E0,5.038303E0],"tree_param":{"num_deleted":"0","num_feature":"47","num_nodes":"21","size_leaf_vector":"1"}},{"base_weights":[-2.2478988E-2,4.6305487E-1,-3.6191735E-1,5.8713084E-1,-3.3983102E-3,-4.3776938E-1,4.9465764E-3,2.0952677E-2,9.161078E-1,-1.2259155E-1,-3.9931806E-3,5.6716264E-3,-1.5099695E-3,7.0683197E-3,1.2717026E-3,5.610589E-4,-3.7431046E-3],"categories":[],"categories_nodes":[],"categories_segments":[],"categories_sizes":[],"default_left":[0,0,0,0,0,0,0,0,0,0,0,0,0,0,0,0,0],"id":36,"left_children":[1,3,5,7,-1,9,-1,11,13,15,-1,-1,-1,-1,-1,-1,-1],"loss_changes":[1.3621382E1,4.6787486E0,4.734801E0,5.728368E0,0E0,3.2447958E0,0E0,3.3533754E0,3.3459778E0,2.296767E0,0E0,0E0,0E0,0E0,0E0,0E0,0E0],"parents":[2147483647,0,0,1,1,2,2,3,3,5,5,7,7,8,8,9,9],"right_children":[2,4,6,8,-1,10,-1,12,14,16,-1,-1,-1,-1,-1,-1,-1],"split_conditions":[1.8777E4,1E0,1E0,7.397E3,-3.3983102E-3,2E0,4.9465764E-3,5.434E3,1E1,6.5384E4,-3.9931806E-3,5.6716264E-3,-1.5099695E-3,7.0683197E-3,1.2717026E-3,5.610589E-4,-3.7431046E-3],"split_indices":[1,21,6,1,0,2,0,1,4,1,0,0,0,0,0,0,0],"split_type":[0,0,0,0,0,0,0,0,0,0,0,0,0,0,0,0,0],"sum_hessian":[8.063274E1,3.3026844E1,4.7605896E1,2.9857811E1,3.169032E0,4.5338085E1,2.2678106E0,1.1363908E1,1.8493902E1,1.9664446E1,2.567364E1,2.026268E0,9.33764E0,1.2989012E1,5.504891E0,1.4309031E1,5.3554163E0],"tree_param":{"num_deleted":"0","num_feature":"47","num_nodes":"17","size_leaf_vector":"1"}},{"base_weights":[2.491536E-2,-4.131387E-1,5.426112E-1,-5.2564275E-1,6.1020907E-2,1.2332785E-2,8.682273E-1,-5.7542443E-1,1.3281014E-4,-4.180827E-1,3.9341724E-3,-3.7693763E-1,5.5059493E-3,1.0652297E0,-1.745628E-3,-2.6748835E-3,-3.9631138E-3,-8.8917214E-4,-3.2366188E-3,-3.0816798E-3,-1.1355089E-4,3.9657624E-3,7.662146E-3],"categories":[],"categories_nodes":[],"categories_segments":[],"categories_sizes":[],"default_left":[0,0,0,0,0,0,0,0,0,0,0,0,0,0,0,0,0,0,0,0,0,0,0],"id":37,"left_children":[1,3,5,7,9,11,13,15,-1,17,-1,19,-1,21,-1,-1,-1,-1,-1,-1,-1,-1,-1],"loss_changes":[1.8692518E1,2.415506E0,6.508869E0,1.0003071E0,2.9705794E0,5.7657356E0,5.6487007E0,7.20911E-2,0E0,1.1172342E-1,0E0,5.512117E-1,0E0,8.852787E-1,0E0,0E0,0E0,0E0,0E0,0E0,0E0,0E0,0E0],"parents":[2147483647,0,0,1,1,2,2,3,3,4,4,5,5,6,6,7,7,9,9,11,11,13,13],"right_children":[2,4,6,8,10,12,14,16,-1,18,-1,20,-1,22,-1,-1,-1,-1,-1,-1,-1,-1,-1],"split_conditions":[3.3385E4,1.2E1,2E0,1E0,1.2128E4,3.2791587E3,6.744464E2,6.679483E2,1.3281014E-4,2E1,3.9341724E-3,2.025E3,5.5059493E-3,2.553595E3,-1.745628E-3,-2.6748835E-3,-3.9631138E-3,-8.8917214E-4,-3.2366188E-3,-3.0816798E-3,-1.1355089E-4,3.9657624E-3,7.662146E-3],"split_indices":[1,4,2,7,1,3,5,5,0,4,0,0,0,3,0,0,0,0,0,0,0,0,0],"split_type":[0,0,0,0,0,0,0,0,0,0,0,0,0,0,0,0,0,0,0,0,0,0,0],"sum_hessian":[8.043771E1,4.3679657E1,3.6758057E1,3.5215485E1,8.464173E0,1.4379066E1,2.237899E1,3.2235477E1,2.9800072E0,4.8520455E0,3.6121283E0,1.0463592E1,3.9154747E0,1.9197395E1,3.1815958E0,1.5248695E1,1.698678E1,2.193949E0,2.6580963E0,7.2580986E0,3.205493E0,8.016474E0,1.1180921E1],"tree_param":{"num_deleted":"0","num_feature":"47","num_nodes":"23","size_leaf_vector":"1"}},{"base_weights":[-3.3191536E-2,-4.4015387E-1,1.03263766E-1,-4.080225E-3,-5.4491352E-2,2.7946243E-1,-3.7669957E-1,-3.515658E-3,2.6493964E-3,4.502374E-1,-3.8966483E-1,-4.037977E-3,2.402472E-1,6.351362E-5,3.78197E-3,1.4334499E-3,-3.8326837E-3,4.7808583E-3,-3.0864598E-3],"categories":[],"categories_nodes":[],"categories_segments":[],"categories_sizes":[],"default_left":[0,0,0,0,0,0,0,0,0,0,0,0,0,0,0,0,0,0,0],"id":38,"left_children":[1,3,5,-1,7,9,11,-1,-1,13,15,-1,17,-1,-1,-1,-1,-1,-1],"loss_changes":[4.534832E0,1.8585708E0,5.293806E0,0E0,2.616813E0,5.36923E0,3.251158E0,0E0,0E0,2.8970904E0,1.6836684E0,0E0,3.022513E0,0E0,0E0,0E0,0E0,0E0,0E0],"parents":[2147483647,0,0,1,1,2,2,4,4,5,5,6,6,9,9,10,10,12,12],"right_children":[2,4,6,-1,8,10,12,-1,-1,14,16,-1,18,-1,-1,-1,-1,-1,-1],"split_conditions":[2.024E3,9E0,3.2791587E3,-4.080225E-3,6.6549E2,7E0,4.4878887E3,-3.515658E-3,2.6493964E-3,2.1195576E3,-8E0,-4.037977E-3,1.9602E4,6.351362E-5,3.78197E-3,1.4334499E-3,-3.8326837E-3,4.7808583E-3,-3.0864598E-3],"split_indices":[0,4,3,0,5,2,3,0,0,3,4,0,1,0,0,0,0,0,0],"split_type":[0,0,0,0,0,0,0,0,0,0,0,0,0,0,0,0,0,0,0],"sum_hessian":[7.984287E1,1.9490139E1,6.0352737E1,1.1545499E1,7.9446406E0,4.445183E1,1.5900906E1,3.7480083E0,4.1966324E0,3.567418E1,8.777654E0,1.0680573E1,5.220332E0,1.0674224E1,2.4999954E1,2.5030046E0,6.2746487E0,2.9723537E0,2.2479787E0],"tree_param":{"num_deleted":"0","num_feature":"47","num_nodes":"19","size_leaf_vector":"1"}},{"base_weights":[5.9337607E-3,4.9644294E-1,-3.5156342E-1,6.138904E-1,-3.3933287E-3,-4.2422482E-1,4.9242075E-3,1.5556286E-1,9.520028E-1,-9.237093E-2,-3.9996486E-3,6.045755E-3,-5.4702995E-4,7.2597004E-3,8.7381026E-4,4.9825804E-4,-3.631562E-3],"categories":[],"categories_nodes":[],"categories_segments":[],"categories_sizes":[],"default_left":[0,0,0,0,0,0,0,0,0,0,0,0,0,0,0,0,0],"id":39,"left_children":[1,3,5,7,-1,9,-1,11,13,15,-1,-1,-1,-1,-1,-1,-1],"loss_changes":[1.5226167E1,4.9123096E0,4.6270633E0,5.0332327E0,0E0,3.796276E0,0E0,3.3272665E0,3.7852936E0,1.9760592E0,0E0,0E0,0E0,0E0,0E0,0E0,0E0],"parents":[2147483647,0,0,1,1,2,2,3,3,5,5,7,7,8,8,9,9],"right_children":[2,4,6,8,-1,10,-1,12,14,16,-1,-1,-1,-1,-1,-1,-1],"split_conditions":[1.8777E4,1E0,1E0,7.47E3,-3.3933287E-3,2E0,4.9242075E-3,5.434E3,1E1,9.5921E4,-3.9996486E-3,6.045755E-3,-5.4702995E-4,7.2597004E-3,8.7381026E-4,4.9825804E-4,-3.631562E-3],"split_indices":[1,21,6,1,0,2,0,1,4,1,0,0,0,0,0,0,0],"split_type":[0,0,0,0,0,0,0,0,0,0,0,0,0,0,0,0,0],"sum_hessian":[8.483491E1,3.560032E1,4.9234592E1,3.243522E1,3.165099E0,4.6961838E1,2.2727575E0,1.43895645E1,1.8045654E1,2.0405365E1,2.6556473E1,2.5386944E0,1.185087E1,1.3292916E1,4.752737E0,1.5829564E1,4.575801E0],"tree_param":{"num_deleted":"0","num_feature":"47","num_nodes":"17","size_leaf_vector":"1"}},{"base_weights":[6.822598E-3,-3.9625925E-1,5.3816557E-1,-4.9963447E-1,1.0303964E-1,-4.818822E-3,8.5058135E-1,-5.634102E-1,-6.4011656E-2,-3.033992E-3,5.1267287E-3,-3.807926E-1,7.2504795E-1,1.0493358E0,-1.7423712E-3,-2.4298537E-3,-3.9915196E-3,1.7803198E-3,-3.0234286E-3,-1.1938068E-3,-3.423611E-3,5.7798983E-3,1.4656913E-3,3.8102071E-3,7.5922315E-3],"categories":[],"categories_nodes":[],"categories_segments":[],"categories_sizes":[],"default_left":[0,0,0,0,0,0,0,0,0,0,0,0,0,0,0,0,0,0,0,0,0,0,0,0,0],"id":40,"left_children":[1,3,5,7,9,11,13,15,17,-1,-1,19,21,23,-1,-1,-1,-1,-1,-1,-1,-1,-1,-1,-1],"loss_changes":[1.7905142E1,2.5056624E0,6.12074E0,1.0630779E0,4.541611E0,4.1627035E0,5.496443E0,2.853632E-1,1.1302711E0,0E0,0E0,2.3171675E-1,3.5573864E-1,9.609432E-1,0E0,0E0,0E0,0E0,0E0,0E0,0E0,0E0,0E0,0E0,0E0],"parents":[2147483647,0,0,1,1,2,2,3,3,4,4,5,5,6,6,7,7,8,8,11,11,12,12,13,13],"right_children":[2,4,6,8,10,12,14,16,18,-1,-1,20,22,24,-1,-1,-1,-1,-1,-1,-1,-1,-1,-1,-1],"split_conditions":[3.3385E4,1.3E1,2E0,1E0,1.2128E4,3.1670715E3,6.744464E2,6.679483E2,3.3403765E3,-3.033992E-3,5.1267287E-3,4.5E1,3.7931418E3,2.553595E3,-1.7423712E-3,-2.4298537E-3,-3.9915196E-3,1.7803198E-3,-3.0234286E-3,-1.1938068E-3,-3.423611E-3,5.7798983E-3,1.4656913E-3,3.8102071E-3,7.5922315E-3],"split_indices":[1,4,2,7,1,3,5,5,3,0,0,4,3,3,0,0,0,0,0,0,0,0,0,0,0],"split_type":[0,0,0,0,0,0,0,0,0,0,0,0,0,0,0,0,0,0,0,0,0,0,0,0,0],"sum_hessian":[8.160494E1,4.654767E1,3.5057274E1,3.85629E1,7.9847655E0,1.3163479E1,2.1893795E1,3.338234E1,5.180562E0,4.5919647E0,3.392801E0,9.003703E0,4.1597757E0,1.8714165E1,3.1796293E0,1.5009265E1,1.8373075E1,3.025221E0,2.1553411E0,5.644701E0,3.3590024E0,2.1102307E0,2.0495453E0,7.7641053E0,1.095006E1],"tree_param":{"num_deleted":"0","num_feature":"47","num_nodes":"25","size_leaf_vector":"1"}},{"base_weights":[9.022005E-3,1.7207198E-1,-3.918714E-1,-2.5873643E-1,3.4248403E-1,-5.6441396E-1,2.0124494E-1,-3.9952346E-3,2.1668425E-1,4.9578908E-1,-3.5022864E-1,-4.151887E-3,1.0436269E-3,4.7630323E-3,-3.1797949E-3,5.501481E-3,-1.2962706E-3,1.195831E-3,4.892117E-3,2.4070512E-3,-3.7860428E-3],"categories":[],"categories_nodes":[],"categories_segments":[],"categories_sizes":[],"default_left":[0,0,0,0,0,0,0,0,0,0,0,0,0,0,0,0,0,0,0,0,0],"id":41,"left_children":[1,3,5,7,9,11,13,-1,15,17,19,-1,-1,-1,-1,-1,-1,-1,-1,-1,-1],"loss_changes":[5.755409E0,4.6809907E0,2.7195296E0,3.6864672E0,4.9794087E0,2.003076E0,3.2266333E0,0E0,2.9847467E0,3.387352E0,2.1068683E0,0E0,0E0,0E0,0E0,0E0,0E0,0E0,0E0,0E0,0E0],"parents":[2147483647,0,0,1,1,2,2,3,3,4,4,5,5,6,6,8,8,9,9,10,10],"right_children":[2,4,6,8,10,12,14,-1,16,18,20,-1,-1,-1,-1,-1,-1,-1,-1,-1,-1],"split_conditions":[3.1322815E3,2.024E3,4.5394727E3,2.4409329E3,7E0,6.6E1,1.9602E4,-3.9952346E-3,2.553595E3,1.9528E4,2.9519E4,-4.151887E-3,1.0436269E-3,4.7630323E-3,-3.1797949E-3,5.501481E-3,-1.2962706E-3,1.195831E-3,4.892117E-3,2.4070512E-3,-3.7860428E-3],"split_indices":[3,0,3,3,2,4,1,0,3,1,1,0,0,0,0,0,0,0,0,0,0],"split_type":[0,0,0,0,0,0,0,0,0,0,0,0,0,0,0,0,0,0,0,0,0],"sum_hessian":[8.6017845E1,6.1553715E1,2.4464134E1,1.7300095E1,4.425362E1,1.8988585E1,5.4755487E0,9.103518E0,8.196577E0,3.646728E1,7.786337E0,1.6244738E1,2.7438471E0,2.9771407E0,2.498408E0,2.70329E0,5.493287E0,1.9759007E1,1.6708275E1,2.0014286E0,5.7849083E0],"tree_param":{"num_deleted":"0","num_feature":"47","num_nodes":"21","size_leaf_vector":"1"}},{"base_weights":[9.266858E-3,5.519933E-1,-3.662064E-1,1.2571271E-1,7.8853536E-1,-1.316354E-1,-6.4998966E-1,6.017225E-3,-1.7284039E-1,1.0743413E0,9.304118E-2,3.561524E-1,-3.3009392E-1,-4.170206E-3,-1.0018221E-3,-2.4277437E-3,2.9112087E-3,1.1889279E-3,7.176972E-3,-1.2044824E-3,3.5331931E-3,-3.058587E-3,4.3872027E-3,-2.757499E-3,3.035664E-3],"categories":[],"categories_nodes":[],"categories_segments":[],"categories_sizes":[],"default_left":[0,0,0,0,0,0,0,0,0,0,0,0,0,0,0,0,0,0,0,0,0,0,0,0,0],"id":42,"left_children":[1,3,5,7,9,11,13,-1,15,17,19,21,23,-1,-1,-1,-1,-1,-1,-1,-1,-1,-1,-1,-1],"loss_changes":[1.7026766E1,3.3454113E0,3.203013E0,3.677435E0,4.229414E0,2.8571794E0,3.6483383E-1,0E0,1.8490404E0,1.4005222E0,1.2017341E0,3.1868744E0,2.4664152E0,0E0,0E0,0E0,0E0,0E0,0E0,0E0,0E0,0E0,0E0,0E0,0E0],"parents":[2147483647,0,0,1,1,2,2,3,3,4,4,5,5,6,6,8,8,9,9,10,10,11,11,12,12],"right_children":[2,4,6,8,10,12,14,-1,16,18,20,22,24,-1,-1,-1,-1,-1,-1,-1,-1,-1,-1,-1,-1],"split_conditions":[1.8777E4,7.397E3,6.5384E4,5.434E3,9E0,2.3968765E3,6.700613E2,6.017225E-3,2.868035E3,1.8138752E3,3.1132725E3,6.5786725E2,1E0,-4.170206E-3,-1.0018221E-3,-2.4277437E-3,2.9112087E-3,1.1889279E-3,7.176972E-3,-1.2044824E-3,3.5331931E-3,-3.058587E-3,4.3872027E-3,-2.757499E-3,3.035664E-3],"split_indices":[1,1,1,1,4,3,5,0,3,3,3,5,10,0,0,0,0,0,0,0,0,0,0,0,0],"split_type":[0,0,0,0,0,0,0,0,0,0,0,0,0,0,0,0,0,0,0,0,0,0,0,0,0],"sum_hessian":[8.156297E1,3.3160755E1,4.8402218E1,1.2380638E1,2.0780117E1,2.7300167E1,2.110205E1,2.5448089E0,9.835829E0,1.4341792E1,6.4383245E0,7.6652603E0,1.9634907E1,1.8900517E1,2.2015343E0,7.558567E0,2.2772622E0,2.07123E0,1.2270562E1,4.4165397E0,2.0217848E0,2.2080598E0,5.4572005E0,1.7391516E1,2.2433908E0],"tree_param":{"num_deleted":"0","num_feature":"47","num_nodes":"25","size_leaf_vector":"1"}},{"base_weights":[-5.6585E-3,-3.8788557E-1,4.5651704E-1,-4.952407E-1,1.5029363E-1,-8.699479E-2,8.395905E-1,-5.616324E-1,-9.426908E-3,-2.897368E-3,5.104539E-3,-4.1065273E-1,7.225054E-1,4.9924165E-1,7.396214E-3,-3.7249925E-3,-1.7993421E-3,2.14885E-3,-2.148923E-3,-1.3486198E-3,-3.645395E-3,5.7382416E-3,1.4760047E-3,4.089582E-3,4.4495508E-5],"categories":[],"categories_nodes":[],"categories_segments":[],"categories_sizes":[],"default_left":[0,0,0,0,0,0,0,0,0,0,0,0,0,0,0,0,0,0,0,0,0,0,0,0,0],"id":43,"left_children":[1,3,5,7,9,11,13,15,17,-1,-1,19,21,23,-1,-1,-1,-1,-1,-1,-1,-1,-1,-1,-1],"loss_changes":[1.5016167E1,2.7620196E0,8.085339E0,1.2530642E0,4.1821995E0,4.7024674E0,2.417307E0,3.4539604E-1,8.5989225E-1,0E0,0E0,3.2647777E-1,3.4036183E-1,1.2352648E0,0E0,0E0,0E0,0E0,0E0,0E0,0E0,0E0,0E0,0E0,0E0],"parents":[2147483647,0,0,1,1,2,2,3,3,4,4,5,5,6,6,7,7,8,8,11,11,12,12,13,13],"right_children":[2,4,6,8,10,12,14,16,18,-1,-1,20,22,24,-1,-1,-1,-1,-1,-1,-1,-1,-1,-1,-1],"split_conditions":[3.3385E4,1.3E1,2E0,1E0,1.2128E4,3.2791587E3,9.2211E4,1E0,3.1522854E3,-2.897368E-3,5.104539E-3,4.5E1,3.9014753E3,7.8042E4,7.396214E-3,-3.7249925E-3,-1.7993421E-3,2.14885E-3,-2.148923E-3,-1.3486198E-3,-3.645395E-3,5.7382416E-3,1.4760047E-3,4.089582E-3,4.4495508E-5],"split_indices":[1,4,2,7,1,3,1,14,3,0,0,4,3,1,0,0,0,0,0,0,0,0,0,0,0],"split_type":[0,0,0,0,0,0,0,0,0,0,0,0,0,0,0,0,0,0,0,0,0,0,0,0,0],"sum_hessian":[8.2999916E1,4.5517174E1,3.7482742E1,3.8013992E1,7.5031843E0,1.5815839E1,2.1666904E1,3.3306263E1,4.707727E0,4.1039743E0,3.3992102E0,1.1650423E1,4.165416E0,1.2829412E1,8.837492E0,2.6043856E1,7.2624083E0,2.278803E0,2.4289238E0,7.094653E0,4.55577E0,2.1185644E0,2.0468512E0,9.077774E0,3.7516382E0],"tree_param":{"num_deleted":"0","num_feature":"47","num_nodes":"25","size_leaf_vector":"1"}},{"base_weights":[9.648895E-3,1.642701E-1,-3.7399027E-1,-4.110256E-2,5.2972806E-1,-5.570925E-1,2.7672663E-1,-1.8635927E-1,5.6725456E-3,-1.4431164E-1,7.2589123E-1,-4.1300654E-3,6.964349E-4,4.742521E-3,-2.9701383E-3,-1.7319187E-3,2.9958263E-3,1.9240675E-3,-3.1983866E-3,5.8950386E-3,-3.1773192E-3],"categories":[],"categories_nodes":[],"categories_segments":[],"categories_sizes":[],"default_left":[0,0,0,0,0,0,0,0,0,0,0,0,0,0,0,0,0,0,0,0,0],"id":44,"left_children":[1,3,5,7,9,11,13,15,-1,17,19,-1,-1,-1,-1,-1,-1,-1,-1,-1,-1],"loss_changes":[5.004894E0,4.5320187E0,3.042864E0,5.8222637E0,2.9729085E0,1.7809415E0,2.7668128E0,2.6115537E0,0E0,1.2056508E0,5.9867945E0,0E0,0E0,0E0,0E0,0E0,0E0,0E0,0E0,0E0,0E0],"parents":[2147483647,0,0,1,1,2,2,3,3,4,4,5,5,6,6,7,7,9,9,10,10],"right_children":[2,4,6,8,10,12,14,16,-1,18,20,-1,-1,-1,-1,-1,-1,-1,-1,-1,-1],"split_conditions":[3.1322815E3,2.713708E3,4.5394727E3,1E0,2E0,6.6E1,1.9602E4,1E0,5.6725456E-3,-8E0,7E0,-4.1300654E-3,6.964349E-4,4.742521E-3,-2.9701383E-3,-1.7319187E-3,2.9958263E-3,1.9240675E-3,-3.1983866E-3,5.8950386E-3,-3.1773192E-3],"split_indices":[3,3,3,22,4,4,1,15,0,4,2,0,0,0,0,0,0,0,0,0,0],"split_type":[0,0,0,0,0,0,0,0,0,0,0,0,0,0,0,0,0,0,0,0,0],"sum_hessian":[8.233719E1,5.9092476E1,2.324471E1,3.8400482E1,2.0691996E1,1.825258E1,4.99213E0,3.417904E1,4.2214437E0,4.7240243E0,1.5967971E1,1.52555485E1,2.9970324E0,2.9826322E0,2.0094976E0,3.0245712E1,3.9333262E0,2.2308283E0,2.493196E0,1.3438517E1,2.5294545E0],"tree_param":{"num_deleted":"0","num_feature":"47","num_nodes":"21","size_leaf_vector":"1"}},{"base_weights":[-1.4492876E-2,2.8700107E-1,-3.9434713E-1,1.9551411E-1,6.6336924E-3,-5.4341596E-1,5.2150327E-1,3.1899598E-1,-4.839503E-1,-6.2211835E-1,-1.785615E-1,5.5558723E-4,4.9076914E-3,4.704639E-3,6.0102536E-4,-1.0046216E-3,-3.5498035E-3,-4.1846302E-3,-1.7345109E-3,4.2231838E-4,-3.0275707E-3],"categories":[],"categories_nodes":[],"categories_segments":[],"categories_sizes":[],"default_left":[0,0,0,0,0,0,0,0,0,0,0,0,0,0,0,0,0,0,0,0,0],"id":45,"left_children":[1,3,5,7,-1,9,11,13,15,17,19,-1,-1,-1,-1,-1,-1,-1,-1,-1,-1],"loss_changes":[9.704446E0,3.3239508E0,5.400328E0,3.8235927E0,0E0,8.2855415E-1,6.562166E-1,3.749287E0,1.437043E-1,4.634676E-1,6.206205E-1,0E0,0E0,0E0,0E0,0E0,0E0,0E0,0E0,0E0,0E0],"parents":[2147483647,0,0,1,1,2,2,3,3,5,5,6,6,7,7,8,8,9,9,10,10],"right_children":[2,4,6,8,-1,10,12,14,16,18,20,-1,-1,-1,-1,-1,-1,-1,-1,-1,-1],"split_conditions":[2E0,1E0,6.78489E2,1E0,6.6336924E-3,1E0,1E0,2.024E3,2.024E3,6.6549E2,6E0,5.5558723E-4,4.9076914E-3,4.704639E-3,6.0102536E-4,-1.0046216E-3,-3.5498035E-3,-4.1846302E-3,-1.7345109E-3,4.2231838E-4,-3.0275707E-3],"split_indices":[2,41,5,16,0,7,6,0,0,5,2,0,0,0,0,0,0,0,0,0,0],"split_type":[0,0,0,0,0,0,0,0,0,0,0,0,0,0,0,0,0,0,0,0,0],"sum_hessian":[8.2749146E1,4.626925E1,3.64799E1,4.2732384E1,3.536865E0,3.1723125E1,4.756776E0,3.6609673E1,6.122709E0,2.551434E1,6.2087865E0,2.4804099E0,2.276366E0,1.0886747E1,2.5722927E1,2.2028353E0,3.9198732E0,1.991589E1,5.59845E0,3.9652061E0,2.2435803E0],"tree_param":{"num_deleted":"0","num_feature":"47","num_nodes":"21","size_leaf_vector":"1"}},{"base_weights":[-2.8836736E-3,-4.0013894E-1,5.045728E-1,-5.0205183E-1,1.0225702E-1,-6.1985005E-2,8.5312766E-1,-5.6478214E-1,-6.327282E-2,-3.023031E-3,5.0803763E-3,-3.752306E-1,4.0846784E-3,1.0463296E0,-1.7437225E-3,-3.7398427E-3,-1.7878405E-3,1.7728077E-3,-3.0125435E-3,-3.0726984E-3,-1.0334801E-4,4.026858E-3,7.5032325E-3],"categories":[],"categories_nodes":[],"categories_segments":[],"categories_sizes":[],"default_left":[0,0,0,0,0,0,0,0,0,0,0,0,0,0,0,0,0,0,0,0,0,0,0],"id":46,"left_children":[1,3,5,7,9,11,13,15,17,-1,-1,19,-1,21,-1,-1,-1,-1,-1,-1,-1,-1,-1],"loss_changes":[1.7383581E1,2.5276084E0,7.5306892E0,1.0756321E0,4.4817796E0,3.828125E0,5.499542E0,3.6392403E-1,1.1206899E0,0E0,0E0,5.520556E-1,0E0,7.1842194E-1,0E0,0E0,0E0,0E0,0E0,0E0,0E0,0E0,0E0],"parents":[2147483647,0,0,1,1,2,2,3,3,4,4,5,5,6,6,7,7,8,8,11,11,13,13],"right_children":[2,4,6,8,10,12,14,16,18,-1,-1,20,-1,22,-1,-1,-1,-1,-1,-1,-1,-1,-1],"split_conditions":[3.3385E4,1.3E1,2E0,1E0,1.2128E4,3.2791587E3,6.744464E2,1E0,3.3403765E3,-3.023031E-3,5.0803763E-3,2.025E3,4.0846784E-3,2.553595E3,-1.7437225E-3,-3.7398427E-3,-1.7878405E-3,1.7728077E-3,-3.0125435E-3,-3.0726984E-3,-1.0334801E-4,4.026858E-3,7.5032325E-3],"split_indices":[1,4,2,7,1,3,5,14,3,0,0,0,0,3,0,0,0,0,0,0,0,0,0],"split_type":[0,0,0,0,0,0,0,0,0,0,0,0,0,0,0,0,0,0,0,0,0,0,0],"sum_hessian":[8.423093E1,4.7364086E1,3.6866837E1,3.9377003E1,7.9870863E0,1.4355264E1,2.2511572E1,3.420036E1,5.176642E0,4.580887E0,3.4061995E0,1.0445085E1,3.910179E0,1.9331303E1,3.1802702E0,2.6952188E1,7.2481713E0,3.027931E0,2.148711E0,7.2446E0,3.2004852E0,8.324153E0,1.100715E1],"tree_param":{"num_deleted":"0","num_feature":"47","num_nodes":"23","size_leaf_vector":"1"}},{"base_weights":[1.6690474E-2,-3.5381007E-1,1.564817E-1,-4.0777307E-3,6.4862445E-2,2.9015818E-1,-4.3976206E-1,3.732211E-3,-2.7817935E-1,-3.4457124E-3,3.6757302E-1,-3.912666E-3,1.0274082E-3,-3.5479288E-3,1.5020712E-3,2.6478593E-3,-3.305511E-3],"categories":[],"categories_nodes":[],"categories_segments":[],"categories_sizes":[],"default_left":[0,0,0,0,0,0,0,0,0,0,0,0,0,0,0,0,0],"id":47,"left_children":[1,3,5,-1,7,9,11,-1,13,-1,15,-1,-1,-1,-1,-1,-1],"loss_changes":[4.332455E0,3.1718137E0,4.961772E0,0E0,2.2654645E0,3.5669365E0,1.6043987E0,0E0,1.3838038E0,0E0,3.4015298E0,0E0,0E0,0E0,0E0,0E0,0E0],"parents":[2147483647,0,0,1,1,2,2,4,4,5,5,6,6,8,8,10,10],"right_children":[2,4,6,-1,8,10,12,-1,14,-1,16,-1,-1,-1,-1,-1,-1],"split_conditions":[2.024E3,1.1E1,7E0,-4.0777307E-3,1E0,6.5369867E2,1E0,3.732211E-3,1E1,-3.4457124E-3,1E0,-3.912666E-3,1.0274082E-3,-3.5479288E-3,1.5020712E-3,2.6478593E-3,-3.305511E-3],"split_indices":[0,4,2,0,2,5,31,0,2,0,41,0,0,0,0,0,0],"split_type":[0,0,0,0,0,0,0,0,0,0,0,0,0,0,0,0,0],"sum_hessian":[8.15809E1,2.192917E1,5.9651733E1,1.1981708E1,9.947464E0,4.9146545E1,1.0505185E1,3.4807289E0,6.466735E0,3.5119944E0,4.5634552E1,7.745859E0,2.7593265E0,3.9861758E0,2.4805593E0,4.2724167E1,2.9103856E0],"tree_param":{"num_deleted":"0","num_feature":"47","num_nodes":"17","size_leaf_vector":"1"}},{"base_weights":[2.5638986E-2,4.9874315E-1,-3.3304614E-1,6.1691755E-1,-3.3926526E-3,-4.0788677E-1,4.8882635E-3,1.5242806E-1,9.6376383E-1,-5.3864747E-2,-3.96563E-3,5.9683938E-3,-5.536879E-4,7.4144956E-3,1.3543422E-4,3.7597597E-3,-1.4152178E-3],"categories":[],"categories_nodes":[],"categories_segments":[],"categories_sizes":[],"default_left":[0,0,0,0,0,0,0,0,0,0,0,0,0,0,0,0,0],"id":48,"left_children":[1,3,5,7,-1,9,-1,11,13,15,-1,-1,-1,-1,-1,-1,-1],"loss_changes":[1.4350406E1,4.9321117E0,4.467654E0,5.2147894E0,0E0,4.0729313E0,0E0,3.2691884E0,4.8014107E0,2.650312E0,0E0,0E0,0E0,0E0,0E0,0E0,0E0],"parents":[2147483647,0,0,1,1,2,2,3,3,5,5,7,7,8,8,9,9],"right_children":[2,4,6,8,-1,10,-1,12,14,16,-1,-1,-1,-1,-1,-1,-1],"split_conditions":[1.8777E4,1E0,1E0,7.47E3,-3.3926526E-3,2E0,4.8882635E-3,5.434E3,1E1,2.024E3,-3.96563E-3,5.9683938E-3,-5.536879E-4,7.4144956E-3,1.3543422E-4,3.7597597E-3,-1.4152178E-3],"split_indices":[1,21,6,1,0,2,0,1,4,0,0,0,0,0,0,0,0],"split_type":[0,0,0,0,0,0,0,0,0,0,0,0,0,0,0,0,0],"sum_hessian":[8.258683E1,3.5444805E1,4.714202E1,3.2280453E1,3.1643517E0,4.4861412E1,2.2806115E0,1.4415277E1,1.7865177E1,1.9205524E1,2.5655886E1,2.555194E0,1.1860083E1,1.3617135E1,4.248041E0,3.5372648E0,1.5668261E1],"tree_param":{"num_deleted":"0","num_feature":"47","num_nodes":"17","size_leaf_vector":"1"}},{"base_weights":[-4.0079817E-2,-2.2052105E-1,8.8597625E-1,-4.4287005E-1,1.5068664E-1,3.9011213E-1,7.120683E-3,-2.8371194E-1,-3.9494936E-3,-1.24470256E-1,8.9937747E-1,-4.853773E-4,5.6546875E-3,-2.5086312E-3,3.5189432E-3,-2.9411942E-3,2.1576248E-3,6.594526E-3,1.9694471E-3],"categories":[],"categories_nodes":[],"categories_segments":[],"categories_sizes":[],"default_left":[0,0,0,0,0,0,0,0,0,0,0,0,0,0,0,0,0,0,0],"id":49,"left_children":[1,3,5,7,9,11,-1,13,-1,15,17,-1,-1,-1,-1,-1,-1,-1,-1],"loss_changes":[1.3962592E1,5.824131E0,1.5707827E0,1.3173618E0,5.648722E0,1.8031291E0,0E0,3.4016566E0,0E0,3.8112597E0,4.7697115E-1,0E0,0E0,0E0,0E0,0E0,0E0,0E0,0E0],"parents":[2147483647,0,0,1,1,2,2,3,3,4,4,5,5,7,7,9,9,10,10],"right_children":[2,4,6,8,10,12,-1,14,-1,16,18,-1,-1,-1,-1,-1,-1,-1,-1],"split_conditions":[9E0,3.3385E4,5.6616E4,6.6969257E2,3.2791587E3,2.9000925E3,7.120683E-3,1E0,-3.9494936E-3,2E0,4.154967E3,-4.853773E-4,5.6546875E-3,-2.5086312E-3,3.5189432E-3,-2.9411942E-3,2.1576248E-3,6.594526E-3,1.9694471E-3],"split_indices":[2,1,1,5,3,3,0,24,0,2,3,0,0,0,0,0,0,0,0],"split_type":[0,0,0,0,0,0,0,0,0,0,0,0,0,0,0,0,0,0,0],"sum_hessian":[8.1389725E1,6.875478E1,1.2634939E1,4.28782E1,2.5876585E1,5.637928E0,6.9970117E0,2.5989822E1,1.6888376E1,1.953199E1,6.3445964E0,3.5036786E0,2.1342494E0,2.2962975E1,3.0268493E0,1.1118823E1,8.413166E0,4.015946E0,2.3286505E0],"tree_param":{"num_deleted":"0","num_feature":"47","num_nodes":"19","size_leaf_vector":"1"}},{"base_weights":[-3.5849423E-3,-4.5266888E-1,1.4607584E-1,-4.064852E-3,-1.1244453E-1,3.4490928E-1,-3.029996E-1,3.7195114E-3,-3.722413E-3,4.8999858E-1,-3.3605003E-1,-5.20723E-1,2.5131989E-3,1.176344E-3,4.8382557E-3,2.387286E-3,-3.7414778E-3,-4.0759705E-3,1.8892479E-3],"categories":[],"categories_nodes":[],"categories_segments":[],"categories_sizes":[],"default_left":[0,0,0,0,0,0,0,0,0,0,0,0,0,0,0,0,0,0,0],"id":50,"left_children":[1,3,5,-1,7,9,11,-1,-1,13,15,17,-1,-1,-1,-1,-1,-1,-1],"loss_changes":[5.7658286E0,1.5637593E0,5.8515306E0,0E0,4.0041785E0,4.6184087E0,3.406135E0,0E0,0E0,3.3355484E0,2.0441334E0,2.3383336E0,0E0,0E0,0E0,0E0,0E0,0E0,0E0],"parents":[2147483647,0,0,1,1,2,2,4,4,5,5,6,6,9,9,10,10,11,11],"right_children":[2,4,6,-1,8,10,12,-1,-1,14,16,18,-1,-1,-1,-1,-1,-1,-1],"split_conditions":[2.024E3,1.1E1,3.1322815E3,-4.064852E-3,1E0,7E0,4.5394727E3,3.7195114E-3,-3.722413E-3,1.9528E4,2.9519E4,6.6E1,2.5131989E-3,1.176344E-3,4.8382557E-3,2.387286E-3,-3.7414778E-3,-4.0759705E-3,1.8892479E-3],"split_indices":[0,4,3,0,2,2,3,0,0,1,1,4,0,0,0,0,0,0,0],"split_type":[0,0,0,0,0,0,0,0,0,0,0,0,0,0,0,0,0,0,0],"sum_hessian":[8.380409E1,2.0441399E1,6.3362698E1,1.1711592E1,8.729806E0,4.407842E1,1.928428E1,3.4849133E0,5.2448926E0,3.6567543E1,7.5108733E0,1.5029767E1,4.2545133E0,1.9795525E1,1.6772018E1,2.0061927E0,5.5046806E0,1.2789246E1,2.2405217E0],"tree_param":{"num_deleted":"0","num_feature":"47","num_nodes":"19","size_leaf_vector":"1"}},{"base_weights":[-4.2695035E-3,-3.2842067E-1,2.7569145E-1,-3.840045E-1,1.5697639E-3,6.5607786E-1,-6.0317308E-2,-4.3764398E-1,7.220139E-4,2.75483E-1,9.246289E-1,6.3091964E-1,-2.6595467E-1,-5.336782E-4,-3.1837486E-3,1.4360945E-3,-1.2429747E-3,-1.538619E-3,4.9012294E-3,6.453214E-3,1.012201E-3,5.174882E-4,5.9307977E-3,-3.1184517E-3,1.3612562E-3],"categories":[],"categories_nodes":[],"categories_segments":[],"categories_sizes":[],"default_left":[0,0,0,0,0,0,0,0,0,0,0,0,0,0,0,0,0,0,0,0,0,0,0,0,0],"id":51,"left_children":[1,3,5,7,-1,9,11,13,15,17,19,21,23,-1,-1,-1,-1,-1,-1,-1,-1,-1,-1,-1,-1],"loss_changes":[7.7139783E0,1.3922296E0,5.8702345E0,7.5150204E-1,0E0,1.9407921E0,3.7410252E0,9.886389E-1,3.200626E-1,3.1787512E0,1.2068119E0,1.0949526E0,2.6291332E0,0E0,0E0,0E0,0E0,0E0,0E0,0E0,0E0,0E0,0E0,0E0,0E0],"parents":[2147483647,0,0,1,1,2,2,3,3,5,5,6,6,7,7,8,8,9,9,10,10,11,11,12,12],"right_children":[2,4,6,8,-1,10,12,14,16,18,20,22,24,-1,-1,-1,-1,-1,-1,-1,-1,-1,-1,-1,-1],"split_conditions":[6.64475E2,1E0,3E0,4.154967E3,1.5697639E-3,-3E0,2.3514883E3,0E0,2.025E3,3.0258467E3,1E0,6.7082935E2,3.1132725E3,-5.336782E-4,-3.1837486E-3,1.4360945E-3,-1.2429747E-3,-1.538619E-3,4.9012294E-3,6.453214E-3,1.012201E-3,5.174882E-4,5.9307977E-3,-3.1184517E-3,1.3612562E-3],"split_indices":[5,45,4,3,0,4,3,4,0,3,28,5,3,0,0,0,0,0,0,0,0,0,0,0,0],"split_type":[0,0,0,0,0,0,0,0,0,0,0,0,0,0,0,0,0,0,0,0,0,0,0,0,0],"sum_hessian":[8.3005104E1,3.8386463E1,4.461864E1,3.5400826E1,2.985639E0,2.0480576E1,2.4138065E1,3.0948385E1,4.4524403E0,9.310873E0,1.1169703E1,5.0602474E0,1.9077818E1,6.9270597E0,2.4021326E1,2.0024757E0,2.4499648E0,4.9619975E0,4.348875E0,8.958508E0,2.2111952E0,2.4972548E0,2.5629926E0,1.2556921E1,6.5208964E0],"tree_param":{"num_deleted":"0","num_feature":"47","num_nodes":"25","size_leaf_vector":"1"}},{"base_weights":[-7.8479E-3,-2.0978779E-1,1.0610703E0,-4.7131816E-1,2.1014106E-1,3.2895766E-3,7.281197E-3,-3.0122066E-1,-3.9877975E-3,-8.477115E-2,9.4607717E-1,-2.5493873E-3,3.1397843E-3,-2.6849639E-3,2.3210628E-3,6.6754096E-3,2.8408812E-3],"categories":[],"categories_nodes":[],"categories_segments":[],"categories_sizes":[],"default_left":[0,0,0,0,0,0,0,0,0,0,0,0,0,0,0,0,0],"id":52,"left_children":[1,3,5,7,9,-1,-1,11,-1,13,15,-1,-1,-1,-1,-1,-1],"loss_changes":[1.8396706E1,7.968089E0,3.9356422E-1,1.2617941E0,6.198454E0,0E0,0E0,2.8206277E0,0E0,3.7728345E0,1.14254475E-1,0E0,0E0,0E0,0E0,0E0,0E0],"parents":[2147483647,0,0,1,1,2,2,3,3,4,4,7,7,9,9,10,10],"right_children":[2,4,6,8,10,-1,-1,12,-1,14,16,-1,-1,-1,-1,-1,-1],"split_conditions":[9E0,3.3385E4,2.553595E3,6.6969257E2,3.2791587E3,3.2895766E-3,7.281197E-3,1E0,-3.9877975E-3,2E0,4.154967E3,-2.5493873E-3,3.1397843E-3,-2.6849639E-3,2.3210628E-3,6.6754096E-3,2.8408812E-3],"split_indices":[2,1,3,5,3,0,0,24,0,2,3,0,0,0,0,0,0],"split_type":[0,0,0,0,0,0,0,0,0,0,0,0,0,0,0,0,0],"sum_hessian":[8.319503E1,7.065133E1,1.2543701E1,4.3461357E1,2.7189974E1,3.927981E0,8.61572E0,2.4479794E1,1.8981564E1,2.0042957E1,7.147017E0,2.170824E1,2.7715528E0,1.1358324E1,8.684632E0,4.2837405E0,2.8632767E0],"tree_param":{"num_deleted":"0","num_feature":"47","num_nodes":"17","size_leaf_vector":"1"}},{"base_weights":[-1.3840673E-2,1.409024E-1,-3.888676E-1,-2.6227748E-1,3.0674928E-1,-5.60491E-1,1.9772619E-1,-3.9731106E-3,1.9097397E-1,3.8363692E-1,-3.3366752E-3,-4.1223373E-3,6.8650575E-4,4.696401E-3,-3.1694742E-3,5.4710093E-3,-1.4063787E-3,1.7257199E-3,6.1289943E-3],"categories":[],"categories_nodes":[],"categories_segments":[],"categories_sizes":[],"default_left":[0,0,0,0,0,0,0,0,0,0,0,0,0,0,0,0,0,0,0],"id":53,"left_children":[1,3,5,7,9,11,13,-1,15,17,-1,-1,-1,-1,-1,-1,-1,-1,-1],"loss_changes":[5.0465426E0,4.2010922E0,2.666998E0,3.4797783E0,3.1407495E0,1.7788382E0,3.1682687E0,0E0,3.1107626E0,2.223794E0,0E0,0E0,0E0,0E0,0E0,0E0,0E0,0E0,0E0],"parents":[2147483647,0,0,1,1,2,2,3,3,4,4,5,5,6,6,8,8,9,9],"right_children":[2,4,6,8,10,12,14,-1,16,18,-1,-1,-1,-1,-1,-1,-1,-1,-1],"split_conditions":[3.1322815E3,2.024E3,4.5394727E3,2.4409329E3,8E1,6.6E1,1.9602E4,-3.9731106E-3,2.553595E3,1E0,-3.3366752E-3,-4.1223373E-3,6.8650575E-4,4.696401E-3,-3.1694742E-3,5.4710093E-3,-1.4063787E-3,1.7257199E-3,6.1289943E-3],"split_indices":[3,0,3,3,4,4,1,0,3,22,0,0,0,0,0,0,0,0,0],"split_type":[0,0,0,0,0,0,0,0,0,0,0,0,0,0,0,0,0,0,0],"sum_hessian":[8.5016E1,6.0625202E1,2.4390797E1,1.750018E1,4.3125023E1,1.8904335E1,5.4864626E0,9.052296E0,8.447884E0,4.0106606E1,3.0184171E0,1.5903889E1,3.0004458E0,2.994903E0,2.4915593E0,2.7106354E0,5.737248E0,3.6120346E1,3.9862585E0],"tree_param":{"num_deleted":"0","num_feature":"47","num_nodes":"19","size_leaf_vector":"1"}},{"base_weights":[1.8760052E-3,4.8997116E-1,-3.579164E-1,6.094306E-1,-3.3852707E-3,-4.332187E-1,4.8593134E-3,1.502112E-1,9.6609074E-1,-1.2930958E-1,-3.9485707E-3,5.910221E-3,-5.577027E-4,5.566061E-4,6.590848E-3,2.3969132E-4,-3.619724E-3],"categories":[],"categories_nodes":[],"categories_segments":[],"categories_sizes":[],"default_left":[0,0,0,0,0,0,0,0,0,0,0,0,0,0,0,0,0],"id":54,"left_children":[1,3,5,7,-1,9,-1,11,13,15,-1,-1,-1,-1,-1,-1,-1],"loss_changes":[1.4797188E1,4.846343E0,4.6165857E0,5.193448E0,0E0,3.07376E0,0E0,3.2244034E0,1.997879E0,1.7008806E0,0E0,0E0,0E0,0E0,0E0,0E0,0E0],"parents":[2147483647,0,0,1,1,2,2,3,3,5,5,7,7,8,8,9,9],"right_children":[2,4,6,8,-1,10,-1,12,14,16,-1,-1,-1,-1,-1,-1,-1],"split_conditions":[1.8777E4,1E0,1E0,7.47E3,-3.3852707E-3,2E0,4.8593134E-3,5.434E3,6.5909033E2,9.5921E4,-3.9485707E-3,5.910221E-3,-5.577027E-4,5.566061E-4,6.590848E-3,2.3969132E-4,-3.619724E-3],"split_indices":[1,21,6,1,0,2,0,1,5,1,0,0,0,0,0,0,0],"split_type":[0,0,0,0,0,0,0,0,0,0,0,0,0,0,0,0,0],"sum_hessian":[8.226163E1,3.4753345E1,4.7508278E1,3.159492E1,3.1584272E0,4.5221344E1,2.2869349E0,1.4432913E1,1.7162006E1,1.9901077E1,2.5320269E1,2.5674288E0,1.1865484E1,2.4829555E0,1.467905E1,1.5339158E1,4.5619183E0],"tree_param":{"num_deleted":"0","num_feature":"47","num_nodes":"17","size_leaf_vector":"1"}},{"base_weights":[-1.109081E-2,-4.1922233E-1,4.7493452E-1,-5.313905E-1,1.0261572E-1,-1.3549973E-1,8.7916267E-1,-6.0495543E-1,-7.7893785E-3,-3.0100085E-3,5.048387E-3,-4.463149E-1,4.018727E-3,1.0346837E0,-1.3863884E-3,-2.827506E-3,-4.1235765E-3,2.1428785E-3,-2.1331906E-3,-3.4429515E-3,-1.0495747E-3,3.967343E-3,7.4040713E-3],"categories":[],"categories_nodes":[],"categories_segments":[],"categories_sizes":[],"default_left":[0,0,0,0,0,0,0,0,0,0,0,0,0,0,0,0,0,0,0,0,0,0,0],"id":55,"left_children":[1,3,5,7,9,11,13,15,17,-1,-1,19,-1,21,-1,-1,-1,-1,-1,-1,-1,-1,-1],"loss_changes":[1.680514E1,2.7491493E0,9.66367E0,1.4610262E0,4.4322944E0,4.372792E0,4.280119E0,4.3161392E-2,8.50424E-1,0E0,0E0,3.267672E-1,0E0,7.2579384E-1,0E0,0E0,0E0,0E0,0E0,0E0,0E0,0E0,0E0],"parents":[2147483647,0,0,1,1,2,2,3,3,4,4,5,5,6,6,7,7,8,8,11,11,13,13],"right_children":[2,4,6,8,10,12,14,16,18,-1,-1,20,-1,22,-1,-1,-1,-1,-1,-1,-1,-1,-1],"split_conditions":[3.3385E4,1.3E1,2E0,1E0,1.2128E4,3.2791587E3,6.744464E2,6.679483E2,3.1522854E3,-3.0100085E-3,5.048387E-3,2.025E3,4.018727E-3,2.553595E3,-1.3863884E-3,-2.827506E-3,-4.1235765E-3,2.1428785E-3,-2.1331906E-3,-3.4429515E-3,-1.0495747E-3,3.967343E-3,7.4040713E-3],"split_indices":[1,4,2,7,1,3,5,5,3,0,0,0,0,3,0,0,0,0,0,0,0,0,0],"split_type":[0,0,0,0,0,0,0,0,0,0,0,0,0,0,0,0,0,0,0,0,0,0,0],"sum_hessian":[8.2715706E1,4.5035423E1,3.7680286E1,3.7052704E1,7.9827185E0,1.5276175E1,2.240411E1,3.2351948E1,4.700759E0,4.5676117E0,3.4151068E0,1.1343657E1,3.9325182E0,1.9711027E1,2.6930833E0,1.4889754E1,1.7462193E1,2.280481E0,2.420278E0,6.9593754E0,4.3842816E0,8.361759E0,1.1349268E1],"tree_param":{"num_deleted":"0","num_feature":"47","num_nodes":"23","size_leaf_vector":"1"}},{"base_weights":[-3.226355E-3,-4.4869143E-1,1.4451914E-1,-4.0553957E-3,-9.046705E-2,3.4738383E-1,-3.071013E-1,-3.5929221E-3,2.6345935E-3,5.0139326E-1,-3.4627804E-1,-5.084856E-1,2.3497653E-1,1.3002723E-3,4.7866846E-3,2.3791492E-3,-3.7577914E-3,-4.0369374E-3,1.420103E-3,4.6784906E-3,-3.0660771E-3],"categories":[],"categories_nodes":[],"categories_segments":[],"categories_sizes":[],"default_left":[0,0,0,0,0,0,0,0,0,0,0,0,0,0,0,0,0,0,0,0,0],"id":56,"left_children":[1,3,5,-1,7,9,11,-1,-1,13,15,17,19,-1,-1,-1,-1,-1,-1,-1,-1],"loss_changes":[5.64358E0,1.6769528E0,6.007646E0,0E0,2.8048975E0,4.9717627E0,2.3568246E0,0E0,0E0,2.9626865E0,2.0686834E0,2.0278995E0,2.9325163E0,0E0,0E0,0E0,0E0,0E0,0E0,0E0,0E0],"parents":[2147483647,0,0,1,1,2,2,4,4,5,5,6,6,9,9,10,10,11,11,12,12],"right_children":[2,4,6,-1,8,10,12,-1,-1,14,16,18,20,-1,-1,-1,-1,-1,-1,-1,-1],"split_conditions":[2.024E3,1.1E1,3.1322815E3,-4.0553957E-3,6.6549E2,7E0,4.5394727E3,-3.5929221E-3,2.6345935E-3,1.9528E4,2.9519E4,6.6E1,1.9602E4,1.3002723E-3,4.7866846E-3,2.3791492E-3,-3.7577914E-3,-4.0369374E-3,1.420103E-3,4.6784906E-3,-3.0660771E-3],"split_indices":[0,4,3,0,5,2,3,0,0,1,1,4,1,0,0,0,0,0,0,0,0],"split_type":[0,0,0,0,0,0,0,0,0,0,0,0,0,0,0,0,0,0,0,0,0],"sum_hessian":[8.37633E1,2.0354836E1,6.340846E1,1.1912436E1,8.442399E0,4.3913593E1,1.9494867E1,4.240747E0,4.201652E0,3.6161957E1,7.751635E0,1.4259405E1,5.2354627E0,1.9328266E1,1.683369E1,2.0082765E0,5.7433586E0,1.1762442E1,2.4969635E0,2.9996567E0,2.235806E0],"tree_param":{"num_deleted":"0","num_feature":"47","num_nodes":"21","size_leaf_vector":"1"}},{"base_weights":[-1.6696622E-3,4.693097E-1,-3.4481838E-1,7.9660183E-1,5.7840414E-2,-4.2737916E-1,4.390848E-1,3.455548E-1,6.6160355E-3,5.541364E-1,-1.6599198E-1,-1.3220985E-1,-3.9224843E-3,1.0383513E-3,3.4483827E-3,-1.2421964E-3,5.170232E-3,4.674956E-3,9.133375E-4,-2.660755E-3,3.530787E-3,4.7826456E-4,-3.7240088E-3],"categories":[],"categories_nodes":[],"categories_segments":[],"categories_sizes":[],"default_left":[0,0,0,0,0,0,0,0,0,0,0,0,0,0,0,0,0,0,0,0,0,0,0],"id":57,"left_children":[1,3,5,7,9,11,13,15,-1,17,19,21,-1,-1,-1,-1,-1,-1,-1,-1,-1,-1,-1],"loss_changes":[1.3923933E1,4.8444805E0,3.413167E0,2.4004593E0,1.9989965E0,2.960164E0,8.969951E-2,2.9169066E0,0E0,3.848133E-1,2.8987076E0,2.2278366E0,0E0,0E0,0E0,0E0,0E0,0E0,0E0,0E0,0E0,0E0,0E0],"parents":[2147483647,0,0,1,1,2,2,3,3,4,4,5,5,6,6,7,7,9,9,10,10,11,11],"right_children":[2,4,6,8,10,12,14,16,-1,18,20,22,-1,-1,-1,-1,-1,-1,-1,-1,-1,-1,-1],"split_conditions":[1.8777E4,3E0,6.8079364E2,2.4643914E3,2.1896394E3,2E0,1E0,7.47E3,6.6160355E-3,1E0,3.4078926E3,9.5921E4,-3.9224843E-3,1.0383513E-3,3.4483827E-3,-1.2421964E-3,5.170232E-3,4.674956E-3,9.133375E-4,-2.660755E-3,3.530787E-3,4.7826456E-4,-3.7240088E-3],"split_indices":[1,4,5,3,3,2,28,1,0,2,3,1,0,0,0,0,0,0,0,0,0,0,0],"split_type":[0,0,0,0,0,0,0,0,0,0,0,0,0,0,0,0,0,0,0,0,0,0,0],"sum_hessian":[8.4153145E1,3.5314938E1,4.8838207E1,1.9148102E1,1.6166836E1,4.459614E1,4.2420654E0,8.601436E0,1.0546666E1,4.566349E0,1.1600487E1,2.0044058E1,2.4552084E1,2.2011049E0,2.0409603E0,4.443328E0,4.158108E0,2.3256445E0,2.2407045E0,8.782684E0,2.8178027E0,1.45627365E1,5.481321E0],"tree_param":{"num_deleted":"0","num_feature":"47","num_nodes":"23","size_leaf_vector":"1"}},{"base_weights":[-1.1991676E-2,-4.0276194E-1,4.826646E-1,-2.158074E-1,-3.9641857E-3,-8.677017E-2,9.0193427E-1,-3.3184186E-1,3.506877E-3,-4.4547582E-1,7.378909E-1,1.0934343E0,3.370904E-1,-3.0169974E-3,1.6933839E-3,-1.6560185E-3,-3.6239144E-3,5.8200103E-3,1.42829E-3,2.383349E-3,7.3989946E-3,-1.080138E-3,3.7610468E-3],"categories":[],"categories_nodes":[],"categories_segments":[],"categories_sizes":[],"default_left":[0,0,0,0,0,0,0,0,0,0,0,0,0,0,0,0,0,0,0,0,0,0,0],"id":58,"left_children":[1,3,5,7,-1,9,11,13,-1,15,17,19,21,-1,-1,-1,-1,-1,-1,-1,-1,-1,-1],"loss_changes":[1.6407265E1,2.1433125E0,9.024602E0,2.8839753E0,0E0,5.299113E0,1.9753475E0,2.8654144E0,0E0,1.6459894E-1,4.036827E-1,1.0411129E0,1.1515267E0,0E0,0E0,0E0,0E0,0E0,0E0,0E0,0E0,0E0,0E0],"parents":[2147483647,0,0,1,1,2,2,3,3,5,5,6,6,7,7,9,9,10,10,11,11,12,12],"right_children":[2,4,6,8,-1,10,12,14,-1,16,18,