{"learner":{"attributes":{"scikit_learn":"{\"_estimator_type\": \"classifier\"}"},"feature_names":[],"feature_types":[],"gradient_booster":{"model":{"cats":{"enc":[],"feature_segments":[],"sorted_idx":[]},"gbtree_model_param":{"num_parallel_tree":"1","num_trees":"3000"},"iteration_indptr":[0,3,6,9,12,15,18,21,24,27,30,33,36,39,42,45,48,51,54,57,60,63,66,69,72,75,78,81,84,87,90,93,96,99,102,105,108,111,114,117,120,123,126,129,132,135,138,141,144,147,150,153,156,159,162,165,168,171,174,177,180,183,186,189,192,195,198,201,204,207,210,213,216,219,222,225,228,231,234,237,240,243,246,249,252,255,258,261,264,267,270,273,276,279,282,285,288,291,294,297,300,303,306,309,312,315,318,321,324,327,330,333,336,339,342,345,348,351,354,357,360,363,366,369,372,375,378,381,384,387,390,393,396,399,402,405,408,411,414,417,420,423,426,429,432,435,438,441,444,447,450,453,456,459,462,465,468,471,474,477,480,483,486,489,492,495,498,501,504,507,510,513,516,519,522,525,528,531,534,537,540,543,546,549,552,555,558,561,564,567,570,573,576,579,582,585,588,591,594,597,600,603,606,609,612,615,618,621,624,627,630,633,636,639,642,645,648,651,654,657,660,663,666,669,672,675,678,681,684,687,690,693,696,699,702,705,708,711,714,717,720,723,726,729,732,735,738,741,744,747,750,753,756,759,762,765,768,771,774,777,780,783,786,789,792,795,798,801,804,807,810,813,816,819,822,825,828,831,834,837,840,843,846,849,852,855,858,861,864,867,870,873,876,879,882,885,888,891,894,897,900,903,906,909,912,915,918,921,924,927,930,933,936,939,942,945,948,951,954,957,960,963,966,969,972,975,978,981,984,987,990,993,996,999,1002,1005,1008,1011,1014,1017,1020,1023,1026,1029,1032,1035,1038,1041,1044,1047,1050,1053,1056,1059,1062,1065,1068,1071,1074,1077,1080,1083,1086,1089,1092,1095,1098,1101,1104,1107,1110,1113,1116,1119,1122,1125,1128,1131,1134,1137,1140,1143,1146,1149,1152,1155,1158,1161,1164,1167,1170,1173,1176,1179,1182,1185,1188,1191,1194,1197,1200,1203,1206,1209,1212,1215,1218,1221,1224,1227,1230,1233,1236,1239,1242,1245,1248,1251,1254,1257,1260,1263,1266,1269,1272,1275,1278,1281,1284,1287,1290,1293,1296,1299,1302,1305,1308,1311,1314,1317,1320,1323,1326,1329,1332,1335,1338,1341,1344,1347,1350,1353,1356,1359,1362,1365,1368,1371,1374,1377,1380,1383,1386,1389,1392,1395,1398,1401,1404,1407,1410,1413,1416,1419,1422,1425,1428,1431,1434,1437,1440,1443,1446,1449,1452,1455,1458,1461,1464,1467,1470,1473,1476,1479,1482,1485,1488,1491,1494,1497,1500,1503,1506,1509,1512,1515,1518,1521,1524,1527,1530,1533,1536,1539,1542,1545,1548,1551,1554,1557,1560,1563,1566,1569,1572,1575,1578,1581,1584,1587,1590,1593,1596,1599,1602,1605,1608,1611,1614,1617,1620,1623,1626,1629,1632,1635,1638,1641,1644,1647,1650,1653,1656,1659,1662,1665,1668,1671,1674,1677,1680,1683,1686,1689,1692,1695,1698,1701,1704,1707,1710,1713,1716,1719,1722,1725,1728,1731,1734,1737,1740,1743,1746,1749,1752,1755,1758,1761,1764,1767,1770,1773,1776,1779,1782,1785,1788,1791,1794,1797,1800,1803,1806,1809,1812,1815,1818,1821,1824,1827,1830,1833,1836,1839,1842,1845,1848,1851,1854,1857,1860,1863,1866,1869,1872,1875,1878,1881,1884,1887,1890,1893,1896,1899,1902,1905,1908,1911,1914,1917,1920,1923,1926,1929,1932,1935,1938,1941,1944,1947,1950,1953,1956,1959,1962,1965,1968,1971,1974,1977,1980,1983,1986,1989,1992,1995,1998,2001,2004,2007,2010,2013,2016,2019,2022,2025,2028,2031,2034,2037,2040,2043,2046,2049,2052,2055,2058,2061,2064,2067,2070,2073,2076,2079,2082,2085,2088,2091,2094,2097,2100,2103,2106,2109,2112,2115,2118,2121,2124,2127,2130,2133,2136,2139,2142,2145,2148,2151,2154,2157,2160,2163,2166,2169,2172,2175,2178,2181,2184,2187,2190,2193,2196,2199,2202,2205,2208,2211,2214,2217,2220,2223,2226,2229,2232,2235,2238,2241,2244,2247,2250,2253,2256,2259,2262,2265,2268,2271,2274,2277,2280,2283,2286,2289,2292,2295,2298,2301,2304,2307,2310,2313,2316,2319,2322,2325,2328,2331,2334,2337,2340,2343,2346,2349,2352,2355,2358,2361,2364,2367,2370,2373,2376,2379,2382,2385,2388,2391,2394,2397,2400,2403,2406,2409,2412,2415,2418,2421,2424,2427,2430,2433,2436,2439,2442,2445,2448,2451,2454,2457,2460,2463,2466,2469,2472,2475,2478,2481,2484,2487,2490,2493,2496,2499,2502,2505,2508,2511,2514,2517,2520,2523,2526,2529,2532,2535,2538,2541,2544,2547,2550,2553,2556,2559,2562,2565,2568,2571,2574,2577,2580,2583,2586,2589,2592,2595,2598,2601,2604,2607,2610,2613,2616,2619,2622,2625,2628,2631,2634,2637,2640,2643,2646,2649,2652,2655,2658,2661,2664,2667,2670,2673,2676,2679,2682,2685,2688,2691,2694,2697,2700,2703,2706,2709,2712,2715,2718,2721,2724,2727,2730,2733,2736,2739,2742,2745,2748,2751,2754,2757,2760,2763,2766,2769,2772,2775,2778,2781,2784,2787,2790,2793,2796,2799,2802,2805,2808,2811,2814,2817,2820,2823,2826,2829,2832,2835,2838,2841,2844,2847,2850,2853,2856,2859,2862,2865,2868,2871,2874,2877,2880,2883,2886,2889,2892,2895,2898,2901,2904,2907,2910,2913,2916,2919,2922,2925,2928,2931,2934,2937,2940,2943,2946,2949,2952,2955,2958,2961,2964,2967,2970,2973,2976,2979,2982,2985,2988,2991,2994,2997,3000],"tree_info":[0,1,2,0,1,2,0,1,2,0,1,2,0,1,2,0,1,2,0,1,2,0,1,2,0,1,2,0,1,2,0,1,2,0,1,2,0,1,2,0,1,2,0,1,2,0,1,2,0,1,2,0,1,2,0,1,2,0,1,2,0,1,2,0,1,2,0,1,2,0,1,2,0,1,2,0,1,2,0,1,2,0,1,2,0,1,2,0,1,2,0,1,2,0,1,2,0,1,2,0,1,2,0,1,2,0,1,2,0,1,2,0,1,2,0,1,2,0,1,2,0,1,2,0,1,2,0,1,2,0,1,2,0,1,2,0,1,2,0,1,2,0,1,2,0,1,2,0,1,2,0,1,2,0,1,2,0,1,2,0,1,2,0,1,2,0,1,2,0,1,2,0,1,2,0,1,2,0,1,2,0,1,2,0,1,2,0,1,2,0,1,2,0,1,2,0,1,2,0,1,2,0,1,2,0,1,2,0,1,2,0,1,2,0,1,2,0,1,2,0,1,2,0,1,2,0,1,2,0,1,2,0,1,2,0,1,2,0,1,2,0,1,2,0,1,2,0,1,2,0,1,2,0,1,2,0,1,2,0,1,2,0,1,2,0,1,2,0,1,2,0,1,2,0,1,2,0,1,2,0,1,2,0,1,2,0,1,2,0,1,2,0,1,2,0,1,2,0,1,2,0,1,2,0,1,2,0,1,2,0,1,2,0,1,2,0,1,2,0,1,2,0,1,2,0,1,2,0,1,2,0,1,2,0,1,2,0,1,2,0,1,2,0,1,2,0,1,2,0,1,2,0,1,2,0,1,2,0,1,2,0,1,2,0,1,2,0,1,2,0,1,2,0,1,2,0,1,2,0,1,2,0,1,2,0,1,2,0,1,2,0,1,2,0,1,2,0,1,2,0,1,2,0,1,2,0,1,2,0,1,2,0,1,2,0,1,2,0,1,2,0,1,2,0,1,2,0,1,2,0,1,2,0,1,2,0,1,2,0,1,2,0,1,2,0,1,2,0,1,2,0,1,2,0,1,2,0,1,2,0,1,2,0,1,2,0,1,2,0,1,2,0,1,2,0,1,2,0,1,2,0,1,2,0,1,2,0,1,2,0,1,2,0,1,2,0,1,2,0,1,2,0,1,2,0,1,2,0,1,2,0,1,2,0,1,2,0,1,2,0,1,2,0,1,2,0,1,2,0,1,2,0,1,2,0,1,2,0,1,2,0,1,2,0,1,2,0,1,2,0,1,2,0,1,2,0,1,2,0,1,2,0,1,2,0,1,2,0,1,2,0,1,2,0,1,2,0,1,2,0,1,2,0,1,2,0,1,2,0,1,2,0,1,2,0,1,2,0,1,2,0,1,2,0,1,2,0,1,2,0,1,2,0,1,2,0,1,2,0,1,2,0,1,2,0,1,2,0,1,2,0,1,2,0,1,2,0,1,2,0,1,2,0,1,2,0,1,2,0,1,2,0,1,2,0,1,2,0,1,2,0,1,2,0,1,2,0,1,2,0,1,2,0,1,2,0,1,2,0,1,2,0,1,2,0,1,2,0,1,2,0,1,2,0,1,2,0,1,2,0,1,2,0,1,2,0,1,2,0,1,2,0,1,2,0,1,2,0,1,2,0,1,2,0,1,2,0,1,2,0,1,2,0,1,2,0,1,2,0,1,2,0,1,2,0,1,2,0,1,2,0,1,2,0,1,2,0,1,2,0,1,2,0,1,2,0,1,2,0,1,2,0,1,2,0,1,2,0,1,2,0,1,2,0,1,2,0,1,2,0,1,2,0,1,2,0,1,2,0,1,2,0,1,2,0,1,2,0,1,2,0,1,2,0,1,2,0,1,2,0,1,2,0,1,2,0,1,2,0,1,2,0,1,2,0,1,2,0,1,2,0,1,2,0,1,2,0,1,2,0,1,2,0,1,2,0,1,2,0,1,2,0,1,2,0,1,2,0,1,2,0,1,2,0,1,2,0,1,2,0,1,2,0,1,2,0,1,2,0,1,2,0,1,2,0,1,2,0,1,2,0,1,2,0,1,2,0,1,2,0,1,2,0,1,2,0,1,2,0,1,2,0,1,2,0,1,2,0,1,2,0,1,2,0,1,2,0,1,2,0,1,2,0,1,2,0,1,2,0,1,2,0,1,2,0,1,2,0,1,2,0,1,2,0,1,2,0,1,2,0,1,2,0,1,2,0,1,2,0,1,2,0,1,2,0,1,2,0,1,2,0,1,2,0,1,2,0,1,2,0,1,2,0,1,2,0,1,2,0,1,2,0,1,2,0,1,2,0,1,2,0,1,2,0,1,2,0,1,2,0,1,2,0,1,2,0,1,2,0,1,2,0,1,2,0,1,2,0,1,2,0,1,2,0,1,2,0,1,2,0,1,2,0,1,2,0,1,2,0,1,2,0,1,2,0,1,2,0,1,2,0,1,2,0,1,2,0,1,2,0,1,2,0,1,2,0,1,2,0,1,2,0,1,2,0,1,2,0,1,2,0,1,2,0,1,2,0,1,2,0,1,2,0,1,2,0,1,2,0,1,2,0,1,2,0,1,2,0,1,2,0,1,2,0,1,2,0,1,2,0,1,2,0,1,2,0,1,2,0,1,2,0,1,2,0,1,2,0,1,2,0,1,2,0,1,2,0,1,2,0,1,2,0,1,2,0,1,2,0,1,2,0,1,2,0,1,2,0,1,2,0,1,2,0,1,2,0,1,2,0,1,2,0,1,2,0,1,2,0,1,2,0,1,2,0,1,2,0,1,2,0,1,2,0,1,2,0,1,2,0,1,2,0,1,2,0,1,2,0,1,2,0,1,2,0,1,2,0,1,2,0,1,2,0,1,2,0,1,2,0,1,2,0,1,2,0,1,2,0,1,2,0,1,2,0,1,2,0,1,2,0,1,2,0,1,2,0,1,2,0,1,2,0,1,2,0,1,2,0,1,2,0,1,2,0,1,2,0,1,2,0,1,2,0,1,2,0,1,2,0,1,2,0,1,2,0,1,2,0,1,2,0,1,2,0,1,2,0,1,2,0,1,2,0,1,2,0,1,2,0,1,2,0,1,2,0,1,2,0,1,2,0,1,2,0,1,2,0,1,2,0,1,2,0,1,2,0,1,2,0,1,2,0,1,2,0,1,2,0,1,2,0,1,2,0,1,2,0,1,2,0,1,2,0,1,2,0,1,2,0,1,2,0,1,2,0,1,2,0,1,2,0,1,2,0,1,2,0,1,2,0,1,2,0,1,2,0,1,2,0,1,2,0,1,2,0,1,2,0,1,2,0,1,2,0,1,2,0,1,2,0,1,2,0,1,2,0,1,2,0,1,2,0,1,2,0,1,2,0,1,2,0,1,2,0,1,2,0,1,2,0,1,2,0,1,2,0,1,2,0,1,2,0,1,2,0,1,2,0,1,2,0,1,2,0,1,2,0,1,2,0,1,2,0,1,2,0,1,2,0,1,2,0,1,2,0,1,2,0,1,2,0,1,2,0,1,2,0,1,2,0,1,2,0,1,2,0,1,2,0,1,2,0,1,2,0,1,2,0,1,2,0,1,2,0,1,2,0,1,2,0,1,2,0,1,2,0,1,2,0,1,2,0,1,2,0,1,2,0,1,2,0,1,2,0,1,2,0,1,2,0,1,2,0,1,2,0,1,2,0,1,2,0,1,2,0,1,2,0,1,2,0,1,2,0,1,2,0,1,2,0,1,2,0,1,2,0,1,2,0,1,2,0,1,2,0,1,2,0,1,2,0,1,2,0,1,2,0,1,2,0,1,2,0,1,2,0,1,2,0,1,2,0,1,2,0,1,2,0,1,2,0,1,2,0,1,2,0,1,2,0,1,2,0,1,2,0,1,2,0,1,2,0,1,2,0,1,2,0,1,2,0,1,2,0,1,2,0,1,2,0,1,2,0,1,2,0,1,2,0,1,2,0,1,2,0,1,2,0,1,2,0,1,2,0,1,2,0,1,2,0,1,2,0,1,2,0,1,2,0,1,2,0,1,2,0,1,2,0,1,2,0,1,2,0,1,2,0,1,2,0,1,2,0,1,2,0,1,2,0,1,2,0,1,2,0,1,2,0,1,2,0,1,2,0,1,2,0,1,2,0,1,2,0,1,2,0,1,2,0,1,2,0,1,2,0,1,2,0,1,2,0,1,2,0,1,2,0,1,2,0,1,2,0,1,2,0,1,2,0,1,2,0,1,2,0,1,2,0,1,2,0,1,2,0,1,2,0,1,2,0,1,2,0,1,2,0,1,2,0,1,2,0,1,2,0,1,2,0,1,2,0,1,2,0,1,2,0,1,2,0,1,2,0,1,2,0,1,2,0,1,2,0,1,2,0,1,2,0,1,2,0,1,2,0,1,2,0,1,2,0,1,2,0,1,2,0,1,2,0,1,2,0,1,2,0,1,2,0,1,2,0,1,2,0,1,2,0,1,2,0,1,2,0,1,2,0,1,2,0,1,2,0,1,2,0,1,2,0,1,2,0,1,2,0,1,2,0,1,2,0,1,2,0,1,2,0,1,2,0,1,2,0,1,2,0,1,2,0,1,2,0,1,2,0,1,2,0,1,2,0,1,2,0,1,2,0,1,2,0,1,2,0,1,2,0,1,2,0,1,2,0,1,2,0,1,2,0,1,2,0,1,2,0,1,2,0,1,2,0,1,2,0,1,2,0,1,2,0,1,2,0,1,2,0,1,2,0,1,2,0,1,2,0,1,2,0,1,2,0,1,2,0,1,2,0,1,2,0,1,2,0,1,2,0,1,2,0,1,2,0,1,2,0,1,2,0,1,2,0,1,2,0,1,2,0,1,2,0,1,2,0,1,2,0,1,2,0,1,2,0,1,2,0,1,2,0,1,2,0,1,2,0,1,2,0,1,2,0,1,2,0,1,2,0,1,2,0,1,2,0,1,2,0,1,2,0,1,2,0,1,2,0,1,2,0,1,2,0,1,2,0,1,2,0,1,2,0,1,2,0,1,2,0,1,2,0,1,2,0,1,2,0,1,2,0,1,2,0,1,2,0,1,2,0,1,2,0,1,2,0,1,2,0,1,2,0,1,2,0,1,2,0,1,2,0,1,2,0,1,2,0,1,2,0,1,2,0,1,2,0,1,2,0,1,2,0,1,2,0,1,2,0,1,2,0,1,2,0,1,2,0,1,2,0,1,2,0,1,2,0,1,2,0,1,2,0,1,2,0,1,2,0,1,2,0,1,2,0,1,2,0,1,2,0,1,2,0,1,2,0,1,2,0,1,2,0,1,2,0,1,2,0,1,2,0,1,2,0,1,2,0,1,2,0,1,2,0,1,2,0,1,2,0,1,2,0,1,2,0,1,2,0,1,2,0,1,2,0,1,2,0,1,2,0,1,2,0,1,2,0,1,2,0,1,2,0,1,2,0,1,2,0,1,2,0,1,2,0,1,2,0,1,2,0,1,2,0,1,2,0,1,2,0,1,2,0,1,2,0,1,2,0,1,2,0,1,2,0,1,2,0,1,2,0,1,2,0,1,2,0,1,2,0,1,2,0,1,2,0,1,2,0,1,2,0,1,2,0,1,2,0,1,2,0,1,2,0,1,2,0,1,2,0,1,2,0,1,2,0,1,2,0,1,2,0,1,2,0,1,2,0,1,2,0,1,2,0,1,2,0,1,2,0,1,2,0,1,2,0,1,2,0,1,2,0,1,2,0,1,2,0,1,2,0,1,2,0,1,2,0,1,2,0,1,2,0,1,2,0,1,2,0,1,2,0,1,2,0,1,2,0,1,2,0,1,2,0,1,2,0,1,2,0,1,2,0,1,2,0,1,2,0,1,2,0,1,2,0,1,2,0,1,2,0,1,2,0,1,2,0,1,2,0,1,2,0,1,2,0,1,2,0,1,2,0,1,2,0,1,2,0,1,2,0,1,2,0,1,2,0,1,2,0,1,2,0,1,2,0,1,2,0,1,2,0,1,2,0,1,2,0,1,2,0,1,2,0,1,2,0,1,2,0,1,2,0,1,2,0,1,2,0,1,2,0,1,2,0,1,2,0,1,2,0,1,2,0,1,2,0,1,2,0,1,2,0,1,2,0,1,2,0,1,2,0,1,2,0,1,2,0,1,2,0,1,2,0,1,2,0,1,2,0,1,2,0,1,2,0,1,2,0,1,2,0,1,2,0,1,2,0,1,2,0,1,2,0,1,2,0,1,2,0,1,2,0,1,2,0,1,2,0,1,2,0,1,2,0,1,2,0,1,2,0,1,2,0,1,2,0,1,2,0,1,2,0,1,2,0,1,2,0,1,2,0,1,2,0,1,2,0,1,2,0,1,2,0,1,2,0,1,2,0,1,2,0,1,2,0,1,2,0,1,2,0,1,2,0,1,2,0,1,2,0,1,2,0,1,2,0,1,2,0,1,2,0,1,2,0,1,2,0,1,2,0,1,2,0,1,2,0,1,2,0,1,2,0,1,2,0,1,2,0,1,2,0,1,2,0,1,2,0,1,2,0,1,2,0,1,2,0,1,2,0,1,2,0,1,2,0,1,2,0,1,2,0,1,2,0,1,2,0,1,2,0,1,2,0,1,2,0,1,2,0,1,2,0,1,2,0,1,2,0,1,2,0,1,2,0,1,2,0,1,2,0,1,2,0,1,2,0,1,2,0,1,2,0,1,2,0,1,2,0,1,2,0,1,2,0,1,2,0,1,2,0,1,2,0,1,2,0,1,2,0,1,2,0,1,2],"trees":[{"base_weights":[-1.293439E-2,5.0000334E-1,-3.6149183E-1,6.2835866E-1,-3.4261819E-3,-4.355116E-1,5.134324E-3,1.2498693E-1,9.609888E-1,-1.2385969E-1,-4.0832288E-3,6.399416E-3,-1.0869957E-3,7.2860927E-3,1.5717478E-3,5.88512E-4,-3.8447285E-3],"categories":[],"categories_nodes":[],"categories_segments":[],"categories_sizes":[],"default_left":[0,0,0,0,0,0,0,0,0,0,0,0,0,0,0,0,0],"id":0,"left_children":[1,3,5,7,-1,9,-1,11,13,15,-1,-1,-1,-1,-1,-1,-1],"loss_changes":[1.5135997E1,5.069068E0,4.912221E0,5.082569E0,0E0,3.5932798E0,0E0,4.088509E0,2.968954E0,2.6351032E0,0E0,0E0,0E0,0E0,0E0,0E0,0E0],"parents":[2147483647,0,0,1,1,2,2,3,3,5,5,7,7,8,8,9,9],"right_children":[2,4,6,8,-1,10,-1,12,14,16,-1,-1,-1,-1,-1,-1,-1],"split_conditions":[1.8777E4,1E0,1E0,7.397E3,-3.4261819E-3,2E0,5.134324E-3,5.434E3,1E1,9.5921E4,-4.0832288E-3,6.399416E-3,-1.0869957E-3,7.2860927E-3,1.5717478E-3,5.88512E-4,-3.8447285E-3],"split_indices":[0,22,7,0,0,1,0,0,3,0,0,0,0,0,0,0,0],"split_type":[0,0,0,0,0,0,0,0,0,0,0,0,0,0,0,0,0],"sum_hessian":[8.264783E1,3.326318E1,4.9384647E1,3.0072529E1,3.190649E0,4.715907E1,2.2255783E0,1.2512709E1,1.755982E1,2.1420103E1,2.5738966E1,2.4607668E0,1.0051942E1,1.2347387E1,5.212434E0,1.5552735E1,5.867368E0],"tree_param":{"num_deleted":"0","num_feature":"48","num_nodes":"17","size_leaf_vector":"1"}},{"base_weights":[-3.6338322E-2,-4.409423E-1,5.010029E-1,-5.3682274E-1,6.65586E-2,-6.676124E-2,9.0366745E-1,-6.018203E-1,-7.087336E-2,-3.0883853E-3,5.1484937E-3,-4.059213E-1,7.670144E-1,1.1262552E0,-1.7768253E-3,-3.9752624E-3,-2.0364583E-3,1.7998002E-3,-3.0911884E-3,-1.1900404E-3,-3.6984226E-3,6.0547055E-3,1.6006301E-3,4.273756E-3,8.163935E-3],"categories":[],"categories_nodes":[],"categories_segments":[],"categories_sizes":[],"default_left":[0,0,0,0,0,0,0,0,0,0,0,0,0,0,0,0,0,0,0,0,0,0,0,0,0],"id":1,"left_children":[1,3,5,7,9,11,13,15,17,-1,-1,19,21,23,-1,-1,-1,-1,-1,-1,-1,-1,-1,-1,-1],"loss_changes":[1.876738E1,2.4295607E0,8.544508E0,1.21385E0,4.4478707E0,4.929115E0,6.1503887E0,3.5316467E-1,1.1781853E0,0E0,0E0,4.1348815E-1,3.445692E-1,8.337536E-1,0E0,0E0,0E0,0E0,0E0,0E0,0E0,0E0,0E0,0E0,0E0],"parents":[2147483647,0,0,1,1,2,2,3,3,4,4,5,5,6,6,7,7,8,8,11,11,12,12,13,13],"right_children":[2,4,6,8,10,12,14,16,18,-1,-1,20,22,24,-1,-1,-1,-1,-1,-1,-1,-1,-1,-1,-1],"split_conditions":[3.3385E4,1.3E1,2E0,1E0,1.2128E4,3.2791587E3,6.7082935E2,1E0,3.3403765E3,-3.0883853E-3,5.1484937E-3,4.5E1,3.8290315E3,2.553595E3,-1.7768253E-3,-3.9752624E-3,-2.0364583E-3,1.7998002E-3,-3.0911884E-3,-1.1900404E-3,-3.6984226E-3,6.0547055E-3,1.6006301E-3,4.273756E-3,8.163935E-3],"split_indices":[0,3,1,8,0,2,4,15,2,0,0,3,2,2,0,0,0,0,0,0,0,0,0,0,0],"split_type":[0,0,0,0,0,0,0,0,0,0,0,0,0,0,0,0,0,0,0,0,0,0,0,0,0],"sum_hessian":[8.430626E1,4.8195614E1,3.611064E1,4.0488483E1,7.7071314E0,1.5329697E1,2.0780945E1,3.527605E1,5.212431E0,4.64533E0,3.0618017E0,1.1261812E1,4.0678844E0,1.7580679E1,3.2002652E0,2.740868E1,7.8673716E0,3.0182483E0,2.1941824E0,6.647877E0,4.613935E0,2.055719E0,2.0121655E0,7.816015E0,9.764665E0],"tree_param":{"num_deleted":"0","num_feature":"48","num_nodes":"25","size_leaf_vector":"1"}},{"base_weights":[3.350031E-2,2.181573E-1,-4.0063062E-1,1.9945154E-2,5.848206E-1,-5.7930046E-1,2.5216928E-1,1.3711876E-1,-3.7817925E-3,7.8913003E-1,-1.2442164E-1,-4.2406977E-3,7.255074E-4,5.0009103E-3,-3.1234869E-3,-5.614302E-4,4.4986815E-3,-3.114256E-3,6.2006507E-3,1.9345379E-3,-3.1415846E-3],"categories":[],"categories_nodes":[],"categories_segments":[],"categories_sizes":[],"default_left":[0,0,0,0,0,0,0,0,0,0,0,0,0,0,0,0,0,0,0,0,0],"id":2,"left_children":[1,3,5,7,9,11,13,15,-1,17,19,-1,-1,-1,-1,-1,-1,-1,-1,-1,-1],"loss_changes":[6.848842E0,4.335994E0,3.1228786E0,3.1238544E0,3.1347823E0,1.901226E0,3.2104928E0,4.9603767E0,0E0,5.7795887E0,1.1588458E0,0E0,0E0,0E0,0E0,0E0,0E0,0E0,0E0,0E0,0E0],"parents":[2147483647,0,0,1,1,2,2,3,3,4,4,5,5,6,6,7,7,9,9,10,10],"right_children":[2,4,6,8,10,12,14,16,-1,18,20,-1,-1,-1,-1,-1,-1,-1,-1,-1,-1],"split_conditions":[3.1322815E3,2.713708E3,4.5394727E3,2.553595E3,7E0,6.6E1,1.9602E4,2.423E3,-3.7817925E-3,0E0,3.9021E4,-4.2406977E-3,7.255074E-4,5.0009103E-3,-3.1234869E-3,-5.614302E-4,4.4986815E-3,-3.114256E-3,6.2006507E-3,1.9345379E-3,-3.1415846E-3],"split_indices":[2,2,2,2,1,3,0,2,0,3,0,0,0,0,0,0,0,0,0,0,0],"split_type":[0,0,0,0,0,0,0,0,0,0,0,0,0,0,0,0,0,0,0,0,0],"sum_hessian":[8.3343735E1,5.8821552E1,2.4522182E1,3.886576E1,1.9955793E1,1.9341145E1,5.1810365E0,3.3600155E1,5.2656026E0,1.5405373E1,4.55042E0,1.6354292E1,2.986854E0,2.911906E0,2.2691307E0,2.502468E1,8.575478E0,2.247354E0,1.3158018E1,2.237736E0,2.312684E0],"tree_param":{"num_deleted":"0","num_feature":"48","num_nodes":"21","size_leaf_vector":"1"}},{"base_weights":[1.7949933E-2,5.477486E-1,-3.583408E-1,6.754989E-1,-3.4207364E-3,-1.12844415E-1,-6.646046E-1,1.683277E-1,1.0669665E0,3.5644986E-2,-3.7989975E-3,-4.254234E-3,-1.8194217E-3,6.3704676E-3,-5.196874E-4,7.836113E-3,6.7913986E-4,-9.873754E-4,1.9406806E-3],"categories":[],"categories_nodes":[],"categories_segments":[],"categories_sizes":[],"default_left":[0,0,0,0,0,0,0,0,0,0,0,0,0,0,0,0,0,0,0],"id":3,"left_children":[1,3,5,7,-1,9,11,13,15,17,-1,-1,-1,-1,-1,-1,-1,-1,-1],"loss_changes":[1.7063856E1,5.4595203E0,3.6900773E0,6.2424946E0,0E0,2.263194E0,1.3947201E-1,3.5718641E0,3.9717827E0,1.4077785E0,0E0,0E0,0E0,0E0,0E0,0E0,0E0,0E0,0E0],"parents":[2147483647,0,0,1,1,2,2,3,3,5,5,6,6,7,7,8,8,9,9],"right_children":[2,4,6,8,-1,10,12,14,16,18,-1,-1,-1,-1,-1,-1,-1,-1,-1],"split_conditions":[1.8777E4,1E0,6.5384E4,7.47E3,-3.4207364E-3,9E0,6.6969257E2,5.434E3,1E1,3.9021E4,-3.7989975E-3,-4.254234E-3,-1.8194217E-3,6.3704676E-3,-5.196874E-4,7.836113E-3,6.7913986E-4,-9.873754E-4,1.9406806E-3],"split_indices":[0,22,0,0,0,1,4,0,3,0,0,0,0,0,0,0,0,0,0],"split_type":[0,0,0,0,0,0,0,0,0,0,0,0,0,0,0,0,0,0,0],"sum_hessian":[8.360932E1,3.4532967E1,4.907636E1,3.1346426E1,3.1865404E0,2.8000242E1,2.1076115E1,1.4278157E1,1.706827E1,2.2508316E1,5.491927E0,1.791158E1,3.1645362E0,2.4672625E0,1.1810894E1,1.3352354E1,3.7159162E0,1.3526734E1,8.981582E0],"tree_param":{"num_deleted":"0","num_feature":"48","num_nodes":"19","size_leaf_vector":"1"}},{"base_weights":[-3.1576205E-2,-4.571746E-1,5.023163E-1,-5.468103E-1,4.4228323E-2,-8.678814E-2,9.185311E-1,-6.0518205E-1,3.7871045E-4,3.3218598E-1,-3.0848593E-3,-4.1858527E-1,7.635875E-1,1.1337894E0,-1.7724013E-3,-2.743679E-3,-4.129305E-3,3.1044646E-3,8.533068E-5,-1.3877453E-3,-3.694031E-3,6.0273563E-3,1.59321E-3,4.1105496E-3,8.178373E-3],"categories":[],"categories_nodes":[],"categories_segments":[],"categories_sizes":[],"default_left":[0,0,0,0,0,0,0,0,0,0,0,0,0,0,0,0,0,0,0,0,0,0,0,0,0],"id":4,"left_children":[1,3,5,7,9,11,13,15,-1,17,-1,19,21,23,-1,-1,-1,-1,-1,-1,-1,-1,-1,-1,-1],"loss_changes":[1.9669514E1,2.187255E0,9.501378E0,1.4944963E0,1.4931458E0,5.066059E0,6.2413063E0,1.4492512E-1,0E0,3.4798348E-1,0E0,3.2812262E-1,3.4240294E-1,1.0624905E0,0E0,0E0,0E0,0E0,0E0,0E0,0E0,0E0,0E0,0E0,0E0],"parents":[2147483647,0,0,1,1,2,2,3,3,4,4,5,5,6,6,7,7,9,9,11,11,12,12,13,13],"right_children":[2,4,6,8,10,12,14,16,-1,18,-1,20,22,24,-1,-1,-1,-1,-1,-1,-1,-1,-1,-1,-1],"split_conditions":[3.3385E4,1E0,2E0,2E1,4.276184E3,3.2791587E3,6.744464E2,6.679483E2,3.7871045E-4,6.684246E2,-3.0848593E-3,4.5E1,3.8290315E3,2.553595E3,-1.7724013E-3,-2.743679E-3,-4.129305E-3,3.1044646E-3,8.533068E-5,-1.3877453E-3,-3.694031E-3,6.0273563E-3,1.59321E-3,4.1105496E-3,8.178373E-3],"split_indices":[0,8,1,3,2,2,4,4,0,4,0,3,2,2,0,0,0,0,0,0,0,0,0,0,0],"split_type":[0,0,0,0,0,0,0,0,0,0,0,0,0,0,0,0,0,0,0,0,0,0,0,0,0],"sum_hessian":[8.455385E1,4.7128517E1,3.742533E1,3.990427E1,7.224244E0,1.5822243E1,2.1603088E1,3.6425995E1,3.478276E0,5.0334997E0,2.1907444E0,1.174671E1,4.0755334E0,1.8405401E1,3.197687E0,1.5436914E1,2.098908E1,2.7842944E0,2.2492054E0,7.1374397E0,4.6092696E0,2.0612617E0,2.0142717E0,7.5729265E0,1.0832475E1],"tree_param":{"num_deleted":"0","num_feature":"48","num_nodes":"25","size_leaf_vector":"1"}},{"base_weights":[-4.327287E-2,1.2303744E-1,-4.0614942E-1,6.215572E-2,6.336328E-3,-5.7995653E-1,2.1136133E-1,-4.3815044E-3,6.3339807E-3,-4.2396104E-3,1.0802434E-3,4.9786023E-3,-3.2185446E-3,4.9466807E-3,-4.2359802E-4],"categories":[],"categories_nodes":[],"categories_segments":[],"categories_sizes":[],"default_left":[0,0,0,0,0,0,0,0,0,0,0,0,0,0,0],"id":5,"left_children":[1,3,5,7,-1,9,11,13,-1,-1,-1,-1,-1,-1,-1],"loss_changes":[4.9958177E0,3.1701484E0,2.911831E0,3.609844E0,0E0,2.1048803E0,3.4236522E0,2.9181945E0,0E0,0E0,0E0,0E0,0E0,0E0,0E0],"parents":[2147483647,0,0,1,1,2,2,3,3,5,5,6,6,7,7],"right_children":[2,4,6,8,-1,10,12,14,-1,-1,-1,-1,-1,-1,-1],"split_conditions":[3.1132725E3,1E0,4.5394727E3,6.913481E2,6.336328E-3,6.6E1,1.9602E4,1.1265914E3,6.3339807E-3,-4.2396104E-3,1.0802434E-3,4.9786023E-3,-3.2185446E-3,4.9466807E-3,-4.2359802E-4],"split_indices":[2,22,2,4,0,3,0,2,0,0,0,0,0,0,0],"split_type":[0,0,0,0,0,0,0,0,0,0,0,0,0,0,0],"sum_hessian":[8.095255E1,5.5964394E1,2.498816E1,5.353755E1,2.4268422E0,1.9547153E1,5.4410057E0,5.1110188E1,2.427363E0,1.6815321E1,2.731832E0,2.91813E0,2.522876E0,2.9341428E0,4.8176044E1],"tree_param":{"num_deleted":"0","num_feature":"48","num_nodes":"15","size_leaf_vector":"1"}},{"base_weights":[-8.540357E-3,5.573106E-1,-3.9962173E-1,1.2293763E-1,8.0059034E-1,-1.4957592E-1,-4.278861E-3,6.339197E-3,-1.8157509E-1,3.475225E-1,1.076178E0,1.2389886E-1,-4.0658465E-1,-2.4802191E-3,3.0137529E-3,3.7045057E-3,-1.5170854E-3,7.689929E-3,4.1174553E-3,-3.1837365E-3,1.7691144E-3,-3.5938353E-3,2.1238779E-3],"categories":[],"categories_nodes":[],"categories_segments":[],"categories_sizes":[],"default_left":[0,0,0,0,0,0,0,0,0,0,0,0,0,0,0,0,0,0,0,0,0,0,0],"id":6,"left_children":[1,3,5,7,9,11,-1,-1,13,15,17,19,21,-1,-1,-1,-1,-1,-1,-1,-1,-1,-1],"loss_changes":[1.862122E1,3.536316E0,3.7930741E0,4.038193E0,2.356205E0,2.0843866E0,0E0,0E0,1.9600906E0,1.7354876E0,1.7161179E-1,1.8110099E0,2.4291668E0,0E0,0E0,0E0,0E0,0E0,0E0,0E0,0E0,0E0,0E0],"parents":[2147483647,0,0,1,1,2,2,3,3,4,4,5,5,8,8,9,9,10,10,11,11,12,12],"right_children":[2,4,6,8,10,12,-1,-1,14,16,18,20,22,-1,-1,-1,-1,-1,-1,-1,-1,-1,-1],"split_conditions":[1.8777E4,7.397E3,6.5384E4,5.434E3,6.673146E2,2E0,-4.278861E-3,6.339197E-3,2.868035E3,3E0,2.9310605E3,1.1265914E3,6.744464E2,-2.4802191E-3,3.0137529E-3,3.7045057E-3,-1.5170854E-3,7.689929E-3,4.1174553E-3,-3.1837365E-3,1.7691144E-3,-3.5938353E-3,2.1238779E-3],"split_indices":[0,0,0,0,4,1,0,0,2,1,2,2,4,0,0,0,0,0,0,0,0,0,0],"split_type":[0,0,0,0,0,0,0,0,0,0,0,0,0,0,0,0,0,0,0,0,0,0,0],"sum_hessian":[8.214064E1,3.339572E1,4.874492E1,1.2529606E1,2.0866117E1,2.7939314E1,2.0805607E1,2.4742625E0,1.0055344E1,8.747005E0,1.2119112E1,1.3786964E1,1.41523485E1,7.8053007E0,2.2500424E0,6.01471E0,2.7322958E0,6.4391527E0,5.6799593E0,2.4195294E0,1.1367435E1,1.1464754E1,2.6875944E0],"tree_param":{"num_deleted":"0","num_feature":"48","num_nodes":"23","size_leaf_vector":"1"}},{"base_weights":[2.1131389E-2,-3.9589393E-1,5.400298E-1,-5.029262E-1,1.0740406E-1,-3.5667986E-2,9.1301227E-1,-5.6859577E-1,-7.0340954E-2,-3.0797783E-3,5.3458256E-3,-3.83447E-1,7.605312E-1,1.1266767E0,-1.7708541E-3,-3.775265E-3,-1.8766288E-3,1.7884856E-3,-3.0791317E-3,-1.384873E-3,-3.4712723E-3,6.0059633E-3,1.5844438E-3,4.2287777E-3,8.106242E-3],"categories":[],"categories_nodes":[],"categories_segments":[],"categories_sizes":[],"default_left":[0,0,0,0,0,0,0,0,0,0,0,0,0,0,0,0,0,0,0,0,0,0,0,0,0],"id":7,"left_children":[1,3,5,7,9,11,13,15,17,-1,-1,19,21,23,-1,-1,-1,-1,-1,-1,-1,-1,-1,-1,-1],"loss_changes":[1.8108192E1,2.5548553E0,8.035228E0,1.052536E0,4.8177266E0,4.61549E0,6.1804657E0,3.1878567E-1,1.1661688E0,0E0,0E0,2.098993E-1,3.4238958E-1,8.8951874E-1,0E0,0E0,0E0,0E0,0E0,0E0,0E0,0E0,0E0,0E0,0E0],"parents":[2147483647,0,0,1,1,2,2,3,3,4,4,5,5,6,6,7,7,8,8,11,11,12,12,13,13],"right_children":[2,4,6,8,10,12,14,16,18,-1,-1,20,22,24,-1,-1,-1,-1,-1,-1,-1,-1,-1,-1,-1],"split_conditions":[3.3385E4,1.3E1,2E0,1E0,1.2128E4,3.2791587E3,6.744464E2,1E0,3.3403765E3,-3.0797783E-3,5.3458256E-3,4.5E1,3.9014753E3,2.553595E3,-1.7708541E-3,-3.775265E-3,-1.8766288E-3,1.7884856E-3,-3.0791317E-3,-1.384873E-3,-3.4712723E-3,6.0059633E-3,1.5844438E-3,4.2287777E-3,8.106242E-3],"split_indices":[0,3,1,8,0,2,4,15,2,0,0,3,2,2,0,0,0,0,0,0,0,0,0,0,0],"split_type":[0,0,0,0,0,0,0,0,0,0,0,0,0,0,0,0,0,0,0,0,0,0,0,0,0],"sum_hessian":[8.169368E1,4.5424347E1,3.626933E1,3.745899E1,7.965359E0,1.4615185E1,2.1654144E1,3.224895E1,5.210037E0,4.637053E0,3.3283062E0,1.053285E1,4.082335E0,1.8457363E1,3.19678E0,2.4891588E1,7.3573647E0,3.0224473E0,2.1875896E0,7.134356E0,3.398494E0,2.0655818E0,2.0167532E0,7.8458295E0,1.0611534E1],"tree_param":{"num_deleted":"0","num_feature":"48","num_nodes":"25","size_leaf_vector":"1"}},{"base_weights":[-4.1232716E-2,1.0378398E-1,-4.5764628E-1,1.7733477E-1,-3.73013E-3,-4.206987E-3,2.5017995E-1,9.1051474E-2,6.412657E-3,4.9572303E-3,-3.1140854E-3,-2.72773E-3,1.4534164E-3],"categories":[],"categories_nodes":[],"categories_segments":[],"categories_sizes":[],"default_left":[0,0,0,0,0,0,0,0,0,0,0,0,0],"id":8,"left_children":[1,3,5,7,-1,-1,9,11,-1,-1,-1,-1,-1],"loss_changes":[4.982757E0,3.3882213E0,3.8459926E0,4.2527413E0,0E0,0E0,3.170536E0,4.4542475E0,0E0,0E0,0E0,0E0,0E0],"parents":[2147483647,0,0,1,1,2,2,3,3,6,6,7,7],"right_children":[2,4,6,8,-1,-1,10,12,-1,-1,-1,-1,-1],"split_conditions":[3.2791587E3,1.41192E5,4.5394727E3,1.32774E5,-3.73013E-3,-4.206987E-3,1.9602E4,6.6140625E2,6.412657E-3,4.9572303E-3,-3.1140854E-3,-2.72773E-3,1.4534164E-3],"split_indices":[2,0,2,0,0,0,0,4,0,0,0,0,0],"split_type":[0,0,0,0,0,0,0,0,0,0,0,0,0],"sum_hessian":[8.072731E1,6.0432396E1,2.0294912E1,5.555555E1,4.876847E0,1.510697E1,5.1879425E0,5.16577E1,3.897849E0,2.9240766E0,2.263866E0,1.07718E1,4.0885902E1],"tree_param":{"num_deleted":"0","num_feature":"48","num_nodes":"13","size_leaf_vector":"1"}},{"base_weights":[9.137906E-3,-3.4362656E-1,3.236569E-1,-3.048649E-2,-6.099226E-1,7.3631114E-1,-4.6171725E-2,1.491139E-1,-4.4580662E-1,-4.2469925E-3,9.394178E-4,3.28092E-1,1.00376E0,6.7783827E-1,-2.6182112E-1,-3.3536192E-3,2.2779768E-3,-1.0278772E-3,-3.3418282E-3,-1.5063663E-3,5.7201325E-3,6.9873105E-3,1.060648E-3,6.241365E-4,6.3248705E-3,-3.1937885E-3,1.8556652E-3],"categories":[],"categories_nodes":[],"categories_segments":[],"categories_sizes":[],"default_left":[0,0,0,0,0,0,0,0,0,0,0,0,0,0,0,0,0,0,0,0,0,0,0,0,0,0,0],"id":9,"left_children":[1,3,5,7,9,11,13,15,17,-1,-1,19,21,23,25,-1,-1,-1,-1,-1,-1,-1,-1,-1,-1,-1,-1],"loss_changes":[9.444541E0,3.3281684E0,6.8993998E0,1.5208418E0,1.7346258E0,1.9984589E0,4.028499E0,2.5564842E0,9.1842055E-2,0E0,0E0,3.8334458E0,1.4424601E0,1.1728046E0,3.2116728E0,0E0,0E0,0E0,0E0,0E0,0E0,0E0,0E0,0E0,0E0,0E0,0E0],"parents":[2147483647,0,0,1,1,2,2,3,3,4,4,5,5,6,6,7,7,8,8,11,11,12,12,13,13,14,14],"right_children":[2,4,6,8,10,12,14,16,18,-1,-1,20,22,24,26,-1,-1,-1,-1,-1,-1,-1,-1,-1,-1,-1,-1],"split_conditions":[6.64475E2,2E0,3E0,2.8E1,1E0,-3E0,2.3514883E3,1.268289E3,6.5E1,-4.2469925E-3,9.394178E-4,3.078052E3,1E0,6.7082935E2,3.1132725E3,-3.3536192E-3,2.2779768E-3,-1.0278772E-3,-3.3418282E-3,-1.5063663E-3,5.7201325E-3,6.9873105E-3,1.060648E-3,6.241365E-4,6.3248705E-3,-3.1937885E-3,1.8556652E-3],"split_indices":[4,1,3,3,8,3,2,2,3,0,0,2,29,4,2,0,0,0,0,0,0,0,0,0,0,0,0],"split_type":[0,0,0,0,0,0,0,0,0,0,0,0,0,0,0,0,0,0,0,0,0,0,0,0,0,0,0],"sum_hessian":[8.312103E1,3.9134846E1,4.398619E1,1.8497702E1,2.0637146E1,2.0321043E1,2.3665146E1,1.3360901E1,5.1368003E0,1.8367468E1,2.269677E0,8.925064E0,1.1395979E1,4.939221E0,1.8725925E1,2.931979E0,1.0428922E1,2.2131205E0,2.92368E0,4.944069E0,3.980995E0,9.199182E0,2.1967976E0,2.4617796E0,2.4774415E0,1.2753638E1,5.972287E0],"tree_param":{"num_deleted":"0","num_feature":"48","num_nodes":"27","size_leaf_vector":"1"}},{"base_weights":[-1.0456946E-2,-4.2106038E-1,4.9950638E-1,-5.193975E-1,6.613045E-2,-9.190049E-2,9.007178E-1,-5.868542E-1,-7.005986E-2,-3.073452E-3,5.090892E-3,-4.4485626E-1,7.5715345E-1,1.1143904E0,-1.7678402E-3,-3.8999058E-3,-2.017111E-3,1.7830087E-3,-3.0731081E-3,-3.2237615E-3,-7.319341E-4,5.980652E-3,1.5759483E-3,4.202749E-3,8.031904E-3],"categories":[],"categories_nodes":[],"categories_segments":[],"categories_sizes":[],"default_left":[0,0,0,0,0,0,0,0,0,0,0,0,0,0,0,0,0,0,0,0,0,0,0,0,0],"id":10,"left_children":[1,3,5,7,9,11,13,15,17,-1,-1,19,21,23,-1,-1,-1,-1,-1,-1,-1,-1,-1,-1,-1],"loss_changes":[1.7610153E1,2.2657251E0,8.98579E0,1.1369524E0,4.375463E0,5.1536546E0,6.061886E0,3.1410503E-1,1.1602589E0,0E0,0E0,2.9210305E-1,3.4129286E-1,8.4955406E-1,0E0,0E0,0E0,0E0,0E0,0E0,0E0,0E0,0E0,0E0,0E0],"parents":[2147483647,0,0,1,1,2,2,3,3,4,4,5,5,6,6,7,7,8,8,11,11,12,12,13,13],"right_children":[2,4,6,8,10,12,14,16,18,-1,-1,20,22,24,-1,-1,-1,-1,-1,-1,-1,-1,-1,-1,-1],"split_conditions":[3.3385E4,1.3E1,2E0,1E0,1.2128E4,3.2791587E3,6.744464E2,1E0,3.3403765E3,-3.073452E-3,5.090892E-3,6.626265E2,3.9014753E3,2.553595E3,-1.7678402E-3,-3.8999058E-3,-2.017111E-3,1.7830087E-3,-3.0731081E-3,-3.2237615E-3,-7.319341E-4,5.980652E-3,1.5759483E-3,4.202749E-3,8.031904E-3],"split_indices":[0,3,1,8,0,2,4,15,2,0,0,4,2,2,0,0,0,0,0,0,0,0,0,0,0],"split_type":[0,0,0,0,0,0,0,0,0,0,0,0,0,0,0,0,0,0,0,0,0,0,0,0,0],"sum_hessian":[8.209665E1,4.5575382E1,3.6521263E1,3.7866173E1,7.709209E0,1.5073326E1,2.1447939E1,3.2657436E1,5.208736E0,4.6309323E0,3.0782766E0,1.0983493E1,4.0898337E0,1.8252928E1,3.1950111E0,2.48149E1,7.842537E0,3.024476E0,2.1842597E0,8.022508E0,2.960985E0,2.070683E0,2.0191507E0,7.8630257E0,1.0389901E1],"tree_param":{"num_deleted":"0","num_feature":"48","num_nodes":"25","size_leaf_vector":"1"}},{"base_weights":[3.135169E-2,2.1251085E-1,-3.977654E-1,1.9339163E-2,5.652226E-1,-5.7361E-1,2.0956765E-1,-1.2410393E-1,6.4177043E-3,-1.13381386E-1,7.5230306E-1,-4.214238E-3,7.139638E-4,4.935677E-3,-3.2097963E-3,2.7620308E-3,-1.590602E-3,2.0274674E-3,-3.1186326E-3,6.1356053E-3,-3.2271242E-3],"categories":[],"categories_nodes":[],"categories_segments":[],"categories_sizes":[],"default_left":[0,0,0,0,0,0,0,0,0,0,0,0,0,0,0,0,0,0,0,0,0],"id":11,"left_children":[1,3,5,7,9,11,13,15,-1,17,19,-1,-1,-1,-1,-1,-1,-1,-1,-1,-1],"loss_changes":[6.6592216E0,4.0853157E0,2.8385987E0,6.1410375E0,2.7817159E0,1.8677893E0,3.3829296E0,3.0873404E0,0E0,1.1768259E0,6.40178E0,0E0,0E0,0E0,0E0,0E0,0E0,0E0,0E0,0E0,0E0],"parents":[2147483647,0,0,1,1,2,2,3,3,4,4,5,5,6,6,7,7,9,9,10,10],"right_children":[2,4,6,8,10,12,14,16,-1,18,20,-1,-1,-1,-1,-1,-1,-1,-1,-1,-1],"split_conditions":[3.1322815E3,2.713708E3,4.5394727E3,1E0,1E0,4.5E1,1.9602E4,6.677E3,6.4177043E-3,6.603699E2,7E0,-4.214238E-3,7.139638E-4,4.935677E-3,-3.2097963E-3,2.7620308E-3,-1.590602E-3,2.0274674E-3,-3.1186326E-3,6.1356053E-3,-3.2271242E-3],"split_indices":[2,2,2,23,3,3,0,0,0,4,1,0,0,0,0,0,0,0,0,0,0],"split_type":[0,0,0,0,0,0,0,0,0,0,0,0,0,0,0,0,0,0,0,0,0],"sum_hessian":[8.3574486E1,5.9120514E1,2.445397E1,3.8881104E1,2.0239408E1,1.900645E1,5.4475207E0,3.498484E1,3.8962626E0,4.459012E0,1.5780397E1,1.6014978E1,2.9914713E0,2.930057E0,2.5174634E0,6.359453E0,2.8625387E1,2.1926281E0,2.2663836E0,1.321842E1,2.5619774E0],"tree_param":{"num_deleted":"0","num_feature":"48","num_nodes":"21","size_leaf_vector":"1"}},{"base_weights":[-1.3219466E-2,5.212992E-1,-3.9993477E-1,6.439427E-1,-3.4202235E-3,-1.7874826E-1,-6.6259176E-1,1.2136212E-1,1.0136784E0,3.591049E-1,-3.9345565E-1,-4.247097E-3,-1.0238714E-3,6.284884E-3,-9.0298755E-4,7.707813E-3,9.169937E-4,-5.517216E-4,6.356388E-3,-3.3690585E-3,7.620323E-4],"categories":[],"categories_nodes":[],"categories_segments":[],"categories_sizes":[],"default_left":[0,0,0,0,0,0,0,0,0,0,0,0,0,0,0,0,0,0,0,0,0],"id":12,"left_children":[1,3,5,7,-1,9,11,13,15,17,19,-1,-1,-1,-1,-1,-1,-1,-1,-1,-1],"loss_changes":[1.7813034E1,5.2103252E0,2.7852921E0,6.2530003E0,0E0,3.4327457E0,3.7969685E-1,3.8862872E0,4.2797546E0,2.8311539E0,1.8947592E0,0E0,0E0,0E0,0E0,0E0,0E0,0E0,0E0,0E0,0E0],"parents":[2147483647,0,0,1,1,2,2,3,3,5,5,6,6,7,7,8,8,9,9,10,10],"right_children":[2,4,6,8,-1,10,12,14,16,18,20,-1,-1,-1,-1,-1,-1,-1,-1,-1,-1],"split_conditions":[1.8777E4,1E0,6.5384E4,7.47E3,-3.4202235E-3,2.3968765E3,6.700613E2,5.434E3,1E1,6.626265E2,3.984059E3,-4.247097E-3,-1.0238714E-3,6.284884E-3,-9.0298755E-4,7.707813E-3,9.169937E-4,-5.517216E-4,6.356388E-3,-3.3690585E-3,7.620323E-4],"split_indices":[0,22,0,0,0,2,4,0,3,4,2,0,0,0,0,0,0,0,0,0,0],"split_type":[0,0,0,0,0,0,0,0,0,0,0,0,0,0,0,0,0,0,0,0,0],"sum_hessian":[8.416686E1,3.518545E1,4.8981415E1,3.199934E1,3.1861098E0,2.750211E1,2.1479307E1,1.3809449E1,1.8189892E1,7.6545453E0,1.9847563E1,1.9267845E1,2.211462E0,2.4863691E0,1.132308E1,1.3460739E1,4.7291512E0,5.1841373E0,2.470408E0,1.4943513E1,4.90405E0],"tree_param":{"num_deleted":"0","num_feature":"48","num_nodes":"21","size_leaf_vector":"1"}},{"base_weights":[-3.511327E-3,-4.182469E-1,4.943261E-1,-5.236068E-1,1.9579531E-1,-8.6446986E-2,9.0179104E-1,-5.7457423E-1,-1.3705501E-1,-2.6865327E-3,5.068918E-3,-4.1639417E-1,7.539965E-1,5.4575664E-1,7.8779515E-3,-3.7896538E-3,-2.011268E-3,1.2885488E-3,-3.0652331E-3,-1.3771238E-3,-3.6803728E-3,5.953207E-3,1.5707519E-3,4.422406E-3,1.0616573E-4],"categories":[],"categories_nodes":[],"categories_segments":[],"categories_sizes":[],"default_left":[0,0,0,0,0,0,0,0,0,0,0,0,0,0,0,0,0,0,0,0,0,0,0,0,0],"id":13,"left_children":[1,3,5,7,9,11,13,15,17,-1,-1,19,21,23,-1,-1,-1,-1,-1,-1,-1,-1,-1,-1,-1],"loss_changes":[1.7523525E1,3.0976305E0,9.206456E0,7.0512867E-1,3.5142329E0,4.977468E0,2.6151276E0,2.6390457E-1,8.91982E-1,0E0,0E0,3.275144E-1,3.3782744E-1,1.3920145E0,0E0,0E0,0E0,0E0,0E0,0E0,0E0,0E0,0E0,0E0,0E0],"parents":[2147483647,0,0,1,1,2,2,3,3,4,4,5,5,6,6,7,7,8,8,11,11,12,12,13,13],"right_children":[2,4,6,8,10,12,14,16,18,-1,-1,20,22,24,-1,-1,-1,-1,-1,-1,-1,-1,-1,-1,-1],"split_conditions":[3.3385E4,1.3E1,2E0,1E0,1.1262E4,3.2791587E3,9.2211E4,1E0,3.3403765E3,-2.6865327E-3,5.068918E-3,4.5E1,3.9014753E3,7.8042E4,7.8779515E-3,-3.7896538E-3,-2.011268E-3,1.2885488E-3,-3.0652331E-3,-1.3771238E-3,-3.6803728E-3,5.953207E-3,1.5707519E-3,4.422406E-3,1.0616573E-4],"split_indices":[0,3,1,8,0,2,0,15,2,0,0,3,2,0,0,0,0,0,0,0,0,0,0,0,0],"split_type":[0,0,0,0,0,0,0,0,0,0,0,0,0,0,0,0,0,0,0,0,0,0,0,0,0],"sum_hessian":[8.2870285E1,4.5295574E1,3.7574707E1,3.8787533E1,6.508043E0,1.5817438E1,2.175727E1,3.383935E1,4.9481826E0,3.4235125E0,3.0845304E0,1.1720627E1,4.0968113E0,1.290812E1,8.84915E0,2.6004385E1,7.834965E0,2.7683167E0,2.1798658E0,7.1260214E0,4.594605E0,2.0761957E0,2.0206156E0,9.18478E0,3.72334E0],"tree_param":{"num_deleted":"0","num_feature":"48","num_nodes":"25","size_leaf_vector":"1"}},{"base_weights":[-2.5842465E-2,-4.02132E-3,6.300227E-2,1.3013883E-2,6.2557906E-3,-3.799389E-2,5.525575E-3,-5.446681E-4,4.8906007E-3],"categories":[],"categories_nodes":[],"categories_segments":[],"categories_sizes":[],"default_left":[0,0,0,0,0,0,0,0,0],"id":14,"left_children":[1,-1,3,5,-1,7,-1,-1,-1],"loss_changes":[4.621517E0,0E0,3.4735985E0,3.2195697E0,0E0,3.0490253E0,0E0,0E0,0E0],"parents":[2147483647,0,0,2,2,3,3,5,5],"right_children":[2,-1,4,6,-1,8,-1,-1,-1],"split_conditions":[-9E0,-4.02132E-3,6.913481E2,1E0,6.2557906E-3,1E0,5.525575E-3,-5.446681E-4,4.8906007E-3],"split_indices":[3,0,4,40,0,23,0,0,0],"split_type":[0,0,0,0,0,0,0,0,0],"sum_hessian":[7.898825E1,8.778123E0,7.021013E1,6.776548E1,2.4446428E0,6.506803E1,2.697448E0,6.211814E1,2.9498932E0],"tree_param":{"num_deleted":"0","num_feature":"48","num_nodes":"9","size_leaf_vector":"1"}},{"base_weights":[6.2880698E-3,5.7196957E-1,-3.7115172E-1,8.1249136E-1,-5.308865E-2,-4.4279727E-1,5.0883736E-3,2.0837788E-1,7.2420207E-3,-2.7619368E-1,3.6218013E-3,-4.9564824E-1,2.1217687E-3,3.0751224E-3,-1.2330308E-3,2.1117358E-3,-3.7321309E-3,-2.127076E-3,-3.9310316E-3],"categories":[],"categories_nodes":[],"categories_segments":[],"categories_sizes":[],"default_left":[0,0,0,0,0,0,0,0,0,0,0,0,0,0,0,0,0,0,0],"id":15,"left_children":[1,3,5,7,9,11,-1,13,-1,15,-1,17,-1,-1,-1,-1,-1,-1,-1],"loss_changes":[1.8551035E1,5.270089E0,4.92861E0,5.7467537E0,1.7197587E0,2.2751503E0,0E0,1.5090532E0,0E0,2.086659E0,0E0,8.3041E-1,0E0,0E0,0E0,0E0,0E0,0E0,0E0],"parents":[2147483647,0,0,1,1,2,2,3,3,4,4,5,5,7,7,9,9,11,11],"right_children":[2,4,6,8,10,12,-1,14,-1,16,-1,18,-1,-1,-1,-1,-1,-1,-1],"split_conditions":[1.8777E4,1E1,1E0,7.47E3,3.1132725E3,1E0,5.0883736E-3,1E0,7.2420207E-3,8.319E3,3.6218013E-3,6.5384E4,2.1217687E-3,3.0751224E-3,-1.2330308E-3,2.1117358E-3,-3.7321309E-3,-2.127076E-3,-3.9310316E-3],"split_indices":[0,3,7,0,2,12,0,6,0,0,0,0,0,0,0,0,0,0,0],"split_type":[0,0,0,0,0,0,0,0,0,0,0,0,0,0,0,0,0,0,0],"sum_hessian":[8.489146E1,3.3767536E1,5.112392E1,2.4167892E1,9.599645E0,4.8887905E1,2.2360184E0,1.0151369E1,1.4016524E1,7.5978875E0,2.0017571E0,4.6199738E1,2.6881654E0,5.7140617E0,4.4373074E0,2.6914735E0,4.906414E0,2.6222342E1,1.9977396E1],"tree_param":{"num_deleted":"0","num_feature":"48","num_nodes":"19","size_leaf_vector":"1"}},{"base_weights":[-1.7866308E-2,-4.353788E-1,4.7832224E-1,-5.4262596E-1,1.13203384E-1,-8.6473316E-2,8.830289E-1,-5.991861E-1,-1.3689147E-1,-2.934128E-3,5.0515705E-3,-4.158052E-1,7.5083625E-1,1.0957018E0,-1.769982E-3,-2.4745606E-3,-4.0928726E-3,1.283436E-3,-3.0604491E-3,-1.3758917E-3,-3.6750762E-3,5.9277816E-3,1.5640784E-3,3.8640623E-3,7.950847E-3],"categories":[],"categories_nodes":[],"categories_segments":[],"categories_sizes":[],"default_left":[0,0,0,0,0,0,0,0,0,0,0,0,0,0,0,0,0,0,0,0,0,0,0,0,0],"id":16,"left_children":[1,3,5,7,9,11,13,15,17,-1,-1,19,21,23,-1,-1,-1,-1,-1,-1,-1,-1,-1,-1,-1],"loss_changes":[1.7267855E1,2.72324E0,8.786292E0,7.904043E-1,4.0217133E0,4.9496207E0,5.9070835E0,2.310257E-1,8.8768625E-1,0E0,0E0,3.2592416E-1,3.3566785E-1,1.1251621E0,0E0,0E0,0E0,0E0,0E0,0E0,0E0,0E0,0E0,0E0,0E0],"parents":[2147483647,0,0,1,1,2,2,3,3,4,4,5,5,6,6,7,7,8,8,11,11,12,12,13,13],"right_children":[2,4,6,8,10,12,14,16,18,-1,-1,20,22,24,-1,-1,-1,-1,-1,-1,-1,-1,-1,-1,-1],"split_conditions":[3.3385E4,1.3E1,2E0,1E0,1.2128E4,3.2791587E3,6.744464E2,8.356E3,3.3403765E3,-2.934128E-3,5.0515705E-3,4.5E1,3.9014753E3,2.553595E3,-1.769982E-3,-2.4745606E-3,-4.0928726E-3,1.283436E-3,-3.0604491E-3,-1.3758917E-3,-3.6750762E-3,5.9277816E-3,1.5640784E-3,3.8640623E-3,7.950847E-3],"split_indices":[0,3,1,8,0,2,4,0,2,0,0,3,2,2,0,0,0,0,0,0,0,0,0,0,0],"split_type":[0,0,0,0,0,0,0,0,0,0,0,0,0,0,0,0,0,0,0,0,0,0,0,0,0],"sum_hessian":[8.134794E1,4.4242836E1,3.7105103E1,3.7016926E1,7.2259107E0,1.581731E1,2.1287792E1,3.2069576E1,4.94735E0,4.136449E0,3.0894616E0,1.171353E1,4.1037803E0,1.8091549E1,3.1962438E0,1.1700546E1,2.036903E1,2.7701647E0,2.1771853E0,7.124688E0,4.588842E0,2.0812888E0,2.0224915E0,7.3765006E0,1.0715048E1],"tree_param":{"num_deleted":"0","num_feature":"48","num_nodes":"25","size_leaf_vector":"1"}},{"base_weights":[2.4158603E-2,1.991369E-1,-3.9608672E-1,4.714925E-3,5.611978E-1,-5.760939E-1,2.8960449E-1,-1.3212594E-1,5.810242E-3,-1.4130387E-1,7.695762E-1,-4.2136293E-3,1.0578359E-3,6.2739947E-3,-3.2012097E-3,2.748008E-3,-1.6329051E-3,1.9585043E-3,-3.1946118E-3,6.276237E-3,-3.2172857E-3],"categories":[],"categories_nodes":[],"categories_segments":[],"categories_sizes":[],"default_left":[0,0,0,0,0,0,0,0,0,0,0,0,0,0,0,0,0,0,0,0,0],"id":17,"left_children":[1,3,5,7,9,11,13,15,-1,17,19,-1,-1,-1,-1,-1,-1,-1,-1,-1,-1],"loss_changes":[6.35565E0,4.286475E0,3.3053536E0,5.4886274E0,3.223772E0,2.0676222E0,4.2625284E0,3.138832E0,0E0,1.2189176E0,6.541505E0,0E0,0E0,0E0,0E0,0E0,0E0,0E0,0E0,0E0,0E0],"parents":[2147483647,0,0,1,1,2,2,3,3,4,4,5,5,6,6,7,7,9,9,10,10],"right_children":[2,4,6,8,10,12,14,16,-1,18,20,-1,-1,-1,-1,-1,-1,-1,-1,-1,-1],"split_conditions":[3.1322815E3,2.713708E3,4.5394727E3,1E0,2E0,6.6E1,1.9602E4,6.677E3,5.810242E-3,2.9000925E3,7E0,-4.2136293E-3,1.0578359E-3,6.2739947E-3,-3.2012097E-3,2.748008E-3,-1.6329051E-3,1.9585043E-3,-3.1946118E-3,6.276237E-3,-3.2172857E-3],"split_indices":[2,2,2,23,3,3,0,0,0,2,1,0,0,0,0,0,0,0,0,0,0],"split_type":[0,0,0,0,0,0,0,0,0,0,0,0,0,0,0,0,0,0,0,0,0],"sum_hessian":[8.435903E1,5.993142E1,2.4427612E1,3.9651894E1,2.0279526E1,1.9474907E1,4.9527054E0,3.5477E1,4.1748915E0,4.7129035E0,1.5566623E1,1.6735058E1,2.7398489E0,2.4406276E0,2.5120778E0,6.368108E0,2.9108894E1,2.2216604E0,2.4912434E0,1.3010871E1,2.5557518E0],"tree_param":{"num_deleted":"0","num_feature":"48","num_nodes":"21","size_leaf_vector":"1"}},{"base_weights":[1.7652854E-2,5.343829E-1,-3.533733E-1,6.5961915E-1,-3.4144619E-3,-1.2580861E-1,-6.5500486E-1,1.7921644E-1,1.0148456E0,-2.402073E-1,4.5920545E-1,-4.215618E-3,-1.0134903E-3,6.2462375E-3,-4.4818613E-4,7.7998494E-3,9.126753E-4,4.5260155E-4,-3.5516596E-3,1.0735445E-3,3.626284E-3],"categories":[],"categories_nodes":[],"categories_segments":[],"categories_sizes":[],"default_left":[0,0,0,0,0,0,0,0,0,0,0,0,0,0,0,0,0,0,0,0,0],"id":18,"left_children":[1,3,5,7,-1,9,11,13,15,17,19,-1,-1,-1,-1,-1,-1,-1,-1,-1,-1],"loss_changes":[1.6409946E1,5.3170176E0,3.3392816E0,5.3775015E0,0E0,2.0946815E0,3.7178612E-1,3.37401E0,4.356575E0,2.8710108E0,1.0317457E-1,0E0,0E0,0E0,0E0,0E0,0E0,0E0,0E0,0E0,0E0],"parents":[2147483647,0,0,1,1,2,2,3,3,5,5,6,6,7,7,8,8,9,9,10,10],"right_children":[2,4,6,8,-1,10,12,14,16,18,20,-1,-1,-1,-1,-1,-1,-1,-1,-1,-1],"split_conditions":[1.8777E4,1E0,6.5384E4,7.47E3,-3.4144619E-3,6.81733E2,6.6969257E2,5.434E3,1E1,2E0,3.2692E4,-4.215618E-3,-1.0134903E-3,6.2462375E-3,-4.4818613E-4,7.7998494E-3,9.126753E-4,4.5260155E-4,-3.5516596E-3,1.0735445E-3,3.626284E-3],"split_indices":[0,22,0,0,0,4,4,0,3,1,0,0,0,0,0,0,0,0,0,0,0],"split_type":[0,0,0,0,0,0,0,0,0,0,0,0,0,0,0,0,0,0,0,0,0],"sum_hessian":[8.360818E1,3.475894E1,4.8849236E1,3.1577324E1,3.181617E0,2.8650831E1,2.0198406E1,1.406311E1,1.7514214E1,2.4457584E1,4.193248E0,1.7991276E1,2.2071307E0,2.4949396E0,1.1568171E1,1.2782762E1,4.7314525E0,1.3304198E1,1.1153385E1,2.1925974E0,2.0006504E0],"tree_param":{"num_deleted":"0","num_feature":"48","num_nodes":"21","size_leaf_vector":"1"}},{"base_weights":[-7.657968E-3,-4.3303123E-1,5.0143355E-1,-9.9686064E-2,-6.373789E-1,-8.7163106E-2,9.0360224E-1,-3.6181867E-1,3.489204E-1,-4.1305143E-3,-2.8961954E-1,-4.548767E-1,7.810492E-1,1.1075321E0,-1.7630784E-3,2.1935597E-3,-3.35271E-3,-2.1618404E-3,4.5579784E-3,7.6201344E-5,-3.050048E-3,-3.211972E-3,-1.1383274E-3,6.118177E-3,1.5529139E-3,4.131704E-3,7.928189E-3],"categories":[],"categories_nodes":[],"categories_segments":[],"categories_sizes":[],"default_left":[0,0,0,0,0,0,0,0,0,0,0,0,0,0,0,0,0,0,0,0,0,0,0,0,0,0,0],"id":19,"left_children":[1,3,5,7,9,11,13,15,17,-1,19,21,23,25,-1,-1,-1,-1,-1,-1,-1,-1,-1,-1,-1,-1,-1],"loss_changes":[1.8646143E1,3.1311636E0,9.358451E0,2.3616278E0,3.134098E-1,5.726644E0,6.034046E0,1.993694E0,2.4643645E0,0E0,3.6509278E-1,1.640451E-1,4.058075E-1,8.982105E-1,0E0,0E0,0E0,0E0,0E0,0E0,0E0,0E0,0E0,0E0,0E0,0E0,0E0],"parents":[2147483647,0,0,1,1,2,2,3,3,4,4,5,5,6,6,7,7,8,8,10,10,11,11,12,12,13,13],"right_children":[2,4,6,8,10,12,14,16,18,-1,20,22,24,26,-1,-1,-1,-1,-1,-1,-1,-1,-1,-1,-1,-1,-1],"split_conditions":[3.3385E4,6.673146E2,2E0,5E0,1E0,3.2791587E3,6.744464E2,8.356E3,8.319E3,-4.1305143E-3,4.276184E3,6.626265E2,3.9014753E3,2.553595E3,-1.7630784E-3,2.1935597E-3,-3.35271E-3,-2.1618404E-3,4.5579784E-3,7.6201344E-5,-3.050048E-3,-3.211972E-3,-1.1383274E-3,6.118177E-3,1.5529139E-3,4.131704E-3,7.928189E-3],"split_indices":[0,4,1,3,8,2,4,0,0,0,2,4,2,2,0,0,0,0,0,0,0,0,0,0,0,0,0],"split_type":[0,0,0,0,0,0,0,0,0,0,0,0,0,0,0,0,0,0,0,0,0,0,0,0,0,0,0],"sum_hessian":[8.4101234E1,4.5899307E1,3.8201927E1,1.800926E1,2.7890047E1,1.58247595E1,2.2377167E1,1.148925E1,6.520011E0,2.346634E1,4.4237075E0,1.1451E1,4.37376E0,1.9184982E1,3.1921837E0,2.2657053E0,9.223544E0,2.4362106E0,4.0838003E0,2.2523782E0,2.171329E0,8.003652E0,3.4473486E0,2.3481374E0,2.0256228E0,7.9096727E0,1.127531E1],"tree_param":{"num_deleted":"0","num_feature":"48","num_nodes":"27","size_leaf_vector":"1"}},{"base_weights":[4.0235044E-3,1.6493326E-1,-3.7745214E-1,-4.4839825E-2,6.0362184E-1,-5.618222E-1,2.4781315E-1,1.7457631E-1,-4.884519E-1,-5.034147E-4,8.114012E-1,-4.178718E-3,6.9900113E-4,4.8934994E-3,-3.0967144E-3,-6.0966914E-4,3.8273402E-3,-4.0096412E-3,-3.0272987E-4,5.833124E-3,2.24815E-3],"categories":[],"categories_nodes":[],"categories_segments":[],"categories_sizes":[],"default_left":[0,0,0,0,0,0,0,0,0,0,0,0,0,0,0,0,0,0,0,0,0],"id":20,"left_children":[1,3,5,7,9,11,13,15,17,-1,19,-1,-1,-1,-1,-1,-1,-1,-1,-1,-1],"loss_changes":[4.998209E0,5.295702E0,2.9243984E0,3.94583E0,2.723701E0,1.8130236E0,3.1082199E0,3.554786E0,1.0207992E0,0E0,6.446943E-1,0E0,0E0,0E0,0E0,0E0,0E0,0E0,0E0,0E0,0E0],"parents":[2147483647,0,0,1,1,2,2,3,3,4,4,5,5,6,6,7,7,8,8,10,10],"right_children":[2,4,6,8,10,12,14,16,18,-1,20,-1,-1,-1,-1,-1,-1,-1,-1,-1,-1],"split_conditions":[3.1322815E3,2.7587622E3,4.5394727E3,2E0,2E0,6.6E1,1.9602E4,3.157E4,6.673146E2,-5.034147E-4,5E0,-4.178718E-3,6.9900113E-4,4.8934994E-3,-3.0967144E-3,-6.0966914E-4,3.8273402E-3,-4.0096412E-3,-3.0272987E-4,5.833124E-3,2.24815E-3],"split_indices":[2,2,2,1,3,3,0,0,4,0,1,0,0,0,0,0,0,0,0,0,0],"split_type":[0,0,0,0,0,0,0,0,0,0,0,0,0,0,0,0,0,0,0,0,0],"sum_hessian":[7.94122E1,5.6252182E1,2.3160017E1,3.866233E1,1.7589851E1,1.796438E1,5.195636E0,2.6273561E1,1.2388769E1,4.2205615E0,1.336929E1,1.4967049E1,2.9973319E0,2.9416955E0,2.2539403E0,1.6950071E1,9.32349E0,8.410182E0,3.9785874E0,8.87541E0,4.4938803E0],"tree_param":{"num_deleted":"0","num_feature":"48","num_nodes":"21","size_leaf_vector":"1"}},{"base_weights":[1.0442419E-2,5.1294667E-1,-3.5442767E-1,6.337761E-1,-3.410382E-3,-4.2818666E-1,5.0510354E-3,1.6211587E-1,9.8446196E-1,-8.716434E-2,-4.046118E-3,6.218264E-3,-5.342707E-4,7.518868E-3,9.1379177E-4,5.747493E-4,-3.6686494E-3],"categories":[],"categories_nodes":[],"categories_segments":[],"categories_sizes":[],"default_left":[0,0,0,0,0,0,0,0,0,0,0,0,0,0,0,0,0],"id":21,"left_children":[1,3,5,7,-1,9,-1,11,13,15,-1,-1,-1,-1,-1,-1,-1],"loss_changes":[1.5837543E1,5.1067696E0,4.7775207E0,5.323468E0,0E0,3.9552393E0,0E0,3.4592314E0,4.01614E0,2.091495E0,0E0,0E0,0E0,0E0,0E0,0E0,0E0],"parents":[2147483647,0,0,1,1,2,2,3,3,5,5,7,7,8,8,9,9],"right_children":[2,4,6,8,-1,10,-1,12,14,16,-1,-1,-1,-1,-1,-1,-1],"split_conditions":[1.8777E4,1E0,1E0,7.47E3,-3.410382E-3,2E0,5.0510354E-3,5.434E3,1E1,9.5921E4,-4.046118E-3,6.218264E-3,-5.342707E-4,7.518868E-3,9.1379177E-4,5.747493E-4,-3.6686494E-3],"split_indices":[0,22,7,0,0,1,0,0,3,0,0,0,0,0,0,0,0],"split_type":[0,0,0,0,0,0,0,0,0,0,0,0,0,0,0,0,0],"sum_hessian":[8.4387764E1,3.5327877E1,4.9059887E1,3.21494E1,3.1784775E0,4.6815422E1,2.2444637E0,1.4333552E1,1.7815845E1,2.0194042E1,2.662138E1,2.5011168E0,1.1832436E1,1.308513E1,4.730716E0,1.5575856E1,4.6181855E0],"tree_param":{"num_deleted":"0","num_feature":"48","num_nodes":"17","size_leaf_vector":"1"}},{"base_weights":[5.5834637E-3,-3.9722973E-1,5.0205815E-1,-5.095254E-1,2.3699842E-1,-4.2757504E-2,8.789627E-1,-5.728358E-1,-6.834246E-2,-2.6702129E-3,5.235672E-3,-4.00915E-1,7.773822E-1,1.0862489E0,-1.759471E-3,-3.7885336E-3,-1.8483757E-3,1.7662137E-3,-3.0478628E-3,-1.3658032E-3,-3.5899384E-3,6.09121E-3,1.5436467E-3,4.100484E-3,7.824863E-3],"categories":[],"categories_nodes":[],"categories_segments":[],"categories_sizes":[],"default_left":[0,0,0,0,0,0,0,0,0,0,0,0,0,0,0,0,0,0,0,0,0,0,0,0,0],"id":22,"left_children":[1,3,5,7,9,11,13,15,17,-1,-1,19,21,23,-1,-1,-1,-1,-1,-1,-1,-1,-1,-1,-1],"loss_changes":[1.7071589E1,3.477758E0,7.888177E0,1.0882244E0,3.7579255E0,5.183924E0,5.820755E0,3.5091114E-1,1.138289E0,0E0,0E0,2.8129733E-1,4.0453267E-1,8.1635857E-1,0E0,0E0,0E0,0E0,0E0,0E0,0E0,0E0,0E0,0E0,0E0],"parents":[2147483647,0,0,1,1,2,2,3,3,4,4,5,5,6,6,7,7,8,8,11,11,12,12,13,13],"right_children":[2,4,6,8,10,12,14,16,18,-1,-1,20,22,24,-1,-1,-1,-1,-1,-1,-1,-1,-1,-1,-1],"split_conditions":[3.3385E4,1.3E1,2E0,1E0,1.2128E4,3.2791587E3,6.744464E2,1E0,3.3403765E3,-2.6702129E-3,5.235672E-3,4.5E1,3.9014753E3,2.553595E3,-1.759471E-3,-3.7885336E-3,-1.8483757E-3,1.7662137E-3,-3.0478628E-3,-1.3658032E-3,-3.5899384E-3,6.09121E-3,1.5436467E-3,4.100484E-3,7.824863E-3],"split_indices":[0,3,1,8,0,2,4,15,2,0,0,3,2,2,0,0,0,0,0,0,0,0,0,0,0],"split_type":[0,0,0,0,0,0,0,0,0,0,0,0,0,0,0,0,0,0,0,0,0,0,0,0,0],"sum_hessian":[8.336645E1,4.6134926E1,3.7231525E1,3.9362133E1,6.77279E0,1.5587027E1,2.16445E1,3.41615E1,5.2006335E0,3.4117284E0,3.3610616E0,1.1204952E1,4.3820744E0,1.8454456E1,3.1900437E0,2.6838226E1,7.3232746E0,3.030668E0,2.1699657E0,7.113748E0,4.091204E0,2.3538632E0,2.028211E0,7.930089E0,1.0524367E1],"tree_param":{"num_deleted":"0","num_feature":"48","num_nodes":"25","size_leaf_vector":"1"}},{"base_weights":[-1.8213127E-2,-8.261011E-2,5.773191E-3,-1.3000223E-1,5.452741E-3,3.2514837E-2,-4.8554635E-1,-1.0965194E-3,2.5470091E-3,-4.2176726E-3,1.7163269E-3],"categories":[],"categories_nodes":[],"categories_segments":[],"categories_sizes":[],"default_left":[0,0,0,0,0,0,0,0,0,0,0],"id":23,"left_children":[1,3,-1,5,-1,7,9,-1,-1,-1,-1],"loss_changes":[5.312299E0,3.8155794E0,0E0,4.4060206E0,0E0,4.556725E0,4.209799E0,0E0,0E0,0E0,0E0],"parents":[2147483647,0,0,1,1,3,3,5,5,6,6],"right_children":[2,4,-1,6,-1,8,10,-1,-1,-1,-1],"split_conditions":[1E0,1E0,5.773191E-3,3.1322815E3,5.452741E-3,2.713708E3,4.5394727E3,-1.0965194E-3,2.5470091E-3,-4.2176726E-3,1.7163269E-3],"split_indices":[23,40,0,2,0,2,2,0,0,0,0],"split_type":[0,0,0,0,0,0,0,0,0,0,0],"sum_hessian":[8.188218E1,7.769466E1,4.187526E0,7.497927E1,2.7153807E0,5.2081623E1,2.2897648E1,3.3963566E1,1.811806E1,1.7933773E1,4.9638753E0],"tree_param":{"num_deleted":"0","num_feature":"48","num_nodes":"11","size_leaf_vector":"1"}},{"base_weights":[2.002052E-3,5.0547326E-1,-3.550124E-1,6.280066E-1,-3.406929E-3,-4.4499788E-1,4.327421E-3,8.5348554E-2,9.905611E-1,-1.4397901E-1,-4.020491E-3,5.781918E-3,-8.4053806E-4,7.5100795E-3,9.0954604E-4,4.747998E-4,-3.7998222E-3],"categories":[],"categories_nodes":[],"categories_segments":[],"categories_sizes":[],"default_left":[0,0,0,0,0,0,0,0,0,0,0,0,0,0,0,0,0],"id":24,"left_children":[1,3,5,7,-1,9,-1,11,13,15,-1,-1,-1,-1,-1,-1,-1],"loss_changes":[1.5435506E1,5.0420914E0,5.1873198E0,6.300063E0,0E0,3.0872707E0,0E0,2.925204E0,4.0514183E0,2.383969E0,0E0,0E0,0E0,0E0,0E0,0E0,0E0],"parents":[2147483647,0,0,1,1,2,2,3,3,5,5,7,7,8,8,9,9],"right_children":[2,4,6,8,-1,10,-1,12,14,16,-1,-1,-1,-1,-1,-1,-1],"split_conditions":[1.8777E4,1E0,6.81733E2,7.47E3,-3.406929E-3,2E0,4.327421E-3,5.434E3,1E1,9.5921E4,-4.020491E-3,5.781918E-3,-8.4053806E-4,7.5100795E-3,9.0954604E-4,4.747998E-4,-3.7998222E-3],"split_indices":[0,22,4,0,0,1,0,0,3,0,0,0,0,0,0,0,0],"split_type":[0,0,0,0,0,0,0,0,0,0,0,0,0,0,0,0,0],"sum_hessian":[8.3875404E1,3.4627274E1,4.924813E1,3.1451477E1,3.175795E0,4.5989468E1,3.2586627E0,1.3091709E1,1.8359768E1,2.03773E1,2.5612167E1,2.0051386E0,1.108657E1,1.3626704E1,4.7330637E0,1.4571545E1,5.8057556E0],"tree_param":{"num_deleted":"0","num_feature":"48","num_nodes":"17","size_leaf_vector":"1"}},{"base_weights":[-1.3499342E-2,-4.0437606E-1,4.8663095E-1,-5.108642E-1,1.55441E-1,-8.665716E-2,9.040413E-1,-5.7601464E-1,-9.64707E-3,-3.051549E-3,6.4653754E-3,-4.5303795E-1,7.744346E-1,1.075462E0,-1.3935146E-3,-3.7915718E-3,-1.9856503E-3,2.6294717E-3,-3.0437682E-3,-3.200832E-3,-1.1302852E-3,6.0644927E-3,1.5401571E-3,4.0795607E-3,7.7611823E-3],"categories":[],"categories_nodes":[],"categories_segments":[],"categories_sizes":[],"default_left":[0,0,0,0,0,0,0,0,0,0,0,0,0,0,0,0,0,0,0,0,0,0,0,0,0],"id":25,"left_children":[1,3,5,7,9,11,13,15,17,-1,-1,19,21,23,-1,-1,-1,-1,-1,-1,-1,-1,-1,-1,-1],"loss_changes":[1.6816002E1,2.9566727E0,9.111414E0,1.3262434E0,5.740726E0,5.656424E0,4.5216694E0,2.8522015E-1,1.4947178E0,0E0,0E0,1.6407204E-1,3.998549E-1,7.795143E-1,0E0,0E0,0E0,0E0,0E0,0E0,0E0,0E0,0E0,0E0,0E0],"parents":[2147483647,0,0,1,1,2,2,3,3,4,4,5,5,6,6,7,7,8,8,11,11,12,12,13,13],"right_children":[2,4,6,8,10,12,14,16,18,-1,-1,20,22,24,-1,-1,-1,-1,-1,-1,-1,-1,-1,-1,-1],"split_conditions":[3.3385E4,1.3E1,2E0,1E0,1.2128E4,3.2791587E3,6.744464E2,1E0,3.3403765E3,-3.051549E-3,6.4653754E-3,6.626265E2,3.9014753E3,2.553595E3,-1.3935146E-3,-3.7915718E-3,-1.9856503E-3,2.6294717E-3,-3.0437682E-3,-3.200832E-3,-1.1302852E-3,6.0644927E-3,1.5401571E-3,4.0795607E-3,7.7611823E-3],"split_indices":[0,3,1,8,0,2,4,15,2,0,0,4,2,2,0,0,0,0,0,0,0,0,0,0,0],"split_type":[0,0,0,0,0,0,0,0,0,0,0,0,0,0,0,0,0,0,0,0,0,0,0,0,0],"sum_hessian":[8.401346E1,4.726498E1,3.6748474E1,3.978461E1,7.4803667E0,1.581707E1,2.0931406E1,3.5076042E1,4.708572E0,4.609475E0,2.8708916E0,1.1428364E1,4.3887067E0,1.8234148E1,2.6972582E0,2.7274715E1,7.8013244E0,2.5409946E0,2.1675773E0,7.985666E0,3.442698E0,2.35952E0,2.0291865E0,7.9437075E0,1.029044E1],"tree_param":{"num_deleted":"0","num_feature":"48","num_nodes":"25","size_leaf_vector":"1"}},{"base_weights":[1.2188217E-2,1.6424802E-1,-4.4800907E-1,3.109153E-1,-4.6524438E-1,-4.155552E-3,2.064253E-1,-9.668616E-2,5.091481E-1,1.0857203E-3,-4.005268E-3,4.8613795E-3,-3.194545E-3,4.092845E-3,-2.8316085E-3,-8.026589E-5,5.3461646E-3],"categories":[],"categories_nodes":[],"categories_segments":[],"categories_sizes":[],"default_left":[0,0,0,0,0,0,0,0,0,0,0,0,0,0,0,0,0],"id":26,"left_children":[1,3,5,7,9,-1,11,13,15,-1,-1,-1,-1,-1,-1,-1,-1],"loss_changes":[5.8887944E0,5.9790897E0,3.4894505E0,4.238859E0,1.7342212E0,0E0,3.3125756E0,5.5259924E0,7.004901E0,0E0,0E0,0E0,0E0,0E0,0E0,0E0,0E0],"parents":[2147483647,0,0,1,1,2,2,3,3,4,4,6,6,7,7,8,8],"right_children":[2,4,6,8,10,-1,12,14,16,-1,-1,-1,-1,-1,-1,-1,-1],"split_conditions":[3.2791587E3,7E0,4.5394727E3,2.132629E3,2.9519E4,-4.155552E-3,1.9602E4,1.4787101E3,3E0,1.0857203E-3,-4.005268E-3,4.8613795E-3,-3.194545E-3,4.092845E-3,-2.8316085E-3,-8.026589E-5,5.3461646E-3],"split_indices":[2,1,2,2,0,0,0,2,3,0,0,0,0,0,0,0,0],"split_type":[0,0,0,0,0,0,0,0,0,0,0,0,0,0,0,0,0],"sum_hessian":[8.2101135E1,6.219392E1,1.9907213E1,5.0851875E1,1.1342043E1,1.44488945E1,5.4583187E0,1.6806673E1,3.4045204E1,2.7293477E0,8.612695E0,2.9504957E0,2.507823E0,5.1987824E0,1.1607889E1,1.4782822E1,1.9262383E1],"tree_param":{"num_deleted":"0","num_feature":"48","num_nodes":"17","size_leaf_vector":"1"}},{"base_weights":[6.4739226E-3,5.378145E-1,-3.5773587E-1,6.668584E-1,-3.4008108E-3,-4.305496E-1,5.0138975E-3,1.6031855E-1,1.0804187E0,-1.2185864E-1,-4.0223524E-3,6.1627235E-3,-5.3656637E-4,7.379292E-3,2.3451776E-3,5.6691276E-4,-3.792442E-3],"categories":[],"categories_nodes":[],"categories_segments":[],"categories_sizes":[],"default_left":[0,0,0,0,0,0,0,0,0,0,0,0,0,0,0,0,0],"id":27,"left_children":[1,3,5,7,-1,9,-1,11,13,15,-1,-1,-1,-1,-1,-1,-1],"loss_changes":[1.6517609E1,5.325321E0,4.76119E0,6.433194E0,0E0,3.5016527E0,0E0,3.4146204E0,1.2906799E0,2.5305552E0,0E0,0E0,0E0,0E0,0E0,0E0,0E0],"parents":[2147483647,0,0,1,1,2,2,3,3,5,5,7,7,8,8,9,9],"right_children":[2,4,6,8,-1,10,-1,12,14,16,-1,-1,-1,-1,-1,-1,-1],"split_conditions":[1.8777E4,1E0,1E0,7.47E3,-3.4008108E-3,2E0,5.0138975E-3,5.434E3,1E1,9.5921E4,-4.0223524E-3,6.1627235E-3,-5.3656637E-4,7.379292E-3,2.3451776E-3,5.6691276E-4,-3.792442E-3],"split_indices":[0,22,7,0,0,1,0,0,3,0,0,0,0,0,0,0,0],"split_type":[0,0,0,0,0,0,0,0,0,0,0,0,0,0,0,0,0],"sum_hessian":[8.335956E1,3.37075E1,4.9652058E1,3.0536457E1,3.1710424E0,4.739924E1,2.2528172E0,1.4349031E1,1.6187426E1,2.138439E1,2.6014849E1,2.51332E0,1.1835712E1,1.265979E1,3.527635E0,1.558905E1,5.79534E0],"tree_param":{"num_deleted":"0","num_feature":"48","num_nodes":"17","size_leaf_vector":"1"}},{"base_weights":[1.4796764E-2,-3.9293167E-1,5.320176E-1,-5.0426435E-1,2.1021603E-1,1.3489041E-2,8.6309737E-1,-5.6787086E-1,-6.8270996E-2,-2.9090021E-3,6.435972E-3,-3.7738603E-1,5.5531175E-3,1.0691111E0,-1.7519968E-3,-3.7492556E-3,-1.9777692E-3,1.7527494E-3,-3.0380415E-3,-8.124819E-4,-3.6567193E-3,2.098437E-3,7.0207915E-3],"categories":[],"categories_nodes":[],"categories_segments":[],"categories_sizes":[],"default_left":[0,0,0,0,0,0,0,0,0,0,0,0,0,0,0,0,0,0,0,0,0,0,0],"id":28,"left_children":[1,3,5,7,9,11,13,15,17,-1,-1,19,-1,21,-1,-1,-1,-1,-1,-1,-1,-1,-1],"loss_changes":[1.7627111E1,3.246025E0,6.311739E0,1.064105E0,5.310971E0,5.8283086E0,5.6578903E0,2.635088E-1,1.1267341E0,0E0,0E0,5.614929E-1,0E0,9.91766E-1,0E0,0E0,0E0,0E0,0E0,0E0,0E0,0E0,0E0],"parents":[2147483647,0,0,1,1,2,2,3,3,4,4,5,5,6,6,7,7,8,8,11,11,13,13],"right_children":[2,4,6,8,10,12,14,16,18,-1,-1,20,-1,22,-1,-1,-1,-1,-1,-1,-1,-1,-1],"split_conditions":[3.3385E4,1.3E1,2E0,1E0,1.2128E4,3.2791587E3,6.744464E2,1E0,3.3403765E3,-2.9090021E-3,6.435972E-3,4.5E1,5.5531175E-3,3E0,-1.7519968E-3,-3.7492556E-3,-1.9777692E-3,1.7527494E-3,-3.0380415E-3,-8.124819E-4,-3.6567193E-3,2.098437E-3,7.0207915E-3],"split_indices":[0,3,1,8,0,2,4,15,2,0,0,3,0,1,0,0,0,0,0,0,0,0,0],"split_type":[0,0,0,0,0,0,0,0,0,0,0,0,0,0,0,0,0,0,0,0,0,0,0],"sum_hessian":[8.159484E1,4.5761257E1,3.5833584E1,3.8768986E1,6.99227E0,1.436938E1,2.1464205E1,3.3569153E1,5.1998334E0,4.1143403E0,2.8779297E0,1.0468876E1,3.9005032E0,1.827862E1,3.185586E0,2.5778252E1,7.790901E0,3.0356135E0,2.1642199E0,5.9002743E0,4.568602E0,2.8002222E0,1.5478396E1],"tree_param":{"num_deleted":"0","num_feature":"48","num_nodes":"23","size_leaf_vector":"1"}},{"base_weights":[-3.3201355E-2,1.21668465E-1,-3.9560536E-1,2.5232852E-1,-4.4583738E-1,-5.691562E-1,2.0569633E-1,4.7288544E-4,7.399408E-1,-9.350849E-5,-3.893177E-3,-4.1756234E-3,6.924291E-4,4.8403796E-3,-3.189164E-3,4.0725362E-3,-8.870531E-4,-3.2754308E-3,6.161497E-3],"categories":[],"categories_nodes":[],"categories_segments":[],"categories_sizes":[],"default_left":[0,0,0,0,0,0,0,0,0,0,0,0,0,0,0,0,0,0,0],"id":29,"left_children":[1,3,5,7,9,11,13,15,17,-1,-1,-1,-1,-1,-1,-1,-1,-1,-1],"loss_changes":[4.796558E0,4.564374E0,2.7849727E0,6.0714006E0,1.0029533E0,1.8251834E0,3.2914758E0,3.4807506E0,6.774108E0,0E0,0E0,0E0,0E0,0E0,0E0,0E0,0E0,0E0,0E0],"parents":[2147483647,0,0,1,1,2,2,3,3,4,4,5,5,6,6,7,7,8,8],"right_children":[2,4,6,8,10,12,14,16,18,-1,-1,-1,-1,-1,-1,-1,-1,-1,-1],"split_conditions":[3.1322815E3,7E0,4.5394727E3,2.713708E3,5.6616E4,6.6E1,1.9602E4,1.4787101E3,1E0,-9.350849E-5,-3.893177E-3,-4.1756234E-3,6.924291E-4,4.8403796E-3,-3.189164E-3,4.0725362E-3,-8.870531E-4,-3.2754308E-3,6.161497E-3],"split_indices":[2,1,2,2,0,3,0,2,3,0,0,0,0,0,0,0,0,0,0],"split_type":[0,0,0,0,0,0,0,0,0,0,0,0,0,0,0,0,0,0,0],"sum_hessian":[8.360378E1,5.9038517E1,2.4565262E1,4.844104E1,1.0597479E1,1.9104641E1,5.460622E0,3.260254E1,1.5838501E1,3.742697E0,6.8547816E0,1.6105312E1,2.999329E0,2.956228E0,2.5043938E0,5.2081013E0,2.7394438E1,2.725249E0,1.3113252E1],"tree_param":{"num_deleted":"0","num_feature":"48","num_nodes":"19","size_leaf_vector":"1"}},{"base_weights":[4.542454E-3,5.3768003E-1,-3.4951624E-1,8.4492826E-1,1.4257565E-1,-4.233414E-1,4.992887E-3,3.83052E-1,6.7496197E-3,4.5707357E-1,-3.2123807E-1,-9.4995916E-2,-4.0131817E-3,5.8713276E-3,-1.0778519E-3,-1.078599E-3,5.822236E-3,-3.2773025E-3,-2.962719E-4,4.8719515E-4,-3.6504772E-3],"categories":[],"categories_nodes":[],"categories_segments":[],"categories_sizes":[],"default_left":[0,0,0,0,0,0,0,0,0,0,0,0,0,0,0,0,0,0,0,0,0],"id":30,"left_children":[1,3,5,7,9,11,-1,13,-1,15,17,19,-1,-1,-1,-1,-1,-1,-1,-1,-1],"loss_changes":[1.5597925E1,3.8823433E0,4.6847806E0,1.941762E0,2.4263744E0,3.7581692E0,0E0,3.0041208E0,0E0,3.3535917E0,3.951695E-1,1.9895972E0,0E0,0E0,0E0,0E0,0E0,0E0,0E0,0E0,0E0],"parents":[2147483647,0,0,1,1,2,2,3,3,4,4,5,5,7,7,9,9,10,10,11,11],"right_children":[2,4,6,8,10,12,-1,14,-1,16,18,20,-1,-1,-1,-1,-1,-1,-1,-1,-1],"split_conditions":[1.8777E4,3E0,1E0,7.47E3,1E0,2E0,4.992887E-3,1E0,6.7496197E-3,6.64475E2,6.064E3,9.5921E4,-4.0131817E-3,5.8713276E-3,-1.0778519E-3,-1.078599E-3,5.822236E-3,-3.2773025E-3,-2.962719E-4,4.8719515E-4,-3.6504772E-3],"split_indices":[0,3,7,0,5,1,0,6,0,4,0,0,0,0,0,0,0,0,0,0,0],"split_type":[0,0,0,0,0,0,0,0,0,0,0,0,0,0,0,0,0,0,0,0,0],"sum_hessian":[8.0637184E1,3.1973392E1,4.866379E1,1.7345991E1,1.4627401E1,4.6406273E1,2.2575178E0,7.4406204E0,9.905372E0,8.725463E0,5.901938E0,2.0447725E1,2.5958548E1,3.2558649E0,4.184756E0,4.184107E0,4.5413566E0,2.677208E0,3.22473E0,1.5850109E1,4.597616E0],"tree_param":{"num_deleted":"0","num_feature":"48","num_nodes":"21","size_leaf_vector":"1"}},{"base_weights":[-1.3853859E-2,-4.1947192E-1,4.7885647E-1,-1.843699E-1,-3.817051E-3,-6.266183E-2,8.6362284E-1,-3.1124118E-1,4.2692604E-3,1.3062018E-1,-2.5958817E-3,1.066056E0,-1.7475563E-3,-2.9406752E-3,1.4312604E-3,-3.0828407E-3,1.9631193E-3,2.859017E-3,6.946011E-3],"categories":[],"categories_nodes":[],"categories_segments":[],"categories_sizes":[],"default_left":[0,0,0,0,0,0,0,0,0,0,0,0,0,0,0,0,0,0,0],"id":31,"left_children":[1,3,5,7,-1,9,11,13,-1,15,-1,17,-1,-1,-1,-1,-1,-1,-1],"loss_changes":[1.719017E1,2.2853107E0,8.148997E0,2.95252E0,0E0,1.2772464E0,5.636236E0,2.255073E0,0E0,1.6857675E0,0E0,5.068321E-1,0E0,0E0,0E0,0E0,0E0,0E0,0E0],"parents":[2147483647,0,0,1,1,2,2,3,3,5,5,6,6,7,7,9,9,11,11],"right_children":[2,4,6,8,-1,10,12,14,-1,16,-1,18,-1,-1,-1,-1,-1,-1,-1],"split_conditions":[3.3385E4,6.684246E2,2E0,1E0,-3.817051E-3,4.5E1,6.744464E2,1.2E1,4.2692604E-3,-2.1E1,-2.5958817E-3,3E0,-1.7475563E-3,-2.9406752E-3,1.4312604E-3,-3.0828407E-3,1.9631193E-3,2.859017E-3,6.946011E-3],"split_indices":[0,4,1,25,0,3,4,3,0,3,0,1,0,0,0,0,0,0,0],"split_type":[0,0,0,0,0,0,0,0,0,0,0,0,0,0,0,0,0,0,0],"sum_hessian":[8.400933E1,4.6158516E1,3.785082E1,2.3027117E1,2.3131397E1,1.6070467E1,2.1780352E1,2.0742367E1,2.2847505E0,1.0980932E1,5.089534E0,1.8597422E1,3.1829288E0,1.5732398E1,5.0099688E0,2.1893654E0,8.791567E0,3.335271E0,1.5262152E1],"tree_param":{"num_deleted":"0","num_feature":"48","num_nodes":"19","size_leaf_vector":"1"}},{"base_weights":[-2.0495499E-2,1.7729488E-1,-4.927115E-1,-2.6777772E-2,5.335069E-1,-4.202159E-3,2.0507395E-1,-1.7393804E-1,5.7129874E-3,7.353136E-1,-1.4724469E-1,4.8195906E-3,-3.1831823E-3,2.7212643E-3,-1.9966015E-3,-3.1830096E-3,5.933739E-3,1.9137175E-3,-3.1956166E-3],"categories":[],"categories_nodes":[],"categories_segments":[],"categories_sizes":[],"default_left":[0,0,0,0,0,0,0,0,0,0,0,0,0,0,0,0,0,0,0],"id":32,"left_children":[1,3,5,7,9,-1,11,13,-1,15,17,-1,-1,-1,-1,-1,-1,-1,-1],"loss_changes":[7.852006E0,4.326975E0,3.7378936E0,5.7365746E0,3.0834594E0,0E0,3.2698424E0,3.585559E0,0E0,5.9414654E0,1.2092007E0,0E0,0E0,0E0,0E0,0E0,0E0,0E0,0E0],"parents":[2147483647,0,0,1,1,2,2,3,3,4,4,6,6,7,7,9,9,10,10],"right_children":[2,4,6,8,10,-1,12,14,-1,16,18,-1,-1,-1,-1,-1,-1,-1,-1],"split_conditions":[3.1322815E3,2.713708E3,4.5394727E3,1E0,7E0,-4.202159E-3,1.9602E4,6.677E3,5.7129874E-3,1E0,2E0,4.8195906E-3,-3.1831823E-3,2.7212643E-3,-1.9966015E-3,-3.1830096E-3,5.933739E-3,1.9137175E-3,-3.1956166E-3],"split_indices":[2,2,2,23,1,0,0,0,0,3,3,0,0,0,0,0,0,0,0],"split_type":[0,0,0,0,0,0,0,0,0,0,0,0,0,0,0,0,0,0,0],"sum_hessian":[8.21335E1,5.8327316E1,2.3806183E1,3.7670715E1,2.0656599E1,1.834373E1,5.4624524E0,3.3462727E1,4.2079897E0,1.5871417E1,4.7851825E0,2.9618807E0,2.5005717E0,6.3844113E0,2.7078314E1,2.4672036E0,1.3404213E1,2.2434397E0,2.5417426E0],"tree_param":{"num_deleted":"0","num_feature":"48","num_nodes":"19","size_leaf_vector":"1"}},{"base_weights":[-1.9563848E-2,4.8082092E-1,-3.6861154E-1,6.051128E-1,-3.4018785E-3,-1.2537439E-1,-6.5434915E-1,1.7453995E-1,9.480465E-1,-3.8626152E-3,6.425087E-2,-4.1937665E-3,-1.0094743E-3,6.112247E-3,-4.5524267E-4,7.250371E-3,3.9866433E-4,-3.2491868E-3,1.0769037E-3],"categories":[],"categories_nodes":[],"categories_segments":[],"categories_sizes":[],"default_left":[0,0,0,0,0,0,0,0,0,0,0,0,0,0,0,0,0,0,0],"id":33,"left_children":[1,3,5,7,-1,9,11,13,15,-1,17,-1,-1,-1,-1,-1,-1,-1,-1],"loss_changes":[1.4644387E1,4.832332E0,3.3486066E0,4.4561043E0,0E0,2.783967E0,3.6947632E-1,3.2697515E0,3.8668509E0,0E0,1.5866523E0,0E0,0E0,0E0,0E0,0E0,0E0,0E0,0E0],"parents":[2147483647,0,0,1,1,2,2,3,3,5,5,6,6,7,7,8,8,10,10],"right_children":[2,4,6,8,-1,10,12,14,16,-1,18,-1,-1,-1,-1,-1,-1,-1,-1],"split_conditions":[1.8777E4,1E0,6.5384E4,7.47E3,-3.4018785E-3,2.9519E4,6.700613E2,5.434E3,1E1,-3.8626152E-3,1.5594623E3,-4.1937665E-3,-1.0094743E-3,6.112247E-3,-4.5524267E-4,7.250371E-3,3.9866433E-4,-3.2491868E-3,1.0769037E-3],"split_indices":[0,22,0,0,0,0,4,0,3,0,2,0,0,0,0,0,0,0,0],"split_type":[0,0,0,0,0,0,0,0,0,0,0,0,0,0,0,0,0,0,0],"sum_hessian":[8.183124E1,3.3470856E1,4.8360386E1,3.0299206E1,3.1716492E0,2.6900135E1,2.1460249E1,1.4102135E1,1.6197073E1,6.563092E0,2.0337042E1,1.9255224E1,2.2050257E0,2.52432E0,1.1577814E1,1.2218199E1,3.9788733E0,2.6590314E0,1.767801E1],"tree_param":{"num_deleted":"0","num_feature":"48","num_nodes":"19","size_leaf_vector":"1"}},{"base_weights":[-8.877919E-3,-4.1445693E-1,4.8836744E-1,-2.2244868E-1,-4.027848E-3,-8.629821E-2,8.7663645E-1,-3.460317E-1,4.6136486E-3,-4.117129E-1,7.311722E-1,1.072421E0,-1.7430792E-3,-3.0980534E-3,1.7295834E-3,-1.3546991E-3,-3.6510415E-3,5.7849335E-3,1.5113837E-3,4.121659E-3,7.665386E-3],"categories":[],"categories_nodes":[],"categories_segments":[],"categories_sizes":[],"default_left":[0,0,0,0,0,0,0,0,0,0,0,0,0,0,0,0,0,0,0,0,0],"id":34,"left_children":[1,3,5,7,-1,9,11,13,-1,15,17,19,-1,-1,-1,-1,-1,-1,-1,-1,-1],"loss_changes":[1.7698866E1,2.2338734E0,8.874173E0,3.8372493E0,0E0,4.7728825E0,5.709585E0,3.0231025E0,0E0,3.2597303E-1,3.318262E-1,7.38945E-1,0E0,0E0,0E0,0E0,0E0,0E0,0E0,0E0,0E0],"parents":[2147483647,0,0,1,1,2,2,3,3,5,5,6,6,7,7,9,9,10,10,11,11],"right_children":[2,4,6,8,-1,10,12,14,-1,16,18,20,-1,-1,-1,-1,-1,-1,-1,-1,-1],"split_conditions":[3.3385E4,6.6969257E2,2E0,1E0,-4.027848E-3,3.2791587E3,6.744464E2,1.3E1,4.6136486E-3,4.5E1,3.9014753E3,2.553595E3,-1.7430792E-3,-3.0980534E-3,1.7295834E-3,-1.3546991E-3,-3.6510415E-3,5.7849335E-3,1.5113837E-3,4.121659E-3,7.665386E-3],"split_indices":[0,4,1,25,0,2,4,3,0,3,2,2,0,0,0,0,0,0,0,0,0],"split_type":[0,0,0,0,0,0,0,0,0,0,0,0,0,0,0,0,0,0,0,0,0],"sum_hessian":[8.575688E1,4.732371E1,3.843317E1,2.8147896E1,1.9175816E1,1.5810397E1,2.2622772E1,2.560681E1,2.541087E0,1.1663718E1,4.1466794E0,1.9442532E1,3.180241E0,2.0333227E1,5.273582E0,7.101538E0,4.5621796E0,2.109514E0,2.0371652E0,8.263492E0,1.117904E1],"tree_param":{"num_deleted":"0","num_feature":"48","num_nodes":"21","size_leaf_vector":"1"}},{"base_weights":[1.4480258E-2,1.7751811E-1,-3.7987754E-1,-2.5537284E-2,5.311014E-1,-5.6251633E-1,2.8216553E-1,-1.7241696E-1,5.6901965E-3,-1.6625726E-1,7.480971E-1,-4.1530794E-3,6.963776E-4,4.79817E-3,-2.966348E-3,3.230924E-3,-2.0297135E-3,-3.270859E-3,1.9208196E-3,5.899783E-3,-3.087703E-3],"categories":[],"categories_nodes":[],"categories_segments":[],"categories_sizes":[],"default_left":[0,0,0,0,0,0,0,0,0,0,0,0,0,0,0,0,0,0,0,0,0],"id":35,"left_children":[1,3,5,7,9,11,13,15,-1,17,19,-1,-1,-1,-1,-1,-1,-1,-1,-1,-1],"loss_changes":[5.39493E0,4.2714787E0,3.1277766E0,5.688732E0,3.4050226E0,1.8030915E0,2.796769E0,4.2396264E0,0E0,1.2734661E0,5.470639E0,0E0,0E0,0E0,0E0,0E0,0E0,0E0,0E0,0E0,0E0],"parents":[2147483647,0,0,1,1,2,2,3,3,4,4,5,5,6,6,7,7,9,9,10,10],"right_children":[2,4,6,8,10,12,14,16,-1,18,20,-1,-1,-1,-1,-1,-1,-1,-1,-1,-1],"split_conditions":[3.1322815E3,2.713708E3,4.5394727E3,1E0,2E0,6.6E1,1.9602E4,6.677E3,5.6901965E-3,2.5036E4,7E0,-4.1530794E-3,6.963776E-4,4.79817E-3,-2.966348E-3,3.230924E-3,-2.0297135E-3,-3.270859E-3,1.9208196E-3,5.899783E-3,-3.087703E-3],"split_indices":[2,2,2,23,3,3,0,0,0,0,1,0,0,0,0,0,0,0,0,0,0],"split_type":[0,0,0,0,0,0,0,0,0,0,0,0,0,0,0,0,0,0,0,0,0],"sum_hessian":[8.1859856E1,5.8304928E1,2.355493E1,3.7625294E1,2.0679632E1,1.8579662E1,4.9752674E0,3.3409576E1,4.215717E0,4.9632072E0,1.5716426E1,1.5582167E1,2.9974961E0,2.9676845E0,2.0075827E0,5.895462E0,2.7514116E1,2.722038E0,2.241169E0,1.3435196E1,2.2812295E0],"tree_param":{"num_deleted":"0","num_feature":"48","num_nodes":"21","size_leaf_vector":"1"}},{"base_weights":[-2.2710538E-2,4.638371E-1,-3.6253014E-1,5.880704E-1,-3.3988166E-3,-4.384526E-1,4.9608126E-3,2.3026742E-2,9.157614E-1,-1.2462352E-1,-3.993078E-3,5.6728562E-3,-1.4979505E-3,7.053958E-3,1.287342E-3,5.407592E-4,-3.7415486E-3],"categories":[],"categories_nodes":[],"categories_segments":[],"categories_sizes":[],"default_left":[0,0,0,0,0,0,0,0,0,0,0,0,0,0,0,0,0],"id":36,"left_children":[1,3,5,7,-1,9,-1,11,13,15,-1,-1,-1,-1,-1,-1,-1],"loss_changes":[1.3666885E1,4.6866093E0,4.7537494E0,5.689765E0,0E0,3.2210388E0,0E0,3.3418148E0,3.3006954E0,2.2736943E0,0E0,0E0,0E0,0E0,0E0,0E0,0E0],"parents":[2147483647,0,0,1,1,2,2,3,3,5,5,7,7,8,8,9,9],"right_children":[2,4,6,8,-1,10,-1,12,14,16,-1,-1,-1,-1,-1,-1,-1],"split_conditions":[1.8777E4,1E0,1E0,7.397E3,-3.3988166E-3,2E0,4.9608126E-3,5.434E3,1E1,6.5384E4,-3.993078E-3,5.6728562E-3,-1.4979505E-3,7.053958E-3,1.287342E-3,5.407592E-4,-3.7415486E-3],"split_indices":[0,22,7,0,0,1,0,0,3,0,0,0,0,0,0,0,0],"split_type":[0,0,0,0,0,0,0,0,0,0,0,0,0,0,0,0,0],"sum_hessian":[8.0643036E1,3.301204E1,4.7630997E1,2.9842846E1,3.169191E0,4.5366325E1,2.264669E0,1.1347102E1,1.8495745E1,1.9694557E1,2.567177E1,2.0260444E0,9.321058E0,1.3000528E1,5.4952154E0,1.4341511E1,5.353047E0],"tree_param":{"num_deleted":"0","num_feature":"48","num_nodes":"17","size_leaf_vector":"1"}},{"base_weights":[2.4729116E-2,-4.1286758E-1,5.414956E-1,-5.2537E-1,6.1196186E-2,1.2771396E-2,8.657161E-1,-5.748459E-1,1.08287175E-4,-4.1732502E-1,3.925421E-3,-3.0797035E-3,1.3896765E-1,1.0616516E0,-1.7393708E-3,-2.6693612E-3,-3.9612614E-3,-8.842834E-4,-3.233163E-3,2.299829E-3,-2.1296865E-3,2.8273102E-3,6.904681E-3],"categories":[],"categories_nodes":[],"categories_segments":[],"categories_sizes":[],"default_left":[0,0,0,0,0,0,0,0,0,0,0,0,0,0,0,0,0,0,0,0,0,0,0],"id":37,"left_children":[1,3,5,7,9,11,13,15,-1,17,-1,-1,19,21,-1,-1,-1,-1,-1,-1,-1,-1,-1],"loss_changes":[1.8640327E1,2.414341E0,6.4645004E0,9.837456E-1,2.9583356E0,1.091956E0,5.606394E0,7.4715614E-2,0E0,1.1242485E-1,0E0,0E0,1.727421E0,5.219631E-1,0E0,0E0,0E0,0E0,0E0,0E0,0E0,0E0,0E0],"parents":[2147483647,0,0,1,1,2,2,3,3,4,4,5,5,6,6,7,7,9,9,12,12,13,13],"right_children":[2,4,6,8,10,12,14,16,-1,18,-1,-1,20,22,-1,-1,-1,-1,-1,-1,-1,-1,-1],"split_conditions":[3.3385E4,1.2E1,2E0,1E0,1.2128E4,-2.1E1,6.744464E2,6.679483E2,1.08287175E-4,2E1,3.925421E-3,-3.0797035E-3,4.5E1,3E0,-1.7393708E-3,-2.6693612E-3,-3.9612614E-3,-8.842834E-4,-3.233163E-3,2.299829E-3,-2.1296865E-3,2.8273102E-3,6.904681E-3],"split_indices":[0,3,1,8,0,3,4,4,0,3,0,0,3,1,0,0,0,0,0,0,0,0,0],"split_type":[0,0,0,0,0,0,0,0,0,0,0,0,0,0,0,0,0,0,0,0,0,0,0],"sum_hessian":[8.044134E1,4.366607E1,3.677527E1,3.5203518E1,8.462551E0,1.437407E1,2.24012E1,3.221284E1,2.9906752E0,4.847459E0,3.6150918E0,2.187601E0,1.2186469E1,1.9223186E1,3.1780121E0,1.5233771E1,1.697907E1,2.1918218E0,2.655637E0,8.3029785E0,3.8834906E0,3.3458064E0,1.587738E1],"tree_param":{"num_deleted":"0","num_feature":"48","num_nodes":"23","size_leaf_vector":"1"}},{"base_weights":[-3.2573298E-2,1.0178076E-1,-4.3690044E-1,1.6947241E-1,-3.6486976E-3,-4.1147773E-3,2.0282653E-1,-2.184734E-2,5.3679377E-1,4.773866E-3,-3.175285E-3,-2.5873745E-3,8.185018E-4,1.9308442E-3,6.908639E-3],"categories":[],"categories_nodes":[],"categories_segments":[],"categories_sizes":[],"default_left":[0,0,0,0,0,0,0,0,0,0,0,0,0,0,0],"id":38,"left_children":[1,3,5,7,-1,-1,9,11,13,-1,-1,-1,-1,-1,-1],"loss_changes":[4.4341426E0,3.0566416E0,3.378256E0,4.01008E0,0E0,0E0,3.2287104E0,2.5449007E0,2.209395E0,0E0,0E0,0E0,0E0,0E0,0E0],"parents":[2147483647,0,0,1,1,2,2,3,3,6,6,7,7,8,8],"right_children":[2,4,6,8,-1,-1,10,12,14,-1,-1,-1,-1,-1,-1],"split_conditions":[3.2791587E3,1.41192E5,4.4878887E3,1E0,-3.6486976E-3,-4.1147773E-3,1.9602E4,2.132629E3,1E0,4.773866E-3,-3.175285E-3,-2.5873745E-3,8.185018E-4,1.9308442E-3,6.908639E-3],"split_indices":[2,0,2,5,0,0,0,2,17,0,0,0,0,0,0],"split_type":[0,0,0,0,0,0,0,0,0,0,0,0,0,0,0],"sum_hessian":[7.980693E1,6.046369E1,1.9343237E1,5.589513E1,4.5685635E0,1.3873516E1,5.469722E0,3.737095E1,1.8524181E1,2.974246E0,2.4954755E0,9.938452E0,2.7432499E1,1.4852682E1,3.6714978E0],"tree_param":{"num_deleted":"0","num_feature":"48","num_nodes":"15","size_leaf_vector":"1"}},{"base_weights":[5.9051677E-3,4.9729064E-1,-3.5195628E-1,6.1491567E-1,-3.3943227E-3,-4.2472193E-1,4.943659E-3,1.5747774E-1,9.5183605E-1,-4.788634E-1,2.1420594E-3,6.063898E-3,-5.3824414E-4,7.2458778E-3,8.928048E-4,-3.4370571E-3,-1.0741701E-5],"categories":[],"categories_nodes":[],"categories_segments":[],"categories_sizes":[],"default_left":[0,0,0,0,0,0,0,0,0,0,0,0,0,0,0,0,0],"id":39,"left_children":[1,3,5,7,-1,9,-1,11,13,15,-1,-1,-1,-1,-1,-1,-1],"loss_changes":[1.5268836E1,4.922205E0,4.6496367E0,5.00054E0,0E0,2.2017565E0,0E0,3.3325565E0,3.732813E0,2.030058E0,0E0,0E0,0E0,0E0,0E0,0E0,0E0],"parents":[2147483647,0,0,1,1,2,2,3,3,5,5,7,7,8,8,9,9],"right_children":[2,4,6,8,-1,10,-1,12,14,16,-1,-1,-1,-1,-1,-1,-1],"split_conditions":[1.8777E4,1E0,1E0,7.47E3,-3.3943227E-3,1E0,4.943659E-3,5.434E3,1E1,1E0,2.1420594E-3,6.063898E-3,-5.3824414E-4,7.2458778E-3,8.928048E-4,-3.4370571E-3,-1.0741701E-5],"split_indices":[0,22,7,0,0,12,0,0,3,11,0,0,0,0,0,0,0],"split_type":[0,0,0,0,0,0,0,0,0,0,0,0,0,0,0,0,0],"sum_hessian":[8.483446E1,3.5583942E1,4.925052E1,3.2418304E1,3.1656375E0,4.698204E1,2.2684774E0,1.4372338E1,1.8045967E1,4.4301243E1,2.680799E0,2.5347803E0,1.1837558E1,1.3304053E1,4.741913E0,3.6842777E1,7.458466E0],"tree_param":{"num_deleted":"0","num_feature":"48","num_nodes":"17","size_leaf_vector":"1"}},{"base_weights":[6.7341193E-3,-3.9587715E-1,5.369744E-1,-4.9926117E-1,1.0334053E-1,-4.514365E-3,8.4817E-1,-5.628006E-1,-6.58017E-2,-3.0295795E-3,5.1184357E-3,-3.8086307E-1,7.2652906E-1,1.045756E0,-1.7347031E-3,-2.4246324E-3,-3.989041E-3,1.75415E-3,-3.0196023E-3,-1.1942247E-3,-3.4239783E-3,5.7830745E-3,1.4752857E-3,3.8074711E-3,7.5567565E-3],"categories":[],"categories_nodes":[],"categories_segments":[],"categories_sizes":[],"default_left":[0,0,0,0,0,0,0,0,0,0,0,0,0,0,0,0,0,0,0,0,0,0,0,0,0],"id":40,"left_children":[1,3,5,7,9,11,13,15,17,-1,-1,19,21,23,-1,-1,-1,-1,-1,-1,-1,-1,-1,-1,-1],"loss_changes":[1.7846813E1,2.504572E0,6.0828466E0,1.0521202E0,4.5271473E0,4.1727195E0,5.4515305E0,2.8768826E-1,1.1167084E0,0E0,0E0,2.3166943E-1,3.51187E-1,9.352722E-1,0E0,0E0,0E0,0E0,0E0,0E0,0E0,0E0,0E0,0E0,0E0],"parents":[2147483647,0,0,1,1,2,2,3,3,4,4,5,5,6,6,7,7,8,8,11,11,12,12,13,13],"right_children":[2,4,6,8,10,12,14,16,18,-1,-1,20,22,24,-1,-1,-1,-1,-1,-1,-1,-1,-1,-1,-1],"split_conditions":[3.3385E4,1.3E1,2E0,1E0,1.2128E4,3.1670715E3,6.744464E2,6.679483E2,3.3403765E3,-3.0295795E-3,5.1184357E-3,4.5E1,3.7931418E3,2.553595E3,-1.7347031E-3,-2.4246324E-3,-3.989041E-3,1.75415E-3,-3.0196023E-3,-1.1942247E-3,-3.4239783E-3,5.7830745E-3,1.4752857E-3,3.8074711E-3,7.5567565E-3],"split_indices":[0,3,1,8,0,2,4,4,2,0,0,3,2,2,0,0,0,0,0,0,0,0,0,0,0],"split_type":[0,0,0,0,0,0,0,0,0,0,0,0,0,0,0,0,0,0,0,0,0,0,0,0,0],"sum_hessian":[8.1603424E1,4.6528072E1,3.5075348E1,3.8545513E1,7.982559E0,1.3160762E1,2.1914587E1,3.3357372E1,5.1881404E0,4.587313E0,3.3952458E0,9.00428E0,4.1564817E0,1.873939E1,3.1751974E0,1.499576E1,1.8361612E1,3.0350194E0,2.1531208E0,5.6450624E0,3.3592176E0,2.1095848E0,2.046897E0,7.7662044E0,1.0973186E1],"tree_param":{"num_deleted":"0","num_feature":"48","num_nodes":"25","size_leaf_vector":"1"}},{"base_weights":[9.285746E-3,1.725042E-1,-3.9192355E-1,-1.586351E-2,5.2731925E-1,-5.6459725E-1,2.0198244E-1,-1.487873E-1,5.6607425E-3,-1.4095661E-1,7.206962E-1,-4.151643E-3,1.0311173E-3,4.756043E-3,-3.171949E-3,2.6876093E-3,-1.71412E-3,1.9270376E-3,-3.1765583E-3,5.855015E-3,-3.1781038E-3],"categories":[],"categories_nodes":[],"categories_segments":[],"categories_sizes":[],"default_left":[0,0,0,0,0,0,0,0,0,0,0,0,0,0,0,0,0,0,0,0,0],"id":41,"left_children":[1,3,5,7,9,11,13,15,-1,17,19,-1,-1,-1,-1,-1,-1,-1,-1,-1,-1],"loss_changes":[5.764823E0,4.188041E0,2.7254255E0,5.473194E0,2.9079227E0,1.9937706E0,3.212408E0,3.1991315E0,0E0,1.1951213E0,5.9421434E0,0E0,0E0,0E0,0E0,0E0,0E0,0E0,0E0,0E0,0E0],"parents":[2147483647,0,0,1,1,2,2,3,3,4,4,5,5,6,6,7,7,9,9,10,10],"right_children":[2,4,6,8,10,12,14,16,-1,18,20,-1,-1,-1,-1,-1,-1,-1,-1,-1,-1],"split_conditions":[3.1322815E3,2.713708E3,4.5394727E3,1E0,2E0,6.6E1,1.9602E4,6.677E3,5.6607425E-3,-8E0,7E0,-4.151643E-3,1.0311173E-3,4.756043E-3,-3.171949E-3,2.6876093E-3,-1.71412E-3,1.9270376E-3,-3.1765583E-3,5.855015E-3,-3.1781038E-3],"split_indices":[2,2,2,23,3,3,0,0,0,3,1,0,0,0,0,0,0,0,0,0,0],"split_type":[0,0,0,0,0,0,0,0,0,0,0,0,0,0,0,0,0,0,0,0,0],"sum_hessian":[8.600062E1,6.153658E1,2.446404E1,4.0820618E1,2.0715961E1,1.8991697E1,5.4723444E0,3.6594917E1,4.225701E0,4.7100306E0,1.6005932E1,1.6243408E1,2.748289E0,2.9790268E0,2.4933174E0,6.4049177E0,3.0189999E1,2.2301939E0,2.4798367E0,1.3475774E1,2.530158E0],"tree_param":{"num_deleted":"0","num_feature":"48","num_nodes":"21","size_leaf_vector":"1"}},{"base_weights":[9.266482E-3,5.537531E-1,-3.6687005E-1,1.2890095E-1,7.8888917E-1,-1.3338442E-1,-6.497366E-1,6.040496E-3,-1.7033048E-1,1.0727863E0,9.5772676E-2,3.5519835E-1,-3.319104E-1,-4.168583E-3,-1.0024382E-3,-2.4134195E-3,2.9177184E-3,1.1946214E-3,7.1637575E-3,-1.1895964E-3,3.5427322E-3,-3.0653526E-3,4.385488E-3,-2.7654525E-3,3.0048334E-3],"categories":[],"categories_nodes":[],"categories_segments":[],"categories_sizes":[],"default_left":[0,0,0,0,0,0,0,0,0,0,0,0,0,0,0,0,0,0,0,0,0,0,0,0,0],"id":42,"left_children":[1,3,5,7,9,11,13,-1,15,17,19,21,23,-1,-1,-1,-1,-1,-1,-1,-1,-1,-1,-1,-1],"loss_changes":[1.7112093E1,3.3079224E0,3.1780677E0,3.6796305E0,4.1821365E0,2.8665648E0,3.6409092E-1,0E0,1.8425046E0,1.387352E0,1.197153E0,3.1949024E0,2.4508717E0,0E0,0E0,0E0,0E0,0E0,0E0,0E0,0E0,0E0,0E0,0E0,0E0],"parents":[2147483647,0,0,1,1,2,2,3,3,4,4,5,5,6,6,8,8,9,9,10,10,11,11,12,12],"right_children":[2,4,6,8,10,12,14,-1,16,18,20,22,24,-1,-1,-1,-1,-1,-1,-1,-1,-1,-1,-1,-1],"split_conditions":[1.8777E4,7.397E3,6.5384E4,5.434E3,9E0,2.3968765E3,6.700613E2,6.040496E-3,2.868035E3,1.8138752E3,3.1132725E3,6.5786725E2,1E0,-4.168583E-3,-1.0024382E-3,-2.4134195E-3,2.9177184E-3,1.1946214E-3,7.1637575E-3,-1.1895964E-3,3.5427322E-3,-3.0653526E-3,4.385488E-3,-2.7654525E-3,3.0048334E-3],"split_indices":[0,0,0,0,3,2,4,0,2,2,2,4,11,0,0,0,0,0,0,0,0,0,0,0,0],"split_type":[0,0,0,0,0,0,0,0,0,0,0,0,0,0,0,0,0,0,0,0,0,0,0,0,0],"sum_hessian":[8.1562645E1,3.31309E1,4.8431744E1,1.2355234E1,2.077567E1,2.7337873E1,2.1093872E1,2.539808E0,9.815426E0,1.4350147E1,6.425522E0,7.6707006E0,1.9667171E1,1.8892014E1,2.201857E0,7.539878E0,2.275548E0,2.0697784E0,1.2280369E1,4.405879E0,2.019643E0,2.2119641E0,5.4587364E0,1.741575E1,2.2514224E0],"tree_param":{"num_deleted":"0","num_feature":"48","num_nodes":"25","size_leaf_vector":"1"}},{"base_weights":[-5.959674E-3,-3.877312E-1,4.5535478E-1,-4.9509764E-1,1.5049127E-1,-8.71242E-2,8.3744943E-1,-5.612603E-1,-1.1518244E-2,-2.8929964E-3,5.095756E-3,-4.1089305E-1,7.230409E-1,1.0351095E0,-1.7280866E-3,-3.7227513E-3,-1.7975535E-3,2.1190427E-3,-2.147339E-3,-1.3531003E-3,-3.6435896E-3,5.732988E-3,1.4842476E-3,3.788821E-3,7.4928617E-3],"categories":[],"categories_nodes":[],"categories_segments":[],"categories_sizes":[],"default_left":[0,0,0,0,0,0,0,0,0,0,0,0,0,0,0,0,0,0,0,0,0,0,0,0,0],"id":43,"left_children":[1,3,5,7,9,11,13,15,17,-1,-1,19,21,23,-1,-1,-1,-1,-1,-1,-1,-1,-1,-1,-1],"loss_changes":[1.4972299E1,2.7621093E0,8.053651E0,1.2415609E0,4.168097E0,4.708414E0,5.3445826E0,3.4530067E-1,8.483778E-1,0E0,0E0,3.2366443E-1,3.346498E-1,8.946228E-1,0E0,0E0,0E0,0E0,0E0,0E0,0E0,0E0,0E0,0E0,0E0],"parents":[2147483647,0,0,1,1,2,2,3,3,4,4,5,5,6,6,7,7,8,8,11,11,12,12,13,13],"right_children":[2,4,6,8,10,12,14,16,18,-1,-1,20,22,24,-1,-1,-1,-1,-1,-1,-1,-1,-1,-1,-1],"split_conditions":[3.3385E4,1.3E1,2E0,1E0,1.2128E4,3.2791587E3,6.744464E2,1E0,3.1522854E3,-2.8929964E-3,5.095756E-3,4.5E1,3.9014753E3,2.553595E3,-1.7280866E-3,-3.7227513E-3,-1.7975535E-3,2.1190427E-3,-2.147339E-3,-1.3531003E-3,-3.6435896E-3,5.732988E-3,1.4842476E-3,3.788821E-3,7.4928617E-3],"split_indices":[0,3,1,8,0,2,4,15,2,0,0,3,2,2,0,0,0,0,0,0,0,0,0,0,0],"split_type":[0,0,0,0,0,0,0,0,0,0,0,0,0,0,0,0,0,0,0,0,0,0,0,0,0],"sum_hessian":[8.301102E1,4.550872E1,3.7502293E1,3.8007065E1,7.501654E0,1.581745E1,2.1684845E1,3.329153E1,4.7155366E0,4.0998654E0,3.4017887E0,1.1653252E1,4.1641984E0,1.8513657E1,3.1711876E0,2.6031212E1,7.2603188E0,2.2874546E0,2.428082E0,7.0995994E0,4.553652E0,2.119598E0,2.0446002E0,7.7778077E0,1.0735849E1],"tree_param":{"num_deleted":"0","num_feature":"48","num_nodes":"25","size_leaf_vector":"1"}},{"base_weights":[9.874728E-3,1.6480213E-1,-3.7430322E-1,-3.863203E-2,5.2546465E-1,-5.5739295E-1,2.7659053E-1,-1.8333185E-1,5.6351707E-3,-1.3910992E-1,7.171076E-1,-4.1305427E-3,6.8586523E-4,4.7332216E-3,-2.9656976E-3,-1.7150467E-3,3.0163263E-3,1.9401645E-3,-3.1700686E-3,5.821839E-3,-3.1700768E-3],"categories":[],"categories_nodes":[],"categories_segments":[],"categories_sizes":[],"default_left":[0,0,0,0,0,0,0,0,0,0,0,0,0,0,0,0,0,0,0,0,0],"id":44,"left_children":[1,3,5,7,9,11,13,15,-1,17,19,-1,-1,-1,-1,-1,-1,-1,-1,-1,-1],"loss_changes":[5.0209684E0,4.427783E0,3.044159E0,5.738282E0,2.8676124E0,1.7736964E0,2.7562761E0,2.6124825E0,0E0,1.197221E0,5.88321E0,0E0,0E0,0E0,0E0,0E0,0E0,0E0,0E0,0E0,0E0],"parents":[2147483647,0,0,1,1,2,2,3,3,4,4,5,5,6,6,7,7,9,9,10,10],"right_children":[2,4,6,8,10,12,14,16,-1,18,20,-1,-1,-1,-1,-1,-1,-1,-1,-1,-1],"split_conditions":[3.1322815E3,2.713708E3,4.5394727E3,1E0,2E0,6.6E1,1.9602E4,1E0,5.6351707E-3,-8E0,7E0,-4.1305427E-3,6.8586523E-4,4.7332216E-3,-2.9656976E-3,-1.7150467E-3,3.0163263E-3,1.9401645E-3,-3.1700686E-3,5.821839E-3,-3.1700768E-3],"split_indices":[2,2,2,23,3,3,0,16,0,3,1,0,0,0,0,0,0,0,0,0,0],"split_type":[0,0,0,0,0,0,0,0,0,0,0,0,0,0,0,0,0,0,0,0,0],"sum_hessian":[8.232171E1,5.9071125E1,2.3250584E1,3.8338768E1,2.073236E1,1.8258347E1,4.992235E0,3.4104465E1,4.234301E0,4.7017765E0,1.6030584E1,1.5257197E1,3.0011497E0,2.9851344E0,2.007101E0,3.017857E1,3.9258947E0,2.2260854E0,2.475691E0,1.35057955E1,2.524788E0],"tree_param":{"num_deleted":"0","num_feature":"48","num_nodes":"21","size_leaf_vector":"1"}},{"base_weights":[-1.46656465E-2,4.6217793E-1,-3.4773493E-1,5.8251405E-1,-3.391977E-3,-4.2073372E-1,4.921364E-3,1.559692E-1,9.276423E-1,-8.4761806E-2,-3.98524E-3,6.016446E-3,-5.3983665E-4,7.0829066E-3,3.8776893E-4,8.620052E-4,-3.733945E-3],"categories":[],"categories_nodes":[],"categories_segments":[],"categories_sizes":[],"default_left":[0,0,0,0,0,0,0,0,0,0,0,0,0,0,0,0,0],"id":45,"left_children":[1,3,5,7,-1,9,-1,11,13,15,-1,-1,-1,-1,-1,-1,-1],"loss_changes":[1.3463091E1,4.641284E0,4.598121E0,4.523423E0,0E0,3.8381767E0,0E0,3.2941012E0,3.704278E0,2.6866539E0,0E0,0E0,0E0,0E0,0E0,0E0,0E0],"parents":[2147483647,0,0,1,1,2,2,3,3,5,5,7,7,8,8,9,9],"right_children":[2,4,6,8,-1,10,-1,12,14,16,-1,-1,-1,-1,-1,-1,-1],"split_conditions":[1.8777E4,1E0,1E0,7.47E3,-3.391977E-3,2E0,4.921364E-3,5.434E3,1E1,9.5921E4,-3.98524E-3,6.016446E-3,-5.3983665E-4,7.0829066E-3,3.8776893E-4,8.620052E-4,-3.733945E-3],"split_indices":[0,22,7,0,0,1,0,0,3,0,0,0,0,0,0,0,0],"split_type":[0,0,0,0,0,0,0,0,0,0,0,0,0,0,0,0,0],"sum_hessian":[8.275653E1,3.387346E1,4.8883076E1,3.0709955E1,3.1635041E0,4.660969E1,2.273381E0,1.4384291E1,1.6325665E1,2.0151072E1,2.645862E1,2.5449502E0,1.183934E1,1.234192E1,3.983744E0,1.4655972E1,5.495101E0],"tree_param":{"num_deleted":"0","num_feature":"48","num_nodes":"17","size_leaf_vector":"1"}},{"base_weights":[-2.9520406E-3,-3.998583E-1,5.037372E-1,-5.018364E-1,1.0293479E-1,2.996154E-1,7.208653E-3,-5.643335E-1,-6.517713E-2,-3.016295E-3,5.071675E-3,9.0036556E-2,9.2441547E-1,-3.7375162E-3,-1.7838862E-3,1.745171E-3,-3.0085563E-3,1.2876919E-3,-3.3692056E-3,6.5598716E-3,2.8647254E-3],"categories":[],"categories_nodes":[],"categories_segments":[],"categories_sizes":[],"default_left":[0,0,0,0,0,0,0,0,0,0,0,0,0,0,0,0,0,0,0,0,0],"id":46,"left_children":[1,3,5,7,9,11,-1,13,15,-1,-1,17,19,-1,-1,-1,-1,-1,-1,-1,-1],"loss_changes":[1.734139E1,2.530682E0,5.034623E0,1.0648088E0,4.463469E0,3.9285986E0,0E0,3.6516094E-1,1.1064539E0,0E0,0E0,2.0726924E0,5.078411E-2,0E0,0E0,0E0,0E0,0E0,0E0,0E0,0E0],"parents":[2147483647,0,0,1,1,2,2,3,3,4,4,5,5,7,7,8,8,11,11,12,12],"right_children":[2,4,6,8,10,12,-1,14,16,-1,-1,18,20,-1,-1,-1,-1,-1,-1,-1,-1],"split_conditions":[3.3385E4,1.3E1,1.41192E5,1E0,1.2128E4,3.2791587E3,7.208653E-3,1E0,3.3403765E3,-3.016295E-3,5.071675E-3,6.744464E2,4.154967E3,-3.7375162E-3,-1.7838862E-3,1.745171E-3,-3.0085563E-3,1.2876919E-3,-3.3692056E-3,6.5598716E-3,2.8647254E-3],"split_indices":[0,3,0,8,0,2,0,15,2,0,0,4,2,0,0,0,0,0,0,0,0],"split_type":[0,0,0,0,0,0,0,0,0,0,0,0,0,0,0,0,0,0,0,0,0],"sum_hessian":[8.422761E1,4.7348682E1,3.687893E1,3.9366203E1,7.982478E0,2.9637547E1,7.241383E0,3.4181564E1,5.1846395E0,4.573738E0,3.40874E0,2.3049932E1,6.587615E0,2.6938255E1,7.2433085E0,3.0382648E0,2.1463745E0,1.9913197E1,3.136736E0,3.731475E0,2.8561397E0],"tree_param":{"num_deleted":"0","num_feature":"48","num_nodes":"21","size_leaf_vector":"1"}},{"base_weights":[1.6841896E-2,1.6458891E-1,-4.380159E-1,-1.5176313E-1,3.5057062E-1,-4.1022156E-3,1.9991995E-1,3.3033704E-3,-3.0824968E-1,-5.6832448E-2,6.18665E-1,4.712734E-3,-3.1638264E-3,2.5972584E-3,-3.1717126E-3,4.892842E-3,-1.8054271E-3,5.2180584E-3,-1.2245303E-3],"categories":[],"categories_nodes":[],"categories_segments":[],"categories_sizes":[],"default_left":[0,0,0,0,0,0,0,0,0,0,0,0,0,0,0,0,0,0,0],"id":47,"left_children":[1,3,5,7,9,-1,11,-1,13,15,17,-1,-1,-1,-1,-1,-1,-1,-1],"loss_changes":[5.6211133E0,3.762927E0,3.3524685E0,2.8120382E0,4.405173E0,0E0,3.1728573E0,0E0,3.5446339E0,3.8211892E0,5.1783667E0,0E0,0E0,0E0,0E0,0E0,0E0,0E0,0E0],"parents":[2147483647,0,0,1,1,2,2,3,3,4,4,6,6,8,8,9,9,10,10],"right_children":[2,4,6,8,10,-1,12,-1,14,16,18,-1,-1,-1,-1,-1,-1,-1,-1],"split_conditions":[3.2791587E3,2.423E3,4.5394727E3,6.5786725E2,3E0,-4.1022156E-3,1.9602E4,3.3033704E-3,6.677E3,2.4860645E3,7E0,4.712734E-3,-3.1638264E-3,2.5972584E-3,-3.1717126E-3,4.892842E-3,-1.8054271E-3,5.2180584E-3,-1.2245303E-3],"split_indices":[2,2,2,4,3,0,0,0,0,2,1,0,0,0,0,0,0,0,0],"split_type":[0,0,0,0,0,0,0,0,0,0,0,0,0,0,0,0,0,0,0],"sum_hessian":[8.156994E1,6.2052258E1,1.9517675E1,2.304206E1,3.90102E1,1.4039093E1,5.478583E0,3.7397003E0,1.9302359E1,1.5795286E1,2.3214912E1,2.9905903E0,2.4879925E0,4.202971E0,1.5099388E1,2.9414644E0,1.2853822E1,1.7744318E1,5.4705944E0],"tree_param":{"num_deleted":"0","num_feature":"48","num_nodes":"19","size_leaf_vector":"1"}},{"base_weights":[2.4999836E-2,3.398463E-1,-3.8680243E-1,-2.4995357E-3,4.3007624E-1,-4.9019438E-1,4.9014236E-3,6.6283937E-3,2.544329E-1,-6.073998E-1,-2.1829142E-1,3.2911557E-3,-1.1034866E-3,-3.8773506E-3,-9.870755E-4,1.2102748E-3,-2.400364E-3],"categories":[],"categories_nodes":[],"categories_segments":[],"categories_sizes":[],"default_left":[0,0,0,0,0,0,0,0,0,0,0,0,0,0,0,0,0],"id":48,"left_children":[1,3,5,-1,7,9,-1,-1,11,13,15,-1,-1,-1,-1,-1,-1],"loss_changes":[1.0972538E1,3.4497342E0,4.967508E0,0E0,4.8503428E0,9.642973E-1,0E0,0E0,4.6976953E0,2.9761314E-1,9.9137074E-1,0E0,0E0,0E0,0E0,0E0,0E0],"parents":[2147483647,0,0,1,1,2,2,4,4,5,5,8,8,9,9,10,10],"right_children":[2,4,6,-1,8,10,-1,-1,12,14,16,-1,-1,-1,-1,-1,-1],"split_conditions":[2E0,1.4787101E3,1E0,-2.4995357E-3,1.9742902E3,3.0875063E3,4.9014236E-3,6.6283937E-3,3E0,1.64E2,0E0,3.2911557E-3,-1.1034866E-3,-3.8773506E-3,-9.870755E-4,1.2102748E-3,-2.400364E-3],"split_indices":[1,2,7,0,2,2,0,0,3,3,3,0,0,0,0,0,0],"split_type":[0,0,0,0,0,0,0,0,0,0,0,0,0,0,0,0,0],"sum_hessian":[8.261517E1,4.691823E1,3.5696945E1,4.614655E0,4.2303574E1,3.3419178E1,2.2777667E0,7.64584E0,3.4657734E1,2.249059E1,1.092859E1,2.0591364E1,1.406637E1,2.025577E1,2.2348201E0,3.2679064E0,7.6606836E0],"tree_param":{"num_deleted":"0","num_feature":"48","num_nodes":"17","size_leaf_vector":"1"}},{"base_weights":[-4.0296815E-2,-2.2060765E-1,8.845995E-1,-4.4257674E-1,1.4963023E-1,3.8626093E-1,7.131409E-3,-2.8386882E-1,-3.945281E-3,-1.2518522E-1,8.973546E-1,-5.1268184E-4,5.6569865E-3,-2.5101397E-3,3.5255284E-3,-2.9492083E-3,2.1646048E-3,6.57377E-3,1.971162E-3],"categories":[],"categories_nodes":[],"categories_segments":[],"categories_sizes":[],"default_left":[0,0,0,0,0,0,0,0,0,0,0,0,0,0,0,0,0,0,0],"id":49,"left_children":[1,3,5,7,9,11,-1,13,-1,15,17,-1,-1,-1,-1,-1,-1,-1,-1],"loss_changes":[1.3936223E1,5.7986774E0,1.6074171E0,1.3097858E0,5.63831E0,1.8264548E0,0E0,3.4093373E0,0E0,3.8344412E0,4.6900606E-1,0E0,0E0,0E0,0E0,0E0,0E0,0E0,0E0],"parents":[2147483647,0,0,1,1,2,2,3,3,4,4,5,5,7,7,9,9,10,10],"right_children":[2,4,6,8,10,12,-1,14,-1,16,18,-1,-1,-1,-1,-1,-1,-1,-1],"split_conditions":[9E0,3.3385E4,5.6616E4,6.6969257E2,3.2791587E3,2.9000925E3,7.131409E-3,1E0,-3.945281E-3,2E0,4.154967E3,-5.1268184E-4,5.6569865E-3,-2.5101397E-3,3.5255284E-3,-2.9492083E-3,2.1646048E-3,6.57377E-3,1.971162E-3],"split_indices":[1,0,0,4,2,2,0,25,0,1,2,0,0,0,0,0,0,0,0],"split_type":[0,0,0,0,0,0,0,0,0,0,0,0,0,0,0,0,0,0,0],"sum_hessian":[8.1395935E1,6.875371E1,1.2642228E1,4.2861515E1,2.589219E1,5.6500425E0,6.992185E0,2.5992382E1,1.6869133E1,1.954228E1,6.3499093E0,3.5163333E0,2.1337092E0,2.2967804E1,3.0245779E0,1.1135771E1,8.40651E0,4.0218973E0,2.328012E0],"tree_param":{"num_deleted":"0","num_feature":"48","num_nodes":"19","size_leaf_vector":"1"}},{"base_weights":[-3.4032944E-3,-6.439686E-2,5.60298E-3,-1.0916761E-1,5.2782064E-3,4.009061E-2,-4.6830642E-1,-1.1929089E-3,2.7199239E-3,-4.15343E-3,2.1889112E-3],"categories":[],"categories_nodes":[],"categories_segments":[],"categories_sizes":[],"default_left":[0,0,0,0,0,0,0,0,0,0,0],"id":50,"left_children":[1,3,-1,5,-1,7,9,-1,-1,-1,-1],"loss_changes":[4.906987E0,3.500366E0,0E0,4.1883793E0,0E0,5.60579E0,4.5277057E0,0E0,0E0,0E0,0E0],"parents":[2147483647,0,0,1,1,3,3,5,5,6,6],"right_children":[2,4,-1,6,-1,8,10,-1,-1,-1,-1],"split_conditions":[1E0,1E0,5.60298E-3,3.1322815E3,5.2782064E-3,2.713708E3,4.5394727E3,-1.1929089E-3,2.7199239E-3,-4.15343E-3,2.1889112E-3],"split_indices":[23,40,0,2,0,2,2,0,0,0,0],"split_type":[0,0,0,0,0,0,0,0,0,0,0],"sum_hessian":[8.378675E1,7.954161E1,4.245144E0,7.678471E1,2.7568958E0,5.4869358E1,2.1915356E1,3.5096943E1,1.9772413E1,1.7405985E1,4.5093703E0],"tree_param":{"num_deleted":"0","num_feature":"48","num_nodes":"11","size_leaf_vector":"1"}},{"base_weights":[-4.5177736E-3,4.8489496E-1,-3.6296594E-1,6.0316867E-1,-3.3857024E-3,-4.3775898E-1,4.883933E-3,1.6992709E-1,9.224779E-1,-1.3038076E-1,-3.9644237E-3,5.9695155E-3,-4.598814E-4,7.0531727E-3,8.9238206E-4,2.22008E-4,-3.6062205E-3],"categories":[],"categories_nodes":[],"categories_segments":[],"categories_sizes":[],"default_left":[0,0,0,0,0,0,0,0,0,0,0,0,0,0,0,0,0],"id":51,"left_children":[1,3,5,7,-1,9,-1,11,13,15,-1,-1,-1,-1,-1,-1,-1],"loss_changes":[1.4914906E1,4.8010893E0,4.6757627E0,4.3792143E0,0E0,3.1205854E0,0E0,3.1557074E0,3.4769316E0,1.6700382E0,0E0,0E0,0E0,0E0,0E0,0E0,0E0],"parents":[2147483647,0,0,1,1,2,2,3,3,5,5,7,7,8,8,9,9],"right_children":[2,4,6,8,-1,10,-1,12,14,16,-1,-1,-1,-1,-1,-1,-1],"split_conditions":[1.8777E4,1E0,1E0,7.47E3,-3.3857024E-3,2E0,4.883933E-3,5.434E3,1E1,9.5921E4,-3.9644237E-3,5.9695155E-3,-4.598814E-4,7.0531727E-3,8.9238206E-4,2.22008E-4,-3.6062205E-3],"split_indices":[0,22,7,0,0,1,0,0,3,0,0,0,0,0,0,0,0],"split_type":[0,0,0,0,0,0,0,0,0,0,0,0,0,0,0,0,0],"sum_hessian":[8.301631E1,3.4947475E1,4.8068832E1,3.1789011E1,3.1584644E0,4.578721E1,2.281624E0,1.4138264E1,1.7650745E1,1.9916628E1,2.5870583E1,2.5549362E0,1.1583328E1,1.2909488E1,4.741258E0,1.5371393E1,4.5452337E0],"tree_param":{"num_deleted":"0","num_feature":"48","num_nodes":"17","size_leaf_vector":"1"}},{"base_weights":[-8.117479E-3,-2.1005806E-1,1.0608835E0,-4.7120723E-1,2.0893784E-1,3.296968E-3,7.2748624E-3,-3.0159113E-1,-3.984803E-3,-8.582616E-2,9.4489133E-1,-2.552134E-3,3.145997E-3,-2.6940426E-3,2.3242868E-3,6.659546E-3,2.8452976E-3],"categories":[],"categories_nodes":[],"categories_segments":[],"categories_sizes":[],"default_left":[0,0,0,0,0,0,0,0,0,0,0,0,0,0,0,0,0],"id":52,"left_children":[1,3,5,7,9,-1,-1,11,-1,13,15,-1,-1,-1,-1,-1,-1],"loss_changes":[1.8400997E1,7.9397383E0,3.837986E-1,1.254384E0,6.200376E0,0E0,0E0,2.8284018E0,0E0,3.792957E0,1.0674238E-1,0E0,0E0,0E0,0E0,0E0,0E0],"parents":[2147483647,0,0,1,1,2,2,3,3,4,4,7,7,9,9,10,10],"right_children":[2,4,6,8,10,-1,-1,12,-1,14,16,-1,-1,-1,-1,-1,-1],"split_conditions":[9E0,3.3385E4,2.553595E3,6.6969257E2,3.2791587E3,3.296968E-3,7.2748624E-3,1E0,-3.984803E-3,2E0,4.154967E3,-2.552134E-3,3.145997E-3,-2.6940426E-3,2.3242868E-3,6.659546E-3,2.8452976E-3],"split_indices":[1,0,2,4,2,0,0,25,0,1,2,0,0,0,0,0,0],"split_type":[0,0,0,0,0,0,0,0,0,0,0,0,0,0,0,0,0],"sum_hessian":[8.320695E1,7.066199E1,1.2544964E1,4.3453777E1,2.720821E1,3.925931E0,8.619033E0,2.448789E1,1.8965885E1,2.0057974E1,7.1502357E0,2.171839E1,2.7695017E0,1.1377228E1,8.680746E0,4.2884283E0,2.8618073E0],"tree_param":{"num_deleted":"0","num_feature":"48","num_nodes":"17","size_leaf_vector":"1"}},{"base_weights":[-1.3084109E-2,1.416959E-1,-3.8830552E-1,6.706917E-2,5.5745547E-3,-5.5997103E-1,1.981442E-1,-2.754153E-1,3.167029E-1,-4.118797E-3,6.8378425E-4,4.6837386E-3,-3.1607172E-3,2.5868686E-3,-2.6486402E-3,-3.4008934E-3,2.5766983E-3],"categories":[],"categories_nodes":[],"categories_segments":[],"categories_sizes":[],"default_left":[0,0,0,0,0,0,0,0,0,0,0,0,0,0,0,0,0],"id":53,"left_children":[1,3,5,7,-1,9,11,13,15,-1,-1,-1,-1,-1,-1,-1,-1],"loss_changes":[5.0478497E0,3.5571094E0,2.665397E0,4.9896493E0,0E0,1.773798E0,3.1492033E0,3.0889182E0,3.5935938E0,0E0,0E0,0E0,0E0,0E0,0E0,0E0,0E0],"parents":[2147483647,0,0,1,1,2,2,3,3,5,5,6,6,7,7,8,8],"right_children":[2,4,6,8,-1,10,12,14,16,-1,-1,-1,-1,-1,-1,-1,-1],"split_conditions":[3.1322815E3,1E0,4.5394727E3,2.4629692E3,5.5745547E-3,6.6E1,1.9602E4,6.677E3,-9E0,-4.118797E-3,6.8378425E-4,4.6837386E-3,-3.1607172E-3,2.5868686E-3,-2.6486402E-3,-3.4008934E-3,2.5766983E-3],"split_indices":[2,23,2,2,0,3,0,0,3,0,0,0,0,0,0,0,0],"split_type":[0,0,0,0,0,0,0,0,0,0,0,0,0,0,0,0,0],"sum_hessian":[8.496945E1,6.0595844E1,2.4373608E1,5.6341198E1,4.2546453E0,1.8889442E1,5.4841647E0,2.3709593E1,3.2631603E1,1.5888614E1,3.0008292E0,2.998254E0,2.485911E0,4.207337E0,1.9502256E1,3.2371304E0,2.9394474E1],"tree_param":{"num_deleted":"0","num_feature":"48","num_nodes":"17","size_leaf_vector":"1"}},{"base_weights":[1.4743536E-3,4.9025476E-1,-3.585378E-1,6.0957164E-1,-3.3813869E-3,-4.3388256E-1,4.867564E-3,1.5330398E-1,9.6262735E-1,-1.3132761E-1,-3.9481693E-3,5.9476923E-3,-5.4494233E-4,6.997017E-3,1.4145534E-3,2.165805E-4,-3.6105362E-3],"categories":[],"categories_nodes":[],"categories_segments":[],"categories_sizes":[],"default_left":[0,0,0,0,0,0,0,0,0,0,0,0,0,0,0,0,0],"id":54,"left_children":[1,3,5,7,-1,9,-1,11,13,15,-1,-1,-1,-1,-1,-1,-1],"loss_changes":[1.4829676E1,4.837904E0,4.6295733E0,5.102084E0,0E0,3.0499163E0,0E0,3.2416553E0,2.415207E0,1.6702448E0,0E0,0E0,0E0,0E0,0E0,0E0,0E0],"parents":[2147483647,0,0,1,1,2,2,3,3,5,5,7,7,8,8,9,9],"right_children":[2,4,6,8,-1,10,-1,12,14,16,-1,-1,-1,-1,-1,-1,-1],"split_conditions":[1.8777E4,1E0,1E0,7.47E3,-3.3813869E-3,2E0,4.867564E-3,5.434E3,1E1,9.5921E4,-3.9481693E-3,5.9476923E-3,-5.4494233E-4,6.997017E-3,1.4145534E-3,2.165805E-4,-3.6105362E-3],"split_indices":[0,22,7,0,0,1,0,0,3,0,0,0,0,0,0,0,0],"split_type":[0,0,0,0,0,0,0,0,0,0,0,0,0,0,0,0,0],"sum_hessian":[8.2276474E1,3.474381E1,4.753266E1,3.1588783E1,3.155027E0,4.5247448E1,2.2852168E0,1.4405812E1,1.7182972E1,1.9930658E1,2.5316788E1,2.5595498E0,1.1846262E1,1.2951764E1,4.2312074E0,1.5380163E1,4.5504956E0],"tree_param":{"num_deleted":"0","num_feature":"48","num_nodes":"17","size_leaf_vector":"1"}},{"base_weights":[-1.1304609E-2,-4.190157E-1,4.7382128E-1,-5.312736E-1,1.03428125E-1,-1.3715443E-1,8.7899804E-1,-6.0451823E-1,-1.0868723E-2,-3.0011605E-3,5.035625E-3,-4.4790387E-1,4.0168064E-3,1.033353E0,-1.3674354E-3,-2.8238576E-3,-4.121786E-3,2.1065308E-3,-2.1351734E-3,-3.4502442E-3,-1.0616321E-3,3.9736284E-3,7.3840707E-3],"categories":[],"categories_nodes":[],"categories_segments":[],"categories_sizes":[],"default_left":[0,0,0,0,0,0,0,0,0,0,0,0,0,0,0,0,0,0,0,0,0,0,0],"id":55,"left_children":[1,3,5,7,9,11,13,15,17,-1,-1,19,-1,21,-1,-1,-1,-1,-1,-1,-1,-1,-1],"loss_changes":[1.6758238E1,2.7540646E0,9.701162E0,1.4435892E0,4.4070334E0,4.38472E0,4.2343254E0,4.4596672E-2,8.382534E-1,0E0,0E0,3.2417274E-1,0E0,7.0222855E-1,0E0,0E0,0E0,0E0,0E0,0E0,0E0,0E0,0E0],"parents":[2147483647,0,0,1,1,2,2,3,3,4,4,5,5,6,6,7,7,8,8,11,11,13,13],"right_children":[2,4,6,8,10,12,14,16,18,-1,-1,20,-1,22,-1,-1,-1,-1,-1,-1,-1,-1,-1],"split_conditions":[3.3385E4,1.3E1,2E0,1E0,1.2128E4,3.2791587E3,6.744464E2,6.679483E2,3.1522854E3,-3.0011605E-3,5.035625E-3,1E0,4.0168064E-3,2.553595E3,-1.3674354E-3,-2.8238576E-3,-4.121786E-3,2.1065308E-3,-2.1351734E-3,-3.4502442E-3,-1.0616321E-3,3.9736284E-3,7.3840707E-3],"split_indices":[0,3,1,8,0,2,4,4,2,0,0,6,0,2,0,0,0,0,0,0,0,0,0],"split_type":[0,0,0,0,0,0,0,0,0,0,0,0,0,0,0,0,0,0,0,0,0,0,0],"sum_hessian":[8.272314E1,4.502193E1,3.7701202E1,3.7045116E1,7.9768143E0,1.5296596E1,2.2404608E1,3.2332794E1,4.712323E0,4.5580387E0,3.4187756E0,1.1363535E1,3.9330604E0,1.9721012E1,2.6835961E0,1.4879723E1,1.7453072E1,2.2910028E0,2.4213204E0,6.9706926E0,4.3928423E0,8.358545E0,1.1362466E1],"tree_param":{"num_deleted":"0","num_feature":"48","num_nodes":"23","size_leaf_vector":"1"}},{"base_weights":[-2.4527116E-3,1.4825337E-1,-3.7687555E-1,7.3758066E-2,5.549497E-3,-5.5207396E-1,1.974263E-1,-2.7044207E-1,3.2369933E-1,-4.104799E-3,4.4332104E-4,4.663995E-3,-3.1555288E-3,2.5754592E-3,-2.622962E-3,2.639138E-3,-3.4023272E-3],"categories":[],"categories_nodes":[],"categories_segments":[],"categories_sizes":[],"default_left":[0,0,0,0,0,0,0,0,0,0,0,0,0,0,0,0,0],"id":56,"left_children":[1,3,5,7,-1,9,11,13,15,-1,-1,-1,-1,-1,-1,-1,-1],"loss_changes":[4.8363795E0,3.468234E0,2.583736E0,4.9792223E0,0E0,1.6302376E0,3.1294932E0,3.0414505E0,3.7047844E0,0E0,0E0,0E0,0E0,0E0,0E0,0E0,0E0],"parents":[2147483647,0,0,1,1,2,2,3,3,5,5,6,6,7,7,8,8],"right_children":[2,4,6,8,-1,10,12,14,16,-1,-1,-1,-1,-1,-1,-1,-1],"split_conditions":[3.1322815E3,1E0,4.5394727E3,2.4629692E3,5.549497E-3,1.34757E5,1.9602E4,6.677E3,9.6255E4,-4.104799E-3,4.4332104E-4,4.663995E-3,-3.1555288E-3,2.5754592E-3,-2.622962E-3,2.639138E-3,-3.4023272E-3],"split_indices":[2,23,2,2,0,0,0,0,0,0,0,0,0,0,0,0,0],"split_type":[0,0,0,0,0,0,0,0,0,0,0,0,0,0,0,0,0],"sum_hessian":[8.3719E1,6.0123283E1,2.3595718E1,5.586029E1,4.262994E0,1.8109789E1,5.485928E0,2.34646E1,3.239569E1,1.4878033E1,3.2317574E0,3.0034432E0,2.482485E0,4.2121844E0,1.9252415E1,2.9106335E1,3.289357E0],"tree_param":{"num_deleted":"0","num_feature":"48","num_nodes":"17","size_leaf_vector":"1"}},{"base_weights":[-2.0234094E-3,4.6973914E-1,-3.454465E-1,7.9559696E-1,5.9335254E-2,-4.1794917E-1,4.8493557E-3,3.4371898E-1,6.6166823E-3,5.505392E-1,-1.6314109E-1,-1.0591452E-1,-3.943591E-3,-1.240375E-3,5.1419605E-3,4.675596E-3,8.813602E-4,-2.6474118E-3,3.550063E-3,6.2031875E-4,-3.7156823E-3],"categories":[],"categories_nodes":[],"categories_segments":[],"categories_sizes":[],"default_left":[0,0,0,0,0,0,0,0,0,0,0,0,0,0,0,0,0,0,0,0,0],"id":57,"left_children":[1,3,5,7,9,11,-1,13,-1,15,17,19,-1,-1,-1,-1,-1,-1,-1,-1,-1],"loss_changes":[1.3960096E1,4.807576E0,4.5085025E0,2.4186163E0,1.9636908E0,3.4829082E0,0E0,2.8920605E0,0E0,4.0014184E-1,2.9003463E0,2.4108434E0,0E0,0E0,0E0,0E0,0E0,0E0,0E0,0E0,0E0],"parents":[2147483647,0,0,1,1,2,2,3,3,4,4,5,5,7,7,9,9,10,10,11,11],"right_children":[2,4,6,8,10,12,-1,14,-1,16,18,20,-1,-1,-1,-1,-1,-1,-1,-1,-1],"split_conditions":[1.8777E4,3E0,1E0,2.4643914E3,2.1896394E3,2E0,4.8493557E-3,7.47E3,6.6166823E-3,1E0,3.4078926E3,9.5921E4,-3.943591E-3,-1.240375E-3,5.1419605E-3,4.675596E-3,8.813602E-4,-2.6474118E-3,3.550063E-3,6.2031875E-4,-3.7156823E-3],"split_indices":[0,3,7,2,2,1,0,0,0,1,2,0,0,0,0,0,0,0,0,0,0],"split_type":[0,0,0,0,0,0,0,0,0,0,0,0,0,0,0,0,0,0,0,0,0],"sum_hessian":[8.416434E1,3.530197E1,4.8862362E1,1.9154701E1,1.614727E1,4.657319E1,2.289175E0,8.609195E0,1.0545506E1,4.573929E0,1.1573341E1,2.0841434E1,2.5731754E1,4.4423475E0,4.166847E0,2.3255703E0,2.2483587E0,8.761006E0,2.8123357E0,1.5372589E1,5.4688454E0],"tree_param":{"num_deleted":"0","num_feature":"48","num_nodes":"21","size_leaf_vector":"1"}},{"base_weights":[-1.2221221E-2,-4.0262857E-1,4.8160973E-1,-4.8024443E-1,1.5755765E-1,-8.881812E-2,9.0246415E-1,-5.5380946E-1,5.616565E-2,-3.1976406E-3,4.569819E-3,-4.4739684E-1,7.3736024E-1,1.0943091E0,3.3682424E-1,-2.2737442E-3,-3.987237E-3,2.9779708E-3,-2.9907252E-3,-1.6697712E-3,-3.6315795E-3,5.8045997E-3,1.4362561E-3,2.3796577E-3,7.4074855E-3,-1.9233631E-3,4.0127337E-3],"categories":[],"categories_nodes":[],"categories_segments":[],"categories_sizes":[],"default_left":[0,0,0,0,0,0,0,0,0,0,0,0,0,0,0,0,0,0,0,0,0,0,0,0,0,0,0],"id":58,"left_children":[1,3,5,7,9,11,13,15,17,-1,-1,19,21,23,25,-1,-1,-1,-1,-1,-1,-1,-1,-1,-1,-1,-1],"loss_changes":[1.6366549E1,2.136279E0,9.08078E0,1.6834402E0,3.1256402E0,5.3151546E0,1.9823074E0,4.6288776E-1,1.7018567E0,0E0,0E0,1.6143751E-1,3.9521956E-1,1.0500793E0,1.7270322E0,0E0,0E0,0E0,0E0,0E0,0E0,0E0,0E0,0E0,0E0,0E0,0E0],"parents":[2147483647,0,0,1,1,2,2,3,3,4,4,5,5,6,6,7,7,8,8,11,11,12,12,13,13,14,14],"right_children":[2,4,6,8,10,12,14,16,18,-1,-1,20,22,24,26,-1,-1,-1,-1,-1,-1,-1,-1,-1,-1,-1,-1],"split_conditions":[3.3385E4,2E1,2E0,1E0,8.319E3,3.2791587E3,6.673146E2,6.679483E2,3.3403765E3,-3.1976406E-3,4.569819E-3,4.5E1,3.9014753E3,3E0,2.553595E3,-2.2737442E-3,-3.987237E-3,2.9779708E-3,-2.9907252E-3,-1.6697712E-3,-3.6315795E-3,5.8045997E-3,1.4362561E-3,2.3796577E-3,7.4074855E-3,-1.9233631E-3,4.0127337E-3],"split_indices":[0,3,1,8,0,2,4,4,2,0,0,3,2,1,2,0,0,0,0,0,0,0,0,0,0,0,0],"split_type":[0,0,0,0,0,0,0,0,0,0,0,0,0,0,0,0,0,0,0,0,0,0,0,0,0,0,0],"sum_hessian":[8.2885056E1,4.6392933E1,3.6492123E1,4.0872593E1,5.5203424E0,1.582789E1,2.0664232E1,3.5914696E1,4.957897E0,2.6308687E0,2.8894737E0,1.1357132E1,4.470759E0,1.4732763E1,5.93147E0,1.5640058E1,2.0274637E1,2.8227668E0,2.1351304E0,6.817396E0,4.5397353E0,2.4131596E0,2.0575993E0,3.106875E0,1.1625888E1,2.0017629E0,3.9297068E0],"tree_param":{"num_deleted":"0","num_feature":"48","num_nodes":"27","size_leaf_vector":"1"}},{"base_weights":[2.2527326E-2,1.8738304E-1,-3.8259566E-1,-2.662885E-3,5.4442716E-1,-5.575564E-1,2.3469274E-1,-1.348929E-1,5.5267755E-3,