{"learner":{"attributes":{"scikit_learn":"{\"_estimator_type\": \"classifier\"}"},"feature_names":[],"feature_types":[],"gradient_booster":{"model":{"cats":{"enc":[],"feature_segments":[],"sorted_idx":[]},"gbtree_model_param":{"num_parallel_tree":"1","num_trees":"3000"},"iteration_indptr":[0,3,6,9,12,15,18,21,24,27,30,33,36,39,42,45,48,51,54,57,60,63,66,69,72,75,78,81,84,87,90,93,96,99,102,105,108,111,114,117,120,123,126,129,132,135,138,141,144,147,150,153,156,159,162,165,168,171,174,177,180,183,186,189,192,195,198,201,204,207,210,213,216,219,222,225,228,231,234,237,240,243,246,249,252,255,258,261,264,267,270,273,276,279,282,285,288,291,294,297,300,303,306,309,312,315,318,321,324,327,330,333,336,339,342,345,348,351,354,357,360,363,366,369,372,375,378,381,384,387,390,393,396,399,402,405,408,411,414,417,420,423,426,429,432,435,438,441,444,447,450,453,456,459,462,465,468,471,474,477,480,483,486,489,492,495,498,501,504,507,510,513,516,519,522,525,528,531,534,537,540,543,546,549,552,555,558,561,564,567,570,573,576,579,582,585,588,591,594,597,600,603,606,609,612,615,618,621,624,627,630,633,636,639,642,645,648,651,654,657,660,663,666,669,672,675,678,681,684,687,690,693,696,699,702,705,708,711,714,717,720,723,726,729,732,735,738,741,744,747,750,753,756,759,762,765,768,771,774,777,780,783,786,789,792,795,798,801,804,807,810,813,816,819,822,825,828,831,834,837,840,843,846,849,852,855,858,861,864,867,870,873,876,879,882,885,888,891,894,897,900,903,906,909,912,915,918,921,924,927,930,933,936,939,942,945,948,951,954,957,960,963,966,969,972,975,978,981,984,987,990,993,996,999,1002,1005,1008,1011,1014,1017,1020,1023,1026,1029,1032,1035,1038,1041,1044,1047,1050,1053,1056,1059,1062,1065,1068,1071,1074,1077,1080,1083,1086,1089,1092,1095,1098,1101,1104,1107,1110,1113,1116,1119,1122,1125,1128,1131,1134,1137,1140,1143,1146,1149,1152,1155,1158,1161,1164,1167,1170,1173,1176,1179,1182,1185,1188,1191,1194,1197,1200,1203,1206,1209,1212,1215,1218,1221,1224,1227,1230,1233,1236,1239,1242,1245,1248,1251,1254,1257,1260,1263,1266,1269,1272,1275,1278,1281,1284,1287,1290,1293,1296,1299,1302,1305,1308,1311,1314,1317,1320,1323,1326,1329,1332,1335,1338,1341,1344,1347,1350,1353,1356,1359,1362,1365,1368,1371,1374,1377,1380,1383,1386,1389,1392,1395,1398,1401,1404,1407,1410,1413,1416,1419,1422,1425,1428,1431,1434,1437,1440,1443,1446,1449,1452,1455,1458,1461,1464,1467,1470,1473,1476,1479,1482,1485,1488,1491,1494,1497,1500,1503,1506,1509,1512,1515,1518,1521,1524,1527,1530,1533,1536,1539,1542,1545,1548,1551,1554,1557,1560,1563,1566,1569,1572,1575,1578,1581,1584,1587,1590,1593,1596,1599,1602,1605,1608,1611,1614,1617,1620,1623,1626,1629,1632,1635,1638,1641,1644,1647,1650,1653,1656,1659,1662,1665,1668,1671,1674,1677,1680,1683,1686,1689,1692,1695,1698,1701,1704,1707,1710,1713,1716,1719,1722,1725,1728,1731,1734,1737,1740,1743,1746,1749,1752,1755,1758,1761,1764,1767,1770,1773,1776,1779,1782,1785,1788,1791,1794,1797,1800,1803,1806,1809,1812,1815,1818,1821,1824,1827,1830,1833,1836,1839,1842,1845,1848,1851,1854,1857,1860,1863,1866,1869,1872,1875,1878,1881,1884,1887,1890,1893,1896,1899,1902,1905,1908,1911,1914,1917,1920,1923,1926,1929,1932,1935,1938,1941,1944,1947,1950,1953,1956,1959,1962,1965,1968,1971,1974,1977,1980,1983,1986,1989,1992,1995,1998,2001,2004,2007,2010,2013,2016,2019,2022,2025,2028,2031,2034,2037,2040,2043,2046,2049,2052,2055,2058,2061,2064,2067,2070,2073,2076,2079,2082,2085,2088,2091,2094,2097,2100,2103,2106,2109,2112,2115,2118,2121,2124,2127,2130,2133,2136,2139,2142,2145,2148,2151,2154,2157,2160,2163,2166,2169,2172,2175,2178,2181,2184,2187,2190,2193,2196,2199,2202,2205,2208,2211,2214,2217,2220,2223,2226,2229,2232,2235,2238,2241,2244,2247,2250,2253,2256,2259,2262,2265,2268,2271,2274,2277,2280,2283,2286,2289,2292,2295,2298,2301,2304,2307,2310,2313,2316,2319,2322,2325,2328,2331,2334,2337,2340,2343,2346,2349,2352,2355,2358,2361,2364,2367,2370,2373,2376,2379,2382,2385,2388,2391,2394,2397,2400,2403,2406,2409,2412,2415,2418,2421,2424,2427,2430,2433,2436,2439,2442,2445,2448,2451,2454,2457,2460,2463,2466,2469,2472,2475,2478,2481,2484,2487,2490,2493,2496,2499,2502,2505,2508,2511,2514,2517,2520,2523,2526,2529,2532,2535,2538,2541,2544,2547,2550,2553,2556,2559,2562,2565,2568,2571,2574,2577,2580,2583,2586,2589,2592,2595,2598,2601,2604,2607,2610,2613,2616,2619,2622,2625,2628,2631,2634,2637,2640,2643,2646,2649,2652,2655,2658,2661,2664,2667,2670,2673,2676,2679,2682,2685,2688,2691,2694,2697,2700,2703,2706,2709,2712,2715,2718,2721,2724,2727,2730,2733,2736,2739,2742,2745,2748,2751,2754,2757,2760,2763,2766,2769,2772,2775,2778,2781,2784,2787,2790,2793,2796,2799,2802,2805,2808,2811,2814,2817,2820,2823,2826,2829,2832,2835,2838,2841,2844,2847,2850,2853,2856,2859,2862,2865,2868,2871,2874,2877,2880,2883,2886,2889,2892,2895,2898,2901,2904,2907,2910,2913,2916,2919,2922,2925,2928,2931,2934,2937,2940,2943,2946,2949,2952,2955,2958,2961,2964,2967,2970,2973,2976,2979,2982,2985,2988,2991,2994,2997,3000],"tree_info":[0,1,2,0,1,2,0,1,2,0,1,2,0,1,2,0,1,2,0,1,2,0,1,2,0,1,2,0,1,2,0,1,2,0,1,2,0,1,2,0,1,2,0,1,2,0,1,2,0,1,2,0,1,2,0,1,2,0,1,2,0,1,2,0,1,2,0,1,2,0,1,2,0,1,2,0,1,2,0,1,2,0,1,2,0,1,2,0,1,2,0,1,2,0,1,2,0,1,2,0,1,2,0,1,2,0,1,2,0,1,2,0,1,2,0,1,2,0,1,2,0,1,2,0,1,2,0,1,2,0,1,2,0,1,2,0,1,2,0,1,2,0,1,2,0,1,2,0,1,2,0,1,2,0,1,2,0,1,2,0,1,2,0,1,2,0,1,2,0,1,2,0,1,2,0,1,2,0,1,2,0,1,2,0,1,2,0,1,2,0,1,2,0,1,2,0,1,2,0,1,2,0,1,2,0,1,2,0,1,2,0,1,2,0,1,2,0,1,2,0,1,2,0,1,2,0,1,2,0,1,2,0,1,2,0,1,2,0,1,2,0,1,2,0,1,2,0,1,2,0,1,2,0,1,2,0,1,2,0,1,2,0,1,2,0,1,2,0,1,2,0,1,2,0,1,2,0,1,2,0,1,2,0,1,2,0,1,2,0,1,2,0,1,2,0,1,2,0,1,2,0,1,2,0,1,2,0,1,2,0,1,2,0,1,2,0,1,2,0,1,2,0,1,2,0,1,2,0,1,2,0,1,2,0,1,2,0,1,2,0,1,2,0,1,2,0,1,2,0,1,2,0,1,2,0,1,2,0,1,2,0,1,2,0,1,2,0,1,2,0,1,2,0,1,2,0,1,2,0,1,2,0,1,2,0,1,2,0,1,2,0,1,2,0,1,2,0,1,2,0,1,2,0,1,2,0,1,2,0,1,2,0,1,2,0,1,2,0,1,2,0,1,2,0,1,2,0,1,2,0,1,2,0,1,2,0,1,2,0,1,2,0,1,2,0,1,2,0,1,2,0,1,2,0,1,2,0,1,2,0,1,2,0,1,2,0,1,2,0,1,2,0,1,2,0,1,2,0,1,2,0,1,2,0,1,2,0,1,2,0,1,2,0,1,2,0,1,2,0,1,2,0,1,2,0,1,2,0,1,2,0,1,2,0,1,2,0,1,2,0,1,2,0,1,2,0,1,2,0,1,2,0,1,2,0,1,2,0,1,2,0,1,2,0,1,2,0,1,2,0,1,2,0,1,2,0,1,2,0,1,2,0,1,2,0,1,2,0,1,2,0,1,2,0,1,2,0,1,2,0,1,2,0,1,2,0,1,2,0,1,2,0,1,2,0,1,2,0,1,2,0,1,2,0,1,2,0,1,2,0,1,2,0,1,2,0,1,2,0,1,2,0,1,2,0,1,2,0,1,2,0,1,2,0,1,2,0,1,2,0,1,2,0,1,2,0,1,2,0,1,2,0,1,2,0,1,2,0,1,2,0,1,2,0,1,2,0,1,2,0,1,2,0,1,2,0,1,2,0,1,2,0,1,2,0,1,2,0,1,2,0,1,2,0,1,2,0,1,2,0,1,2,0,1,2,0,1,2,0,1,2,0,1,2,0,1,2,0,1,2,0,1,2,0,1,2,0,1,2,0,1,2,0,1,2,0,1,2,0,1,2,0,1,2,0,1,2,0,1,2,0,1,2,0,1,2,0,1,2,0,1,2,0,1,2,0,1,2,0,1,2,0,1,2,0,1,2,0,1,2,0,1,2,0,1,2,0,1,2,0,1,2,0,1,2,0,1,2,0,1,2,0,1,2,0,1,2,0,1,2,0,1,2,0,1,2,0,1,2,0,1,2,0,1,2,0,1,2,0,1,2,0,1,2,0,1,2,0,1,2,0,1,2,0,1,2,0,1,2,0,1,2,0,1,2,0,1,2,0,1,2,0,1,2,0,1,2,0,1,2,0,1,2,0,1,2,0,1,2,0,1,2,0,1,2,0,1,2,0,1,2,0,1,2,0,1,2,0,1,2,0,1,2,0,1,2,0,1,2,0,1,2,0,1,2,0,1,2,0,1,2,0,1,2,0,1,2,0,1,2,0,1,2,0,1,2,0,1,2,0,1,2,0,1,2,0,1,2,0,1,2,0,1,2,0,1,2,0,1,2,0,1,2,0,1,2,0,1,2,0,1,2,0,1,2,0,1,2,0,1,2,0,1,2,0,1,2,0,1,2,0,1,2,0,1,2,0,1,2,0,1,2,0,1,2,0,1,2,0,1,2,0,1,2,0,1,2,0,1,2,0,1,2,0,1,2,0,1,2,0,1,2,0,1,2,0,1,2,0,1,2,0,1,2,0,1,2,0,1,2,0,1,2,0,1,2,0,1,2,0,1,2,0,1,2,0,1,2,0,1,2,0,1,2,0,1,2,0,1,2,0,1,2,0,1,2,0,1,2,0,1,2,0,1,2,0,1,2,0,1,2,0,1,2,0,1,2,0,1,2,0,1,2,0,1,2,0,1,2,0,1,2,0,1,2,0,1,2,0,1,2,0,1,2,0,1,2,0,1,2,0,1,2,0,1,2,0,1,2,0,1,2,0,1,2,0,1,2,0,1,2,0,1,2,0,1,2,0,1,2,0,1,2,0,1,2,0,1,2,0,1,2,0,1,2,0,1,2,0,1,2,0,1,2,0,1,2,0,1,2,0,1,2,0,1,2,0,1,2,0,1,2,0,1,2,0,1,2,0,1,2,0,1,2,0,1,2,0,1,2,0,1,2,0,1,2,0,1,2,0,1,2,0,1,2,0,1,2,0,1,2,0,1,2,0,1,2,0,1,2,0,1,2,0,1,2,0,1,2,0,1,2,0,1,2,0,1,2,0,1,2,0,1,2,0,1,2,0,1,2,0,1,2,0,1,2,0,1,2,0,1,2,0,1,2,0,1,2,0,1,2,0,1,2,0,1,2,0,1,2,0,1,2,0,1,2,0,1,2,0,1,2,0,1,2,0,1,2,0,1,2,0,1,2,0,1,2,0,1,2,0,1,2,0,1,2,0,1,2,0,1,2,0,1,2,0,1,2,0,1,2,0,1,2,0,1,2,0,1,2,0,1,2,0,1,2,0,1,2,0,1,2,0,1,2,0,1,2,0,1,2,0,1,2,0,1,2,0,1,2,0,1,2,0,1,2,0,1,2,0,1,2,0,1,2,0,1,2,0,1,2,0,1,2,0,1,2,0,1,2,0,1,2,0,1,2,0,1,2,0,1,2,0,1,2,0,1,2,0,1,2,0,1,2,0,1,2,0,1,2,0,1,2,0,1,2,0,1,2,0,1,2,0,1,2,0,1,2,0,1,2,0,1,2,0,1,2,0,1,2,0,1,2,0,1,2,0,1,2,0,1,2,0,1,2,0,1,2,0,1,2,0,1,2,0,1,2,0,1,2,0,1,2,0,1,2,0,1,2,0,1,2,0,1,2,0,1,2,0,1,2,0,1,2,0,1,2,0,1,2,0,1,2,0,1,2,0,1,2,0,1,2,0,1,2,0,1,2,0,1,2,0,1,2,0,1,2,0,1,2,0,1,2,0,1,2,0,1,2,0,1,2,0,1,2,0,1,2,0,1,2,0,1,2,0,1,2,0,1,2,0,1,2,0,1,2,0,1,2,0,1,2,0,1,2,0,1,2,0,1,2,0,1,2,0,1,2,0,1,2,0,1,2,0,1,2,0,1,2,0,1,2,0,1,2,0,1,2,0,1,2,0,1,2,0,1,2,0,1,2,0,1,2,0,1,2,0,1,2,0,1,2,0,1,2,0,1,2,0,1,2,0,1,2,0,1,2,0,1,2,0,1,2,0,1,2,0,1,2,0,1,2,0,1,2,0,1,2,0,1,2,0,1,2,0,1,2,0,1,2,0,1,2,0,1,2,0,1,2,0,1,2,0,1,2,0,1,2,0,1,2,0,1,2,0,1,2,0,1,2,0,1,2,0,1,2,0,1,2,0,1,2,0,1,2,0,1,2,0,1,2,0,1,2,0,1,2,0,1,2,0,1,2,0,1,2,0,1,2,0,1,2,0,1,2,0,1,2,0,1,2,0,1,2,0,1,2,0,1,2,0,1,2,0,1,2,0,1,2,0,1,2,0,1,2,0,1,2,0,1,2,0,1,2,0,1,2,0,1,2,0,1,2,0,1,2,0,1,2,0,1,2,0,1,2,0,1,2,0,1,2,0,1,2,0,1,2,0,1,2,0,1,2,0,1,2,0,1,2,0,1,2,0,1,2,0,1,2,0,1,2,0,1,2,0,1,2,0,1,2,0,1,2,0,1,2,0,1,2,0,1,2,0,1,2,0,1,2,0,1,2,0,1,2,0,1,2,0,1,2,0,1,2,0,1,2,0,1,2,0,1,2,0,1,2,0,1,2,0,1,2,0,1,2,0,1,2,0,1,2,0,1,2,0,1,2,0,1,2,0,1,2,0,1,2,0,1,2,0,1,2,0,1,2,0,1,2,0,1,2,0,1,2,0,1,2,0,1,2,0,1,2,0,1,2,0,1,2,0,1,2,0,1,2,0,1,2,0,1,2,0,1,2,0,1,2,0,1,2,0,1,2,0,1,2,0,1,2,0,1,2,0,1,2,0,1,2,0,1,2,0,1,2,0,1,2,0,1,2,0,1,2,0,1,2,0,1,2,0,1,2,0,1,2,0,1,2,0,1,2,0,1,2,0,1,2,0,1,2,0,1,2,0,1,2,0,1,2,0,1,2,0,1,2,0,1,2,0,1,2,0,1,2,0,1,2,0,1,2,0,1,2,0,1,2,0,1,2,0,1,2,0,1,2,0,1,2,0,1,2,0,1,2,0,1,2,0,1,2,0,1,2,0,1,2,0,1,2,0,1,2,0,1,2,0,1,2,0,1,2,0,1,2,0,1,2,0,1,2,0,1,2,0,1,2,0,1,2,0,1,2,0,1,2,0,1,2,0,1,2,0,1,2,0,1,2,0,1,2,0,1,2,0,1,2,0,1,2,0,1,2,0,1,2,0,1,2,0,1,2,0,1,2,0,1,2,0,1,2,0,1,2,0,1,2,0,1,2,0,1,2,0,1,2,0,1,2,0,1,2,0,1,2,0,1,2,0,1,2,0,1,2,0,1,2,0,1,2,0,1,2,0,1,2,0,1,2,0,1,2,0,1,2,0,1,2,0,1,2,0,1,2,0,1,2,0,1,2,0,1,2,0,1,2,0,1,2,0,1,2,0,1,2,0,1,2,0,1,2,0,1,2,0,1,2,0,1,2,0,1,2,0,1,2,0,1,2,0,1,2,0,1,2,0,1,2,0,1,2,0,1,2,0,1,2,0,1,2,0,1,2,0,1,2,0,1,2,0,1,2,0,1,2,0,1,2,0,1,2,0,1,2,0,1,2,0,1,2,0,1,2,0,1,2,0,1,2,0,1,2,0,1,2,0,1,2,0,1,2,0,1,2,0,1,2,0,1,2,0,1,2,0,1,2,0,1,2,0,1,2,0,1,2,0,1,2,0,1,2,0,1,2,0,1,2,0,1,2,0,1,2,0,1,2,0,1,2,0,1,2,0,1,2,0,1,2,0,1,2,0,1,2,0,1,2,0,1,2,0,1,2,0,1,2,0,1,2,0,1,2,0,1,2,0,1,2,0,1,2,0,1,2,0,1,2,0,1,2,0,1,2,0,1,2,0,1,2,0,1,2,0,1,2,0,1,2,0,1,2,0,1,2,0,1,2,0,1,2,0,1,2,0,1,2,0,1,2,0,1,2,0,1,2,0,1,2,0,1,2,0,1,2,0,1,2,0,1,2,0,1,2,0,1,2,0,1,2,0,1,2,0,1,2,0,1,2,0,1,2,0,1,2,0,1,2,0,1,2,0,1,2,0,1,2,0,1,2,0,1,2,0,1,2,0,1,2,0,1,2,0,1,2,0,1,2,0,1,2,0,1,2,0,1,2,0,1,2,0,1,2,0,1,2,0,1,2,0,1,2,0,1,2,0,1,2,0,1,2,0,1,2,0,1,2,0,1,2,0,1,2,0,1,2,0,1,2,0,1,2,0,1,2,0,1,2,0,1,2,0,1,2,0,1,2,0,1,2,0,1,2,0,1,2,0,1,2,0,1,2,0,1,2,0,1,2,0,1,2,0,1,2,0,1,2,0,1,2,0,1,2,0,1,2,0,1,2,0,1,2,0,1,2,0,1,2,0,1,2,0,1,2,0,1,2,0,1,2,0,1,2,0,1,2,0,1,2,0,1,2,0,1,2,0,1,2,0,1,2,0,1,2,0,1,2,0,1,2,0,1,2,0,1,2,0,1,2,0,1,2,0,1,2,0,1,2,0,1,2,0,1,2,0,1,2,0,1,2,0,1,2,0,1,2,0,1,2,0,1,2,0,1,2,0,1,2,0,1,2,0,1,2,0,1,2,0,1,2,0,1,2,0,1,2,0,1,2,0,1,2,0,1,2,0,1,2,0,1,2,0,1,2,0,1,2,0,1,2,0,1,2,0,1,2,0,1,2,0,1,2,0,1,2,0,1,2,0,1,2,0,1,2,0,1,2,0,1,2,0,1,2,0,1,2,0,1,2,0,1,2,0,1,2,0,1,2,0,1,2,0,1,2,0,1,2,0,1,2,0,1,2,0,1,2,0,1,2,0,1,2,0,1,2,0,1,2,0,1,2,0,1,2,0,1,2,0,1,2,0,1,2],"trees":[{"base_weights":[2.067767E-3,1.1899711E0,-2.7072495E-1,1.2683308E0,-3.721739E-3,-1.5014408E-2,-4.9598774E-1,2.27719E-2,6.7492746E-2,-1.4537635E-1,6.5563895E-2,-5.503067E-1,5.419873E-2,-1.15510905E-2,5.998555E-2,-3.1172559E-2,5.0836825E-3],"categories":[],"categories_nodes":[],"categories_segments":[],"categories_sizes":[],"default_left":[0,0,0,0,0,0,0,0,0,0,0,0,0,0,0,0,0],"id":0,"left_children":[1,3,5,7,-1,9,11,-1,-1,13,-1,15,-1,-1,-1,-1,-1],"loss_changes":[7.373138E1,4.3044662E0,1.0651452E1,2.0405273E0,0E0,1.5353096E1,9.036901E0,0E0,0E0,9.57937E0,0E0,4.6292114E0,0E0,0E0,0E0,0E0,0E0],"parents":[2147483647,0,0,1,1,2,2,3,3,5,5,6,6,9,9,11,11],"right_children":[2,4,6,8,-1,10,12,-1,-1,14,-1,16,-1,-1,-1,-1,-1],"split_conditions":[2.169E3,4E0,1.2354E4,1.8406821E3,-3.721739E-3,1E0,1E0,2.27719E-2,6.7492746E-2,1E0,6.5563895E-2,1E0,5.419873E-2,-1.15510905E-2,5.998555E-2,-3.1172559E-2,5.0836825E-3],"split_indices":[0,4,0,3,0,17,8,0,0,44,0,15,0,0,0,0,0],"split_type":[0,0,0,0,0,0,0,0,0,0,0,0,0,0,0,0,0],"sum_hessian":[2.2553577E2,4.1492092E1,1.8404367E2,3.9067818E1,2.424274E0,8.669601E1,9.7347664E1,4.161293E0,3.4906525E1,7.974793E1,6.9480753E0,9.4742134E1,2.6055284E0,7.5752785E1,3.9951434E0,8.5224686E1,9.517445E0],"tree_param":{"num_deleted":"0","num_feature":"45","num_nodes":"17","size_leaf_vector":"1"}},{"base_weights":[2.9883029E-2,-4.5068756E-1,6.3835305E-1,-5.894374E-1,1.7211486E-1,7.179268E-1,-3.176239E-2,-6.380548E-1,5.301083E-2,-3.7782216E-1,5.973457E-2,2.6519462E-1,9.360276E-1,-3.4396388E-2,2.2557857E-2,4.10151E-2,-3.475429E-2,4.2376366E-2,-3.4605432E-2,2.1296088E-2,7.093362E-2],"categories":[],"categories_nodes":[],"categories_segments":[],"categories_sizes":[],"default_left":[0,0,0,0,0,0,0,0,0,0,0,0,0,0,0,0,0,0,0,0,0],"id":1,"left_children":[1,3,5,7,9,11,-1,13,-1,15,-1,17,19,-1,-1,-1,-1,-1,-1,-1,-1],"loss_changes":[6.768393E1,1.1280106E1,1.0805553E1,9.179398E0,1.4140683E1,9.288734E0,0E0,5.938595E0,0E0,6.876195E0,0E0,1.8869947E1,1.5346622E1,0E0,0E0,0E0,0E0,0E0,0E0,0E0,0E0],"parents":[2147483647,0,0,1,1,2,2,3,3,4,4,5,5,7,7,9,9,11,11,12,12],"right_children":[2,4,6,8,10,12,-1,14,-1,16,-1,18,20,-1,-1,-1,-1,-1,-1,-1,-1],"split_conditions":[1.2354E4,1E0,1E0,1E0,2E0,1E0,-3.176239E-2,6E0,5.301083E-2,1.6049894E3,5.973457E-2,3E0,5.0436E4,-3.4396388E-2,2.2557857E-2,4.10151E-2,-3.475429E-2,4.2376366E-2,-3.4605432E-2,2.1296088E-2,7.093362E-2],"split_indices":[0,27,35,21,2,17,0,2,0,3,0,2,0,0,0,0,0,0,0,0,0],"split_type":[0,0,0,0,0,0,0,0,0,0,0,0,0,0,0,0,0,0,0,0,0],"sum_hessian":[2.2948318E2,1.2836198E2,1.0112119E2,1.0501908E2,2.3342913E1,9.558538E1,5.535812E0,1.026083E2,2.4107752E0,1.5589481E1,7.753432E0,3.1797104E1,6.3788277E1,9.8468056E1,4.1402445E0,2.9318817E0,1.2657599E1,1.9841866E1,1.1955238E1,3.1927095E1,3.1861183E1],"tree_param":{"num_deleted":"0","num_feature":"45","num_nodes":"21","size_leaf_vector":"1"}},{"base_weights":[-5.5427873E-3,-3.0187407E-1,1.2555037E-1,-3.9026627E-1,4.5280587E-2,1.0119262E0,2.822816E-2,-1.9510284E-1,-3.5973176E-2,4.578191E-1,6.537349E-2,1.8116099E-1,-3.5865262E-1,-2.0597106E-2,5.015267E-3,-2.5990346E-2,5.1264E-2,1.5081697E-3,5.256599E-2,-2.60813E-2,4.258151E-2],"categories":[],"categories_nodes":[],"categories_segments":[],"categories_sizes":[],"default_left":[0,0,0,0,0,0,0,0,0,0,0,0,0,0,0,0,0,0,0,0,0],"id":2,"left_children":[1,3,5,7,-1,9,11,13,-1,15,-1,17,19,-1,-1,-1,-1,-1,-1,-1,-1],"loss_changes":[9.011435E0,7.946538E0,1.3847459E1,4.163417E0,0E0,2.0028744E0,8.7015295E0,2.8231163E0,0E0,4.4520664E0,0E0,1.3801212E1,8.667292E0,0E0,0E0,0E0,0E0,0E0,0E0,0E0,0E0],"parents":[2147483647,0,0,1,1,2,2,3,3,5,5,6,6,7,7,9,9,11,11,12,12],"right_children":[2,4,6,8,-1,10,12,14,-1,16,-1,18,20,-1,-1,-1,-1,-1,-1,-1,-1],"split_conditions":[1E0,1E0,2.426E3,4.2166274E3,4.5280587E-2,1E0,5.0436E4,1E0,-3.5973176E-2,7.854E3,6.537349E-2,1E0,1E0,-2.0597106E-2,5.015267E-3,-2.5990346E-2,5.1264E-2,1.5081697E-3,5.256599E-2,-2.60813E-2,4.258151E-2],"split_indices":[2,35,3,3,0,24,0,4,0,0,0,22,15,0,0,0,0,0,0,0,0],"split_type":[0,0,0,0,0,0,0,0,0,0,0,0,0,0,0,0,0,0,0,0,0],"sum_hessian":[2.2999683E2,7.014159E1,1.5985524E2,6.598784E1,4.1537485E0,1.4885524E1,1.4496971E2,4.2427505E1,2.3560335E1,6.0644727E0,8.821051E0,1.0427991E2,4.06898E1,2.424004E1,1.8187468E1,2.2581286E0,3.806344E0,8.974179E1,1.4538119E1,3.636235E1,4.3274508E0],"tree_param":{"num_deleted":"0","num_feature":"45","num_nodes":"21","size_leaf_vector":"1"}},{"base_weights":[2.8915482E-2,1.0520674E0,-2.4069737E-1,1.1170318E0,-5.936877E-4,4.2572476E-2,-4.8299882E-1,1.2635918E0,4.7950873E-1,3.190973E-1,-4.8505378E-1,-5.313157E-1,5.018456E-2,6.8576515E-2,1.0364585E-2,2.659415E-3,5.3176977E-2,-2.2321377E-2,3.0571634E-2,-9.8205535E-3,-2.8298346E-2,-3.0074706E-2,3.93626E-3],"categories":[],"categories_nodes":[],"categories_segments":[],"categories_sizes":[],"default_left":[0,0,0,0,0,0,0,0,0,0,0,0,0,0,0,0,0,0,0,0,0,0,0],"id":3,"left_children":[1,3,5,7,-1,9,11,13,15,17,19,21,-1,-1,-1,-1,-1,-1,-1,-1,-1,-1,-1],"loss_changes":[6.0674667E1,3.1834984E0,1.1974791E1,3.4340363E0,0E0,1.200407E1,7.282091E0,3.6542778E0,2.3569655E0,1.2333023E1,5.503454E-1,3.9710064E0,0E0,0E0,0E0,0E0,0E0,0E0,0E0,0E0,0E0,0E0,0E0],"parents":[2147483647,0,0,1,1,2,2,3,3,5,5,6,6,7,7,8,8,9,9,10,10,11,11],"right_children":[2,4,6,8,-1,10,12,14,16,18,20,22,-1,-1,-1,-1,-1,-1,-1,-1,-1,-1,-1],"split_conditions":[2.169E3,1.58E2,1.2354E4,1E0,-5.936877E-4,1E0,1E0,2E0,6.88E2,2.551E3,7.4E1,1E0,5.018456E-2,6.8576515E-2,1.0364585E-2,2.659415E-3,5.3176977E-2,-2.2321377E-2,3.0571634E-2,-9.8205535E-3,-2.8298346E-2,-3.0074706E-2,3.93626E-3],"split_indices":[0,1,0,27,0,8,8,2,0,0,1,15,0,0,0,0,0,0,0,0,0,0,0],"split_type":[0,0,0,0,0,0,0,0,0,0,0,0,0,0,0,0,0,0,0,0,0,0,0],"sum_hessian":[2.1803342E2,4.4866753E1,1.7316667E2,4.2237804E1,2.6289485E0,8.021417E1,9.295249E1,3.354429E1,8.693517E0,5.28901E1,2.7324072E1,9.0649055E1,2.3034425E0,3.016358E1,3.380707E0,5.6559544E0,3.0375624E0,1.4470298E1,3.84198E1,6.732947E0,2.0591125E1,8.1309326E1,9.339725E0],"tree_param":{"num_deleted":"0","num_feature":"45","num_nodes":"23","size_leaf_vector":"1"}},{"base_weights":[-1.6989918E-2,-4.4059744E-1,5.138068E-1,-5.7867235E-1,1.8532671E-1,7.0871824E-1,4.9777622E-3,-6.267769E-1,5.097667E-2,-3.6304557E-1,5.9202492E-2,7.9407114E-1,-3.0732155E-2,-4.3781525E-1,8.0348223E-1,-3.3799212E-2,1.9886617E-2,3.9842617E-2,-3.4132507E-2,4.268865E-2,-2.7197728E-2,-3.538969E-2,5.1323056E-2,-2.6066456E-2,6.1956417E-2],"categories":[],"categories_nodes":[],"categories_segments":[],"categories_sizes":[],"default_left":[0,0,0,0,0,0,0,0,0,0,0,0,0,0,0,0,0,0,0,0,0,0,0,0,0],"id":4,"left_children":[1,3,5,7,9,11,13,15,-1,17,-1,19,-1,21,23,-1,-1,-1,-1,-1,-1,-1,-1,-1,-1],"loss_changes":[5.1966232E1,1.1214035E1,1.0171423E1,8.752354E0,1.3564909E1,8.86602E0,1.0754609E1,5.464798E0,0E0,6.567157E0,0E0,6.065338E0,0E0,8.46458E0,6.9069595E0,0E0,0E0,0E0,0E0,0E0,0E0,0E0,0E0,0E0,0E0],"parents":[2147483647,0,0,1,1,2,2,3,3,4,4,5,5,6,6,7,7,9,9,11,11,13,13,14,14],"right_children":[2,4,6,8,10,12,14,16,-1,18,-1,20,-1,22,24,-1,-1,-1,-1,-1,-1,-1,-1,-1,-1],"split_conditions":[1.2354E4,1E0,0E0,1E0,2E0,1E0,5.0436E4,6E0,5.097667E-2,1.6049894E3,5.9202492E-2,1.7E1,-3.0732155E-2,1E0,1E0,-3.3799212E-2,1.9886617E-2,3.9842617E-2,-3.4132507E-2,4.268865E-2,-2.7197728E-2,-3.538969E-2,5.1323056E-2,-2.6066456E-2,6.1956417E-2],"split_indices":[0,27,4,21,2,25,0,2,0,3,0,2,0,27,17,0,0,0,0,0,0,0,0,0,0],"split_type":[0,0,0,0,0,0,0,0,0,0,0,0,0,0,0,0,0,0,0,0,0,0,0,0,0],"sum_hessian":[2.291088E2,1.2751452E2,1.0159428E2,1.04531105E2,2.2983412E1,7.317219E1,2.8422089E1,1.0206681E2,2.464293E0,1.5247762E1,7.7356496E0,6.911446E1,4.0577197E0,1.8573996E1,9.848093E0,9.771379E1,4.35302E0,2.9712734E0,1.2276489E1,6.6508804E1,2.6056616E0,1.6118706E1,2.45529E0,2.3883564E0,7.459736E0],"tree_param":{"num_deleted":"0","num_feature":"45","num_nodes":"25","size_leaf_vector":"1"}},{"base_weights":[-1.8103903E-2,-3.4765288E-1,1.315953E-1,-4.383561E-1,4.3039195E-2,2.5181323E-1,-5.506992E-1,-4.8798952E-1,3.3203125E-2,4.4417274E-1,-3.574033E-1,-3.5520952E-2,2.3288613E-2,-3.2314006E-2,-6.848503E-5,2.7763283E-2,-1.0270086E-2,-3.4711096E-2,-4.2124066E-4],"categories":[],"categories_nodes":[],"categories_segments":[],"categories_sizes":[],"default_left":[0,0,0,0,0,0,0,0,0,0,0,0,0,0,0,0,0,0,0],"id":5,"left_children":[1,3,5,7,-1,9,11,13,-1,15,17,-1,-1,-1,-1,-1,-1,-1,-1],"loss_changes":[1.1111671E1,8.087299E0,1.2849869E1,3.9404058E0,0E0,1.5679291E1,4.150758E0,4.915084E0,0E0,7.4100285E0,3.7950988E0,0E0,0E0,0E0,0E0,0E0,0E0,0E0,0E0],"parents":[2147483647,0,0,1,1,2,2,3,3,5,5,6,6,7,7,9,9,10,10],"right_children":[2,4,6,8,-1,10,12,14,-1,16,18,-1,-1,-1,-1,-1,-1,-1,-1],"split_conditions":[1E0,1E0,1E0,7E0,4.3039195E-2,5.0436E4,1E0,1E0,3.3203125E-2,1E0,4.448606E3,-3.5520952E-2,2.3288613E-2,-3.2314006E-2,-6.848503E-5,2.7763283E-2,-1.0270086E-2,-3.4711096E-2,-4.2124066E-4],"split_indices":[2,35,27,4,0,0,15,27,0,15,3,0,0,0,0,0,0,0,0],"split_type":[0,0,0,0,0,0,0,0,0,0,0,0,0,0,0,0,0,0,0],"sum_hessian":[2.2330977E2,6.934057E1,1.539692E2,6.509212E1,4.248452E0,1.3144073E2,2.2528471E1,6.282111E1,2.271004E0,1.0010393E2,3.1336803E1,1.9729443E1,2.7990284E0,4.715436E1,1.566675E1,8.560806E1,1.4495866E1,1.5442799E1,1.5894004E1],"tree_param":{"num_deleted":"0","num_feature":"45","num_nodes":"19","size_leaf_vector":"1"}},{"base_weights":[2.0562406E-3,7.985932E-1,-3.4381056E-1,9.9239314E-1,-8.648941E-2,-4.403921E-1,1.9505896E-1,6.777897E-2,1.1735564E0,-4.8452818E-1,5.2634084E-1,-1.8836646E-1,-5.5400574E-1,5.197349E-1,-2.8195461E-2,5.093835E-2,-1.9850275E-2,6.223884E-2,-8.480077E-3,-9.373916E-3,-2.8191958E-2,5.0395824E-2,-7.816467E-3,-1.966519E-2,5.7421446E-2,-3.0608831E-2,5.094601E-2,6.3090846E-2,-5.670782E-4],"categories":[],"categories_nodes":[],"categories_segments":[],"categories_sizes":[],"default_left":[0,0,0,0,0,0,0,0,0,0,0,0,0,0,0,0,0,0,0,0,0,0,0,0,0,0,0,0,0],"id":6,"left_children":[1,3,5,7,9,11,13,15,17,19,21,23,25,27,-1,-1,-1,-1,-1,-1,-1,-1,-1,-1,-1,-1,-1,-1,-1],"loss_changes":[6.310853E1,1.1981674E1,8.398729E0,9.4640045E0,3.5182064E0,3.7827892E0,6.4460025E0,4.999352E0,4.7625046E0,9.762502E-2,2.0468812E0,1.2423084E1,9.13834E0,7.111522E0,0E0,0E0,0E0,0E0,0E0,0E0,0E0,0E0,0E0,0E0,0E0,0E0,0E0,0E0,0E0],"parents":[2147483647,0,0,1,1,2,2,3,3,4,4,5,5,6,6,7,7,8,8,9,9,10,10,11,11,12,12,13,13],"right_children":[2,4,6,8,10,12,14,16,18,20,22,24,26,28,-1,-1,-1,-1,-1,-1,-1,-1,-1,-1,-1,-1,-1,-1,-1],"split_conditions":[4.255E3,2E0,1E0,1.8406821E3,4.2E1,1.2354E4,1E0,1E0,1.67E2,3E0,1.46E2,1E0,1E0,1E0,-2.8195461E-2,5.093835E-2,-1.9850275E-2,6.223884E-2,-8.480077E-3,-9.373916E-3,-2.8191958E-2,5.0395824E-2,-7.816467E-3,-1.966519E-2,5.7421446E-2,-3.0608831E-2,5.094601E-2,6.3090846E-2,-5.670782E-4],"split_indices":[0,2,15,3,1,0,24,5,1,2,1,17,8,6,0,0,0,0,0,0,0,0,0,0,0,0,0,0,0],"split_type":[0,0,0,0,0,0,0,0,0,0,0,0,0,0,0,0,0,0,0,0,0,0,0,0,0,0,0,0,0],"sum_hessian":[2.2707605E2,6.835179E1,1.5872426E2,5.5974277E1,1.2377512E1,1.347549E2,2.3969364E1,9.395587E0,4.657869E1,7.6306777E0,4.7468343E0,4.2697754E1,9.2057144E1,1.7008553E1,6.960812E0,2.6931872E0,6.7023997E0,4.43028E1,2.2758892E0,2.3168874E0,5.3137903E0,2.5040035E0,2.2428308E0,3.7634056E1,5.0637E0,8.9363075E1,2.6940727E0,6.520871E0,1.0487681E1],"tree_param":{"num_deleted":"0","num_feature":"45","num_nodes":"29","size_leaf_vector":"1"}},{"base_weights":[2.2998333E-2,-4.2265588E-1,5.3198725E-1,-5.6195205E-1,1.8606728E-1,6.9431984E-1,-5.8926553E-2,-6.113451E-1,4.9530797E-2,-3.449663E-1,5.4175746E-2,7.6644504E-1,-3.0442795E-2,-3.935263E-1,6.6232353E-1,-3.3093628E-2,1.9399405E-2,4.5942467E-2,-3.3615332E-2,-2.9275432E-2,4.1720618E-2,-3.460001E-2,4.4017132E-2,4.89542E-2,1.7152645E-2],"categories":[],"categories_nodes":[],"categories_segments":[],"categories_sizes":[],"default_left":[0,0,0,0,0,0,0,0,0,0,0,0,0,0,0,0,0,0,0,0,0,0,0,0,0],"id":7,"left_children":[1,3,5,7,9,11,13,15,-1,17,-1,19,-1,21,23,-1,-1,-1,-1,-1,-1,-1,-1,-1,-1],"loss_changes":[5.2753284E1,1.0621037E1,1.0453291E1,8.364574E0,1.1738797E1,8.477821E0,6.128563E0,5.2393684E0,0E0,7.1296177E0,0E0,7.9504204E0,0E0,7.1629105E0,4.8108244E-1,0E0,0E0,0E0,0E0,0E0,0E0,0E0,0E0,0E0,0E0],"parents":[2147483647,0,0,1,1,2,2,3,3,4,4,5,5,6,6,7,7,9,9,11,11,13,13,14,14],"right_children":[2,4,6,8,10,12,14,16,-1,18,-1,20,-1,22,24,-1,-1,-1,-1,-1,-1,-1,-1,-1,-1],"split_conditions":[1.2354E4,1E0,1E0,1E0,2E0,1E0,1E0,6E0,4.9530797E-2,1.6049894E3,5.4175746E-2,1.5E1,-3.0442795E-2,1E0,1.4571E4,-3.3093628E-2,1.9399405E-2,4.5942467E-2,-3.3615332E-2,-2.9275432E-2,4.1720618E-2,-3.460001E-2,4.4017132E-2,4.89542E-2,1.7152645E-2],"split_indices":[0,27,4,21,2,25,27,2,0,3,0,1,0,38,0,0,0,0,0,0,0,0,0,0,0],"split_type":[0,0,0,0,0,0,0,0,0,0,0,0,0,0,0,0,0,0,0,0,0,0,0,0,0],"sum_hessian":[2.3057312E2,1.2302555E2,1.0754757E2,1.0017825E2,2.2847294E1,8.423264E1,2.3314919E1,9.767701E1,2.5012405E0,1.47406435E1,8.106651E0,8.020548E1,4.027167E0,1.623679E1,7.0781293E0,9.329747E1,4.3795395E0,2.6607687E0,1.2079874E1,3.4747062E0,7.6730774E1,1.3524666E1,2.7121239E0,2.5156405E0,4.562489E0],"tree_param":{"num_deleted":"0","num_feature":"45","num_nodes":"25","size_leaf_vector":"1"}},{"base_weights":[4.0587377E-2,-3.6493197E-1,1.3605934E-1,-4.997157E-1,2.2708446E-1,2.3763242E-1,-4.380104E-1,-5.9647876E-1,2.6085792E-2,5.562458E-1,-2.55177E-2,4.4105464E-1,-1.9438882E-1,-3.537856E-2,4.695378E-2,-3.5335522E-2,-1.0175449E-2,-2.4977898E-2,5.771001E-2,3.499049E-3,3.4101646E-2,-1.5762245E-2,5.3926956E-2],"categories":[],"categories_nodes":[],"categories_segments":[],"categories_sizes":[],"default_left":[0,0,0,0,0,0,0,0,0,0,0,0,0,0,0,0,0,0,0,0,0,0,0],"id":8,"left_children":[1,3,5,7,9,11,13,15,-1,17,-1,19,21,-1,-1,-1,-1,-1,-1,-1,-1,-1,-1],"loss_changes":[8.838811E0,3.587195E0,1.0861368E1,3.8468552E0,2.4104352E0,1.39183035E1,1.1090312E1,1.2918873E0,0E0,4.702662E0,0E0,9.548605E0,8.198415E0,0E0,0E0,0E0,0E0,0E0,0E0,0E0,0E0,0E0,0E0],"parents":[2147483647,0,0,1,1,2,2,3,3,4,4,5,5,6,6,7,7,9,9,11,11,12,12],"right_children":[2,4,6,8,10,12,14,16,-1,18,-1,20,22,-1,-1,-1,-1,-1,-1,-1,-1,-1,-1],"split_conditions":[2.169E3,1E0,1E0,4E0,6.88E2,4.4546E4,1E0,1E0,2.6085792E-2,5.79E2,-2.55177E-2,-3E0,1E0,-3.537856E-2,4.695378E-2,-3.5335522E-2,-1.0175449E-2,-2.4977898E-2,5.771001E-2,3.499049E-3,3.4101646E-2,-1.5762245E-2,5.3926956E-2],"split_indices":[0,27,27,4,0,0,15,28,0,0,0,4,25,0,0,0,0,0,0,0,0,0,0],"split_type":[0,0,0,0,0,0,0,0,0,0,0,0,0,0,0,0,0,0,0,0,0,0,0],"sum_hessian":[2.2601775E2,4.2533474E1,1.8348428E2,3.4772717E1,7.7607565E0,1.5639804E2,2.7086243E1,3.2143692E1,2.6290262E0,5.5356026E0,2.2251537E0,1.0631668E2,5.0081356E1,2.3058739E1,4.027503E0,2.447878E1,7.66491E0,2.0610235E0,3.4745793E0,4.2367268E1,6.394941E1,4.6425873E1,3.655483E0],"tree_param":{"num_deleted":"0","num_feature":"45","num_nodes":"23","size_leaf_vector":"1"}},{"base_weights":[1.2458964E-2,7.90077E-1,-3.2794067E-1,8.696516E-1,-2.4698708E-2,-4.2924532E-1,2.6235983E-1,1.895835E-2,1.0088379E0,-9.0278745E-2,-5.0827354E-1,6.390764E-1,-2.7710775E-2,4.78123E-2,-2.158099E-2,5.6022596E-2,-9.7152535E-3,1.9087788E-2,-1.8316153E-2,-2.0383473E-2,-2.9519964E-2,4.879872E-2,-9.854662E-3],"categories":[],"categories_nodes":[],"categories_segments":[],"categories_sizes":[],"default_left":[0,0,0,0,0,0,0,0,0,0,0,0,0,0,0,0,0,0,0,0,0,0,0],"id":9,"left_children":[1,3,5,7,-1,9,11,13,15,17,19,21,-1,-1,-1,-1,-1,-1,-1,-1,-1,-1,-1],"loss_changes":[5.8824352E1,7.342621E0,9.357353E0,7.567192E0,0E0,3.4989223E0,7.51096E0,4.6478295E0,7.6092873E0,3.5582914E0,6.4414406E-1,4.808052E0,0E0,0E0,0E0,0E0,0E0,0E0,0E0,0E0,0E0,0E0,0E0],"parents":[2147483647,0,0,1,1,2,2,3,3,5,5,6,6,7,7,8,8,9,9,10,10,11,11],"right_children":[2,4,6,8,-1,10,12,14,16,18,20,22,-1,-1,-1,-1,-1,-1,-1,-1,-1,-1,-1],"split_conditions":[4.255E3,4E0,1E0,1.8406821E3,-2.4698708E-2,1E0,1E0,1E0,1.67E2,1.1923E4,1E0,1E0,-2.7710775E-2,4.78123E-2,-2.158099E-2,5.6022596E-2,-9.7152535E-3,1.9087788E-2,-1.8316153E-2,-2.0383473E-2,-2.9519964E-2,4.879872E-2,-9.854662E-3],"split_indices":[0,2,15,3,0,2,24,5,1,0,17,28,0,0,0,0,0,0,0,0,0,0,0],"split_type":[0,0,0,0,0,0,0,0,0,0,0,0,0,0,0,0,0,0,0,0,0,0,0],"sum_hessian":[2.2025069E2,6.665688E1,1.535938E2,6.3071007E1,3.585881E0,1.3132863E2,2.2265177E1,9.028133E0,5.4042873E1,2.52347E1,1.06093925E2,1.5384914E1,6.8802633E0,2.5666833E0,6.4614506E0,4.951789E1,4.5249815E0,9.170403E0,1.6064297E1,5.036309E1,5.573083E1,1.084728E1,4.5376344E0],"tree_param":{"num_deleted":"0","num_feature":"45","num_nodes":"23","size_leaf_vector":"1"}},{"base_weights":[-5.6719836E-2,-4.1907576E-1,4.2209256E-1,-5.540957E-1,1.691244E-1,5.156196E-1,-3.2629482E-2,2.586137E-1,-6.4989746E-1,-3.4394065E-1,5.154252E-2,1.9331273E-1,9.392301E-1,-2.9865786E-2,4.8221044E-2,-3.5405185E-2,-4.361565E-3,-3.3115808E-2,3.7871E-2,-6.515739E-3,4.223379E-2,1.3680142E-2,5.145204E-2],"categories":[],"categories_nodes":[],"categories_segments":[],"categories_sizes":[],"default_left":[0,0,0,0,0,0,0,0,0,0,0,0,0,0,0,0,0,0,0,0,0,0,0],"id":10,"left_children":[1,3,5,7,9,11,-1,13,15,17,-1,19,21,-1,-1,-1,-1,-1,-1,-1,-1,-1,-1],"loss_changes":[3.8201866E1,1.0041281E1,9.875942E0,8.117821E0,1.1031915E1,1.1815416E1,0E0,7.5126867E0,2.938923E0,6.07249E0,0E0,1.0894644E1,1.972683E0,0E0,0E0,0E0,0E0,0E0,0E0,0E0,0E0,0E0,0E0],"parents":[2147483647,0,0,1,1,2,2,3,3,4,4,5,5,7,7,8,8,9,9,11,11,12,12],"right_children":[2,4,6,8,10,12,-1,14,16,18,-1,20,22,-1,-1,-1,-1,-1,-1,-1,-1,-1,-1],"split_conditions":[1.2354E4,1E0,1E0,-1.1E1,2E0,5.0436E4,-3.2629482E-2,-1.4E1,4E0,3E0,5.154252E-2,4.5801626E3,-3E1,-2.9865786E-2,4.8221044E-2,-3.5405185E-2,-4.361565E-3,-3.3115808E-2,3.7871E-2,-6.515739E-3,4.223379E-2,1.3680142E-2,5.145204E-2],"split_indices":[0,27,15,4,2,0,0,4,4,4,0,3,4,0,0,0,0,0,0,0,0,0,0],"split_type":[0,0,0,0,0,0,0,0,0,0,0,0,0,0,0,0,0,0,0,0,0,0,0],"sum_hessian":[2.1816348E2,1.242547E2,9.390878E1,1.0110441E2,2.3150293E1,8.6868996E1,7.0397897E0,1.0482172E1,9.062224E1,1.4887349E1,8.262943E0,5.016044E1,3.6708557E1,4.806754E0,5.675418E0,8.1892235E1,8.730002E0,1.18581085E1,3.0292408E0,3.4045155E1,1.6115284E1,4.845184E0,3.1863373E1],"tree_param":{"num_deleted":"0","num_feature":"45","num_nodes":"23","size_leaf_vector":"1"}},{"base_weights":[1.9277673E-2,-2.916418E-1,1.6435234E-1,-3.7488925E-1,3.999094E-2,9.265903E-1,5.834344E-2,-1.9706698E-1,-3.463644E-2,5.576419E-1,5.8450114E-2,-1.2753344E-1,4.0935126E-1,-1.3078073E-2,3.735321E-2,-2.6644329E-2,5.1190056E-2,1.2417848E-2,-1.4737682E-2,3.521119E-2,-1.04069095E-2],"categories":[],"categories_nodes":[],"categories_segments":[],"categories_sizes":[],"default_left":[0,0,0,0,0,0,0,0,0,0,0,0,0,0,0,0,0,0,0,0,0],"id":11,"left_children":[1,3,5,7,-1,9,11,13,-1,15,-1,17,19,-1,-1,-1,-1,-1,-1,-1,-1],"loss_changes":[1.0100786E1,6.7751923E0,1.2276857E1,3.6444197E0,0E0,1.0085115E0,8.862651E0,2.892559E0,0E0,5.2597666E0,0E0,5.67047E0,8.702459E0,0E0,0E0,0E0,0E0,0E0,0E0,0E0,0E0],"parents":[2147483647,0,0,1,1,2,2,3,3,5,5,6,6,7,7,9,9,11,11,12,12],"right_children":[2,4,6,8,-1,10,12,14,-1,16,-1,18,20,-1,-1,-1,-1,-1,-1,-1,-1],"split_conditions":[1E0,1E0,2.426E3,4.2166274E3,3.999094E-2,1E0,5.0506226E3,4.160077E3,-3.463644E-2,7.854E3,5.8450114E-2,-1.8E1,1E0,-1.3078073E-2,3.735321E-2,-2.6644329E-2,5.1190056E-2,1.2417848E-2,-1.4737682E-2,3.521119E-2,-1.04069095E-2],"split_indices":[2,35,3,3,0,24,3,3,0,0,0,4,17,0,0,0,0,0,0,0,0],"split_type":[0,0,0,0,0,0,0,0,0,0,0,0,0,0,0,0,0,0,0,0,0],"sum_hessian":[2.2186908E2,7.026629E1,1.5160278E2,6.589677E1,4.369528E0,1.7564894E1,1.3403789E2,4.3294647E1,2.2602118E1,8.273345E0,9.29155E0,8.804837E1,4.598952E1,4.120299E1,2.0916536E0,2.4346366E0,5.8387084E0,2.6960123E1,6.108825E1,3.1030787E1,1.4958735E1],"tree_param":{"num_deleted":"0","num_feature":"45","num_nodes":"21","size_leaf_vector":"1"}},{"base_weights":[-2.2886306E-2,6.835593E-1,-3.3881873E-1,8.947575E-1,-1.4512107E-1,-4.2575315E-1,1.6099346E-1,-6.743397E-3,1.0564637E0,-5.0310946E-1,5.0699174E-1,-1.2159664E-1,-5.010544E-1,4.6239594E-1,-5.4982066E-1,4.6328712E-2,-2.3534512E-2,5.5981506E-2,-8.553728E-3,-1.0549529E-2,-2.8072182E-2,4.861926E-2,-1.28015345E-2,2.0023474E-2,-2.0143807E-2,-1.966597E-2,-2.9170254E-2,5.8349323E-2,-1.2997761E-3,-1.2036165E-2,-3.0874109E-2],"categories":[],"categories_nodes":[],"categories_segments":[],"categories_sizes":[],"default_left":[0,0,0,0,0,0,0,0,0,0,0,0,0,0,0,0,0,0,0,0,0,0,0,0,0,0,0,0,0,0,0],"id":12,"left_children":[1,3,5,7,9,11,13,15,17,19,21,23,25,27,29,-1,-1,-1,-1,-1,-1,-1,-1,-1,-1,-1,-1,-1,-1,-1,-1],"loss_changes":[5.2511936E1,1.2856354E1,7.1304417E0,8.474987E0,3.9036555E0,3.116228E0,5.5687084E0,4.691886E0,4.011036E0,6.2032223E-2,2.3927846E0,4.3976636E0,7.5418854E-1,6.2116423E0,1.5389681E-2,0E0,0E0,0E0,0E0,0E0,0E0,0E0,0E0,0E0,0E0,0E0,0E0,0E0,0E0,0E0,0E0],"parents":[2147483647,0,0,1,1,2,2,3,3,4,4,5,5,6,6,7,7,8,8,9,9,10,10,11,11,12,12,13,13,14,14],"right_children":[2,4,6,8,10,12,14,16,18,20,22,24,26,28,30,-1,-1,-1,-1,-1,-1,-1,-1,-1,-1,-1,-1,-1,-1,-1,-1],"split_conditions":[4.255E3,2E0,1E0,1.8406821E3,4.9E1,1E0,1E0,1E0,1.67E2,2.169E3,4.2064736E3,1.1923E4,1E0,1E0,5.926E3,4.6328712E-2,-2.3534512E-2,5.5981506E-2,-8.553728E-3,-1.0549529E-2,-2.8072182E-2,4.861926E-2,-1.28015345E-2,2.0023474E-2,-2.0143807E-2,-1.966597E-2,-2.9170254E-2,5.8349323E-2,-1.2997761E-3,-1.2036165E-2,-3.0874109E-2],"split_indices":[0,2,15,3,1,2,24,5,1,0,3,0,17,6,0,0,0,0,0,0,0,0,0,0,0,0,0,0,0,0,0],"split_type":[0,0,0,0,0,0,0,0,0,0,0,0,0,0,0,0,0,0,0,0,0,0,0,0,0,0,0,0,0,0,0],"sum_hessian":[2.3324234E2,7.1716324E1,1.6152602E2,5.7087273E1,1.4629049E1,1.3771999E2,2.3806034E1,8.828316E0,4.8258957E1,9.591904E0,5.037145E0,2.7848656E1,1.0987133E2,1.6962854E1,6.8431787E0,2.6002536E0,6.2280626E0,4.5980793E1,2.2781656E0,2.3651109E0,7.226793E0,2.9583566E0,2.0787885E0,9.602425E0,1.8246231E1,5.0101856E1,5.9769474E1,6.3755517E0,1.0587302E1,2.0474758E0,4.795703E0],"tree_param":{"num_deleted":"0","num_feature":"45","num_nodes":"31","size_leaf_vector":"1"}},{"base_weights":[-2.5969867E-2,-4.0816543E-1,4.3501127E-1,-5.454224E-1,2.3892759E-1,5.172293E-1,-3.18098E-2,2.562463E-1,-6.402884E-1,-3.1303667E-2,6.9397867E-1,2.5205094E-1,9.126794E-1,-2.9444674E-2,4.685201E-2,-3.4887683E-2,-3.318641E-3,4.746158E-2,-2.5083575E-2,2.7482564E-2,-2.0871302E-2,1.4849148E-2,4.9541403E-2],"categories":[],"categories_nodes":[],"categories_segments":[],"categories_sizes":[],"default_left":[0,0,0,0,0,0,0,0,0,0,0,0,0,0,0,0,0,0,0,0,0,0,0],"id":13,"left_children":[1,3,5,7,9,11,-1,13,15,-1,17,19,21,-1,-1,-1,-1,-1,-1,-1,-1,-1,-1],"loss_changes":[3.9620644E1,1.1047092E1,9.309067E0,7.89904E0,9.174514E0,9.757807E0,0E0,7.1548758E0,2.9625053E0,0E0,5.0614977E0,1.1863836E1,1.5269375E0,0E0,0E0,0E0,0E0,0E0,0E0,0E0,0E0,0E0,0E0],"parents":[2147483647,0,0,1,1,2,2,3,3,4,4,5,5,7,7,8,8,10,10,11,11,12,12],"right_children":[2,4,6,8,10,12,-1,14,16,-1,18,20,22,-1,-1,-1,-1,-1,-1,-1,-1,-1,-1],"split_conditions":[1.2354E4,1E0,1E0,-1.1E1,1.8E1,5.0436E4,-3.18098E-2,-1.4E1,4E0,-3.1303667E-2,1E0,-1E0,-8.2E1,-2.9444674E-2,4.685201E-2,-3.4887683E-2,-3.318641E-3,4.746158E-2,-2.5083575E-2,2.7482564E-2,-2.0871302E-2,1.4849148E-2,4.9541403E-2],"split_indices":[0,27,15,4,1,0,0,4,4,0,15,4,4,0,0,0,0,0,0,0,0,0,0],"split_type":[0,0,0,0,0,0,0,0,0,0,0,0,0,0,0,0,0,0,0,0,0,0,0],"sum_hessian":[2.228732E2,1.2191176E2,1.0096144E2,1.007075E2,2.1204262E1,9.424503E1,6.7164087E0,1.0476275E1,9.0231224E1,7.18002E0,1.4024241E1,5.7394897E1,3.6850132E1,4.7342067E0,5.7420692E0,8.1822685E1,8.40854E0,1.1726838E1,2.2974036E0,3.985658E1,1.7538322E1,4.691134E0,3.2158997E1],"tree_param":{"num_deleted":"0","num_feature":"45","num_nodes":"23","size_leaf_vector":"1"}},{"base_weights":[1.2455436E-2,-2.789226E-1,1.3926244E-1,-3.6190867E-1,3.891078E-2,8.869171E-1,3.9898027E-2,-1.8431148E-1,-3.4101598E-2,5.3655696E-1,5.57426E-2,1.3980371E-1,-5.150473E-1,1.6115509E-3,-2.4121745E-2,1.2103854E-2,3.382064E-2,1.355785E-2,-1.5221158E-2,-3.4004692E-2,2.2288151E-2],"categories":[],"categories_nodes":[],"categories_segments":[],"categories_sizes":[],"default_left":[0,0,0,0,0,0,0,0,0,0,0,0,0,0,0,0,0,0,0,0,0],"id":14,"left_children":[1,3,5,7,-1,9,11,13,-1,15,-1,17,19,-1,-1,-1,-1,-1,-1,-1,-1],"loss_changes":[8.523212E0,6.419311E0,1.1900272E1,3.6011715E0,0E0,9.0320015E-1,7.992598E0,2.8258524E0,0E0,2.208376E-1,0E0,7.192765E0,3.7932968E0,0E0,0E0,0E0,0E0,0E0,0E0,0E0,0E0],"parents":[2147483647,0,0,1,1,2,2,3,3,5,5,6,6,7,7,9,9,11,11,12,12],"right_children":[2,4,6,8,-1,10,12,14,-1,16,-1,18,20,-1,-1,-1,-1,-1,-1,-1,-1],"split_conditions":[1E0,1E0,2.426E3,4.2166274E3,3.891078E-2,1E0,1E0,1E0,-3.4101598E-2,1.1E1,5.57426E-2,6E0,1E0,1.6115509E-3,-2.4121745E-2,1.2103854E-2,3.382064E-2,1.355785E-2,-1.5221158E-2,-3.4004692E-2,2.2288151E-2],"split_indices":[2,35,3,3,0,24,27,5,0,1,0,2,15,0,0,0,0,0,0,0,0],"split_type":[0,0,0,0,0,0,0,0,0,0,0,0,0,0,0,0,0,0,0,0,0],"sum_hessian":[2.2862518E2,6.896268E1,1.596625E2,6.455288E1,4.4097934E0,1.780033E1,1.4186218E2,4.253254E1,2.2020344E1,8.337971E0,9.462358E0,1.2085329E2,2.1008894E1,2.5153868E1,1.7378672E1,3.5641706E0,4.7738004E0,9.357402E1,2.7279268E1,1.8178402E1,2.830492E0],"tree_param":{"num_deleted":"0","num_feature":"45","num_nodes":"21","size_leaf_vector":"1"}},{"base_weights":[-1.0397405E-2,6.530598E-1,-3.153434E-1,8.540063E-1,-1.2743822E-1,-4.018766E-1,1.6057345E-1,4.0538277E-2,1.0057642E0,-4.970418E-1,5.1471734E-1,-2.0773669E-1,-5.0945824E-1,7.220499E-1,-2.3263341E-1,4.44826E-2,-1.877422E-2,5.332932E-2,-8.414221E-3,-1.0511587E-2,-2.7717624E-2,4.7839135E-2,-1.2705758E-2,-2.0952668E-2,5.576339E-2,-2.836438E-2,5.059696E-2,5.658561E-2,-1.6683811E-2,-2.9579822E-2,2.9832746E-3],"categories":[],"categories_nodes":[],"categories_segments":[],"categories_sizes":[],"default_left":[0,0,0,0,0,0,0,0,0,0,0,0,0,0,0,0,0,0,0,0,0,0,0,0,0,0,0,0,0,0,0],"id":15,"left_children":[1,3,5,7,9,11,13,15,17,19,21,23,25,27,29,-1,-1,-1,-1,-1,-1,-1,-1,-1,-1,-1,-1,-1,-1,-1,-1],"loss_changes":[4.678374E1,1.1529951E1,6.5878153E0,7.124401E0,4.0010896E0,2.6994514E0,5.705989E0,3.9257295E0,3.6694565E0,5.644536E-2,2.3693166E0,1.4328501E1,8.117163E0,4.951295E0,1.6625826E0,0E0,0E0,0E0,0E0,0E0,0E0,0E0,0E0,0E0,0E0,0E0,0E0,0E0,0E0,0E0,0E0],"parents":[2147483647,0,0,1,1,2,2,3,3,4,4,5,5,6,6,7,7,8,8,9,9,10,10,11,11,12,12,13,13,14,14],"right_children":[2,4,6,8,10,12,14,16,18,20,22,24,26,28,30,-1,-1,-1,-1,-1,-1,-1,-1,-1,-1,-1,-1,-1,-1,-1,-1],"split_conditions":[4.255E3,2E0,1E0,1.8406821E3,4.9E1,1.2354E4,1E0,1E0,1.67E2,2.169E3,4.2064736E3,1E0,1E0,1E0,2.6552817E3,4.44826E-2,-1.877422E-2,5.332932E-2,-8.414221E-3,-1.0511587E-2,-2.7717624E-2,4.7839135E-2,-1.2705758E-2,-2.0952668E-2,5.576339E-2,-2.836438E-2,5.059696E-2,5.658561E-2,-1.6683811E-2,-2.9579822E-2,2.9832746E-3],"split_indices":[0,2,15,3,1,0,6,5,1,0,3,17,8,24,3,0,0,0,0,0,0,0,0,0,0,0,0,0,0,0,0],"split_type":[0,0,0,0,0,0,0,0,0,0,0,0,0,0,0,0,0,0,0,0,0,0,0,0,0,0,0,0,0,0,0],"sum_hessian":[2.2922003E2,7.182093E1,1.573991E2,5.7041008E1,1.4779922E1,1.3331482E2,2.4084274E1,9.167512E0,4.7873497E1,9.524127E0,5.2557945E0,4.8579712E1,8.473511E1,9.575174E0,1.4509101E1,2.64024E0,6.527272E0,4.5602566E1,2.2709336E0,2.363637E0,7.16049E0,3.1818335E0,2.073961E0,4.2478153E1,6.101559E0,8.2236374E1,2.498736E0,6.846496E0,2.7286782E0,6.0523987E0,8.456702E0],"tree_param":{"num_deleted":"0","num_feature":"45","num_nodes":"31","size_leaf_vector":"1"}},{"base_weights":[3.1125376E-2,-4.273657E-1,5.3056073E-1,-5.370717E-1,2.582479E-1,5.9925544E-1,-3.1333935E-2,-6.304808E-1,-8.006054E-3,-3.016832E-2,7.796956E-1,6.560292E-1,-3.0406138E-2,-3.4234654E-2,-2.0185674E-2,3.8828146E-2,-3.1722587E-2,4.7817327E-2,1.999308E-2,3.5502624E-2,-2.8961277E-2],"categories":[],"categories_nodes":[],"categories_segments":[],"categories_sizes":[],"default_left":[0,0,0,0,0,0,0,0,0,0,0,0,0,0,0,0,0,0,0,0,0],"id":16,"left_children":[1,3,5,7,9,11,-1,13,15,-1,17,19,-1,-1,-1,-1,-1,-1,-1,-1,-1],"loss_changes":[5.0569427E1,8.801865E0,8.776115E0,4.9178543E0,7.911886E0,7.271675E0,0E0,7.642746E-1,8.337405E0,0E0,3.391981E-1,6.8336563E0,0E0,0E0,0E0,0E0,0E0,0E0,0E0,0E0,0E0],"parents":[2147483647,0,0,1,1,2,2,3,3,4,4,5,5,7,7,8,8,10,10,11,11],"right_children":[2,4,6,8,10,12,-1,14,16,-1,18,20,-1,-1,-1,-1,-1,-1,-1,-1,-1],"split_conditions":[1.2354E4,2.25E2,1E0,3E0,1E0,1E0,-3.1333935E-2,3E0,2.6552817E3,-3.016832E-2,-1.1E1,4E0,-3.0406138E-2,-3.4234654E-2,-2.0185674E-2,3.8828146E-2,-3.1722587E-2,4.7817327E-2,1.999308E-2,3.5502624E-2,-2.8961277E-2],"split_indices":[0,1,35,4,6,25,0,2,3,0,4,4,0,0,0,0,0,0,0,0,0],"split_type":[0,0,0,0,0,0,0,0,0,0,0,0,0,0,0,0,0,0,0,0,0],"sum_hessian":[2.1884987E2,1.1417728E2,1.04672585E2,9.861449E1,1.5562795E1,9.926245E1,5.410136E0,8.365339E1,1.4961092E1,5.8083186E0,9.754477E0,9.524066E1,4.0217886E0,6.588352E1,1.7769867E1,6.53586E0,8.425232E0,5.622019E0,4.1324573E0,9.165726E1,3.5834064E0],"tree_param":{"num_deleted":"0","num_feature":"45","num_nodes":"21","size_leaf_vector":"1"}},{"base_weights":[2.130079E-3,-2.6956904E-1,1.16233006E-1,-3.5154143E-1,3.7451923E-2,8.476866E-1,2.0381408E-2,-1.8013152E-1,-3.360401E-2,1.5316066E-2,4.699286E-2,1.1330989E-1,-5.089555E-1,-1.225762E-2,3.7420977E-2,1.5546069E-2,-1.9133838E-2,-3.3578634E-2,2.167345E-2],"categories":[],"categories_nodes":[],"categories_segments":[],"categories_sizes":[],"default_left":[0,0,0,0,0,0,0,0,0,0,0,0,0,0,0,0,0,0,0],"id":17,"left_children":[1,3,5,7,-1,9,11,13,-1,-1,-1,15,17,-1,-1,-1,-1,-1,-1],"loss_changes":[7.236242E0,6.027658E0,1.1506727E1,3.4268951E0,0E0,6.6111374E-1,7.2566442E0,2.806237E0,0E0,0E0,0E0,1.24010725E1,3.6684804E0,0E0,0E0,0E0,0E0,0E0,0E0],"parents":[2147483647,0,0,1,1,2,2,3,3,5,5,6,6,7,7,11,11,12,12],"right_children":[2,4,6,8,-1,10,12,14,-1,-1,-1,16,18,-1,-1,-1,-1,-1,-1],"split_conditions":[1E0,1E0,2.426E3,4.2166274E3,3.7451923E-2,7E0,1E0,4.160077E3,-3.360401E-2,1.5316066E-2,4.699286E-2,5.0436E4,1E0,-1.225762E-2,3.7420977E-2,1.5546069E-2,-1.9133838E-2,-3.3578634E-2,2.167345E-2],"split_indices":[2,35,3,3,0,1,27,3,0,0,0,0,15,0,0,0,0,0,0],"split_type":[0,0,0,0,0,0,0,0,0,0,0,0,0,0,0,0,0,0,0],"sum_hessian":[2.3140393E2,6.803593E1,1.63368E2,6.357464E1,4.461285E0,1.8019045E1,1.4534895E2,4.244103E1,2.113361E1,3.2505167E0,1.4768528E1,1.24311264E2,2.1037697E1,4.0351444E1,2.0895853E0,8.9160835E1,3.5150425E1,1.8186909E1,2.8507874E0],"tree_param":{"num_deleted":"0","num_feature":"45","num_nodes":"19","size_leaf_vector":"1"}},{"base_weights":[-2.4180178E-2,2.8504914E-1,-3.7956834E-1,5.938086E-1,-9.702239E-3,-4.4889992E-1,4.4330176E-2,7.013902E-1,-4.2021888E-1,1.5607929E-1,-4.7984254E-1,-4.8652986E-1,-1.3530798E-1,4.7074255E-2,-2.185851E-1,1.1031309E-2,4.616068E-2,-6.4052413E-3,-2.6938623E-2,-1.5780358E-2,2.4272442E-2,-2.815083E-2,-1.2383824E-3,-2.5595475E-2,-9.497883E-3,-2.2585062E-2,4.329241E-2,-2.9002858E-2,1.6904766E-4],"categories":[],"categories_nodes":[],"categories_segments":[],"categories_sizes":[],"default_left":[0,0,0,0,0,0,0,0,0,0,0,0,0,0,0,0,0,0,0,0,0,0,0,0,0,0,0,0,0],"id":18,"left_children":[1,3,5,7,9,11,13,15,17,19,21,23,25,-1,27,-1,-1,-1,-1,-1,-1,-1,-1,-1,-1,-1,-1,-1,-1],"loss_changes":[2.5177E1,1.1158614E1,3.1517687E0,6.825819E0,5.038203E0,1.0159664E0,3.953727E0,5.6085167E0,1.5150332E-1,7.584663E0,6.237087E-1,5.15955E-1,3.9411056E0,0E0,1.0530233E0,0E0,0E0,0E0,0E0,0E0,0E0,0E0,0E0,0E0,0E0,0E0,0E0,0E0,0E0],"parents":[2147483647,0,0,1,1,2,2,3,3,4,4,5,5,6,6,7,7,8,8,9,9,10,10,11,11,12,12,14,14],"right_children":[2,4,6,8,10,12,14,16,18,20,22,24,26,-1,28,-1,-1,-1,-1,-1,-1,-1,-1,-1,-1,-1,-1,-1,-1],"split_conditions":[2E0,3.6E1,1E0,1E0,1E0,1E0,1E0,2.423477E3,3E0,3.2095173E3,-2E0,2E0,-2.6E1,4.7074255E-2,2.6552817E3,1.1031309E-2,4.616068E-2,-6.4052413E-3,-2.6938623E-2,-1.5780358E-2,2.4272442E-2,-2.815083E-2,-1.2383824E-3,-2.5595475E-2,-9.497883E-3,-2.2585062E-2,4.329241E-2,-2.9002858E-2,1.6904766E-4],"split_indices":[2,1,15,35,24,44,6,3,1,3,4,4,4,0,3,0,0,0,0,0,0,0,0,0,0,0,0,0,0],"split_type":[0,0,0,0,0,0,0,0,0,0,0,0,0,0,0,0,0,0,0,0,0,0,0,0,0,0,0,0,0],"sum_hessian":[2.2711299E2,1.21549034E2,1.05563965E2,5.886835E1,6.268068E1,9.067452E1,1.4889437E1,5.3500603E1,5.3677483E0,4.683402E1,1.5846661E1,8.046727E1,1.0207259E1,2.7895646E0,1.2099873E1,1.7521141E1,3.597946E1,2.1502159E0,3.2175322E0,1.9273886E1,2.7560133E1,1.319738E1,2.649281E0,7.345515E1,7.0121202E0,8.17314E0,2.0341194E0,3.9895744E0,8.110297E0],"tree_param":{"num_deleted":"0","num_feature":"45","num_nodes":"29","size_leaf_vector":"1"}},{"base_weights":[-1.4235933E-2,-3.9169896E-1,4.121438E-1,-5.247068E-1,1.6680238E-1,3.0353063E-1,5.3587276E-2,2.5776944E-1,-6.207681E-1,-3.087574E-2,6.430225E-1,3.8118538E-2,6.467716E-1,-2.859445E-2,4.389237E-2,-3.3986047E-2,-3.975206E-3,4.3744817E-2,-2.4483418E-2,-1.1945882E-2,4.8459012E-2,-3.1976234E-2,4.413749E-2],"categories":[],"categories_nodes":[],"categories_segments":[],"categories_sizes":[],"default_left":[0,0,0,0,0,0,0,0,0,0,0,0,0,0,0,0,0,0,0,0,0,0,0],"id":19,"left_children":[1,3,5,7,9,11,-1,13,15,-1,17,19,21,-1,-1,-1,-1,-1,-1,-1,-1,-1,-1],"loss_changes":[3.639351E1,8.996128E0,7.282984E0,7.4585323E0,9.296121E0,8.409393E0,0E0,6.327502E0,2.714878E0,0E0,4.4505997E0,1.3972323E1,1.2799585E1,0E0,0E0,0E0,0E0,0E0,0E0,0E0,0E0,0E0,0E0],"parents":[2147483647,0,0,1,1,2,2,3,3,4,4,5,5,7,7,8,8,10,10,11,11,12,12],"right_children":[2,4,6,8,10,12,-1,14,16,-1,18,20,22,-1,-1,-1,-1,-1,-1,-1,-1,-1,-1],"split_conditions":[1.2354E4,1E0,1E0,-1.1E1,1.6E1,5.0436E4,5.3587276E-2,-1.6E1,4E0,-3.087574E-2,1E0,1E0,1E0,-2.859445E-2,4.389237E-2,-3.3986047E-2,-3.975206E-3,4.3744817E-2,-2.4483418E-2,-1.1945882E-2,4.8459012E-2,-3.1976234E-2,4.413749E-2],"split_indices":[0,27,24,4,1,0,0,4,4,0,15,27,17,0,0,0,0,0,0,0,0,0,0],"split_type":[0,0,0,0,0,0,0,0,0,0,0,0,0,0,0,0,0,0,0,0,0,0,0],"sum_hessian":[2.2412422E2,1.1892464E2,1.0519959E2,9.609904E1,2.2825605E1,9.1579796E1,1.3619792E1,1.0323623E1,8.577541E1,8.511227E0,1.431438E1,5.227165E1,3.9308147E1,4.4488363E0,5.874787E0,7.711994E1,8.655473E0,1.2070928E1,2.2434523E0,4.085784E1,1.1413805E1,5.8283286E0,3.347982E1],"tree_param":{"num_deleted":"0","num_feature":"45","num_nodes":"23","size_leaf_vector":"1"}},{"base_weights":[5.744217E-3,-3.2688964E-2,4.6641033E-2,1.305206E-1,-3.1766766E-1,2.2594401E-1,-3.191061E-1,-4.7901675E-1,4.048281E-2,-1.3152753E-2,2.1506365E-2,5.4868277E-2,-2.7191201E-2,9.682384E-3,-2.8485144E-2],"categories":[],"categories_nodes":[],"categories_segments":[],"categories_sizes":[],"default_left":[0,0,0,0,0,0,0,0,0,0,0,0,0,0,0],"id":20,"left_children":[1,-1,3,5,7,9,11,13,-1,-1,-1,-1,-1,-1,-1],"loss_changes":[6.1224484E0,0E0,6.568801E0,7.5519996E0,7.712266E0,1.4530884E1,1.0443947E1,2.2974863E0,0E0,0E0,0E0,0E0,0E0,0E0,0E0],"parents":[2147483647,0,0,2,2,3,3,4,4,5,5,6,6,7,7],"right_children":[2,-1,4,6,8,10,12,14,-1,-1,-1,-1,-1,-1,-1],"split_conditions":[5.79E2,-3.2688964E-2,5.0436E4,1E0,1E0,1E0,6.88E2,1.1E1,4.048281E-2,-1.3152753E-2,2.1506365E-2,5.4868277E-2,-2.7191201E-2,9.682384E-3,-2.8485144E-2],"split_indices":[0,0,0,27,15,2,0,1,0,0,0,0,0,0,0],"split_type":[0,0,0,0,0,0,0,0,0,0,0,0,0,0,0],"sum_hessian":[2.2485878E2,1.22542515E1,2.1260452E2,1.7333669E2,3.926785E1,1.4340054E2,2.9936134E1,3.4854374E1,4.413474E0,4.215503E1,1.01245514E2,3.5672526E0,2.6368881E1,4.0058227E0,3.084855E1],"tree_param":{"num_deleted":"0","num_feature":"45","num_nodes":"15","size_leaf_vector":"1"}},{"base_weights":[9.767824E-3,6.414667E-1,-2.9457402E-1,7.9288083E-1,-5.7692982E-2,-3.8299084E-1,1.5950221E-1,-1.0813495E-2,9.333262E-1,-4.6604672E-1,5.0081724E-1,-1.6484317E-1,-4.9671048E-1,6.8577695E-1,-2.0447777E-1,4.1850086E-2,-2.0684842E-2,4.947813E-2,-8.691393E-3,-9.907372E-3,-2.6814122E-2,4.619953E-2,-1.2380454E-2,9.93853E-3,-2.3907661E-2,-2.784427E-2,5.0130606E-2,5.347153E-2,-1.5808057E-2,-2.8857578E-2,4.224838E-3],"categories":[],"categories_nodes":[],"categories_segments":[],"categories_sizes":[],"default_left":[0,0,0,0,0,0,0,0,0,0,0,0,0,0,0,0,0,0,0,0,0,0,0,0,0,0,0,0,0,0,0],"id":21,"left_children":[1,3,5,7,9,11,13,15,17,19,21,23,25,27,29,-1,-1,-1,-1,-1,-1,-1,-1,-1,-1,-1,-1,-1,-1,-1,-1],"loss_changes":[4.246171E1,7.6473656E0,6.046153E0,6.6800766E0,3.3613188E0,3.0208778E0,4.9295626E0,3.6863894E0,3.3046188E0,5.255103E-2,2.2159848E0,5.1481147E0,7.9310474E0,4.355824E0,1.7234643E0,0E0,0E0,0E0,0E0,0E0,0E0,0E0,0E0,0E0,0E0,0E0,0E0,0E0,0E0,0E0,0E0],"parents":[2147483647,0,0,1,1,2,2,3,3,4,4,5,5,6,6,7,7,8,8,9,9,10,10,11,11,12,12,13,13,14,14],"right_children":[2,4,6,8,10,12,14,16,18,20,22,24,26,28,30,-1,-1,-1,-1,-1,-1,-1,-1,-1,-1,-1,-1,-1,-1,-1,-1],"split_conditions":[4.255E3,2E0,1E0,1.8406821E3,4.2E1,1.2354E4,1E0,1E0,1.67E2,3E0,1.46E2,1E0,1E0,1E0,2.6552817E3,4.1850086E-2,-2.0684842E-2,4.947813E-2,-8.691393E-3,-9.907372E-3,-2.6814122E-2,4.619953E-2,-1.2380454E-2,9.93853E-3,-2.3907661E-2,-2.784427E-2,5.0130606E-2,5.347153E-2,-1.5808057E-2,-2.8857578E-2,4.224838E-3],"split_indices":[0,2,15,3,1,0,6,5,1,2,1,8,8,24,3,0,0,0,0,0,0,0,0,0,0,0,0,0,0,0,0],"split_type":[0,0,0,0,0,0,0,0,0,0,0,0,0,0,0,0,0,0,0,0,0,0,0,0,0,0,0,0,0,0,0],"sum_hessian":[2.1888156E2,7.080643E1,1.4807513E2,5.8091698E1,1.271473E1,1.2407253E2,2.4002605E1,8.778725E0,4.9312973E1,7.440313E0,5.274417E0,4.3354816E1,8.071771E1,9.451981E0,1.4550625E1,2.4807606E0,6.297964E0,4.7030342E1,2.2826314E0,2.3391807E0,5.101132E0,3.2194855E0,2.0549316E0,2.0235718E1,2.3119099E1,7.820745E1,2.510261E0,6.7861314E0,2.6658497E0,5.919433E0,8.631191E0],"tree_param":{"num_deleted":"0","num_feature":"45","num_nodes":"31","size_leaf_vector":"1"}},{"base_weights":[-1.0014555E-4,-3.8287726E-1,4.1137925E-1,-5.151776E-1,1.652786E-1,4.7095627E-1,-3.127397E-2,2.5143504E-1,-6.1170024E-1,-3.139222E-1,4.499193E-2,2.6451117E-1,7.9942024E-1,-2.825661E-2,4.2465866E-2,-3.358001E-2,-3.7514884E-3,3.2651134E-2,-3.1379156E-2,6.311569E-4,3.336149E-2,-1.3529878E-3,4.9176145E-2],"categories":[],"categories_nodes":[],"categories_segments":[],"categories_sizes":[],"default_left":[0,0,0,0,0,0,0,0,0,0,0,0,0,0,0,0,0,0,0,0,0,0,0],"id":22,"left_children":[1,3,5,7,9,11,-1,13,15,17,-1,19,21,-1,-1,-1,-1,-1,-1,-1,-1,-1,-1],"loss_changes":[3.571607E1,8.604794E0,7.045351E0,7.174473E0,8.589093E0,6.835062E0,0E0,6.005989E0,2.6679497E0,4.966149E0,0E0,6.616086E0,6.0537586E0,0E0,0E0,0E0,0E0,0E0,0E0,0E0,0E0,0E0,0E0],"parents":[2147483647,0,0,1,1,2,2,3,3,4,4,5,5,7,7,8,8,9,9,11,11,12,12],"right_children":[2,4,6,8,10,12,-1,14,16,18,-1,20,22,-1,-1,-1,-1,-1,-1,-1,-1,-1,-1],"split_conditions":[1.2354E4,1E0,1E0,-1.1E1,2E0,4.8275464E3,-3.127397E-2,-1.6E1,4E0,1.6049894E3,4.499193E-2,5.0436E4,1E0,-2.825661E-2,4.2465866E-2,-3.358001E-2,-3.7514884E-3,3.2651134E-2,-3.1379156E-2,6.311569E-4,3.336149E-2,-1.3529878E-3,4.9176145E-2],"split_indices":[0,27,35,4,2,3,0,4,4,3,0,0,17,0,0,0,0,0,0,0,0,0,0],"split_type":[0,0,0,0,0,0,0,0,0,0,0,0,0,0,0,0,0,0,0,0,0,0,0],"sum_hessian":[2.2476164E2,1.16477974E2,1.08283676E2,9.387975E1,2.2598219E1,1.0291599E2,5.367683E0,1.03189E1,8.356085E1,1.402285E1,8.575369E0,6.43047E1,3.861129E1,4.3849125E0,5.933987E0,7.4944565E1,8.616286E0,3.1696393E0,1.085321E1,4.0195194E1,2.4109509E1,7.189402E0,3.1421888E1],"tree_param":{"num_deleted":"0","num_feature":"45","num_nodes":"23","size_leaf_vector":"1"}},{"base_weights":[5.2419603E-3,-2.550668E-1,1.13508865E-1,-3.368562E-1,3.850374E-2,2.440753E-1,-3.034022E-1,-1.6556983E-1,-3.2841556E-2,1.380309E-1,8.183051E-1,-4.643054E-1,3.885103E-2,-1.8938767E-2,6.2586092E-3,3.643879E-2,1.995229E-3,1.4834694E-2,4.5310505E-2,6.512935E-3,-2.7658409E-2],"categories":[],"categories_nodes":[],"categories_segments":[],"categories_sizes":[],"default_left":[0,0,0,0,0,0,0,0,0,0,0,0,0,0,0,0,0,0,0,0,0],"id":23,"left_children":[1,3,5,7,-1,9,11,13,-1,15,17,19,-1,-1,-1,-1,-1,-1,-1,-1,-1],"loss_changes":[6.522579E0,5.960053E0,8.969809E0,3.380382E0,0E0,7.4988627E0,7.2136264E0,2.7006192E0,0E0,6.157133E0,6.152983E-1,1.9178834E0,0E0,0E0,0E0,0E0,0E0,0E0,0E0,0E0,0E0],"parents":[2147483647,0,0,1,1,2,2,3,3,5,5,6,6,7,7,9,9,10,10,11,11],"right_children":[2,4,6,8,-1,10,12,14,-1,16,18,20,-1,-1,-1,-1,-1,-1,-1,-1,-1],"split_conditions":[1E0,1E0,5.0436E4,4.2166274E3,3.850374E-2,1E0,1E0,1E0,-3.2841556E-2,2.426E3,2.961E3,-8.2E1,3.885103E-2,-1.8938767E-2,6.2586092E-3,3.643879E-2,1.995229E-3,1.4834694E-2,4.5310505E-2,6.512935E-3,-2.7658409E-2],"split_indices":[2,35,0,3,0,22,15,4,0,3,0,4,0,0,0,0,0,0,0,0,0],"split_type":[0,0,0,0,0,0,0,0,0,0,0,0,0,0,0,0,0,0,0,0,0],"sum_hessian":[2.2941078E2,6.698976E1,1.6242102E2,6.2661785E1,4.3279715E0,1.24001366E2,3.841966E1,4.1802082E1,2.0859705E1,1.0571846E2,1.8282907E1,3.3935963E1,4.483697E0,2.3942152E1,1.785993E1,1.4143594E1,9.157487E1,3.2677681E0,1.501514E1,4.3519626E0,2.9584E1],"tree_param":{"num_deleted":"0","num_feature":"45","num_nodes":"21","size_leaf_vector":"1"}},{"base_weights":[3.811814E-3,6.1398184E-1,-2.8597593E-1,7.633533E-1,-5.5005886E-2,-3.7301195E-1,1.6303581E-1,3.762876E-2,8.9592814E-1,-4.3907237E-1,4.845793E-1,-1.732259E-1,-4.8339456E-1,6.852541E-1,-2.1899047E-1,4.1636508E-2,-1.815499E-2,4.755644E-2,-8.631019E-3,-1.0218053E-2,-2.4687793E-2,4.4862375E-2,-1.2414473E-2,-1.9012125E-2,5.2343626E-2,-2.7156277E-2,4.8775565E-2,5.2403994E-2,-1.5783034E-2,-2.8571982E-2,3.0247027E-3],"categories":[],"categories_nodes":[],"categories_segments":[],"categories_sizes":[],"default_left":[0,0,0,0,0,0,0,0,0,0,0,0,0,0,0,0,0,0,0,0,0,0,0,0,0,0,0,0,0,0,0],"id":24,"left_children":[1,3,5,7,9,11,13,15,17,19,21,23,25,27,29,-1,-1,-1,-1,-1,-1,-1,-1,-1,-1,-1,-1,-1,-1,-1,-1],"loss_changes":[3.933455E1,7.1997166E0,5.9554176E0,5.6064835E0,3.1155105E0,2.7092075E0,5.1747227E0,3.520025E0,3.0853004E0,1.0852218E-2,2.1279826E0,1.21758175E1,7.5898533E0,4.2830234E0,1.542004E0,0E0,0E0,0E0,0E0,0E0,0E0,0E0,0E0,0E0,0E0,0E0,0E0,0E0,0E0,0E0,0E0],"parents":[2147483647,0,0,1,1,2,2,3,3,4,4,5,5,6,6,7,7,8,8,9,9,10,10,11,11,12,12,13,13,14,14],"right_children":[2,4,6,8,10,12,14,16,18,20,22,24,26,28,30,-1,-1,-1,-1,-1,-1,-1,-1,-1,-1,-1,-1,-1,-1,-1,-1],"split_conditions":[4.255E3,2E0,1E0,1.8406821E3,4.9E1,1.2354E4,1E0,1E0,1.67E2,2.169E3,4.2064736E3,1E0,1E0,1E0,2.6552817E3,4.1636508E-2,-1.815499E-2,4.755644E-2,-8.631019E-3,-1.0218053E-2,-2.4687793E-2,4.4862375E-2,-1.2414473E-2,-1.9012125E-2,5.2343626E-2,-2.7156277E-2,4.8775565E-2,5.2403994E-2,-1.5783034E-2,-2.8571982E-2,3.0247027E-3],"split_indices":[0,2,15,3,1,0,6,5,1,0,3,17,8,24,3,0,0,0,0,0,0,0,0,0,0,0,0,0,0,0,0],"split_type":[0,0,0,0,0,0,0,0,0,0,0,0,0,0,0,0,0,0,0,0,0,0,0,0,0,0,0,0,0,0,0],"sum_hessian":[2.2046257E2,7.062904E1,1.4983353E2,5.7622128E1,1.3006915E1,1.2564741E2,2.4186117E1,9.098746E0,4.852338E1,7.7072906E0,5.299625E0,4.5629684E1,8.001772E1,9.88284E0,1.4303277E1,2.6877785E0,6.4109683E0,4.6244312E1,2.2790685E0,2.3514798E0,5.3558106E0,3.2469933E0,2.0526316E0,3.9599163E1,6.0305204E0,7.74735E1,2.5442245E0,7.218907E0,2.6639333E0,5.86389E0,8.439387E0],"tree_param":{"num_deleted":"0","num_feature":"45","num_nodes":"31","size_leaf_vector":"1"}},{"base_weights":[-4.1630976E-3,-4.0609837E-1,4.108122E-1,-5.162481E-1,3.630603E-1,5.4759836E-1,-8.6148195E-2,-6.074236E-1,-4.9749943E-3,-2.7324844E-2,7.552812E-1,6.1364E-1,-3.089264E-2,-3.94543E-1,5.561956E-1,-3.3106055E-2,-1.4750524E-2,3.7197463E-2,-3.0932104E-2,4.4270635E-2,2.1839736E-2,3.298996E-2,-2.7750263E-2,-3.3745017E-2,3.655036E-2,4.2728204E-2,1.3165928E-2],"categories":[],"categories_nodes":[],"categories_segments":[],"categories_sizes":[],"default_left":[0,0,0,0,0,0,0,0,0,0,0,0,0,0,0,0,0,0,0,0,0,0,0,0,0,0,0],"id":25,"left_children":[1,3,5,7,9,11,13,15,17,-1,19,21,-1,23,25,-1,-1,-1,-1,-1,-1,-1,-1,-1,-1,-1,-1],"loss_changes":[3.6671116E1,9.64921E0,7.4009666E0,4.570076E0,5.613078E0,6.918888E0,5.0160027E0,1.2272148E0,7.7471423E0,0E0,5.2774906E-2,4.730875E0,0E0,5.8402047E0,4.9758172E-1,0E0,0E0,0E0,0E0,0E0,0E0,0E0,0E0,0E0,0E0,0E0,0E0],"parents":[2147483647,0,0,1,1,2,2,3,3,4,4,5,5,6,6,7,7,8,8,10,10,11,11,13,13,14,14],"right_children":[2,4,6,8,10,12,14,16,18,-1,20,22,-1,24,26,-1,-1,-1,-1,-1,-1,-1,-1,-1,-1,-1,-1],"split_conditions":[1.2354E4,2.25E2,1E0,3E0,1E0,1E0,1E0,1E0,2.6552817E3,-2.7324844E-2,2.78E2,1.7E1,-3.089264E-2,1E0,1.4571E4,-3.3106055E-2,-1.4750524E-2,3.7197463E-2,-3.0932104E-2,4.4270635E-2,2.1839736E-2,3.298996E-2,-2.7750263E-2,-3.3745017E-2,3.655036E-2,4.2728204E-2,1.3165928E-2],"split_indices":[0,1,4,4,6,25,27,27,3,0,1,2,0,38,0,0,0,0,0,0,0,0,0,0,0,0,0],"split_type":[0,0,0,0,0,0,0,0,0,0,0,0,0,0,0,0,0,0,0,0,0,0,0,0,0,0,0],"sum_hessian":[2.1785956E2,1.1067945E2,1.0718011E2,9.710241E1,1.3577038E1,8.3966736E1,2.3213371E1,8.2247185E1,1.4855224E1,3.9721997E0,9.604838E0,7.99119E1,4.0548286E0,1.59442E1,7.2691717E0,6.904019E1,1.3206992E1,6.5946994E0,8.260525E0,5.5550275E0,4.049811E0,7.729435E1,2.6175566E0,1.3085246E1,2.8589532E0,2.6508217E0,4.61835E0],"tree_param":{"num_deleted":"0","num_feature":"45","num_nodes":"27","size_leaf_vector":"1"}},{"base_weights":[1.9720491E-2,-2.4879251E-1,1.3359739E-1,-3.2763246E-1,3.435667E-2,7.6351595E-1,4.5465764E-2,-1.5890293E-1,-3.2362357E-2,4.61275E-1,4.799011E-2,-3.449676E-2,1.10334136E-1,-1.1194553E-2,3.6801998E-2,-2.7007071E-2,4.408441E-2,1.28117725E-2,-1.3357391E-2],"categories":[],"categories_nodes":[],"categories_segments":[],"categories_sizes":[],"default_left":[0,0,0,0,0,0,0,0,0,0,0,0,0,0,0,0,0,0,0],"id":26,"left_children":[1,3,5,7,-1,9,11,13,-1,15,-1,-1,17,-1,-1,-1,-1,-1,-1],"loss_changes":[6.91128E0,5.1937957E0,8.770184E0,3.2829037E0,0E0,7.0836735E-1,6.7641993E0,2.6317112E0,0E0,4.503135E0,0E0,0E0,7.2115064E0,0E0,0E0,0E0,0E0,0E0,0E0],"parents":[2147483647,0,0,1,1,2,2,3,3,5,5,6,6,7,7,9,9,12,12],"right_children":[2,4,6,8,-1,10,12,14,-1,16,-1,-1,18,-1,-1,-1,-1,-1,-1],"split_conditions":[1E0,1E0,2.426E3,4.2166274E3,3.435667E-2,1E0,2.7284326E3,4.160077E3,-3.2362357E-2,7.854E3,4.799011E-2,-3.449676E-2,5.0436E4,-1.1194553E-2,3.6801998E-2,-2.7007071E-2,4.408441E-2,1.28117725E-2,-1.3357391E-2],"split_indices":[2,35,3,3,0,24,3,3,0,0,0,0,0,0,0,0,0,0,0],"split_type":[0,0,0,0,0,0,0,0,0,0,0,0,0,0,0,0,0,0,0],"sum_hessian":[2.2393854E2,6.633677E1,1.5760176E2,6.178233E1,4.554444E0,1.8403053E1,1.3919872E2,4.1415577E1,2.036675E1,8.564882E0,9.83817E0,1.0502122E1,1.286966E2,3.931077E1,2.1048067E0,2.4482973E0,6.1165853E0,9.305205E1,3.564454E1],"tree_param":{"num_deleted":"0","num_feature":"45","num_nodes":"19","size_leaf_vector":"1"}},{"base_weights":[2.1125479E-2,7.379541E-1,-1.9182128E-1,8.389079E-1,2.337913E-1,-2.7472773E-1,3.4422213E-1,9.0404075E-1,-3.209091E-3,-1.3616434E-1,3.8304698E-2,-3.1554922E-1,4.706636E-2,7.07757E-1,-4.7026274E-1,4.8679408E-2,1.1350806E-2,6.7613362E-3,-2.4074093E-2,1.3184977E-3,-2.0406095E-2,7.896191E-3,5.5414874E-2,-5.755642E-3,-2.9244363E-2],"categories":[],"categories_nodes":[],"categories_segments":[],"categories_sizes":[],"default_left":[0,0,0,0,0,0,0,0,0,0,0,0,0,0,0,0,0,0,0,0,0,0,0,0,0],"id":27,"left_children":[1,3,5,7,9,11,13,15,-1,17,-1,19,-1,21,23,-1,-1,-1,-1,-1,-1,-1,-1,-1,-1],"loss_changes":[3.3157467E1,2.335661E0,7.540593E0,2.473095E0,2.0116086E0,7.5278006E0,7.109307E0,1.5852852E0,0E0,6.80172E-1,0E0,4.4952297E0,0E0,3.397725E0,2.4464309E-1,0E0,0E0,0E0,0E0,0E0,0E0,0E0,0E0,0E0,0E0],"parents":[2147483647,0,0,1,1,2,2,3,3,4,4,5,5,6,6,7,7,9,9,11,11,13,13,14,14],"right_children":[2,4,6,8,10,12,14,16,-1,18,-1,20,-1,22,24,-1,-1,-1,-1,-1,-1,-1,-1,-1,-1],"split_conditions":[2.169E3,1E0,1E0,4E0,6.88E2,1E0,1E0,2E0,-3.209091E-3,1.1E1,3.8304698E-2,1E0,4.706636E-2,3.5377769E3,5.926E3,4.8679408E-2,1.1350806E-2,6.7613362E-3,-2.4074093E-2,1.3184977E-3,-2.0406095E-2,7.896191E-3,5.5414874E-2,-5.755642E-3,-2.9244363E-2],"split_indices":[0,27,15,4,0,12,24,2,0,1,0,2,0,3,0,0,0,0,0,0,0,0,0,0,0],"split_type":[0,0,0,0,0,0,0,0,0,0,0,0,0,0,0,0,0,0,0,0,0,0,0,0,0],"sum_hessian":[2.1529022E2,4.874333E1,1.6654689E2,4.0058113E1,8.685218E0,1.4466064E2,2.1886255E1,3.73624E1,2.6957133E0,5.5630436E0,3.1221735E0,1.4067874E2,3.9819007E0,1.5222794E1,6.663461E0,3.3484646E1,3.8777544E0,3.4556146E0,2.107429E0,3.0125326E1,1.1055341E2,7.0033603E0,8.219434E0,2.114916E0,4.548545E0],"tree_param":{"num_deleted":"0","num_feature":"45","num_nodes":"25","size_leaf_vector":"1"}},{"base_weights":[1.458958E-2,-3.5703015E-1,3.9335963E-1,-4.9158382E-1,1.7269039E-1,5.019796E-1,-4.4041146E-2,2.614401E-1,-5.916957E-1,-2.997174E-1,4.337628E-2,5.634953E-1,-3.0647907E-2,-3.5751507E-1,5.3400546E-1,-2.7845083E-2,4.437956E-2,-3.2774527E-2,4.0433644E-3,3.0988803E-2,-3.0707365E-2,-3.0259833E-2,3.1142017E-2,-3.317414E-2,3.5394948E-2,4.1093495E-2,1.2572271E-2],"categories":[],"categories_nodes":[],"categories_segments":[],"categories_sizes":[],"default_left":[0,0,0,0,0,0,0,0,0,0,0,0,0,0,0,0,0,0,0,0,0,0,0,0,0,0,0],"id":28,"left_children":[1,3,5,7,9,11,13,15,17,19,-1,21,-1,23,25,-1,-1,-1,-1,-1,-1,-1,-1,-1,-1,-1,-1],"loss_changes":[3.0839045E1,7.9687433E0,5.1762257E0,6.823807E0,7.857255E0,6.311281E0,4.2679806E0,6.168988E0,3.4164467E0,4.5788784E0,0E0,6.1304836E0,0E0,5.4205756E0,4.6946812E-1,0E0,0E0,0E0,0E0,0E0,0E0,0E0,0E0,0E0,0E0,0E0,0E0],"parents":[2147483647,0,0,1,1,2,2,3,3,4,4,5,5,6,6,7,7,8,8,9,9,11,11,13,13,14,14],"right_children":[2,4,6,8,10,12,14,16,18,20,-1,22,-1,24,26,-1,-1,-1,-1,-1,-1,-1,-1,-1,-1,-1,-1],"split_conditions":[1.2354E4,1E0,1E0,-1.1E1,2E0,1E0,1E0,-1.4E1,4E0,1.6049894E3,4.337628E-2,1.5E1,-3.0647907E-2,1E0,1.4571E4,-2.7845083E-2,4.437956E-2,-3.2774527E-2,4.0433644E-3,3.0988803E-2,-3.0707365E-2,-3.0259833E-2,3.1142017E-2,-3.317414E-2,3.5394948E-2,4.1093495E-2,1.2572271E-2],"split_indices":[0,27,4,4,2,25,27,4,4,3,0,1,0,38,0,0,0,0,0,0,0,0,0,0,0,0,0],"split_type":[0,0,0,0,0,0,0,0,0,0,0,0,0,0,0,0,0,0,0,0,0,0,0,0,0,0,0],"sum_hessian":[2.1709427E2,1.0961043E2,1.0748384E2,8.746544E1,2.2144995E1,8.5983795E1,2.1500046E1,1.00746E1,7.739084E1,1.3520955E1,8.62404E0,8.195651E1,4.027281E0,1.4187626E1,7.312419E0,4.4150248E0,5.6595755E0,7.070922E1,6.6816154E0,3.1979675E0,1.0322988E1,3.5160713E0,7.8440445E1,1.1315323E1,2.872303E0,2.6767573E0,4.6356616E0],"tree_param":{"num_deleted":"0","num_feature":"45","num_nodes":"27","size_leaf_vector":"1"}},{"base_weights":[3.5114406E-4,-2.7988973E-1,1.1179155E-1,-4.776172E-1,1.2805843E-2,2.0159268E-1,-4.8751915E-1,-8.224548E-2,-3.2916404E-2,-1.7198011E-1,4.049021E-2,3.7141028E-1,-3.4079236E-1,-3.2551423E-2,2.1328287E-2,-3.1441383E-2,4.8541795E-2,-1.4680661E-2,3.1285234E-2,-1.7631074E-2,2.2794377E-2,-2.1547182E-2,2.9495293E-2],"categories":[],"categories_nodes":[],"categories_segments":[],"categories_sizes":[],"default_left":[0,0,0,0,0,0,0,0,0,0,0,0,0,0,0,0,0,0,0,0,0,0,0],"id":29,"left_children":[1,3,5,7,9,11,13,15,-1,17,-1,19,21,-1,-1,-1,-1,-1,-1,-1,-1,-1,-1],"loss_changes":[7.068537E0,3.7330422E0,8.81357E0,2.6937351E0,4.1064544E0,1.31635475E1,3.475484E0,8.212501E0,0E0,2.3854272E0,0E0,6.7830973E0,3.129665E0,0E0,0E0,0E0,0E0,0E0,0E0,0E0,0E0,0E0,0E0],"parents":[2147483647,0,0,1,1,2,2,3,3,4,4,5,5,6,6,7,7,9,9,11,11,12,12],"right_children":[2,4,6,8,10,12,14,16,-1,18,-1,20,22,-1,-1,-1,-1,-1,-1,-1,-1,-1,-1],"split_conditions":[1E0,1E0,1E0,2.4008E3,1.2354E4,5.0436E4,1E0,1.47E2,-3.2916404E-2,7E0,4.049021E-2,2.169E3,1E0,-3.2551423E-2,2.1328287E-2,-3.1441383E-2,4.8541795E-2,-1.4680661E-2,3.1285234E-2,-1.7631074E-2,2.2794377E-2,-2.1547182E-2,2.9495293E-2],"split_indices":[2,4,27,3,0,0,15,1,0,4,0,0,15,0,0,0,0,0,0,0,0,0,0],"split_type":[0,0,0,0,0,0,0,0,0,0,0,0,0,0,0,0,0,0,0,0,0,0,0],"sum_hessian":[2.2433499E2,6.3397293E1,1.609377E2,3.7459873E1,2.593742E1,1.4054236E2,2.0395338E1,1.2207212E1,2.5252663E1,2.1692238E1,4.2451816E0,1.0727151E2,3.3270855E1,1.7544756E1,2.850583E0,8.301396E0,3.9058156E0,1.9370491E1,2.3217463E0,1.0876636E1,9.639487E1,3.0822252E1,2.4486027E0],"tree_param":{"num_deleted":"0","num_feature":"45","num_nodes":"23","size_leaf_vector":"1"}},{"base_weights":[-1.5704524E-2,5.7825524E-1,-2.9645008E-1,7.649904E-1,-1.3874319E-1,-3.7555113E-1,1.2147758E-1,9.0493435E-1,2.967224E-1,-4.7684318E-1,4.507635E-1,-1.1518113E-1,-4.4415388E-1,6.209759E-1,-2.18613E-1,4.835092E-2,2.9445766E-2,3.798007E-2,4.5038066E-3,-1.0693627E-2,-2.6439369E-2,4.1936506E-2,-7.866084E-3,1.62783E-2,-1.7915986E-2,-1.6614152E-2,-2.6668692E-2,-9.126425E-3,4.942104E-2,1.0884236E-2,-1.7201373E-2],"categories":[],"categories_nodes":[],"categories_segments":[],"categories_sizes":[],"default_left":[0,0,0,0,0,0,0,0,0,0,0,0,0,0,0,0,0,0,0,0,0,0,0,0,0,0,0,0,0,0,0],"id":30,"left_children":[1,3,5,7,9,11,13,15,17,19,21,23,25,27,29,-1,-1,-1,-1,-1,-1,-1,-1,-1,-1,-1,-1,-1,-1,-1,-1],"loss_changes":[3.6503223E1,9.514456E0,4.958453E0,3.3949242E0,3.2775826E0,2.1852398E0,4.2818136E0,2.6538086E-1,1.3042607E0,2.6937246E-2,1.5745267E0,3.059301E0,8.083439E-1,3.1761642E0,9.098801E-1,0E0,0E0,0E0,0E0,0E0,0E0,0E0,0E0,0E0,0E0,0E0,0E0,0E0,0E0,0E0,0E0],"parents":[2147483647,0,0,1,1,2,2,3,3,4,4,5,5,6,6,7,7,8,8,9,9,10,10,11,11,12,12,13,13,14,14],"right_children":[2,4,6,8,10,12,14,16,18,20,22,24,26,28,30,-1,-1,-1,-1,-1,-1,-1,-1,-1,-1,-1,-1,-1,-1,-1,-1],"split_conditions":[4.255E3,2E0,1E0,2E0,4.9E1,1E0,1E0,1E0,6.8E2,2.169E3,1.46E2,1.1923E4,1E0,-3.4E1,5.926E3,4.835092E-2,2.9445766E-2,3.798007E-2,4.5038066E-3,-1.0693627E-2,-2.6439369E-2,4.1936506E-2,-7.866084E-3,1.62783E-2,-1.7915986E-2,-1.6614152E-2,-2.6668692E-2,-9.126425E-3,4.942104E-2,1.0884236E-2,-1.7201373E-2],"split_indices":[0,2,15,4,1,2,6,27,0,0,1,0,17,4,0,0,0,0,0,0,0,0,0,0,0,0,0,0,0,0,0],"split_type":[0,0,0,0,0,0,0,0,0,0,0,0,0,0,0,0,0,0,0,0,0,0,0,0,0,0,0,0,0,0,0],"sum_hessian":[2.1687982E2,6.926965E1,1.4761017E2,5.4903618E1,1.4366038E1,1.2420358E2,2.3406582E1,4.155285E1,1.3350767E1,9.251269E0,5.1147695E0,2.6459612E1,9.774397E1,9.146706E0,1.4259876E1,3.3008175E1,8.544674E0,3.2947693E0,1.0055998E1,2.3700576E0,6.8812118E0,2.8909848E0,2.2237844E0,9.2865305E0,1.7173082E1,4.546313E1,5.228084E1,3.0281634E0,6.1185417E0,3.0195615E0,1.12403145E1],"tree_param":{"num_deleted":"0","num_feature":"45","num_nodes":"31","size_leaf_vector":"1"}},{"base_weights":[-2.0743348E-2,-5.915066E-1,2.3829587E-1,-3.266141E-2,1.5366781E-1,-1.4138335E-1,4.6206465E-1,-2.8568888E-2,3.706753E-2,-3.1963292E-1,5.1497036E-1,5.820162E-1,-3.05937E-1,-2.0700231E-2,3.9579812E-2,-2.6178584E-2,4.41209E-2,3.2588392E-2,-3.038849E-2,-3.1502098E-2,1.2233502E-2],"categories":[],"categories_nodes":[],"categories_segments":[],"categories_sizes":[],"default_left":[0,0,0,0,0,0,0,0,0,0,0,0,0,0,0,0,0,0,0,0,0],"id":31,"left_children":[1,3,5,-1,7,9,11,-1,-1,13,15,17,19,-1,-1,-1,-1,-1,-1,-1,-1],"loss_changes":[3.1720905E1,3.180317E0,1.2607987E1,0E0,2.9511425E0,6.6588936E0,8.756586E0,0E0,0E0,4.970357E0,5.132268E0,7.108759E0,2.5159736E0,0E0,0E0,0E0,0E0,0E0,0E0,0E0,0E0],"parents":[2147483647,0,0,1,1,2,2,4,4,5,5,6,6,9,9,10,10,11,11,12,12],"right_children":[2,4,6,-1,8,10,12,-1,-1,14,16,18,20,-1,-1,-1,-1,-1,-1,-1,-1],"split_conditions":[5.1E1,5.0436E4,1.2354E4,-3.266141E-2,2E0,1E0,1E0,-2.8568888E-2,3.706753E-2,6E0,1E0,1E0,1E0,-2.0700231E-2,3.9579812E-2,-2.6178584E-2,4.41209E-2,3.2588392E-2,-3.038849E-2,-3.1502098E-2,1.2233502E-2],"split_indices":[1,0,0,0,2,27,4,0,0,2,8,25,27,0,0,0,0,0,0,0,0],"split_type":[0,0,0,0,0,0,0,0,0,0,0,0,0,0,0,0,0,0,0,0,0],"sum_hessian":[2.1259444E2,6.596489E1,1.4662955E2,6.1033016E1,4.9318705E0,5.450926E1,9.212029E1,2.2203228E0,2.7115479E0,4.3270947E1,1.1238311E1,7.988542E1,1.2234867E1,4.0462116E1,2.808831E0,2.826028E0,8.412283E0,7.5888626E1,3.9967966E0,7.6106987E0,4.624169E0],"tree_param":{"num_deleted":"0","num_feature":"45","num_nodes":"21","size_leaf_vector":"1"}},{"base_weights":[1.1543756E-3,-2.7853557E-1,1.1214341E-1,-5.610582E-1,8.8197425E-2,1.9994497E-1,-4.7780874E-1,1.2450492E-1,-3.292012E-2,-1.6814256E-1,4.4987258E-2,3.660528E-1,-3.3316645E-1,-3.2126557E-2,2.1630969E-2,-2.435167E-2,3.823087E-2,-1.4762022E-2,3.799263E-2,2.318717E-2,-1.2167172E-2,-2.1097852E-2,2.651057E-2],"categories":[],"categories_nodes":[],"categories_segments":[],"categories_sizes":[],"default_left":[0,0,0,0,0,0,0,0,0,0,0,0,0,0,0,0,0,0,0,0,0,0,0],"id":32,"left_children":[1,3,5,7,9,11,13,15,-1,17,-1,19,21,-1,-1,-1,-1,-1,-1,-1,-1,-1,-1],"loss_changes":[6.9861703E0,6.6739902E0,8.44076E0,2.5011787E0,6.11892E0,1.260297E1,3.4522362E0,2.4659848E0,0E0,2.8949635E0,0E0,6.5385437E0,2.8306255E0,0E0,0E0,0E0,0E0,0E0,0E0,0E0,0E0,0E0,0E0],"parents":[2147483647,0,0,1,1,2,2,3,3,4,4,5,5,6,6,7,7,9,9,11,11,12,12],"right_children":[2,4,6,8,10,12,14,16,-1,18,-1,20,22,-1,-1,-1,-1,-1,-1,-1,-1,-1,-1],"split_conditions":[1E0,1E0,1E0,1.95661E3,1.2354E4,5.0436E4,1E0,7.213E3,-3.292012E-2,8E0,4.4987258E-2,1E0,1E0,-3.2126557E-2,2.1630969E-2,-2.435167E-2,3.823087E-2,-1.4762022E-2,3.799263E-2,2.318717E-2,-1.2167172E-2,-2.1097852E-2,2.651057E-2],"split_indices":[2,4,27,3,0,0,15,0,0,4,0,15,15,0,0,0,0,0,0,0,0,0,0],"split_type":[0,0,0,0,0,0,0,0,0,0,0,0,0,0,0,0,0,0,0,0,0,0,0],"sum_hessian":[2.2304541E2,6.2936707E1,1.6010872E2,3.5250587E1,2.768612E1,1.3994241E2,2.0166304E1,4.3482513E0,3.0902334E1,2.1642736E1,6.0433836E0,1.0693635E2,3.300606E1,1.7325823E1,2.8404806E0,2.346061E0,2.00219E0,1.963534E1,2.0073972E0,9.2368095E1,1.4568253E1,3.0391811E1,2.6142507E0],"tree_param":{"num_deleted":"0","num_feature":"45","num_nodes":"23","size_leaf_vector":"1"}},{"base_weights":[-1.397281E-2,5.482168E-1,-2.8767708E-1,6.832246E-1,-5.8217347E-2,-3.6080834E-1,1.01754665E-1,-1.525437E-2,8.0957E-1,-2.158469E-2,4.6175957E-1,-1.8078402E-1,-4.6768147E-1,3.6097953E-1,-2.7575588E-2,3.836758E-2,-2.072723E-2,4.308402E-2,-9.208687E-3,4.2566054E-2,-1.2101351E-2,-1.9196765E-2,5.0124407E-2,-2.6047036E-2,4.685467E-2,4.7454108E-2,-1.6711289E-3],"categories":[],"categories_nodes":[],"categories_segments":[],"categories_sizes":[],"default_left":[0,0,0,0,0,0,0,0,0,0,0,0,0,0,0,0,0,0,0,0,0,0,0,0,0,0,0],"id":33,"left_children":[1,3,5,7,9,11,13,15,17,-1,19,21,23,25,-1,-1,-1,-1,-1,-1,-1,-1,-1,-1,-1,-1,-1],"loss_changes":[3.360634E1,5.8955173E0,4.219098E0,5.1817513E0,2.9074028E0,2.298437E0,4.26295E0,3.428679E0,2.7283936E0,0E0,1.9366728E0,1.18676815E1,6.2557373E0,4.156892E0,0E0,0E0,0E0,0E0,0E0,0E0,0E0,0E0,0E0,0E0,0E0,0E0,0E0],"parents":[2147483647,0,0,1,1,2,2,3,3,4,4,5,5,6,6,7,7,8,8,10,10,11,11,12,12,13,13],"right_children":[2,4,6,8,10,12,14,16,18,-1,20,22,24,26,-1,-1,-1,-1,-1,-1,-1,-1,-1,-1,-1,-1,-1],"split_conditions":[4.255E3,2E0,1E0,1.8406821E3,4.9E1,1.2354E4,1E0,1E0,1.67E2,-2.158469E-2,4.2064736E3,1E0,1E0,1E0,-2.7575588E-2,3.836758E-2,-2.072723E-2,4.308402E-2,-9.208687E-3,4.2566054E-2,-1.2101351E-2,-1.9196765E-2,5.0124407E-2,-2.6047036E-2,4.685467E-2,4.7454108E-2,-1.6711289E-3],"split_indices":[0,2,15,3,1,0,24,5,1,0,3,17,8,6,0,0,0,0,0,0,0,0,0,0,0,0,0],"split_type":[0,0,0,0,0,0,0,0,0,0,0,0,0,0,0,0,0,0,0,0,0,0,0,0,0,0,0],"sum_hessian":[2.1637718E2,7.052193E1,1.4585526E2,5.7577145E1,1.2944778E1,1.2285741E2,2.2997849E1,8.954265E0,4.8622883E1,7.632485E0,5.312294E0,4.6768677E1,7.608873E1,1.6784828E1,6.2130213E0,2.7136807E0,6.240584E0,4.6326485E1,2.2963967E0,3.2845778E0,2.0277162E0,4.0492252E1,6.276423E0,7.3915535E1,2.173196E0,6.1732955E0,1.0611532E1],"tree_param":{"num_deleted":"0","num_feature":"45","num_nodes":"27","size_leaf_vector":"1"}},{"base_weights":[-8.969135E-3,-3.5998592E-1,3.5161552E-1,-4.8744768E-1,1.5530163E-1,4.2129678E-1,-3.110057E-2,2.3957644E-1,-5.826765E-1,-2.916762E-2,5.63352E-1,4.776347E-1,-3.0200223E-2,-2.7110223E-2,3.8805984E-2,-3.216486E-2,-2.9707411E-3,3.8382333E-2,-2.3673285E-2,1.2972712E-2,3.9253034E-2],"categories":[],"categories_nodes":[],"categories_segments":[],"categories_sizes":[],"default_left":[0,0,0,0,0,0,0,0,0,0,0,0,0,0,0,0,0,0,0,0,0],"id":34,"left_children":[1,3,5,7,9,11,-1,13,15,-1,17,19,-1,-1,-1,-1,-1,-1,-1,-1,-1],"loss_changes":[2.8171587E1,7.4824514E0,7.711523E0,6.4155846E0,7.297699E0,6.241949E0,0E0,5.1217585E0,2.5134487E0,0E0,3.6259875E0,6.386791E0,0E0,0E0,0E0,0E0,0E0,0E0,0E0,0E0,0E0],"parents":[2147483647,0,0,1,1,2,2,3,3,4,4,5,5,7,7,8,8,10,10,11,11],"right_children":[2,4,6,8,10,12,-1,14,16,-1,18,20,-1,-1,-1,-1,-1,-1,-1,-1,-1],"split_conditions":[1.2354E4,1E0,1E0,-1.1E1,1.8E1,1E0,-3.110057E-2,-1.4E1,4E0,-2.916762E-2,1E0,5.0436E4,-3.0200223E-2,-2.7110223E-2,3.8805984E-2,-3.216486E-2,-2.9707411E-3,3.8382333E-2,-2.3673285E-2,1.2972712E-2,3.9253034E-2],"split_indices":[0,27,15,4,1,35,0,4,4,0,15,0,0,0,0,0,0,0,0,0,0],"split_type":[0,0,0,0,0,0,0,0,0,0,0,0,0,0,0,0,0,0,0,0,0],"sum_hessian":[2.2057486E2,1.1177115E2,1.0880371E2,8.9649445E1,2.2121698E1,1.0206625E2,6.737463E0,1.0207151E1,7.944229E1,7.7190475E0,1.4402652E1,9.7256386E1,4.809862E0,4.1499023E0,6.057249E0,7.098873E1,8.45356E0,1.2248766E1,2.1538854E0,5.7963554E1,3.9292835E1],"tree_param":{"num_deleted":"0","num_feature":"45","num_nodes":"21","size_leaf_vector":"1"}},{"base_weights":[3.6329802E-3,-2.5027633E-2,4.1182544E-2,1.1306622E-1,-2.8798276E-1,-1.3539745E-2,5.566249E-1,-3.6284283E-1,3.1808604E-2,-2.9135356E-3,4.7618013E-2,4.1711558E-2,1.1598389E-4,-2.256531E-2,3.0379716E-2],"categories":[],"categories_nodes":[],"categories_segments":[],"categories_sizes":[],"default_left":[0,0,0,0,0,0,0,0,0,0,0,0,0,0,0],"id":35,"left_children":[1,3,-1,5,7,9,11,13,-1,-1,-1,-1,-1,-1,-1],"loss_changes":[5.108295E0,7.6631427E0,0E0,7.7851906E0,5.256134E0,4.752835E0,4.7340546E0,6.0974884E0,0E0,0E0,0E0,0E0,0E0,0E0,0E0],"parents":[2147483647,0,0,1,1,3,3,4,4,5,5,6,6,7,7],"right_children":[2,4,-1,6,8,10,12,14,-1,-1,-1,-1,-1,-1,-1],"split_conditions":[1E0,1E0,4.1182544E-2,4E0,4E0,8E0,3.76E2,1E0,3.1808604E-2,-2.9135356E-3,4.7618013E-2,4.1711558E-2,1.1598389E-4,-2.256531E-2,3.0379716E-2],"split_indices":[35,17,0,2,4,4,1,25,0,0,0,0,0,0,0],"split_type":[0,0,0,0,0,0,0,0,0,0,0,0,0,0,0],"sum_hessian":[2.1547665E2,2.0913657E2,6.340096E0,1.3749797E2,7.163859E1,1.07720535E2,2.9777441E1,6.68323E1,4.806293E0,1.0385086E2,3.869676E0,1.9504318E1,1.0273123E1,6.1739204E1,5.093095E0],"tree_param":{"num_deleted":"0","num_feature":"45","num_nodes":"15","size_leaf_vector":"1"}},{"base_weights":[1.4930742E-3,5.3365755E-1,-2.6148224E-1,6.666347E-1,-8.818329E-2,-3.3899134E-1,1.2513293E-1,9.0632355E-3,7.867119E-1,-3.1023663E-1,3.7020188E-2,-1.7648824E-1,-4.3875173E-1,6.0330385E-1,-2.1550731E-1,3.7273746E-2,-1.820267E-2,4.1729387E-2,2.2607183E-3,-4.082845E-3,-2.2926483E-2,-1.8830083E-2,4.8569743E-2,-2.5372658E-2,4.9266662E-2,4.6657916E-2,-1.4873276E-2,-2.793779E-2,2.530385E-3],"categories":[],"categories_nodes":[],"categories_segments":[],"categories_sizes":[],"default_left":[0,0,0,0,0,0,0,0,0,0,0,0,0,0,0,0,0,0,0,0,0,0,0,0,0,0,0,0,0],"id":36,"left_children":[1,3,5,7,9,11,13,15,17,19,-1,21,23,25,27,-1,-1,-1,-1,-1,-1,-1,-1,-1,-1,-1,-1,-1,-1],"loss_changes":[3.009899E1,5.940626E0,4.3559837E0,4.629072E0,2.6978123E0,1.8708162E0,4.1646223E0,3.0405207E0,1.7244148E0,3.45047E-1,0E0,1.1250837E1,7.7195206E0,3.417537E0,1.4168735E0,0E0,0E0,0E0,0E0,0E0,0E0,0E0,0E0,0E0,0E0,0E0,0E0,0E0,0E0],"parents":[2147483647,0,0,1,1,2,2,3,3,4,4,5,5,6,6,7,7,8,8,9,9,11,11,12,12,13,13,14,14],"right_children":[2,4,6,8,10,12,14,16,18,20,-1,22,24,26,28,-1,-1,-1,-1,-1,-1,-1,-1,-1,-1,-1,-1,-1,-1],"split_conditions":[4.255E3,2E0,1E0,1.8406821E3,1E0,1.2354E4,1E0,1E0,4E0,5.125729E3,3.7020188E-2,1E0,1E0,1E0,2.6552817E3,3.7273746E-2,-1.820267E-2,4.1729387E-2,2.2607183E-3,-4.082845E-3,-2.2926483E-2,-1.8830083E-2,4.8569743E-2,-2.5372658E-2,4.9266662E-2,4.6657916E-2,-1.4873276E-2,-2.793779E-2,2.530385E-3],"split_indices":[0,2,15,3,44,0,6,5,4,3,0,17,8,24,3,0,0,0,0,0,0,0,0,0,0,0,0,0,0],"split_type":[0,0,0,0,0,0,0,0,0,0,0,0,0,0,0,0,0,0,0,0,0,0,0,0,0,0,0,0,0],"sum_hessian":[2.1307845E2,7.013068E1,1.4294777E2,5.771633E1,1.2414345E1,1.19178E2,2.376977E1,9.078079E0,4.8638252E1,1.0283934E1,2.1304114E0,4.638653E1,7.2791466E1,9.567867E0,1.4201903E1,2.7172124E0,6.3608665E0,4.5570393E1,3.067859E0,4.656706E0,5.6272273E0,4.0072502E1,6.314027E0,7.005548E1,2.7359881E0,6.976992E0,2.5908751E0,5.7218704E0,8.480033E0],"tree_param":{"num_deleted":"0","num_feature":"45","num_nodes":"29","size_leaf_vector":"1"}},{"base_weights":[-1.1961785E-2,-3.378186E-1,3.249978E-1,-4.6861085E-1,1.5721773E-1,4.5776492E-1,-2.2475488E-1,2.3169082E-1,-5.687657E-1,-2.8782872E-2,5.4773486E-1,5.1719445E-1,-3.0276963E-2,-3.235487E-2,4.510383E-1,-2.689453E-2,3.764276E-2,-3.1794824E-2,4.555312E-3,3.7298348E-2,-2.3415051E-2,-2.9649585E-2,2.8810596E-2,3.3421453E-2,1.1021152E-2],"categories":[],"categories_nodes":[],"categories_segments":[],"categories_sizes":[],"default_left":[0,0,0,0,0,0,0,0,0,0,0,0,0,0,0,0,0,0,0,0,0,0,0,0,0],"id":37,"left_children":[1,3,5,7,9,11,13,15,17,-1,19,21,-1,-1,23,-1,-1,-1,-1,-1,-1,-1,-1,-1,-1],"loss_changes":[2.2801031E1,6.9077435E0,7.555665E0,6.005373E0,6.84292E0,5.5312233E0,6.1523952E0,4.8924656E0,3.3162098E0,0E0,3.4494023E0,5.5009766E0,0E0,0E0,2.7811468E-1,0E0,0E0,0E0,0E0,0E0,0E0,0E0,0E0,0E0,0E0],"parents":[2147483647,0,0,1,1,2,2,3,3,4,4,5,5,6,6,7,7,8,8,10,10,11,11,14,14],"right_children":[2,4,6,8,10,12,14,16,18,-1,20,22,-1,-1,24,-1,-1,-1,-1,-1,-1,-1,-1,-1,-1],"split_conditions":[1.2354E4,1E0,1E0,-1.1E1,1.8E1,1E0,5.0436E4,-1.4E1,4E0,-2.8782872E-2,1E0,1.5E1,-3.0276963E-2,-3.235487E-2,6E0,-2.689453E-2,3.764276E-2,-3.1794824E-2,4.555312E-3,3.7298348E-2,-2.3415051E-2,-2.9649585E-2,2.8810596E-2,3.3421453E-2,1.1021152E-2],"split_indices":[0,27,4,4,1,25,0,4,4,0,15,1,0,0,1,0,0,0,0,0,0,0,0,0,0],"split_type":[0,0,0,0,0,0,0,0,0,0,0,0,0,0,0,0,0,0,0,0,0,0,0,0,0],"sum_hessian":[2.0565866E2,1.0455052E2,1.0110815E2,8.2742676E1,2.1807844E1,8.157487E1,1.953328E1,1.0188616E1,7.255406E1,7.4161053E0,1.4391738E1,7.7743286E1,3.8315816E0,1.2046921E1,7.4863586E0,4.100898E0,6.0877175E0,6.588747E1,6.6665955E0,1.2264666E1,2.1270728E0,3.46752E0,7.4275764E1,2.876423E0,4.6099358E0],"tree_param":{"num_deleted":"0","num_feature":"45","num_nodes":"25","size_leaf_vector":"1"}},{"base_weights":[-7.1044E-3,-3.5392065E-2,3.9550427E-2,-1.3435523E-1,2.3345089E-1,-1.9716845E-1,2.2668438E-1,6.962079E-1,-1.2661831E-1,-1.0879893E-2,3.6858838E-2,2.3791393E-2,-2.843889E-2,4.2133115E-2,-2.3874108E-2,4.3982483E-2,-1.5206823E-2],"categories":[],"categories_nodes":[],"categories_segments":[],"categories_sizes":[],"default_left":[0,0,0,0,0,0,0,0,0,0,0,0,0,0,0,0,0],"id":38,"left_children":[1,3,-1,5,7,9,11,13,15,-1,-1,-1,-1,-1,-1,-1,-1],"loss_changes":[4.8722672E0,5.570149E0,0E0,3.5099525E0,9.48233E0,2.6550784E0,4.8506436E0,4.6696615E0,6.0826483E0,0E0,0E0,0E0,0E0,0E0,0E0,0E0,0E0],"parents":[2147483647,0,0,1,1,3,3,4,4,5,5,6,6,7,7,8,8],"right_children":[2,4,-1,6,8,10,12,14,16,-1,-1,-1,-1,-1,-1,-1,-1],"split_conditions":[1E0,4E0,3.9550427E-2,1E0,3.76E2,1E0,4.4546E4,4.4546E4,5E0,-1.0879893E-2,3.6858838E-2,2.3791393E-2,-2.843889E-2,4.2133115E-2,-2.3874108E-2,4.3982483E-2,-1.5206823E-2],"split_indices":[35,2,0,22,1,9,0,0,2,0,0,0,0,0,0,0,0],"split_type":[0,0,0,0,0,0,0,0,0,0,0,0,0,0,0,0,0],"sum_hessian":[2.1356903E2,2.071815E2,6.3875175E0,1.518022E2,5.5379314E1,1.2969237E2,2.2109829E1,2.38255E1,3.1553814E1,1.2766802E2,2.024341E0,1.7142513E1,4.967315E0,2.1433096E1,2.392406E0,4.1386223E0,2.7415192E1],"tree_param":{"num_deleted":"0","num_feature":"45","num_nodes":"17","size_leaf_vector":"1"}},{"base_weights":[1.2263558E-2,5.2370334E-1,-2.5550213E-1,6.870782E-1,-1.3576902E-1,-3.4841236E-1,2.865809E-1,8.3460194E-1,1.7862189E-1,-4.5959148E-1,4.1620213E-1,-6.088924E-2,-4.2129374E-1,4.928718E-2,-1.595832E-2,4.4770796E-2,-1.3577128E-2,-1.920951E-2,2.338561E-2,-9.977005E-3,-2.5637329E-2,3.9953884E-2,-1.2117813E-2,2.5984839E-2,-1.7522747E-2,-1.6383544E-2,-2.5062425E-2,9.928005E-3,-2.7260244E-2],"categories":[],"categories_nodes":[],"categories_segments":[],"categories_sizes":[],"default_left":[0,0,0,0,0,0,0,0,0,0,0,0,0,0,0,0,0,0,0,0,0,0,0,0,0,0,0,0,0],"id":39,"left_children":[1,3,5,7,9,11,13,15,17,19,21,23,25,-1,27,-1,-1,-1,-1,-1,-1,-1,-1,-1,-1,-1,-1,-1,-1],"loss_changes":[2.8788458E1,7.875559E0,7.0506964E0,4.205578E0,2.9039183E0,2.452653E0,4.403117E0,3.2518559E0,2.5109513E0,3.6472082E-2,1.7408786E0,4.399387E0,5.4076576E-1,0E0,1.8636265E0,0E0,0E0,0E0,0E0,0E0,0E0,0E0,0E0,0E0,0E0,0E0,0E0,0E0,0E0],"parents":[2147483647,0,0,1,1,2,2,3,3,4,4,5,5,6,6,7,7,8,8,9,9,10,10,11,11,12,12,14,14],"right_children":[2,4,6,8,10,12,14,16,18,20,22,24,26,-1,28,-1,-1,-1,-1,-1,-1,-1,-1,-1,-1,-1,-1,-1,-1],"split_conditions":[4.255E3,2E0,1E0,1E0,4.9E1,1E0,1.27E2,5E0,1.8406821E3,2.169E3,4.2064736E3,1.1923E4,1E0,4.928718E-2,1E0,4.4770796E-2,-1.3577128E-2,-1.920951E-2,2.338561E-2,-9.977005E-3,-2.5637329E-2,3.9953884E-2,-1.2117813E-2,2.5984839E-2,-1.7522747E-2,-1.6383544E-2,-2.5062425E-2,9.928005E-3,-2.7260244E-2],"split_indices":[0,2,15,27,1,2,1,4,3,0,3,0,17,0,24,0,0,0,0,0,0,0,0,0,0,0,0,0,0],"split_type":[0,0,0,0,0,0,0,0,0,0,0,0,0,0,0,0,0,0,0,0,0,0,0,0,0,0,0,0,0],"sum_hessian":[2.0824048E2,7.123118E1,1.3700931E2,5.7054802E1,1.4176374E1,1.1726753E2,1.9741776E1,4.3726524E1,1.3328277E1,9.040177E0,5.136197E0,2.4085133E1,9.31824E1,5.2804704E0,1.4461306E1,4.1628372E1,2.098151E0,4.4112754E0,8.917002E0,2.3410325E0,6.6991453E0,3.1129832E0,2.0232139E0,7.7504845E0,1.6334648E1,4.5270824E1,4.791158E1,1.0734954E1,3.7263517E0],"tree_param":{"num_deleted":"0","num_feature":"45","num_nodes":"29","size_leaf_vector":"1"}},{"base_weights":[-2.0170618E-2,-3.7844875E-1,3.2300705E-1,-4.8195753E-1,2.303126E-1,2.2837746E-1,4.5447603E-2,-5.761326E-1,1.6582802E-2,-2.693281E-2,5.728617E-1,-6.856769E-2,5.510535E-1,-3.1521317E-2,-1.4132264E-2,3.656499E-2,-2.9820759E-2,1.3294781E-2,3.6974613E-2,-1.7534226E-2,3.99267E-2,-3.2066282E-2,3.6634542E-2],"categories":[],"categories_nodes":[],"categories_segments":[],"categories_sizes":[],"default_left":[0,0,0,0,0,0,0,0,0,0,0,0,0,0,0,0,0,0,0,0,0,0,0],"id":40,"left_children":[1,3,5,7,9,11,-1,13,15,-1,17,19,21,-1,-1,-1,-1,-1,-1,-1,-1,-1,-1],"loss_changes":[2.634687E1,6.7152767E0,5.8628445E0,4.230448E0,4.498848E0,9.197248E0,0E0,1.0271873E0,7.120243E0,0E0,3.9108205E-1,1.26753235E1,1.0415799E1,0E0,0E0,0E0,0E0,0E0,0E0,0E0,0E0,0E0,0E0],"parents":[2147483647,0,0,1,1,2,2,3,3,4,4,5,5,7,7,8,8,10,10,11,11,12,12],"right_children":[2,4,6,8,10,12,-1,14,16,-1,18,20,22,-1,-1,-1,-1,-1,-1,-1,-1,-1,-1],"split_conditions":[1.2354E4,2.25E2,1E0,3E0,4.628E3,5.0436E4,4.5447603E-2,1E0,2.6552817E3,-2.693281E-2,1E0,1E0,1E0,-3.1521317E-2,-1.4132264E-2,3.656499E-2,-2.9820759E-2,1.3294781E-2,3.6974613E-2,-1.7534226E-2,3.99267E-2,-3.2066282E-2,3.6634542E-2],"split_indices":[0,1,24,4,0,0,0,27,3,0,8,27,17,0,0,0,0,0,0,0,0,0,0],"split_type":[0,0,0,0,0,0,0,0,0,0,0,0,0,0,0,0,0,0,0,0,0,0,0],"sum_hessian":[2.1228976E2,1.03809586E2,1.0848019E2,8.8901764E1,1.49078245E1,9.459322E1,1.3886962E1,7.464548E1,1.4256286E1,4.417882E0,1.0489943E1,4.967079E1,4.4922432E1,6.202339E1,1.2622083E1,6.492939E0,7.7633467E0,4.6040683E0,5.8858743E0,3.792668E1,1.174411E1,5.6039367E0,3.9318497E1],"tree_param":{"num_deleted":"0","num_feature":"45","num_nodes":"23","size_leaf_vector":"1"}},{"base_weights":[-8.673045E-3,-3.6384147E-1,6.330252E-2,-5.311685E-1,2.7642903E-1,1.860637E-1,-2.2279882E-1,-3.241853E-2,3.718449E-2,6.205895E-1,-2.3001296E-2,3.0166137E-1,-4.5877066E-1,-3.240095E-1,4.5221426E-2,1.7415961E-2,3.9673116E-2,8.865812E-4,2.399163E-2,-3.1736165E-2,3.543141E-2,-2.1865636E-2,4.3045714E-2],"categories":[],"categories_nodes":[],"categories_segments":[],"categories_sizes":[],"default_left":[0,0,0,0,0,0,0,0,0,0,0,0,0,0,0,0,0,0,0,0,0,0,0],"id":41,"left_children":[1,3,5,7,9,11,13,-1,-1,15,-1,17,19,21,-1,-1,-1,-1,-1,-1,-1,-1,-1],"loss_changes":[5.7383556E0,4.1988072E0,6.6006093E0,5.013585E0,2.4383566E0,9.920084E0,6.7421427E0,0E0,0E0,1.6125202E-2,0E0,5.651291E0,4.628781E0,7.439225E0,0E0,0E0,0E0,0E0,0E0,0E0,0E0,0E0,0E0],"parents":[2147483647,0,0,1,1,2,2,3,3,4,4,5,5,6,6,9,9,11,11,12,12,13,13],"right_children":[2,4,6,8,10,12,14,-1,-1,16,-1,18,20,22,-1,-1,-1,-1,-1,-1,-1,-1,-1],"split_conditions":[2.169E3,1E0,4.4546E4,5E0,6.88E2,1E0,1E0,-3.241853E-2,3.718449E-2,7E0,-2.3001296E-2,-3E0,1E0,1E0,4.5221426E-2,1.7415961E-2,3.9673116E-2,8.865812E-4,2.399163E-2,-3.1736165E-2,3.543141E-2,-2.1865636E-2,4.3045714E-2],"split_indices":[0,27,0,4,0,27,25,0,0,1,0,4,15,35,0,0,0,0,0,0,0,0,0],"split_type":[0,0,0,0,0,0,0,0,0,0,0,0,0,0,0,0,0,0,0,0,0,0,0],"sum_hessian":[2.2257407E2,3.682137E1,1.8575269E2,2.9327402E1,7.4939666E0,1.3022502E2,5.552767E1,2.7308277E1,2.019125E0,5.2144675E0,2.279499E0,1.1088005E2,1.934497E1,5.1606613E1,3.9210577E0,3.1958976E0,2.01857E0,4.317571E1,6.7704346E1,1.7207685E1,2.1372838E0,4.76785E1,3.9281147E0],"tree_param":{"num_deleted":"0","num_feature":"45","num_nodes":"23","size_leaf_vector":"1"}},{"base_weights":[6.9615324E-3,5.188292E-1,-2.4862511E-1,6.597819E-1,-1.11845344E-1,-3.2391766E-1,1.0443352E-1,-5.535566E-2,7.932779E-1,-4.5345253E-1,3.8129026E-1,-1.2867203E-1,-4.3153694E-1,5.8730596E-1,-2.4005662E-1,3.362834E-2,-2.029881E-2,4.3032512E-2,2.3149587E-2,-1.0322584E-2,-2.585116E-2,3.8258478E-2,-1.2157342E-2,-1.5992448E-2,4.6522122E-2,-2.4598192E-2,4.6591636E-2,4.4812657E-2,-1.4060858E-2,-2.7636498E-2,3.5022755E-4],"categories":[],"categories_nodes":[],"categories_segments":[],"categories_sizes":[],"default_left":[0,0,0,0,0,0,0,0,0,0,0,0,0,0,0,0,0,0,0,0,0,0,0,0,0,0,0,0,0,0,0],"id":42,"left_children":[1,3,5,7,9,11,13,15,17,19,21,23,25,27,29,-1,-1,-1,-1,-1,-1,-1,-1,-1,-1,-1,-1,-1,-1,-1,-1],"loss_changes":[2.6559332E1,6.083555E0,3.6336765E0,5.3328953E0,2.3972943E0,2.2949257E0,4.2263336E0,2.7358785E0,6.4183426E-1,2.2918463E-2,1.6115828E0,8.634314E0,6.3643827E0,3.0737834E0,1.1659727E0,0E0,0E0,0E0,0E0,0E0,0E0,0E0,0E0,0E0,0E0,0E0,0E0,0E0,0E0,0E0,0E0],"parents":[2147483647,0,0,1,1,2,2,3,3,4,4,5,5,6,6,7,7,8,8,9,9,10,10,11,11,12,12,13,13,14,14],"right_children":[2,4,6,8,10,12,14,16,18,20,22,24,26,28,30,-1,-1,-1,-1,-1,-1,-1,-1,-1,-1,-1,-1,-1,-1,-1,-1],"split_conditions":[4.255E3,2E0,1E0,1.8406821E3,4.9E1,1.2354E4,1E0,1E0,1E0,2.169E3,4.2064736E3,1E0,1E0,1E0,2.6552817E3,3.362834E-2,-2.029881E-2,4.3032512E-2,2.3149587E-2,-1.0322584E-2,-2.585116E-2,3.8258478E-2,-1.2157342E-2,-1.5992448E-2,4.6522122E-2,-2.4598192E-2,4.6591636E-2,4.4812657E-2,-1.4060858E-2,-2.7636498E-2,3.5022755E-4],"split_indices":[0,2,15,3,1,0,6,5,27,0,3,17,8,24,3,0,0,0,0,0,0,0,0,0,0,0,0,0,0,0,0],"split_type":[0,0,0,0,0,0,0,0,0,0,0,0,0,0,0,0,0,0,0,0,0,0,0,0,0,0,0,0,0,0,0],"sum_hessian":[2.010258E2,6.6604965E1,1.3442084E2,5.4400555E1,1.220441E1,1.1086133E2,2.3559515E1,8.649667E0,4.575089E1,7.2574596E0,4.94695E0,4.017338E1,7.068794E1,9.516027E0,1.4043488E1,2.5133948E0,6.136272E0,3.6665936E1,9.084952E0,2.3549616E0,4.902498E0,2.9240096E0,2.0229404E0,3.462191E1,5.551472E0,6.829993E1,2.388015E0,6.9956417E0,2.520386E0,5.652558E0,8.390929E0],"tree_param":{"num_deleted":"0","num_feature":"45","num_nodes":"31","size_leaf_vector":"1"}},{"base_weights":[-1.2900726E-2,-2.5288874E-1,3.38512E-1,-4.085549E-1,2.7259007E-1,2.953979E-2,6.5460294E-1,1.9042371E-1,-5.759557E-1,-2.7933348E-2,5.3578866E-1,-3.250454E-2,4.3730247E-1,7.328741E-1,-2.6333315E-2,-1.5771654E-2,4.254707E-2,-3.205454E-2,-4.6858596E-4,3.8967174E-2,-2.6951527E-2,-1.4750257E-2,4.449164E-2,2.1170713E-2,4.1982334E-2],"categories":[],"categories_nodes":[],"categories_segments":[],"categories_sizes":[],"default_left":[0,0,0,0,0,0,0,0,0,0,0,0,0,0,0,0,0,0,0,0,0,0,0,0,0],"id":43,"left_children":[1,3,5,7,9,11,13,15,17,-1,19,-1,21,23,-1,-1,-1,-1,-1,-1,-1,-1,-1,-1,-1],"loss_changes":[1.769056E1,1.0304613E1,8.295502E0,9.789146E0,6.6612535E0,1.25058975E1,4.2726746E0,7.564966E0,2.78755E0,0E0,6.3351936E0,0E0,9.594933E0,9.609566E-1,0E0,0E0,0E0,0E0,0E0,0E0,0E0,0E0,0E0,0E0,0E0],"parents":[2147483647,0,0,1,1,2,2,3,3,4,4,5,5,6,6,7,7,8,8,10,10,12,12,13,13],"right_children":[2,4,6,8,10,12,14,16,18,-1,20,-1,22,24,-1,-1,-1,-1,-1,-1,-1,-1,-1,-1,-1],"split_conditions":[1E0,1E0,1E0,-1.1E1,1.8E1,2.67E2,1E0,-1.4E1,4E0,-2.7933348E-2,1E0,-3.250454E-2,4.5801626E3,2E0,-2.6333315E-2,-1.5771654E-2,4.254707E-2,-3.205454E-2,-4.6858596E-4,3.8967174E-2,-2.6951527E-2,-1.4750257E-2,4.449164E-2,2.1170713E-2,4.1982334E-2],"split_indices":[17,27,6,4,1,1,25,4,4,0,15,0,3,2,0,0,0,0,0,0,0,0,0,0,0],"split_type":[0,0,0,0,0,0,0,0,0,0,0,0,0,0,0,0,0,0,0,0,0,0,0,0,0],"sum_hessian":[2.0775069E2,1.236129E2,8.413779E1,9.553455E1,2.8078346E1,4.3100964E1,4.1036823E1,2.0837639E1,7.4696915E1,6.4824123E0,2.1595934E1,1.593962E1,2.7161343E1,3.8842686E1,2.1941357E0,1.2096212E1,8.741426E0,6.6877144E1,7.8197665E0,1.7830448E1,3.7654843E0,1.0506801E1,1.6654541E1,1.1237765E1,2.7604921E1],"tree_param":{"num_deleted":"0","num_feature":"45","num_nodes":"25","size_leaf_vector":"1"}},{"base_weights":[1.0864722E-2,-3.0090978E-2,4.5809932E-2,7.793627E-1,1.6315429E-2,1.5215508E-2,5.2825447E-2,8.323031E-2,-3.8772097E-1,8.643509E-3,-1.5250862E-2,-3.174363E-2,3.3234548E-2],"categories":[],"categories_nodes":[],"categories_segments":[],"categories_sizes":[],"default_left":[0,0,0,0,0,0,0,0,0,0,0,0,0],"id":44,"left_children":[1,-1,3,5,7,-1,-1,9,11,-1,-1,-1,-1],"loss_changes":[4.681858E0,0E0,4.456893E0,7.270045E-1,5.4292145E0,0E0,0E0,6.0415583E0,7.8453174E0,0E0,0E0,0E0,0E0],"parents":[2147483647,0,0,2,2,3,3,4,4,7,7,8,8],"right_children":[2,-1,4,6,8,-1,-1,10,12,-1,-1,-1,-1],"split_conditions":[5.79E2,-3.0090978E-2,6.88E2,1E0,1E0,1.5215508E-2,5.2825447E-2,5.0436E4,1E0,8.643509E-3,-1.5250862E-2,-3.174363E-2,3.3234548E-2],"split_indices":[0,0,0,27,27,0,0,0,15,0,0,0,0],"split_type":[0,0,0,0,0,0,0,0,0,0,0,0,0],"sum_hessian":[2.1638469E2,1.0800518E1,2.0558417E2,6.963835E0,1.9862033E2,3.3388214E0,3.6250134E0,1.7108064E2,2.7539684E1,1.3944083E2,3.1639812E1,2.2623465E1,4.9162183E0],"tree_param":{"num_deleted":"0","num_feature":"45","num_nodes":"13","size_leaf_vector":"1"}},{"base_weights":[1.7166935E-2,4.924567E-1,-2.3504809E-1,6.1596173E-1,-9.235557E-2,-3.0991697E-1,1.1119487E-1,1.9139973E-2,7.2458726E-1,-2.0443087E-2,3.6988088E-1,-1.5868537E-1,-4.0523502E-1,5.759919E-1,-2.1797158E-1,3.5277825E-2,-1.7623214E-2,3.8656782E-2,-9.8184375E-3,3.7511405E-2,-1.2349277E-2,9.734881E-3,-2.2918088E-2,-2.388909E-2,4.6910446E-2,4.3984365E-2,-1.3959085E-2,-2.725969E-2,1.4703315E-3],"categories":[],"categories_nodes":[],"categories_segments":[],"categories_sizes":[],"default_left":[0,0,0,0,0,0,0,0,0,0,0,0,0,0,0,0,0,0,0,0,0,0,0,0,0,0,0,0,0],"id":45,"left_children":[1,3,5,7,9,11,13,15,17,-1,19,21,23,25,27,-1,-1,-1,-1,-1,-1,-1,-1,-1,-1,-1,-1,-1,-1],"loss_changes":[2.4703499E1,5.2162323E0,3.525725E0,3.818058E0,2.1006567E0,1.5357533E0,3.9015365E0,2.8322215E0,2.3864174E0,0E0,1.579112E0,4.807812E0,7.0213413E0,2.974305E0,1.2443063E0,0E0,0E0,0E0,0E0,0E0,0E0,0E0,0E0,0E0,0E0,0E0,0E0,0E0,0E0],"parents":[2147483647,0,0,1,1,2,2,3,3,4,4,5,5,6,6,7,7,8,8,10,10,11,11,12,12,13,13,14,14],"right_children":[2,4,6,8,10,12,14,16,18,-1,20,22,24,26,28,-1,-1,-1,-1,-1,-1,-1,-1,-1,-1,-1,-1,-1,-1],"split_conditions":[4.255E3,2E0,1E0,1.8406821E3,4.9E1,1.2354E4,1E0,1E0,1.67E2,-2.0443087E-2,1.46E2,1E0,1E0,1E0,2.6552817E3,3.5277825E-2,-1.7623214E-2,3.8656782E-2,-9.8184375E-3,3.7511405E-2,-1.2349277E-2,9.734881E-3,-2.2918088E-2,-2.388909E-2,4.6910446E-2,4.3984365E-2,-1.3959085E-2,-2.725969E-2,1.4703315E-3],"split_indices":[0,2,15,3,1,0,6,5,1,0,1,8,8,24,3,0,0,0,0,0,0,0,0,0,0,0,0,0,0],"split_type":[0,0,0,0,0,0,0,0,0,0,0,0,0,0,0,0,0,0,0,0,0,0,0,0,0,0,0,0,0],"sum_hessian":[2.0411119E2,7.043207E1,1.3367912E2,5.8107273E1,1.2324796E1,1.09998764E2,2.368036E1,9.1285305E0,4.8978745E1,7.38414E0,4.940655E0,4.355662E1,6.644214E1,9.506678E0,1.4173683E1,2.8905373E0,6.2379932E0,4.6678577E1,2.3001635E0,2.922506E0,2.0181491E0,2.0148046E1,2.3408577E1,6.364939E1,2.7927449E0,6.9941874E0,2.5124903E0,5.5837846E0,8.589899E0],"tree_param":{"num_deleted":"0","num_feature":"45","num_nodes":"29","size_leaf_vector":"1"}},{"base_weights":[-2.1705825E-2,-4.0554115E-1,3.3095127E-1,-5.128917E-1,5.333266E-2,3.798378E-1,-2.9307012E-2,2.0718892E-1,-3.112833E-2,-2.8711697E-1,3.817271E-2,9.8031245E-2,5.2155954E-1,-2.6398396E-2,3.5084E-2,2.7478812E-2,-2.9533196E-2,2.5066972E-2,-3.4695882E-2,1.580124E-3,3.4645688E-2],"categories":[],"categories_nodes":[],"categories_segments":[],"categories_sizes":[],"default_left":[0,0,0,0,0,0,0,0,0,0,0,0,0,0,0,0,0,0,0,0,0],"id":46,"left_children":[1,3,5,7,9,11,-1,13,-1,15,-1,17,19,-1,-1,-1,-1,-1,-1,-1,-1],"loss_changes":[2.756309E1,4.829096E0,4.981991E0,6.3751335E0,4.906082E0,3.9982233E0,0E0,4.4435325E0,0E0,3.8372908E0,0E0,1.1577645E1,5.6226177E0,0E0,0E0,0E0,0E0,0E0,0E0,0E0,0E0],"parents":[2147483647,0,0,1,1,2,2,3,3,4,4,5,5,7,7,9,9,11,11,12,12],"right_children":[2,4,6,8,10,12,-1,14,-1,16,-1,18,20,-1,-1,-1,-1,-1,-1,-1,-1],"split_conditions":[1.2354E4,1E0,1E0,-1.1E1,3E0,1E0,-2.9307012E-2,-1.4E1,-3.112833E-2,1.6049894E3,3.817271E-2,3E0,4.4546E4,-2.6398396E-2,3.5084E-2,2.7478812E-2,-2.9533196E-2,2.5066972E-2,-3.4695882E-2,1.580124E-3,3.4645688E-2],"split_indices":[0,27,35,4,2,17,0,4,0,3,0,2,0,0,0,0,0,0,0,0,0],"split_type":[0,0,0,0,0,0,0,0,0,0,0,0,0,0,0,0,0,0,0,0,0],"sum_hessian":[2.0163312E2,9.6476845E1,1.0515627E2,7.8090385E1,1.8386456E1,1.0039066E2,4.7656097E0,1.020426E1,6.788613E1,1.2830756E1,5.5557E0,3.415897E1,6.623169E1,4.0763197E0,6.1279397E0,3.1999466E0,9.63081E0,2.2876057E1,1.1282913E1,1.746838E1,4.8763313E1],"tree_param":{"num_deleted":"0","num_feature":"45","num_nodes":"21","size_leaf_vector":"1"}},{"base_weights":[3.0400606E-3,-3.415844E-1,7.196401E-2,-5.1197964E-1,2.6444885E-1,4.77476E-1,-4.7751297E-3,-3.145076E-2,-1.2809978E-1,5.9048265E-1,-2.2610469E-2,5.7321525E-1,-2.3017867E-2,-3.112245E-2,3.578726E-2,-2.6071792E-2,2.1802329E-2,1.623675E-2,3.822111E-2,1.6353374E-2,4.444266E-2,3.8136177E-2,-1.6504409E-3],"categories":[],"categories_nodes":[],"categories_segments":[],"categories_sizes":[],"default_left":[0,0,0,0,0,0,0,0,0,0,0,0,0,0,0,0,0,0,0,0,0,0,0],"id":47,"left_children":[1,3,5,7,9,11,13,-1,15,17,-1,19,-1,-1,21,-1,-1,-1,-1,-1,-1,-1,-1],"loss_changes":[5.091569E0,3.824758E0,5.559879E0,1.1875944E0,2.2531073E0,2.8164515E0,3.8096101E0,0E0,1.9694525E0,4.1864157E-2,0E0,1.748045E0,0E0,0E0,7.166421E0,0E0,0E0,0E0,0E0,0E0,0E0,0E0,0E0],"parents":[2147483647,0,0,1,1,2,2,3,3,4,4,5,5,6,6,8,8,9,9,11,11,14,14],"right_children":[2,4,6,8,10,12,14,-1,16,18,-1,20,-1,-1,22,-1,-1,-1,-1,-1,-1,-1,-1],"split_conditions":[2.169E3,1E0,1.6E1,1E0,6.88E2,1E0,3.6E1,-3.145076E-2,3.8E1,7E0,-2.2610469E-2,9.699E3,-2.3017867E-2,-3.112245E-2,4.9E1,-2.6071792E-2,2.1802329E-2,1.623675E-2,3.822111E-2,1.6353374E-2,4.444266E-2,3.8136177E-2,-1.6504409E-3],"split_indices":[0,27,1,28,0,38,1,0,1,1,0,0,0,0,1,0,0,0,0,0,0,0,0],"split_type":[0,0,0,0,0,0,0,0,0,0,0,0,0,0,0,0,0,0,0,0,0,0,0],"sum_hessian":[2.1232098E2,3.4727108E1,1.7759387E2,2.7227022E1,7.5000844E0,2.7428995E1,1.5016487E2,2.0376238E1,6.850785E0,5.275933E0,2.2241516E0,2.5241037E1,2.1879585E0,8.369578E0,1.417953E2,4.081073E0,2.769712E0,3.2213082E0,2.0546246E0,1.5325655E1,9.915382E0,1.1387036E1,1.3040826E2],"tree_param":{"num_deleted":"0","num_feature":"45","num_nodes":"23","size_leaf_vector":"1"}},{"base_weights":[1.1649062E-2,4.4558048E-1,-2.2066666E-1,5.9170556E-1,-1.5282057E-1,-2.9417184E-1,1.1129654E-1,1.7055942E-2,6.9905066E-1,-2.3845378E-2,3.8078973E-1,1.8670607E-2,-3.7334624E-1,5.599326E-1,-2.0170195E-1,3.4410752E-2,-1.7361935E-2,3.744025E-2,-1.01529425E-2,3.7281904E-2,-1.2187997E-2,1.963806E-2,-2.0104466E-2,-1.300254E-2,-2.3441248E-2,4.261911E-2,-1.3593502E-2,-2.244185E-2,6.9378936E-3],"categories":[],"categories_nodes":[],"categories_segments":[],"categories_sizes":[],"default_left":[0,0,0,0,0,0,0,0,0,0,0,0,0,0,0,0,0,0,0,0,0,0,0,0,0,0,0,0,0],"id":48,"left_children":[1,3,5,7,9,11,13,15,17,-1,19,21,23,25,27,-1,-1,-1,-1,-1,-1,-1,-1,-1,-1,-1,-1,-1,-1],"loss_changes":[2.0576855E1,6.313217E0,3.2775006E0,3.5290432E0,2.7344956E0,2.7103786E0,3.5999215E0,2.6986918E0,2.3218746E0,0E0,1.5794821E0,3.7775335E0,8.2079315E-1,2.7786086E0,1.3548615E0,0E0,0E0,0E0,0E0,0E0,0E0,0E0,0E0,0E0,0E0,0E0,0E0,0E0,0E0],"parents":[2147483647,0,0,1,1,2,2,3,3,4,4,5,5,6,6,7,7,8,8,10,10,11,11,12,12,13,13,14,14],"right_children":[2,4,6,8,10,12,14,16,18,-1,20,22,24,26,28,-1,-1,-1,-1,-1,-1,-1,-1,-1,-1,-1,-1,-1,-1],"split_conditions":[4.255E3,2E0,1E0,1.8406821E3,4.9E1,1E0,1E0,1E0,1.67E2,-2.3845378E-2,4.2064736E3,1E0,1E0,1E0,3.5377769E3,3.4410752E-2,-1.7361935E-2,3.744025E-2,-1.01529425E-2,3.7281904E-2,-1.2187997E-2,1.963806E-2,-2.0104466E-2,-1.300254E-2,-2.3441248E-2,4.261911E-2,-1.3593502E-2,-2.244185E-2,6.9378936E-3],"split_indices":[0,2,15,3,1,2,6,5,1,0,3,24,17,24,3,0,0,0,0,0,0,0,0,0,0,0,0,0,0],"split_type":[0,0,0,0,0,0,0,0,0,0,0,0,0,0,0,0,0,0,0,0,0,0,0,0,0,0,0,0,0],"sum_hessian":[2.0214171E2,7.01653E1,1.3197641E2,5.640324E1,1.3762061E1,1.0814432E2,2.383209E1,9.060207E0,4.7343033E1,8.628079E0,5.133981E0,2.1995903E1,8.6148415E1,9.469732E0,1.4362359E1,2.8747442E0,6.185463E0,4.502945E1,2.3135834E0,3.1183991E0,2.0155823E0,1.1678916E1,1.0316986E1,4.1101204E1,4.5047207E1,6.988083E0,2.4816487E0,8.137289E0,6.2250705E0],"tree_param":{"num_deleted":"0","num_feature":"45","num_nodes":"29","size_leaf_vector":"1"}},{"base_weights":[2.7491078E-3,-3.1575683E-1,2.9337135E-1,-4.1107392E-1,2.0852432E-1,2.0284423E-1,4.2001873E-2,-4.991587E-1,4.3965373E-2,-2.6992628E-2,5.934879E-1,-7.077653E-2,5.0283897E-1,-3.0608866E-2,-6.395701E-3,3.5531316E-2,-2.8794397E-2,3.6763784E-2,1.4010757E-2,-1.4327769E-2,4.2476233E-2,-3.1064942E-2,3.3386398E-2],"categories":[],"categories_nodes":[],"categories_segments":[],"categories_sizes":[],"default_left":[0,0,0,0,0,0,0,0,0,0,0,0,0,0,0,0,0,0,0,0,0,0,0],"id":49,"left_children":[1,3,5,7,9,11,-1,13,15,-1,17,19,21,-1,-1,-1,-1,-1,-1,-1,-1,-1,-1],"loss_changes":[1.9148275E1,5.0181E0,5.182308E0,3.3829737E0,4.8859725E0,7.760843E0,0E0,2.8727837E0,6.408788E0,0E0,2.7993464E-1,1.0191725E1,8.758994E0,0E0,0E0,0E0,0E0,0E0,0E0,0E0,0E0,0E0,0E0],"parents":[2147483647,0,0,1,1,2,2,3,3,4,4,5,5,7,7,8,8,10,10,11,11,12,12],"right_children":[2,4,6,8,10,12,-1,14,16,-1,18,20,22,-1,-1,-1,-1,-1,-1,-1,-1,-1,-1],"split_conditions":[1.2354E4,2.25E2,1E0,3E0,1E0,5.0436E4,4.2001873E-2,3E0,2.6552817E3,-2.6992628E-2,-1.1E1,1E0,1E0,-3.0608866E-2,-6.395701E-3,3.5531316E-2,-2.8794397E-2,3.6763784E-2,1.4010757E-2,-1.4327769E-2,4.2476233E-2,-3.1064942E-2,3.3386398E-2],"split_indices":[0,1,24,4,6,0,0,2,3,0,4,28,17,0,0,0,0,0,0,0,0,0,0],"split_type":[0,0,0,0,0,0,0,0,0,0,0,0,0,0,0,0,0,0,0,0,0,0,0],"sum_hessian":[2.0486247E2,9.770104E1,1.0716144E2,8.285373E1,1.4847315E1,9.31131E1,1.4048337E1,6.933514E1,1.3518593E1,4.906545E0,9.940769E0,4.9096752E1,4.4016346E1,5.2656002E1,1.6679132E1,6.4428134E0,7.075779E0,5.916069E0,4.0247E0,4.0329506E1,8.767247E0,5.276384E0,3.8739964E1],"tree_param":{"num_deleted":"0","num_feature":"45","num_nodes":"23","size_leaf_vector":"1"}},{"base_weights":[-2.7408083E-3,-2.6023927E-1,9.980628E-2,-3.322421E-1,2.5680711E-2,2.1662532E-1,-3.1669876E-1,-4.7741556E-1,1.0091959E-1,3.0193758E-1,-3.0053824E-2,3.772194E-2,-4.079431E-1,-2.7690822E-2,3.357163E-2,3.200045E-2,-1.1740244E-2,2.0287717E-2,-2.2996966E-2,-2.5165683E-2,2.2162717E-2],"categories":[],"categories_nodes":[],"categories_segments":[],"categories_sizes":[],"default_left":[0,0,0,0,0,0,0,0,0,0,0,0,0,0,0,0,0,0,0,0,0],"id":50,"left_children":[1,3,5,7,-1,9,11,13,15,17,-1,-1,19,-1,-1,-1,-1,-1,-1,-1,-1],"loss_changes":[5.6425242E0,3.5616503E0,7.5053244E0,3.5875869E0,0E0,8.549807E0,3.6195245E0,4.0873613E0,2.8567617E0,8.831076E0,0E0,0E0,2.8106127E0,0E0,0E0,0E0,0E0,0E0,0E0,0E0,0E0],"parents":[2147483647,0,0,1,1,2,2,3,3,5,5,6,6,7,7,8,8,9,9,12,12],"right_children":[2,4,6,8,-1,10,12,14,16,18,-1,-1,20,-1,-1,-1,-1,-1,-1,-1,-1],"split_conditions":[1E0,1E0,5.0436E4,1E0,2.5680711E-2,1E0,-8.8E1,8E0,6.88E2,1E0,-3.0053824E-2,3.772194E-2,1E0,-2.7690822E-2,3.357163E-2,3.200045E-2,-1.1740244E-2,2.0287717E-2,-2.2996966E-2,-2.5165683E-2,2.2162717E-2],"split_indices":[2,35,0,27,0,27,4,4,0,15,0,0,15,0,0,0,0,0,0,0,0],"split_type":[0,0,0,0,0,0,0,0,0,0,0,0,0,0,0,0,0,0,0,0,0],"sum_hessian":[2.1170206E2,5.985836E1,1.5184369E2,5.5285057E1,4.5733066E0,1.1895871E2,3.2884983E1,4.1330902E1,1.3954152E1,1.0829124E2,1.0667466E1,2.0108488E0,3.0874136E1,3.923934E1,2.0915627E0,5.007312E0,8.94684E0,9.571598E1,1.2575259E1,2.8130962E1,2.7431734E0],"tree_param":{"num_deleted":"0","num_feature":"45","num_nodes":"21","size_leaf_vector":"1"}},{"base_weights":[-4.496292E-4,4.371498E-1,-2.3196073E-1,5.766889E-1,-1.3024035E-1,-3.026825E-1,9.516863E-2,2.712061E-3,6.8094593E-1,-4.343814E-1,3.729385E-1,-2.8723162E-2,-3.747934E-1,5.5768484E-1,-2.3887013E-1,3.574231E-2,-1.6665518E-2,3.6477223E-2,-1.0055835E-2,-9.534249E-3,-2.4262812E-2,3.646524E-2,-1.1959477E-2,1.2712299E-2,-1.842372E-2,-1.3811365E-2,-2.3082407E-2,4.1835424E-2,-1.3220288E-2,9.036548E-3,-2.0354437E-2],"categories":[],"categories_nodes":[],"categories_segments":[],"categories_sizes":[],"default_left":[0,0,0,0,0,0,0,0,0,0,0,0,0,0,0,0,0,0,0,0,0,0,0,0,0,0,0,0,0,0,0],"id":51,"left_children":[1,3,5,7,9,11,13,15,17,19,21,23,25,27,29,-1,-1,-1,-1,-1,-1,-1,-1,-1,-1,-1,-1,-1,-1,-1,-1],"loss_changes":[2.0763369E1,5.6895027E0,3.1297698E0,3.4150715E0,2.4289546E0,2.171218E0,3.9318788E0,2.5788608E0,2.2179947E0,2.7661681E-2,1.5091603E0,2.4103935E0,6.2029743E-1,2.655115E0,1.1306863E0,0E0,0E0,0E0,0E0,0E0,0E0,0E0,0E0,0E0,0E0,0E0,0E0,0E0,0E0,0E0,0E0],"parents":[2147483647,0,0,1,1,2,2,3,3,4,4,5,5,6,6,7,7,8,8,9,9,10,10,11,11,12,12,13,13,14,14],"right_children":[2,4,6,8,10,12,14,16,18,20,22,24,26,28,30,-1,-1,-1,-1,-1,-1,-1,-1,-1,-1,-1,-1,-1,-1,-1,-1],"split_conditions":[4.255E3,2E0,1E0,1.8406821E3,4.9E1,1E0,1E0,1.5970555E3,1.67E2,2.169E3,4.2064736E3,1E0,1E0,1E0,1.27E2,3.574231E-2,-1.6665518E-2,3.6477223E-2,-1.0055835E-2,-9.534249E-3,-2.4262812E-2,3.646524E-2,-1.1959477E-2,1.2712299E-2,-1.842372E-2,-1.3811365E-2,-2.3082407E-2,4.1835424E-2,-1.3220288E-2,9.036548E-3,-2.0354437E-2],"split_indices":[0,2,15,3,1,2,6,3,1,0,3,24,17,24,1,0,0,0,0,0,0,0,0,0,0,0,0,0,0,0,0],"split_type":[0,0,0,0,0,0,0,0,0,0,0,0,0,0,0,0,0,0,0,0,0,0,0,0,0,0,0,0,0,0,0],"sum_hessian":[2.029497E2,6.991292E1,1.3303679E2,5.6099823E1,1.3813098E1,1.094497E2,2.3587091E1,8.781294E0,4.7318527E1,8.694517E0,5.1185813E0,2.3097483E1,8.635222E1,9.610581E0,1.3976509E1,2.4537249E0,6.327569E0,4.5011467E1,2.3070626E0,2.3216522E0,6.372865E0,3.1141644E0,2.004417E0,1.2739109E1,1.0358373E1,4.2407215E1,4.3945004E1,7.161973E0,2.4486084E0,3.9784248E0,9.998084E0],"tree_param":{"num_deleted":"0","num_feature":"45","num_nodes":"31","size_leaf_vector":"1"}},{"base_weights":[1.2119793E-2,-3.112284E-1,3.1489143E-1,-4.386288E-1,1.5895207E-1,4.05372E-1,-5.6073617E-2,2.2061104E-1,-5.390292E-1,-2.724432E-2,5.0423557E-1,-2.9288057E-2,4.543543E-1,-3.4359786E-1,4.5090467E-1,-2.5933376E-2,3.5842612E-2,-3.0443087E-2,-1.3364995E-3,3.428723E-2,-2.232534E-2,2.4719855E-2,-2.7642807E-2,-3.130905E-2,2.9202867E-2,3.618024E-2,